<?xml version="1.0" encoding="UTF-8"?>
<!-- This file was created by ACADEMIC version of SMILE -->
<smile version="1.0" id="unknown" numsamples="10000" discsamples="10000">
	<nodes>
		<cpt id="Sex">
			<state id="M" />
			<state id="W" />
			<probabilities>0.695118 0.304882</probabilities>
		</cpt>
		<cpt id="Age">
			<state id="age_2_young" />
			<state id="age_3_young_adult" />
			<state id="age_4_adult" />
			<state id="age_5_old_adult" />
			<probabilities>0.19078 0.380053 0.298359 0.130808</probabilities>
		</cpt>
		<cpt id="SD">
			<state id="SD_1_short" />
			<state id="SD_2_normal" />
			<state id="SD_3_excessive" />
			<parents>Age Sex</parents>
			<probabilities>0.060844313 0.937824307 0.00133138 0.078497363 0.919507767 0.00199487 0.091220196 0.90787856 0.000901244 0.11412849 0.885107393 0.000764117 0.121549326 0.877796408 0.000654266 0.159430754 0.839586651 0.000982595 0.149294451 0.8500227970000001 0.000682752 0.225208895 0.774069936 0.000721169</probabilities>
		</cpt>
		<cpt id="SES">
			<state id="ses_0" />
			<state id="ses_1" />
			<state id="ses_2" />
			<parents>Age Sex</parents>
			<probabilities>0.265038 0.608924 0.126038 0.227351 0.606203 0.166446 0.2481707518292481 0.6176143823856175 0.1342148657851343 0.194898 0.6426539999999999 0.162448 0.252783 0.615168 0.132049 0.188273 0.641218 0.170509 0.2429122429122429 0.6313856313856314 0.1257021257021257 0.162707 0.664855 0.172438</probabilities>
		</cpt>
		<cpt id="Depression">
			<state id="False" />
			<state id="True" />
			<parents>Age SES Sex</parents>
			<probabilities>0.997863655 0.002136345 0.994321309 0.005678691 0.99885487 0.00114513 0.997887385 0.002112615 0.998969781 0.001030219 0.998266781 0.001733219 0.996706037 0.003293963 0.988462896 0.011537104 0.997612648 0.002387352 0.994959954 0.005040046 0.997874826 0.002125174 0.99539649 0.00460351 0.9932493100000001 0.00675069 0.9801555749999999 0.019844425 0.996694208 0.003305792 0.992654556 0.007345444 0.997027521 0.002972479 0.993538526 0.006461474 0.993046405 0.006953595 0.965170613 0.034829387 0.994559063 0.005440937 0.98925555 0.01074445 0.9972002679999999 0.002799732 0.993063387 0.006936613</probabilities>
		</cpt>
		<cpt id="PA">
			<state id="PA_1" />
			<state id="PA_2" />
			<parents>Age SD SES Sex</parents>
			<probabilities>0.482960174 0.517039826 0.620871248 0.379128752 0.471864678 0.528135322 0.554851444 0.445148556 0.424304227 0.575695773 0.490459825 0.509540175 0.394941489 0.605058511 0.514621382 0.485378618 0.389521957 0.610478043 0.461170736 0.538829264 0.336538844 0.663461156 0.362231129 0.637768871 0.524754729 0.475245271 0.542883361 0.457116639 0.42757625 0.57242375 0.5888450200000001 0.41115498 0.489527729 0.510472271 0.514850294 0.485149706 0.540085956 0.459914044 0.59533725 0.40466275 0.517562867 0.482437133 0.5801786209999999 0.419821379 0.471672205 0.528327795 0.541112446 0.458887554 0.468980888 0.531019112 0.525066668 0.474933332 0.467361722 0.532638278 0.496116563 0.503883437 0.393204847 0.606795153 0.427089822 0.572910178 0.486764295 0.513235705 0.50487751 0.49512249 0.550936659 0.449063341 0.58643991 0.41356009 0.512318406 0.487681594 0.533888241 0.466111759 0.56087748 0.43912252 0.538736484 0.461263516 0.518199623 0.481800377 0.512441111 0.487558889 0.448944356 0.551055644 0.447486087 0.552513913 0.484326733 0.515673267 0.479155827 0.520844173 0.484082075 0.515917925 0.452198731 0.547801269 0.39545848 0.6045415200000001 0.37222709 0.62777291 0.531613695 0.468386305 0.488367237 0.511632763 0.581409954 0.418590046 0.490921527 0.509078473 0.48954251 0.51045749 0.464206372 0.535793628 0.537268254 0.462731746 0.579118873 0.420881127 0.514437807 0.485562193 0.5156834259999999 0.484316574 0.464639523 0.535360477 0.473053893 0.526946107 0.483202866 0.516797134 0.500088604 0.499911396 0.473048548 0.526951452 0.436542761 0.563457239 0.393267294 0.606732706 0.378980607 0.621019393 0.492440477 0.507559523 0.533342164 0.466657836 0.6309098869999999 0.369090113 0.492169558 0.507830442 0.488970119 0.511029881 0.503256046 0.496743954</probabilities>
		</cpt>
		<cpt id="Smoking">
			<state id="sm_1_not_smoker" />
			<state id="sm_2_smoker" />
			<state id="sm_3_ex_smoker" />
			<parents>Age PA Sex</parents>
			<probabilities>0.446330401 0.440945892 0.112723707 0.529641379 0.337748088 0.132610534 0.557463069 0.325515129 0.117021802 0.5886502850000001 0.271293166 0.140056549 0.471714462 0.360802735 0.167482803 0.554434337 0.28323897 0.162326693 0.551256389 0.255864566 0.192879044 0.579066261 0.225941944 0.194991794 0.398959148 0.359016238 0.242024614 0.496183584 0.327477342 0.176339073 0.483745206 0.24334485 0.272909944 0.542385494 0.242025861 0.215588646 0.37681277 0.303406481 0.319780749 0.543890929 0.26998268 0.18612639 0.4486828 0.20376842 0.347548781 0.5693515179999999 0.188244006 0.242404476</probabilities>
		</cpt>
		<cpt id="Anxiety">
			<state id="False" />
			<state id="True" />
			<parents>Depression SD Sex Smoking</parents>
			<probabilities>0.971336721 0.028663279 0.9615512980000001 0.038448702 0.968828833 0.031171167 0.943572812 0.056427188 0.924390764 0.075609236 0.925219217 0.074780783 0.984691033 0.015308967 0.980021819 0.019978181 0.979219465 0.020780535 0.969387083 0.030612917 0.951017224 0.048982776 0.957426591 0.042573409 0.979844732 0.020155268 0.970985053 0.029014947 0.987399873 0.012600127 0.984583757 0.015416243 0.953909558 0.046090442 0.9500612859999999 0.049938714 0.87238812 0.12761188 0.88629607 0.11370393 0.926218112 0.073781888 0.910199251 0.089800749 0.850381421 0.149618579 0.912162308 0.08783769199999999 0.887635786 0.112364214 0.916113641 0.08388635899999999 0.875464154 0.124535846 0.900114221 0.09988577899999999 0.887995922 0.112004078 0.858307872 0.141692128 0.915760002 0.084239998 0.972142923 0.027857077 0.972142923 0.027857077 0.973071964 0.026928036 0.971281878 0.028718122 0.971245613 0.028754387</probabilities>
		</cpt>
		<cpt id="Alcohol">
			<state id="high" />
			<state id="low" />
			<parents>Age Sex Smoking</parents>
			<probabilities>0.006440306 0.993559694 0.025006952 0.974993048 0.019256092 0.980743908 0.001413651 0.998586349 0.004426413 0.995573587 0.002911964 0.997088036 0.019231995 0.9807680050000001 0.061380648 0.938619352 0.044717488 0.955282512 0.00302048 0.99697952 0.008328991000000001 0.991671009 0.00690617 0.99309383 0.052038441 0.947961559 0.134326352 0.865673648 0.09703972900000001 0.902960271 0.009248324 0.990751676 0.020016907 0.979983093 0.021599909 0.978400091 0.103943403 0.896056597 0.21175689 0.78824311 0.1629616 0.8370384 0.019931973 0.980068027 0.039153935 0.960846065 0.030181896 0.969818104</probabilities>
		</cpt>
		<cpt id="BMI">
			<state id="bmi_1_underweight" />
			<state id="bmi_2_normal" />
			<state id="bmi_3_overweight" />
			<state id="bmi_4_obese" />
			<parents>Age PA Sex Smoking</parents>
			<probabilities>0.006932337 0.405827629 0.419231818 0.168008215 0.013099617 0.446791412 0.391008827 0.149100144 0.005357608 0.335709669 0.45172678 0.207205942 0.049956089 0.654860039 0.204120659 0.091063214 0.067968655 0.6401471 0.192224039 0.099660206 0.040770745 0.633626296 0.215411425 0.110191534 0.002990791 0.535477987 0.377235618 0.084295604 0.008436353000000001 0.531863616 0.369361733 0.090338298 0.001517427 0.464137135 0.43166399 0.102681447 0.058817872 0.7117822069999999 0.164448222 0.064951698 0.054191728 0.70086799 0.170365884 0.074574398 0.036164178 0.702517794 0.185604945 0.075713083 0.001641685 0.304311832 0.481547262 0.212499221 0.005710138 0.344742465 0.449492701 0.200054696 0.001256896 0.22830507 0.494927316 0.275510718 0.030358861 0.60786677 0.239963269 0.1218111 0.039411622 0.59800915 0.249830043 0.112749185 0.022061478 0.571115555 0.274545154 0.132277812 0.001652834 0.426926902 0.44926847 0.122151794 0.004118361 0.402353375 0.461015239 0.132513025 0.000486406 0.328585612 0.499500428 0.171427554 0.034010075 0.676452006 0.203350167 0.08618775200000001 0.036077128 0.67214929 0.206867442 0.08490614 0.020230869 0.647274652 0.239095822 0.093398657 0.001241755 0.220345696 0.510119266 0.268293283 0.004605307 0.285101739 0.465571839 0.244721115 0.000543301 0.147949379 0.495925175 0.355582145 0.012451221 0.493821986 0.319496163 0.17423063 0.023428805 0.532743674 0.312302796 0.131524726 0.007733406 0.456598716 0.350007018 0.18566086 0.000822645 0.321627775 0.512940933 0.164608647 0.002545302 0.316431751 0.493400531 0.187622417 0.000440481 0.205498496 0.548690936 0.245370087 0.017710449 0.596761693 0.282985983 0.102541876 0.020386634 0.6101968639999999 0.274267264 0.095149238 0.010340505 0.57178982 0.310156253 0.107713421 0.0008818539999999999 0.17016489 0.519801186 0.309152069 0.007458112 0.275716949 0.459284453 0.257540485 0.000603617 0.119128558 0.482802397 0.397465428 0.006456409 0.365499465 0.385650355 0.242393771 0.020055464 0.467361196 0.36587761 0.14670573 0.003204784 0.363890078 0.402922768 0.229982369 0.0006687419999999999 0.249137387 0.546656377 0.203537495 0.005186149 0.29683172 0.499814007 0.198168124 0.000319515 0.163586929 0.551184751 0.284908806 0.01123616 0.477033685 0.371178884 0.140551272 0.014591224 0.5470441660000001 0.335189882 0.103174728 0.008640798999999999 0.474752803 0.375526209 0.141080189</probabilities>
		</cpt>
		<cpt id="Hyperchol_">
			<state id="False" />
			<state id="True" />
			<parents>Age Alcohol BMI PA Sex Smoking</parents>
			<probabilities>0.466145186 0.533854814 0.498714283 0.501285717 0.448949082 0.5510509179999999 0.448949082 0.5510509179999999 0.436380985 0.563619015 0.465471033 0.534528967 0.465471033 0.534528967 0.450401296 0.549598704 0.465471033 0.534528967 0.466145186 0.533854814 0.44942442 0.55057558 0.449296467 0.550703533 0.524512014 0.475487986 0.656359165 0.343640835 0.476129293 0.523870707 0.487493212 0.512506788 0.431150689 0.568849311 0.429230214 0.5707697859999999 0.542360475 0.457639525 0.583678742 0.416321258 0.529807363 0.470192637 0.536611961 0.463388039 0.537376217 0.462623783 0.485252543 0.514747457 0.467411585 0.532588415 0.470948698 0.5290513019999999 0.490112596 0.509887404 0.449013666 0.550986334 0.485440808 0.514559192 0.465471033 0.534528967 0.465224428 0.534775572 0.532650249 0.467349751 0.475227164 0.524772836 0.482320107 0.5176798929999999 0.522541941 0.477458059 0.448666281 0.5513337190000001 0.447915944 0.552084056 0.486344067 0.513655933 0.437771357 0.562228643 0.448318278 0.551681722 0.449360971 0.5506390289999999 0.448601257 0.551398743 0.425710251 0.574289749 0.423702477 0.576297523 0.409233794 0.590766206 0.465177412 0.534822588 0.448949082 0.5510509179999999 0.435233002 0.564766998 0.643548714 0.356451286 0.736291679 0.263708321 0.495230901 0.504769099 0.743362269 0.256637731 0.77084625 0.22915375 0.721697283 0.278302717 0.723345616 0.276654384 0.709917181 0.290082819 0.534927434 0.465072566 0.712944994 0.287055006 0.722246668 0.277753332 0.603084536 0.396915464 0.748597117 0.251402883 0.765892152 0.234107848 0.686176261 0.313823739 0.790214305 0.209785695 0.802753242 0.197246758 0.7598304259999999 0.240169574 0.795649456 0.204350544 0.796386595 0.203613405 0.742621984 0.257378016 0.780033381 0.219966619 0.787289477 0.212710523 0.751590946 0.248409054 0.63798352 0.36201648 0.61888669 0.38111331 0.58603984 0.41396016 0.704826305 0.295173695 0.700674756 0.299325244 0.668683292 0.331316708 0.701416087 0.298583913 0.665528514 0.334471486 0.643780393 0.356219607 0.703453486 0.296546514 0.702071306 0.297928694 0.655293546 0.344706454 0.553849142 0.446150858 0.5346477509999999 0.465352249 0.5177457009999999 0.482254299 0.681940374 0.318059626 0.67723163 0.32276837 0.65305908 0.34694092 0.595807106 0.404192894 0.5412975880000001 0.458702412 0.534255878 0.465744122 0.63795317 0.36204683 0.6188731 0.3811269 0.555621093 0.444378907 0.434876521 0.565123479 0.498616693 0.501383307 0.435233002 0.564766998 0.448949082 0.5510509179999999 0.456819886 0.543180114 0.449296686 0.5507033140000001 0.465808216 0.534191784 0.482519389 0.517480611 0.448949082 0.5510509179999999 0.48166638 0.5183336200000001 0.465937725 0.534062275 0.439570813 0.560429187 0.454525291 0.5454747089999999 0.438865516 0.561134484 0.377095308 0.622904692 0.512489047 0.487510953 0.496578212 0.503421788 0.442390213 0.557609787 0.433861485 0.566138515 0.434553637 0.565446363 0.416478109 0.583521891 0.515501774 0.484498226 0.496583148 0.503416852 0.531147626 0.468852374 0.366031715 0.633968285 0.317932366 0.682067634 0.318047629 0.6819523709999999 0.512211409 0.487788591 0.487506342 0.512493658 0.437561297 0.562438703 0.354939693 0.6450603070000001 0.347170226 0.652829774 0.361571798 0.6384282019999999 0.409223529 0.590776471 0.371908287 0.628091713 0.416264881 0.583735119 0.292855081 0.707144919 0.30864661 0.69135339 0.284297876 0.715702124 0.469205784 0.530794216 0.441679768 0.558320232 0.434602199 0.565397801 0.261164078 0.738835922 0.278248543 0.721751457 0.31661404 0.68338596 0.421995183 0.5780048169999999 0.448164938 0.551835062 0.434958629 0.565041371 0.635238544 0.364761456 0.599297108 0.400702892 0.447221307 0.552778693 0.648568457 0.351431543 0.648015347 0.351984653 0.552661538 0.447338462 0.573275644 0.426724356 0.549471852 0.450528148 0.483167524 0.516832476 0.659064249 0.340935751 0.622653419 0.377346581 0.5570795160000001 0.442920484 0.60458073 0.39541927 0.578169169 0.421830831 0.5274716149999999 0.472528385 0.740296881 0.259703119 0.720583835 0.279416165 0.702353351 0.297646649 0.649203534 0.350796466 0.600270156 0.399729844 0.588626279 0.411373721 0.734614816 0.265385184 0.7156833460000001 0.284316654 0.696509537 0.303490463 0.51241969 0.48758031 0.45427519 0.5457248099999999 0.454171836 0.545828164 0.64450909 0.35549091 0.615591668 0.384408332 0.614144347 0.385855653 0.544570483 0.455429517 0.485984242 0.514015758 0.492218948 0.507781052 0.633296651 0.366703349 0.6017463790000001 0.398253621 0.601701038 0.398298962 0.439863791 0.5601362090000001 0.397872006 0.6021279940000001 0.400644497 0.599355503 0.607723983 0.392276017 0.548483658 0.451516342 0.550029756 0.449970244 0.462234098 0.537765902 0.389736595 0.610263405 0.4078816 0.5921184 0.6000506799999999 0.39994932 0.527168353 0.472831647 0.570429178 0.429570822 0.448601257 0.551398743 0.42552229 0.57447771 0.434684256 0.565315744 0.464883977 0.5351160230000001 0.422164328 0.577835672 0.435315059 0.564684941 0.448601257 0.551398743 0.426719674 0.573280326 0.448949082 0.5510509179999999 0.434298455 0.565701545 0.444297582 0.555702418 0.4481002 0.5518998000000001 0.340436412 0.659563588 0.334737936 0.665262064 0.286679206 0.713320794 0.408594063 0.591405937 0.327595453 0.672404547 0.432553918 0.567446082 0.305175287 0.694824713 0.33055336 0.66944664 0.230811999 0.769188001 0.314459932 0.685540068 0.34235908 0.65764092 0.387908383 0.612091617 0.279728149 0.720271851 0.245380007 0.754619993 0.228378163 0.771621837 0.404883012 0.595116988 0.378475974 0.621524026 0.393080074 0.606919926 0.257984365 0.742015635 0.240341631 0.7596583690000001 0.227273047 0.772726953 0.368526926 0.631473074 0.346542279 0.653457721 0.405535715 0.594464285 0.234474859 0.765525141 0.23569893 0.76430107 0.238747347 0.761252653 0.357171852 0.642828148 0.384541844 0.615458156 0.407061796 0.592938204 0.264679813 0.735320187 0.234549805 0.765450195 0.226783972 0.773216028 0.435682188 0.564317812 0.425933353 0.574066647 0.429431096 0.570568904 0.457594463 0.542405537 0.462484951 0.537515049 0.496004017 0.503995983 0.475692628 0.524307372 0.43971282 0.56028718 0.464708944 0.535291056 0.426951225 0.573048775 0.459887756 0.540112244 0.482411396 0.517588604 0.446450263 0.553549737 0.512096232 0.487903768 0.446091978 0.553908022 0.435798393 0.564201607 0.426198592 0.573801408 0.362622319 0.637377681 0.515705797 0.484294203 0.474254583 0.525745417 0.4643778 0.5356222 0.46995358 0.53004642 0.428070309 0.571929691 0.408110611 0.591889389 0.517335828 0.482664172 0.454599203 0.545400797 0.468985241 0.5310147589999999 0.395450402 0.604549598 0.330471156 0.669528844 0.339888416 0.660111584 0.429908664 0.5700913359999999 0.356554069 0.643445931 0.381120215 0.618879785 0.394612897 0.605387103 0.33118533 0.6688146699999999 0.364880291 0.635119709 0.431997414 0.568002586 0.358107097 0.641892903 0.365673311 0.634326689 0.361238046 0.638761954 0.312968887 0.687031113 0.326662397 0.673337603 0.418940332 0.581059668 0.325988323 0.674011677 0.345654775 0.654345225 0.347847236 0.652152764 0.308539041 0.691460959 0.327150657 0.672849343 0.402934789 0.597065211 0.350327757 0.649672243 0.377649883 0.622350117 0.434958456 0.565041544 0.487441969 0.512558031 0.435233002 0.564766998 0.434876521 0.565123479 0.421533525 0.578466475 0.448601257 0.551398743 0.448949082 0.5510509179999999 0.470000918 0.529999082 0.448601257 0.551398743 0.435945067 0.564054933 0.449013268 0.550986732 0.433507159 0.566492841 0.283496463 0.716503537 0.27821845 0.72178155 0.25083882 0.74916118 0.392256199 0.607743801 0.354833525 0.645166475 0.346328023 0.653671977 0.279305155 0.720694845 0.279620896 0.720379104 0.251591606 0.748408394 0.339633051 0.660366949 0.361600811 0.638399189 0.355479797 0.644520203 0.248091712 0.751908288 0.236093858 0.763906142 0.235580731 0.764419269 0.329848312 0.670151688 0.332635607 0.6673643929999999 0.382763037 0.617236963 0.228121218 0.771878782 0.242747145 0.7572528549999999 0.236509737 0.763490263 0.385269182 0.614730818 0.316138615 0.683861385 0.394824524 0.605175476 0.256503852 0.743496148 0.229028962 0.770971038 0.212077577 0.787922423 0.404036887 0.595963113 0.406667571 0.5933324290000001 0.437094121 0.562905879 0.275235434 0.7247645660000001 0.235943026 0.7640569740000001 0.240734211 0.759265789 0.354962678 0.645037322 0.433233874 0.566766126 0.408199389 0.591800611 0.465059414 0.5349405860000001 0.439735966 0.560264034 0.452305158 0.547694842 0.401483513 0.598516487 0.359473079 0.640526921 0.448814818 0.551185182 0.466786457 0.533213543 0.460214046 0.539785954 0.434849198 0.565150802 0.336065695 0.6639343049999999 0.450607774 0.549392226 0.406007378 0.593992622 0.362609927 0.6373900729999999 0.323061571 0.676938429 0.324883662 0.675116338 0.251449613 0.748550387 0.254089943 0.745910057 0.226841122 0.773158878 0.344464953 0.655535047 0.313706712 0.686293288 0.319675185 0.680324815 0.255230491 0.7447695090000001 0.237387281 0.762612719 0.205835343 0.7941646570000001 0.343176756 0.656823244 0.297672398 0.702327602 0.313339234 0.686660766 0.228270185 0.771729815 0.220375847 0.779624153 0.206894107 0.793105893 0.334749585 0.665250415 0.299773046 0.700226954 0.315997666 0.684002334 0.220650231 0.779349769 0.201778177 0.798221823 0.195059364 0.804940636 0.327111754 0.672888246 0.268920801 0.731079199 0.311898597 0.688101403 0.260073695 0.739926305 0.258541168 0.741458832 0.219669797 0.780330203 0.333098153 0.666901847 0.264045849 0.7359541509999999 0.295123546 0.704876454 0.250126832 0.749873168 0.227059653 0.772940347 0.229118598 0.770881402</probabilities>
		</cpt>
		<cpt id="Diabetes">
			<state id="False" />
			<state id="True" />
			<parents>Age BMI PA Sex</parents>
			<probabilities>0.986650693 0.013349307 0.99633026 0.00366974 0.9910621509999999 0.008937848999999999 0.9947869580000001 0.005213042 0.99278223 0.00721777 0.994720888 0.005279112 0.9931408309999999 0.006859169 0.995934647 0.004065353 0.992488923 0.007511077 0.991948298 0.008051702000000001 0.993003147 0.006996853 0.992059187 0.007940813 0.985940308 0.014059692 0.9868037079999999 0.013196292 0.984771657 0.015228343 0.982024107 0.017975893 0.979732617 0.020267383 0.993282865 0.006717135 0.986847565 0.013152435 0.992272736 0.007727264 0.989521163 0.010478837 0.993125589 0.006874411 0.990074837 0.009925163000000001 0.993658418 0.006341582 0.984624401 0.015375599 0.987038172 0.012961828 0.986787639 0.013212361 0.986320211 0.013679789 0.956998539 0.043001461 0.974967085 0.025032915 0.957173339 0.042826661 0.966025735 0.033974265 0.982256834 0.017743166 0.994263159 0.005736841 0.956712992 0.043287008 0.992523802 0.007476198 0.971790656 0.028209344 0.9891762589999999 0.010823741 0.9757134159999999 0.024286584 0.990874035 0.009125965 0.947443145 0.052556855 0.979281983 0.020718017 0.956670061 0.043329939 0.978156594 0.021843406 0.878437324 0.121562676 0.9382233 0.0617767 0.884979471 0.115020529 0.930775022 0.06922497800000001 0.948706405 0.051293595 0.9690942259999999 0.030905774 0.9509874230000001 0.049012577 0.981813997 0.018186003 0.922690072 0.077309928 0.976164736 0.023835264 0.925331645 0.07466835500000001 0.978779266 0.021220734 0.874766205 0.125233795 0.949096195 0.050903805 0.885999053 0.114000947 0.95319783 0.04680217 0.786184334 0.213815666 0.875426033 0.124573967 0.78447323 0.21552677 0.892336478 0.107663522</probabilities>
		</cpt>
		<cpt id="Hypertension">
			<state id="False" />
			<state id="True" />
			<parents>Age Alcohol BMI Diabetes PA Smoking</parents>
			<probabilities>0.851078798 0.148921202 0.8713456429999999 0.128654357 0.850890799 0.149109201 0.855408562 0.144591438 0.847343618 0.152656382 0.850984798 0.149015202 0.846087813 0.153912187 0.846087813 0.153912187 0.846087813 0.153912187 0.846087813 0.153912187 0.846087813 0.153912187 0.846087813 0.153912187 0.928558686 0.07144131400000001 0.9521785699999999 0.04782143 0.901338418 0.098661582 0.924287673 0.075712327 0.9389993599999999 0.06100064 0.936421609 0.063578391 0.846087813 0.153912187 0.8512665 0.1487335 0.846087813 0.153912187 0.851078798 0.148921202 0.863598234 0.136401766 0.850890799 0.149109201 0.880949953 0.119050047 0.888936473 0.111063527 0.915714645 0.08428535500000001 0.87432071 0.12567929 0.9161160350000001 0.083883965 0.903424733 0.09657526700000001 0.8196847819999999 0.180315218 0.825238766 0.174761234 0.846087813 0.153912187 0.846184901 0.153815099 0.820202169 0.179797831 0.82042886 0.17957114 0.883274566 0.116725434 0.823937504 0.176062496 0.843994724 0.156005276 0.796334476 0.203665524 0.839053426 0.160946574 0.807332323 0.192667677 0.8507966810000001 0.149203319 0.851360085 0.148639915 0.846184901 0.153815099 0.846184901 0.153815099 0.846087813 0.153912187 0.846087813 0.153912187 0.987478551 0.012521449 0.98424618 0.01575382 0.964624908 0.035375092 0.986270682 0.013729318 0.980416082 0.019583918 0.942307652 0.057692348 0.859754239 0.140245761 0.851547315 0.148452685 0.8507966810000001 0.149203319 0.85577288 0.14422712 0.851453848 0.148546152 0.846281867 0.153718133 0.982679882 0.017320118 0.984041917 0.015958083 0.981728095 0.018271905 0.978964727 0.021035273 0.979562911 0.020437089 0.982462154 0.017537846 0.916089975 0.083910025 0.911115051 0.088884949 0.860237448 0.139762552 0.939916876 0.060083124 0.908957549 0.091042451 0.907100329 0.092899671 0.950062757 0.049937243 0.946986503 0.053013497 0.949113397 0.050886603 0.947782364 0.052217636 0.957212362 0.042787638 0.948824111 0.051175889 0.872888284 0.127111716 0.905056645 0.09494335499999999 0.883019266 0.116980734 0.889788314 0.110211686 0.9212328950000001 0.078767105 0.896791461 0.103208539 0.855149999 0.144850001 0.877133176 0.122866824 0.872255626 0.127744374 0.8604686070000001 0.139531393 0.873386701 0.126613299 0.864063103 0.135936897 0.799408891 0.200591109 0.757397022 0.242602978 0.768188662 0.231811338 0.804658892 0.195341108 0.79499039 0.20500961 0.783037093 0.216962907 0.850890799 0.149109201 0.886575436 0.113424564 0.851078857 0.148921143 0.858946389 0.141053611 0.86793986 0.13206014 0.860195519 0.139804481 0.846087813 0.153912187 0.846184901 0.153815099 0.846087813 0.153912187 0.846087813 0.153912187 0.846184901 0.153815099 0.846087813 0.153912187 0.913456912 0.086543088 0.921064798 0.078935202 0.919793073 0.080206927 0.920166758 0.079833242 0.915990073 0.084009927 0.9122108 0.0877892 0.825679825 0.174320175 0.848833427 0.151166573 0.796110811 0.203889189 0.851266559 0.148733441 0.811094405 0.188905595 0.81211585 0.18788415 0.857937647 0.142062353 0.829221655 0.170778345 0.841611356 0.158388644 0.871607913 0.128392087 0.8604513580000001 0.139548642 0.876497096 0.123502904 0.789980888 0.210019112 0.766137506 0.233862494 0.810311765 0.189688235 0.782287878 0.217712122 0.830596613 0.169403387 0.85361981 0.14638019 0.658083547 0.341916453 0.709518351 0.290481649 0.682075862 0.317924138 0.724793693 0.275206307 0.682033243 0.317966757 0.730341979 0.269658021 0.726847864 0.273152136 0.736779461 0.263220539 0.797132747 0.202867253 0.710414219 0.289585781 0.755601119 0.244398881 0.768020248 0.231979752 0.983184701 0.016815299 0.977223262 0.022776738 0.931291303 0.068708697 0.9788814850000001 0.021118515 0.965169121 0.034830879 0.949999 0.050001 0.855417615 0.144582385 0.860371342 0.139628658 0.846087813 0.153912187 0.860107329 0.139892671 0.851453966 0.148546034 0.850984858 0.149015142 0.968609934 0.031390066 0.963934118 0.036065882 0.97612723 0.02387277 0.967239292 0.032760708 0.96734912 0.03265088 0.970436894 0.029563106 0.8899994020000001 0.110000598 0.88513209 0.11486791 0.884829534 0.115170466 0.881114545 0.118885455 0.925142696 0.074857304 0.894014971 0.105985029 0.916774614 0.083225386 0.914089887 0.085910113 0.920641254 0.07935874599999999 0.916128061 0.08387193900000001 0.9171606329999999 0.082839367 0.912653384 0.087346616 0.807944183 0.192055817 0.800119351 0.199880649 0.783711241 0.216288759 0.819155399 0.180844601 0.821311108 0.178688892 0.8143948989999999 0.185605101 0.784277331 0.215722669 0.798652516 0.201347484 0.777499537 0.222500463 0.791249425 0.208750575 0.798090473 0.201909527 0.786276848 0.213723152 0.572593284 0.427406716 0.5820724269999999 0.417927573 0.581306286 0.418693714 0.592495562 0.407504438 0.621308853 0.378691147 0.637091379 0.362908621 0.850984858 0.149015142 0.847919472 0.152080528 0.825979273 0.174020727 0.851641019 0.148358981 0.854243487 0.145756513 0.8465725200000001 0.15342748 0.846087813 0.153912187 0.846184901 0.153815099 0.8456511249999999 0.154348875 0.846087813 0.153912187 0.846087813 0.153912187 0.846087813 0.153912187 0.858700126 0.141299874 0.799024272 0.200975728 0.859255058 0.140744942 0.840882066 0.159117934 0.834266384 0.165733616 0.835845309 0.164154691 0.86211977 0.13788023 0.746888216 0.253111784 0.814616821 0.185383179 0.793175843 0.206824157 0.821522212 0.178477788 0.8491378469999999 0.150862153 0.737310974 0.262689026 0.70699622 0.29300378 0.721038064 0.278961936 0.739641425 0.260358575 0.745061341 0.254938659 0.725371954 0.274628046 0.656081303 0.343918697 0.549198047 0.450801953 0.683028685 0.316971315 0.755577676 0.244422324 0.593922934 0.406077066 0.64019053 0.35980947 0.580999047 0.419000953 0.529365149 0.470634851 0.5093942 0.4906058 0.5766160809999999 0.423383919 0.564842998 0.435157002 0.540486163 0.459513837 0.525585236 0.474414764 0.515485662 0.484514338 0.467647491 0.532352509 0.617913594 0.382086406 0.60808854 0.39191146 0.59690499 0.40309501 0.947963922 0.052036078 0.944456673 0.055543327 0.896195728 0.103804272 0.95134948 0.04865052 0.923645749 0.076354251 0.919680524 0.080319476 0.8456511249999999 0.154348875 0.847151268 0.152848732 0.845554098 0.154445902 0.85586363 0.14413637 0.8507966810000001 0.149203319 0.846184901 0.153815099 0.919395194 0.080604806 0.895978228 0.104021772 0.903087646 0.09691235400000001 0.918161581 0.081838419 0.90636812 0.09363188 0.91075499 0.08924501 0.773289643 0.226710357 0.7239886129999999 0.276011387 0.815077243 0.184922757 0.783222883 0.216777117 0.730371155 0.269628845 0.699517147 0.300482853 0.806177473 0.193822527 0.798085588 0.201914412 0.780496853 0.219503147 0.807663497 0.192336503 0.799376607 0.200623393 0.794877351 0.205122649 0.574305806 0.425694194 0.605524676 0.394475324 0.607332384 0.392667616 0.5923912 0.4076088 0.581748225 0.418251775 0.619006173 0.380993827 0.639884835 0.360115165 0.634170197 0.365829803 0.604264607 0.395735393 0.646174977 0.353825023 0.638091259 0.361908741 0.6196060370000001 0.380393963 0.38761984 0.61238016 0.430270451 0.5697295489999999 0.408289033 0.591710967 0.454414994 0.545585006 0.451208556 0.548791444 0.43899591 0.56100409 0.855408562 0.144591438 0.793480078 0.206519922 0.850890799 0.149109201 0.849913457 0.150086543 0.830080091 0.169919909 0.8512665 0.1487335 0.846087813 0.153912187 0.850890799 0.149109201 0.846087813 0.153912187 0.846087813 0.153912187 0.845554098 0.154445902 0.846087813 0.153912187 0.766670488 0.233329512 0.659596692 0.340403308 0.738496367 0.261503633 0.766234674 0.233765326 0.688391873 0.311608127 0.703463553 0.296536447 0.74907475 0.25092525 0.736911882 0.263088118 0.78776579 0.21223421 0.773926822 0.226073178 0.749704433 0.250295567 0.789888849 0.210111151 0.607569532 0.392430468 0.590640176 0.409359824 0.547465656 0.452534344 0.619290696 0.380709304 0.60484724 0.39515276 0.570737572 0.429262428 0.64183147 0.35816853 0.574041756 0.425958244 0.564350284 0.435649716 0.632163565 0.367836435 0.543732493 0.456267507 0.59701262 0.40298738 0.472985273 0.527014727 0.461148151 0.538851849 0.440754235 0.559245765 0.465361867 0.534638133 0.578340027 0.421659973 0.46812915 0.53187085 0.531477529 0.468522471 0.447470677 0.552529323 0.451899703 0.548100297 0.570610717 0.429389283 0.6394991370000001 0.360500863 0.464915118 0.535084882 0.875912592 0.124087408 0.8663921570000001 0.133607843 0.836131513 0.163868487 0.870681247 0.129318753 0.886484952 0.113515048 0.809982209 0.190017791 0.846184901 0.153815099 0.8554997130000001 0.144500287 0.846184901 0.153815099 0.851078857 0.148921143 0.845846066 0.154153934 0.846184901 0.153815099 0.797808009 0.202191991 0.773848392 0.226151608 0.7959148660000001 0.204085134 0.816823439 0.183176561 0.796799386 0.203200614 0.795574925 0.204425075 0.61360481 0.38639519 0.746383283 0.253616717 0.731951824 0.268048176 0.647660355 0.352339645 0.706156053 0.293843947 0.698522278 0.301477722 0.661130039 0.338869961 0.659376747 0.340623253 0.647858628 0.352141372 0.666056074 0.333943926 0.672370188 0.327629812 0.629996304 0.370003696 0.460181725 0.539818275 0.547694062 0.452305938 0.489643911 0.510356089 0.459396231 0.540603769 0.489287626 0.510712374 0.48221406 0.51778594 0.483752883 0.516247117 0.494926416 0.505073584 0.462490043 0.537509957 0.500508435 0.499491565 0.509723192 0.490276808 0.489275328 0.510724672 0.341472716 0.658527284 0.390194906 0.609805094 0.353819907 0.646180093 0.400591237 0.599408763 0.45109129 0.54890871 0.360333847 0.639666153</probabilities>
		</cpt>
		<cpt id="CRC">
			<state id="False" />
			<state id="True" />
			<parents>Age Alcohol Diabetes Hyperchol_ Hypertension Sex Smoking</parents>
			<probabilities>0.999872252 0.000127748 0.999961059 3.89e-05 0.999789424 0.000210576 0.999477181 0.000522819 0.999565497 0.000434503 0.999349301 0.000650699 0.99937935 0.00062065 0.999507521 0.000492479 0.999269505 0.000730495 0.999173126 0.000826874 0.999198929 0.000801071 0.999173648 0.000826352 0.999855688 0.000144312 0.999936548 6.35e-05 0.999773643 0.000226357 0.999292985 0.000707015 0.999473236 0.000526764 0.999309577 0.000690423 0.9994789549999999 0.000521045 0.999625806 0.000374194 0.999289863 0.000710137 0.999173126 0.000826874 0.999173648 0.000826352 0.999198424 0.000801576 0.999200444 0.000799556 0.999247496 0.000752504 0.999174168 0.000825832 0.999173126 0.000826874 0.999173126 0.000826874 0.999173126 0.000826874 0.999173126 0.000826874 0.999198929 0.000801071 0.999173126 0.000826874 0.999173126 0.000826874 0.999173126 0.000826874 0.999173126 0.000826874 0.999198424 0.000801576 0.999269963 0.000730037 0.999199435 0.000800565 0.999173648 0.000826352 0.999173648 0.000826352 0.999173126 0.000826874 0.999198929 0.000801071 0.999198424 0.000801576 0.999198424 0.000801576 0.999173126 0.000826874 0.999173126 0.000826874 0.999173126 0.000826874 0.999828551 0.000171449 0.999999997 3.22e-09 0.9999998 2e-07 0.999813176 0.000186824 0.9998442239999999 0.000155776 0.99981091 0.00018909 0.9999940980000001 5.9e-06 0.999981952 1.8e-05 0.99993096 6.9e-05 0.999867458 0.000132542 0.999832389 0.000167611 0.999580584 0.000419416 0.999845095 0.000154905 0.999999963 3.74e-08 0.9999989889999999 1.01e-06 0.999982981 1.7e-05 0.999429244 0.000570756 0.999994336 5.66e-06 0.999989256 1.07e-05 0.999980083 1.99e-05 0.999927057 7.29e-05 0.999819389 0.000180611 0.999722207 0.000277793 0.999498745 0.000501255 0.999841749 0.000158251 0.999822473 0.000177527 0.999536673 0.000463327 0.999736121 0.000263879 0.999615461 0.000384539 0.999515657 0.000484343 0.999405921 0.000594079 0.999332483 0.000667517 0.999269504 0.000730496 0.999271802 0.000728198 0.999198424 0.000801576 0.99917469 0.00082531 0.999794926 0.000205074 0.999776515 0.000223485 0.999532496 0.000467504 0.999689958 0.000310042 0.999568965 0.000431035 0.999396552 0.000603448 0.999444584 0.000555416 0.999523493 0.000476507 0.999327424 0.000672576 0.999246547 0.000753453 0.999174169 0.000825831 0.999198424 0.000801576 0.999456586 0.000543414 0.999986703 1.33e-05 0.999939952 6e-05 0.9996702119999999 0.000329788 0.999711304 0.000288696 0.9995668599999999 0.00043314 0.999717487 0.000282513 0.999795153 0.000204847 0.999662411 0.000337589 0.999223691 0.000776309 0.999202456 0.000797544 0.999199434 0.000800566 0.999983039 1.7e-05 0.99999486 5.14e-06 0.999975567 2.44e-05 0.999620134 0.000379866 0.999708927 0.000291073 0.999589923 0.000410077 0.999876486 0.000123514 0.9999421550000001 5.78e-05 0.9998549370000001 0.000145063 0.999202959 0.000797041 0.999270884 0.000729116 0.9991746889999999 0.000825311 0.999313476 0.000686524 0.999386705 0.000613295 0.999269964 0.000730036 0.999173648 0.000826352 0.999244643 0.000755357 0.999173648 0.000826352 0.999176249 0.000823751 0.999295206 0.000704794 0.999247971 0.000752029 0.999173126 0.000826874 0.999173126 0.000826874 0.999173126 0.000826874 0.999334572 0.000665428 0.999510284 0.000489716 0.99939844 0.00060156 0.999173126 0.000826874 0.999173648 0.000826352 0.999198929 0.000801071 0.999500374 0.000499626 0.999473232 0.000526768 0.999381298 0.0006187020000000001 0.999173126 0.000826874 0.999173648 0.000826352 0.999173126 0.000826874 0.99976252 0.00023748 0.999757883 0.000242117 0.999577037 0.000422963 0.9997653399999999 0.00023466 0.9998050550000001 0.000194945 0.999830985 0.000169015 0.9994149369999999 0.000585063 0.999993873 6.13e-06 0.9999867690000001 1.32e-05 0.99997486 2.51e-05 0.999933652 6.63e-05 0.999854552 0.000145448 0.999758147 0.000241853 0.999823405 0.000176595 0.999452988 0.000547012 0.999796969 0.000203031 0.999574753 0.000425247 0.9996499250000001 0.000350075 0.999972235 2.78e-05 0.999998671 1.33e-06 0.999352072 0.000647928 0.99996931 3.07e-05 0.999926194 7.38e-05 0.999876751 0.000123249 0.9999158500000001 8.42e-05 0.999899801 0.000100199 0.9998142330000001 0.000185767 0.999846718 0.000153282 0.999725424 0.000274576 0.999626685 0.000373315 0.999747591 0.000252409 0.9997079800000001 0.00029202 0.999640593 0.000359407 0.999490571 0.000509429 0.999329961 0.000670039 0.999247496 0.000752504 0.999950245 4.98e-05 0.997998344 0.002001656 0.99988484 0.00011516 0.999818648 0.000181352 0.999714644 0.000285356 0.999580066 0.000419934 0.999897474 0.000102526 0.99936832 0.00063168 0.999814731 0.000185269 0.999395824 0.000604176 0.999494654 0.0005053460000000001 0.99923099 0.00076901 0.9994726390000001 0.000527361 0.999236849 0.000763151 0.99769086 0.00230914 0.999615186 0.000384814 0.9996732780000001 0.000326722 0.999094475 0.000905525 0.999839134 0.000160866 0.998979841 0.001020159 0.999859689 0.000140311 0.999346433 0.000653567 0.999348074 0.000651926 0.9992059639999999 0.000794036 0.998898412 0.001101588 0.998931324 0.001068676 0.9987796410000001 0.001220359 0.999815174 0.000184826 0.999848705 0.000151295 0.999782137 0.000217863 0.998674348 0.001325652 0.998670934 0.001329066 0.996332508 0.003667492 0.99946788 0.00053212 0.999520775 0.000479225 0.999404436 0.000595564 0.9976654190000001 0.002334581 0.999624842 0.000375158 0.999457501 0.000542499 0.999198424 0.000801576 0.999199939 0.000800061 0.999199435 0.000800565 0.999372413 0.000627587 0.999559555 0.000440445 0.998847721 0.001152279 0.999173648 0.000826352 0.999198929 0.000801071 0.999173648 0.000826352 0.999631575 0.000368425 0.999822839 0.000177161 0.999712029 0.000287971 0.999198929 0.000801071 0.99928852 0.00071148 0.999269505 0.000730495 0.9997499399999999 0.00025006 0.999865515 0.000134485 0.999791681 0.000208319 0.99917469 0.00082531 0.9992232009999999 0.000776799 0.999200948 0.000799052 0.999149184 0.000850816 0.999403307 0.000596693 0.998924457 0.001075543 0.998874109 0.001125891 0.999250017 0.000749983 0.998519147 0.001480853 0.999746693 0.000253307 0.999994508 5.49e-06 0.999692179 0.000307821 0.999257875 0.0007421249999999999 0.999946475 5.35e-05 0.999903772 9.619999999999999e-05 0.999163657 0.000836343 0.999188866 0.000811134 0.9983469190000001 0.001653081 0.999026563 0.000973437 0.999919496 8.050000000000001e-05 0.998950049 0.001049951 0.9992673520000001 0.000732648 0.999434674 0.000565326 0.99882494 0.00117506 0.999994964 5.04e-06 0.999678076 0.000321924 0.996695526 0.003304474 0.997200588 0.002799412 0.999920738 7.93e-05 0.999905131 9.49e-05 0.99971853 0.00028147 0.999597641 0.000402359 0.999605882 0.000394118 0.99269766 0.00730234 0.9998926930000001 0.000107307 0.99837824 0.00162176 0.999538552 0.000461448 0.999380582 0.0006194180000000001 0.999430024 0.000569976 0.998856453 0.001143547 0.999979026 2.1e-05 0.999976442 2.36e-05 0.999866455 0.000133545 0.999809658 0.000190342 0.9996795979999999 0.000320402 0.999107992 0.000892008 0.998196783 0.001803217 0.9973686470000001 0.002631353 0.999797497 0.000202503 0.999723307 0.000276693 0.999527875 0.000472125 0.999865157 0.000134843 0.999906211 9.38e-05 0.999871626 0.000128374 0.999465855 0.000534145 0.999373981 0.000626019 0.9992596969999999 0.000740303 0.991151082 0.008848918000000001 0.9992827439999999 0.000717256 0.9917036 0.008296400000000001 0.999350119 0.000649881 0.999227108 0.000772892 0.999201955 0.000798045 0.999047816 0.000952184 0.999085384 0.000914616 0.997935335 0.002064665 0.989387621 0.010612379 0.9996979499999999 0.00030205 0.998327344 0.001672656 0.99957259 0.00042741 0.99899459 0.00100541 0.9977737759999999 0.002226224 0.982449712 0.017550288 0.99947447 0.00052553 0.998788663 0.001211337 0.999409612 0.000590388 0.999431671 0.000568329 0.999523473 0.000476527 0.999174169 0.000825831 0.999198929 0.000801071 0.999173126 0.000826874 0.999506187 0.000493813 0.999492224 0.000507776 0.999594646 0.000405354 0.999173648 0.000826352 0.999174169 0.000825831 0.9991746889999999 0.000825311 0.999645409 0.000354591 0.999670248 0.000329752 0.9905957480000001 0.009404252 0.9992232 0.0007768 0.999224668 0.000775332 0.999225158 0.000774842 0.999758891 0.000241109 0.999825606 0.000174394 0.999862644 0.000137356 0.999247497 0.000752503 0.999174168 0.000825832 0.99922418 0.00077582 0.997338277 0.002661723 0.998362289 0.001637711 0.997538734 0.002461266 0.996059748 0.003940252 0.997323925 0.002676075 0.998715263 0.001284737 0.995068346 0.004931654 0.999699572 0.000300428 0.997256662 0.002743338 0.994616834 0.005383166 0.999717255 0.000282745 0.99969882 0.00030118 0.997988994 0.002011006 0.999003477 0.000996523 0.997077229 0.002922771 0.996408556 0.003591444 0.99999556 4.44e-06 0.9976959359999999 0.002304064 0.998167702 0.001832298 0.99683038 0.00316962 0.99732304 0.00267696 0.997946891 0.002053109 0.999452971 0.000547029 0.995082716 0.004917284 0.999313286 0.0006867140000000001 0.999813782 0.000186218 0.998282939 0.001717061 0.999538542 0.000461458 0.999389386 0.000610614 0.999374761 0.000625239 0.99223326 0.00776674 0.999827819 0.000172181 0.996915898 0.003084102 0.999599626 0.000400374 0.999274083 0.000725917 0.999324569 0.000675431 0.994059931 0.005940069 0.999490591 0.0005094089999999999 0.991892504 0.008107496 0.999786372 0.000213628 0.999605722 0.000394278 0.999625438 0.000374562 0.998503928 0.001496072 0.991269045 0.008730955 0.99554076 0.00445924 0.992665677 0.007334323 0.999643234 0.000356766 0.9995658120000001 0.000434188</probabilities>
		</cpt>
		<decision id="Screening">
			<state id="No_screening" />
			<state id="gFOBT" />
			<state id="FIT" />
			<state id="Blood_based" />
			<state id="Stool_DNA" />
			<state id="CTC" />
			<state id="Colon_capsule" />
			<parents>PA SD Smoking BMI Alcohol Sex Age</parents>
		</decision>
		<cpt id="Results_of_Screening">
			<state id="No_pred_screening" />
			<state id="Predicted_False" />
			<state id="Predicted_True" />
			<parents>CRC Screening</parents>
			<probabilities>1 0 0 0 0.978 0.02200000000000002 0 0.966 0.03400000000000003 0 0.91 0.08999999999999997 0 0.866 0.134 0 0.89 0.11 0 0.92 0.07999999999999996 1 0 0 0 0.55 0.45 0 0.25 0.75 0 0.34 0.66 0 0.07699999999999996 0.923 0 0.2 0.8 0 0.13 0.87</probabilities>
		</cpt>
		<decision id="Colonoscopy">
			<state id="No_Colonoscopy" />
			<state id="Colonoscopy" />
			<parents>Screening Results_of_Screening</parents>
		</decision>
		<cpt id="Results_of_Colonoscopy">
			<state id="no_pred" />
			<state id="colon_pred_false" />
			<state id="colon_pred_true" />
			<parents>CRC Colonoscopy</parents>
			<probabilities>1 0 0 0 0.99 0.01000000000000001 1 0 0 0 0.03000000000000003 0.97</probabilities>
		</cpt>
		<utility id="INFO">
			<parents>Age Alcohol Diabetes Hyperchol_ Hypertension Sex Smoking Screening Results_of_Screening CRC Colonoscopy Results_of_Colonoscopy</parents>
			<utilities>0 0 0 0 0.09731253042802233 -9.57475160543394 0 0 0 0 -2746.444332631675 3583.906456760679 0 0 0 0 0 0 0 0 0 0 0 0 0 0 0 0 0 0 0 0 0 0 0 0 0 0 0 0 0 0 0 0 0 0 0 0 0.04391601054800793 0 0 0 0.09864344742350412 -5.355313026634163 -452.0888766138934 0 0 0 -3198.575794339121 3135.993102715037 -1.949789831025942 0 0 0 0.03814949854656224 -177.3750027742344 2368.880513215371 0 0 0 -375.6731926171601 5786.936508638275 0 0 0 0 0 0 0 0 0 0 0 0 0.07438104645243532 0 0 0 0.09956667729066024 -2.415007657576847 -1061.701773124373 0 0 0 -3808.218232655638 2529.290046537711 -2.110359340899008 0 0 0 0.03327094272990871 -189.7364137880074 2428.031881072196 0 0 0 -316.3661338062789 5833.887034991199 0 0 0 0 0 0 0 0 0 0 0 0 0.06285743659593131 0 0 0 0.0992174633115622 -3.528479609711978 -773.2709351766985 0 0 0 -3519.776220312086 2816.618936143106 -0.6352761401826766 0 0 0 0.07805180187644878 -68.2291807281707 1564.438537143291 0 0 0 -1181.389780076753 5090.325840921416 0 0 0 0 0 0 0 0 0 0 0 0 0.09143031423852567 0 0 0 0.100083332897277 -0.7647470439830316 -1900.905200752775 0 0 0 -4647.438192896219 1691.719830255116 -0.5906289724760064 0 0 0 0.07940593821367625 -64.24551744356117 1515.278264549306 0 0 0 -1230.593345702108 5045.104584444332 0 0 0 0 0 0 0 0 0 0 0 0 0.0778012218849629 0 0 0 0.0996703220745921 -2.084231445021198 -1172.613291334097 0 0 0 -3919.13306739601 2418.70588436511 -0.6291993767570925 0 0 0 0.0782361128304121 -67.68815181850297 1557.925821330163 0 0 0 -1187.908388342352 5084.34807725453 0 0 0 0 0 0 0 0 0 0 0 0 0.08617254345896819 0 0 0 0.09992400423757689 -1.274031798983007 -1537.030597548536 0 0 0 -4283.55849124986 2055.090406475135 -0.9903053853902124 0 0 0 0.0672812056164378 -99.21539539811408 1873.603049047268 0 0 0 -871.8810095238289 5368.859167400657 0 0 0 0 0.08693491738990683 -8.590364531021853 0 0 0 0 -8058.054184756498 10534.40603929788 0 0 0 0 0 0 0 0 0 0 0 0 0 0 0 0 0 0 0 0 0 0 0 0 0 0 0 0 0 0 0 0 0 0 0 0 0.0392336421937797 0 0 0 0.08812385067312739 -4.795770296362184 -1326.483469633607 0 0 0 -9384.575699099016 9211.677930256743 -1.743439266121344 0 0 0 0.03408204839527906 -171.2600981355326 6954.089612236546 0 0 0 -1102.273986122825 17327.56935719604 0 0 0 0 0 0 0 0 0 0 0 0 0.06644956971137421 0 0 0 0.08894858852250356 -2.159866739812738 -3115.102804420663 0 0 0 -11173.22142507574 7425.667283098717 -1.887149462108525 0 0 0 0.0297237020803911 -184.1755868945422 7127.96254665397 0 0 0 -928.2616998557287 17488.67051305044 0 0 0 0 0 0 0 0 0 0 0 0 0.05615504382764337 0 0 0 0.08863662947135861 -3.157257950372873 -2268.84548148051 0 0 0 -10326.95411956875 8270.937509354197 -0.5677130402843974 0 0 0 0.06972878802978122 -62.81740102220471 4591.238011937179 0 0 0 -3466.265665908395 15071.98472778417 0 0 0 0 0 0 0 0 0 0 0 0 0.08168020581661135 0 0 0 0.08941012597732485 -0.6834535807445261 -5577.295654722056 0 0 0 -13635.42904447578 4964.935615320288 -0.5278037713965429 0 0 0 0.07093848420624527 -59.04631538855393 4446.914485858068 0 0 0 -3610.627891560216 14931.39237806982 0 0 0 0 0 0 0 0 0 0 0 0 0.06950493621718334 0 0 0 0.08904117623073982 -1.86376352572644 -3440.515614261172 0 0 0 -11498.63719769505 7100.547521105789 -0.562281042286124 0 0 0 0.06989343937648629 -62.3044823282325 4572.117809847569 0 0 0 -3485.391135344656 15053.37201239053 0 0 0 0 0 0 0 0 0 0 0 0 0.07698330173653649 0 0 0 0.08926779493249506 -1.138857509183227 -4509.704935583954 0 0 0 -12567.83377076465 6032.075627434033 -0.8851231901704156 0 0 0 0.06010699537779707 -92.59455142711634 5499.027036754394 0 0 0 -2558.168852733945 15950.31401234635 0 0 0 0 0.1024552300324224 -10.04088099396123 0 0 0 0 -1754.098528225754 2285.095725017222 0 0 0 0 0 0 0 0 0 0 0 0 0 0 0 0 0 0 0 0 0 0 0 0 0 0 0 0 0 0 0 0 0 0 0 0 0.04623583190268449 0 0 0 0.1038565393856837 -5.625703645324024 -288.7284823200932 0 0 0 -2042.871845068397 2000.736184213864 -2.051099716496565 0 0 0 0.04016461381374992 -175.0731439483773 1512.185124058404 0 0 0 -239.9245950670722 3634.299685837707 0 0 0 0 0 0 0 0 0 0 0 0 0.07831113895892811 0 0 0 0.1048285998943129 -2.540003883886227 -678.072255824839 0 0 0 -2432.24672181969 1614.446035163499 -2.219865666346392 0 0 0 0.03502829463509016 -186.5383596177837 1549.898565007765 0 0 0 -202.0475244870402 3660.716677067511 0 0 0 0 0 0 0 0 0 0 0 0 0.06617833808150561 0 0 0 0.1044609155171527 -3.709409791187493 -493.8578449627799 0 0 0 -2248.020545841131 1797.503172919135 -0.6686466286374899 0 0 0 0.08217597163797052 -69.93505855013042 998.9353562011561 0 0 0 -754.5148046543547 3224.805550290846 0 0 0 0 0 0 0 0 0 0 0 0 0.09626192117211003 0 0 0 0.1053725823066654 -0.8048755611813886 -1214.059789794938 0 0 0 -2968.25166258959 1080.175678733892 -0.621665629109453 0 0 0 0.08360170574935466 -65.94997644979834 967.5554266388641 0 0 0 -785.9402894820636 3197.363721829358 0 0 0 0 0 0 0 0 0 0 0 0 0.081912142808526 0 0 0 0.104937726611058 -2.192405561622115 -748.9094135394673 0 0 0 -2503.087371411451 1543.952874767285 -0.6622523175164221 0 0 0 0.08237002764235302 -69.39450764055229 994.7782336878095 0 0 0 -758.6781274228183 3221.182584375958 0 0 0 0 0 0 0 0 0 0 0 0 0.09072610821207074 0 0 0 0.1052048264549849 -1.340602615360572 -981.6572676028434 0 0 0 -2735.843772340387 1312.048009684768 -1.042172720304388 0 0 0 0.0708359542305026 -100.5529169027347 1196.250251997822 0 0 0 -556.8377227834289 3391.876113826576 4.963835584569362e-14 0 0 0 0.1133638729906683 -10.94768500119306 4.963835584569362e-14 0 0 0 -781.5353801342359 1011.734813944554 0 0 0 0 0 0 0 0 0 0 0 0 0 0 0 0 0 0 0 0 0 0 0 0 0 0 0 0 0 0 0 0 0 0 0 0 0.05115441553199242 0 0 0 0.1149146210204454 -6.172755946333415 -128.6230384924426 0 0 0 -910.2080222941808 887.8355500914387 -2.262300372940403 0 0 0 0.04443694043267543 -159.0296360020383 672.4613222943988 0 0 0 -106.8806843994547 1538.376485611048 0 0 0 0 0 0 0 0 0 0 0 0 0.08664601264304704 0 0 0 0.115990347950165 -2.799540845101575 -302.088272320141 0 0 0 -1083.70767199206 717.708039767861 -2.44783840773296 0 0 0 0.03875397465540642 -167.7855045186946 689.1555943396672 0 0 0 -90.00655728517086 1546.500427174452 0 0 0 0 0 0 0 0 0 0 0 0 0.07322057062756669 0 0 0 0.1155834511201289 -4.081459784456741 -220.012787868123 0 0 0 -1001.619168994857 798.5150307225397 -0.7389972900853208 0 0 0 0.090922709729369 -70.60072315140931 444.6713181101842 0 0 0 -336.1475058972277 1397.492091194607 0 0 0 0 0 0 0 0 0 0 0 0 0.106510173165554 0 0 0 0.1165923452917564 -0.8893807817042712 -540.9053589360684 0 0 0 -1322.544020771169 480.7812490548087 -0.6871208414703428 0 0 0 0.09250039267632226 -66.8890379454679 430.7197791005081 0 0 0 -350.1493436725718 1387.200360942257 0 0 0 0 0 0 0 0 0 0 0 0 0.09063076384529335 0 0 0 0.1161111127941252 -2.41765553454216 -333.6499921826328 0 0 0 -1115.27325584091 686.5242204647266 -0.7319371099207945 0 0 0 0.09113744702794124 -70.09913534201323 442.8231702912704 0 0 0 -338.0024991590073 1396.138471004925 0 0 0 0 0 0 0 0 0 0 0 0 0.1003841840965975 0 0 0 0.1164066984204019 -1.48018715371958 -437.3535298503797 0 0 0 -1218.986251343282 583.7483977575509 -1.151189811549909 0 0 0 0.07837435705922169 -98.11459519894021 532.3464702722092 0 0 0 -248.0727095664081 1458.065563830566 0 0 0 0 0.110958846561121 -10.75973330863822 0 0 0 0 -920.4998707757491 1193.736008561264 0 0 0 0 0 0 0 0 0 0 0 0 0 0 0 0 0 0 0 0 0 0 0 0 0 0 0 0 0 0 0 0 0 0 0 0 0.05007034630807159 0 0 0 0.1124766293915506 -6.056064464090034 -151.4999147233327 0 0 0 -1072.048338062559 1046.889692336171 -2.216288787600808 0 0 0 0.04349533898007296 -163.629038277117 792.4601931896327 0 0 0 -125.8908523060966 1835.543185570019 0 0 0 0 0 0 0 0 0 0 0 0 0.08480866471055767 0 0 0 0.113529487890794 -2.743156081978978 -355.8109877402824 0 0 0 -1276.393096539412 845.8567893829299 -2.398220452690124 0 0 0 0.03793287448737725 -173.0222845217448 812.1589765910147 0 0 0 -106.015699704118 1846.030654391862 0 0 0 0 0 0 0 0 0 0 0 0 0.07166827576758711 0 0 0 0.1131312412116048 -4.001178045455516 -259.1413917725954 0 0 0 -1179.710758429462 941.2815037760836 -0.7235521862883908 0 0 0 0.08899452965764798 -70.8235401277777 523.8721349772668 0 0 0 -395.9261479290974 1658.267888905679 0 0 0 0 0 0 0 0 0 0 0 0 0.1042508187158184 0 0 0 0.1141186872481246 -0.8708420334752782 -637.089104220556 0 0 0 -1557.690065974334 566.4315447971549 -0.67274679598114 0 0 0 0.09053870101233896 -67.02037597360781 507.4299874632902 0 0 0 -412.4175566620266 1645.578100155566 0 0 0 0 0 0 0 0 0 0 0 0 0.08870878479955797 0 0 0 0.1136476853917274 -2.368622532984531 -392.9845662956516 0 0 0 -1313.57045701737 809.0538442564664 -0.7166376561726571 0 0 0 0.08920470582562157 -70.30911102345331 521.6940212728362 0 0 0 -398.1109659874758 1656.597289775457 0 0 0 0 0 0 0 0 0 0 0 0 0.09825500508186839 0 0 0 0.1139369871100798 -1.449655958595047 -515.1265359364439 0 0 0 -1435.721683576726 687.8212949697812 -1.127305005466658 0 0 0 0.07671265120562132 -99.26334713143434 627.215959429893 0 0 0 -292.190852535745 1733.575659173827 0 0 0 0 0.1163472443731814 -11.16940556730524 0 0 0 0 -644.405055951354 832.1003678414673 0 0 0 0 0 0 0 0 0 0 0 0 0 0 0 0 0 0 0 0 0 0 0 0 0 0 0 0 0 0 0 0 0 0 0 0 0.05249884740806115 0 0 0 0.1179389031881275 -6.313707154538012 -106.047935655892 0 0 0 -750.5038987958393 730.8556317509345 -2.318833741813648 0 0 0 0.04560465711496864 -152.7611796614358 554.0356917211446 0 0 0 -88.12127307565402 1246.863119210295 0 0 0 0 0 0 0 0 0 0 0 0 0.08892495584856246 0 0 0 0.1190430108052085 -2.868664496425472 -249.0744030320483 0 0 0 -893.5656881728189 591.2377809244504 -2.50875590983999 0 0 0 0.03977223033818422 -160.7355454727713 567.7642962083312 0 0 0 -74.20857884721795 1252.807280054172 0 0 0 0 0 0 0 0 0 0 0 0 0.0751458488942421 0 0 0 0.1186253787450368 -4.179342294604066 -181.4004134355441 0 0 0 -825.8783371014206 657.6148718297302 -0.7580921619540805 0 0 0 0.09331435602269611 -70.03750392150971 366.5123521144574 0 0 0 -277.1576445632931 1140.502713763674 0 0 0 0 0 0 0 0 0 0 0 0 0.1093127672407859 0 0 0 0.1196608910891648 -0.9122865765659425 -445.9909742187034 0 0 0 -1090.502029290582 396.2571998462624 -0.7048952326344806 0 0 0 0.09493362057499677 -66.46001288076256 355.0188011600153 0 0 0 -288.7027731825025 1132.53345692066 0 0 0 0 0 0 0 0 0 0 0 0 0.09301471588371341 0 0 0 0.1191669618449857 -2.477862427939362 -275.0983372232573 0 0 0 -919.5935881730234 565.6005590416922 -0.7508524463659924 0 0 0 0.09353475279945522 -69.55463549680385 364.9898493824905 0 0 0 -278.6871666140713 1139.455839740825 0 0 0 0 0 0 0 0 0 0 0 0 0.1030252400741878 0 0 0 0.1194703461153208 -1.517820626355734 -360.6068366622397 0 0 0 -1005.111794751926 481.042090880103 -1.180669989601258 0 0 0 0.08043537700686021 -96.2611836084281 438.7236516319308 0 0 0 -204.5366461971884 1186.912911421877 0 0 0 0 0.1156892667933804 -11.12165872983819 0 0 0 0 -671.7988226790953 867.9883218375718 0 0 0 0 0 0 0 0 0 0 0 0 0 0 0 0 0 0 0 0 0 0 0 0 0 0 0 0 0 0 0 0 0 0 0 0 0.05220236874277574 0 0 0 0.1172719009235557 -6.283006830546518 -110.5576568431509 0 0 0 -782.4070992568588 762.2171145249697 -2.306420858362698 0 0 0 0.04534715143045442 -154.1878903450879 577.6939912176473 0 0 0 -91.86875271844826 1304.922502298332 0 0 0 0 0 0 0 0 0 0 0 0 0.08842236313572299 0 0 0 0.1183697478939247 -2.853503121671858 -259.664713979119 0 0 0 -931.5492785402494 616.5033411034833 -2.495385237426745 0 0 0 0.03954768621890858 -162.3326817660435 592.015111372895 0 0 0 -77.36446764934794 1311.287795411688 0 0 0 0 0 0 0 0 0 0 0 0 0.07472126297215682 0 0 0 0.1179544839781077 -4.157928203152198 -189.1138165297459 0 0 0 -860.9850952546286 685.7635145715396 -0.7538874109676169 0 0 0 0.09278690393768552 -70.18834287165444 382.1260915851599 0 0 0 -288.9417460458234 1191.801616691883 0 0 0 0 0 0 0 0 0 0 0 0 0.1086946674924447 0 0 0 0.118984124464495 -0.907244060806268 -464.9515114371861 0 0 0 -1136.855733926103 413.1425304019251 -0.700980878526664 0 0 0 0.09439699657118394 -66.57946383003215 370.1414964451794 0 0 0 -300.9776376256114 1183.372994061084 0 0 0 0 0 0 0 0 0 0 0 0 0.09248896096366047 0 0 0 0.1184929960722486 -2.464646948587747 -286.7949006790132 0 0 0 -958.6834085897932 589.7579439788454 -0.7466871749937609 0 0 0 0.09300605237046644 -69.70110589015951 380.5385330668777 0 0 0 -290.5362856516467 1190.694094919122 0 0 0 0 0 0 0 0 0 0 0 0 0.1024427733251021 0 0 0 0.1187946599931983 -1.509545141187861 -375.9381194367722 0 0 0 -1047.836279495993 501.5598732161248 -1.174183360751748 0 0 0 0.07998085140773936 -96.70811288385455 457.4267197274243 0 0 0 -213.2336280063049 1241.002770771732 0 0 0 0 0.1125754059974725 -10.88692911340042 0 0 0 0 -823.9316463928222 1067.264363845409 0 0 0 0 0 0 0 0 0 0 0 0 0 0 0 0 0 0 0 0 0 0 0 0 0 0 0 0 0 0 0 0 0 0 0 0 0.05079903724657851 0 0 0 0.1141153453076811 -6.134784965378083 -135.6024927685455 0 0 0 -959.5833982593042 936.3632161876387 -2.247256427147353 0 0 0 0.04412826805115611 -160.5883942268911 709.0723827751995 0 0 0 -112.6804543284217 1628.882537934265 0 0 0 0 0 0 0 0 0 0 0 0 0.08604367184587802 0 0 0 0.1151835740523252 -2.781116904339568 -318.4783976245106 0 0 0 -1142.493479521124 756.8057347581127 -2.43161883988865 0 0 0 0.03848480625735995 -169.5532521411104 726.6833665050564 0 0 0 -94.89075164761732 1637.713026162643 0 0 0 0 0 0 0 0 0 0 0 0 0.07271168678247522 0 0 0 0.1147795134676916 -4.055267757384645 -231.9504380248761 0 0 0 -1055.952591997011 842.0728754897657 -0.7339385477596087 0 0 0 0.09029058830192771 -70.69687837413778 468.8347770028004 0 0 0 -354.3852156599579 1477.023130135231 0 0 0 0 0 0 0 0 0 0 0 0 0.1057694690581306 0 0 0 0.1157813751360114 -0.8833098044954139 -570.2497873997467 0 0 0 -1394.283997292488 506.9124262855088 -0.6824126290630246 0 0 0 0.09185728391801562 -66.95344763805123 454.1233628127539 0 0 0 -369.1465890730848 1466.003620762574 0 0 0 0 0 0 0 0 0 0 0 0 0.09000067552278687 0 0 0 0.1153034971053331 -2.401626615277799 -351.7522226083942 0 0 0 -1175.771141585631 723.9074430596141 -0.7269260326676883 0 0 0 0.0905038301604455 -70.19084344686256 466.885957766615 0 0 0 -356.3408341693766 1475.573333311229 0 0 0 0 0 0 0 0 0 0 0 0 0.09968616126377511 0 0 0 0.1155970223371098 -1.470195656426032 -461.0810845201193 0 0 0 -1285.109395457866 615.5003266209999 -1.143370450290499 0 0 0 0.07782960226270097 -98.52678613560099 561.2904177515722 0 0 0 -261.5326039946942 1542.05829502507 0 0 0 0 0.1179893794700402 -11.28556630668905 0 0 0 0 -582.0793805308283 750.4415722633701 0 0 0 0 0 0 0 0 0 0 0 0 0 0 0 0 0 0 0 0 0 0 0 0 0 0 0 0 0 0 0 0 0 0 0 0 0.05323868958786396 0 0 0 0.1196035664495743 -6.389313885718155 -95.78747910175369 0 0 0 -677.9184841351903 659.4971068929993 -2.349666611399611 0 0 0 0.04624723655450591 -149.1134614237481 500.2064003495953 0 0 0 -79.59505571274889 1115.169744107306 0 0 0 0 0 0 0 0 0 0 0 0 0.09017922745076316 0 0 0 0.1207233024897951 -2.90628243228043 -224.9795135917314 0 0 0 -807.1463394269906 533.7511633185966 -2.541955134059126 0 0 0 0.040332551366415 -156.6694044114102 512.5867425751354 0 0 0 -67.0283396497374 1120.186431867844 0 0 0 0 0 0 0 0 0 0 0 0 0.07620541910022338 0 0 0 0.1202997588342584 -4.232328940204997 -163.8510013339009 0 0 0 -746.0042769044651 593.5676028768529 -0.768568653817941 0 0 0 0.09463067759859201 -69.59763007580354 330.987499714605 0 0 0 -250.3466708642768 1023.885576862678 0 0 0 0 0 0 0 0 0 0 0 0 0.1108553576029056 0 0 0 0.1213499291050751 -0.9248466935507079 -402.8523550364747 0 0 0 -985.0392303752708 357.8390814824306 -0.7146491741394368 0 0 0 0.09627283587979729 -66.10241254839342 320.6112205761905 0 0 0 -260.7752273240886 1016.950595771996 0 0 0 0 0 0 0 0 0 0 0 0 0.09432680123653343 0 0 0 0.1208490080831388 -2.5106783618889 -248.4865279642228 0 0 0 -830.6573756676745 510.6356054427109 -0.7612307160488293 0 0 0 0.09485419031797016 -69.12618865171804 329.6130184836223 0 0 0 -251.7282665203092 1022.975199118012 0 0 0 0 0 0 0 0 0 0 0 0 0.1044788840499352 0 0 0 0.121156686866888 -1.538409238747416 -325.7254033494501 0 0 0 -907.9060954569316 434.3588470978115 -1.196818753269438 0 0 0 0.0815696740930425 -95.05873536504457 396.1695647219035 0 0 0 -184.7494167610323 1064.034786680187 0 0 0 0 0.1198014899332527 -11.40855125258101 0 0 0 0 -522.0925572824118 671.8362491058741 0 0 0 0 0 0 0 0 0 0 0 0 0 0 0 0 0 0 0 0 0 0 0 0 0 0 0 0 0 0 0 0 0 0 0 0 0.05405495546504226 0 0 0 0.1214405457075359 -6.470979657388294 -85.91199348608396 0 0 0 -608.0569666681864 590.8077722595178 -2.383434154018369 0 0 0 0.04695617802756136 -144.9750964360737 448.3932314696843 0 0 0 -71.38873697061479 989.0463695460842 0 0 0 0 0 0 0 0 0 0 0 0 0.09156321328983641 0 0 0 0.1225775340707821 -2.947407075974094 -201.7887290205641 0 0 0 -723.9700734721282 478.4171010486272 -2.578291891725835 0 0 0 0.04095072840133085 -152.083336432919 459.4756200719983 0 0 0 -60.1174960802195 993.2153758892603 0 0 0 0 0 0 0 0 0 0 0 0 0.07737451956066629 0 0 0 0.1221474645514827 -4.290000220374696 -146.9600697042703 0 0 0 -669.1276555316244 531.9173559142496 -0.7800988873294881 0 0 0 0.09608314962698283 -69.01131436319986 296.7944487723523 0 0 0 -224.5417279630363 911.8080336549372 0 0 0 0 0 0 0 0 0 0 0 0 0.1125575836669522 0 0 0 0.1232138158706551 -0.9386635536666511 -361.3325115185693 0 0 0 -883.5342140587106 320.8610677025523 -0.7253859380969675 0 0 0 0.09775057677339416 -65.61264928623135 287.4936082541111 0 0 0 -233.8956140033636 905.8511452644319 0 0 0 0 0 0 0 0 0 0 0 0 0.09577459757685282 0 0 0 0.1227051765350323 -2.546599210970908 -222.8732754562166 0 0 0 -745.0587036496036 457.7291510936907 -0.772653102478874 0 0 0 0.09631010154178132 -68.5532450010742 295.5624471038043 0 0 0 -225.7809484645201 911.0266555636641 0 0 0 0 0 0 0 0 0 0 0 0 0.1060829288147637 0 0 0 0.1230175960848333 -1.561015157837642 -292.1528659322692 0 0 0 -814.3482900373441 389.4248363395336 -1.214568539937356 0 0 0 0.08282124600111107 -93.59902331466057 355.2103264117148 0 0 0 -165.7046425746917 946.0706719954467 0 0 0 0 0.1193325944528574 -11.37726729739679 0 0 0 0 -536.8107941219646 691.1237575677128 0 0 0 0 0 0 0 0 0 0 0 0 0 0 0 0 0 0 0 0 0 0 0 0 0 0 0 0 0 0 0 0 0 0 0 0 0.05384375773826555 0 0 0 0.1209652143424126 -6.450032325364567 -88.33502814016478 0 0 0 -625.1980333999782 607.6621206418421 -2.374723474762316 0 0 0 0.04677275057727126 -146.0551027774533 461.1064027918274 0 0 0 -73.40222769925055 1019.927048354246 0 0 0 0 0 0 0 0 0 0 0 0 0.09120510982370943 0 0 0 0.1220977379004907 -2.936806317395901 -207.4787787670323 0 0 0 -744.3780128553731 491.9942346708576 -2.568920811290488 0 0 0 0.04079078595911589 -153.2776127079384 472.5072839796657 0 0 0 -61.81313113950222 1024.299616948128 0 0 0 0 0 0 0 0 0 0 0 0 0.07707202231899407 0 0 0 0.1216693572398096 -4.275161000661419 -151.1044008649915 0 0 0 -687.9899302464883 547.0443909771377 -0.777118581052449 0 0 0 0.09570732349208499 -69.17284478191606 305.1841190237189 0 0 0 -230.8731817881541 939.2894176879649 0 0 0 0 0 0 0 0 0 0 0 0 0.1121171252676913 0 0 0 0.1227315209871772 -0.9350928963973706 -371.5197362654175 0 0 0 -908.4392485861155 329.9340785780271 -0.7226105413197365 0 0 0 0.0973682115830341 -65.74867328562189 295.6194014277314 0 0 0 -240.4907465357833 933.0943635485389 0 0 0 0 0 0 0 0 0 0 0 0 0.0953999814097737 0 0 0 0.1222248791126432 -2.537335011910718 -229.157696557068 0 0 0 -766.0609983757827 470.7105933147212 -0.769700645510249 0 0 0 0.09593338541636942 -68.71124655439397 303.9171575482181 0 0 0 -232.1473351372728 938.4766365044441 0 0 0 0 0 0 0 0 0 0 0 0 0.1056678784308561 0 0 0 0.1225360717760365 -1.555177656134112 -300.3901587904247 0 0 0 -837.303417313497 400.45002054012 -1.20998306051715 0 0 0 0.08249740771435499 -93.98923366199797 365.2602101405311 0 0 0 -170.3774361076549 974.9819844041599 0 0 0 0 0.119792113542702 -11.40792942846875 0 0 0 0 -522.3816790681971 672.2151357242216 0 0 0 0 0 0 0 0 0 0 0 0 0 0 0 0 0 0 0 0 0 0 0 0 0 0 0 0 0 0 0 0 0 0 0 0 0.05405073230998027 0 0 0 0.1214310406136577 -6.470562065407308 -85.95959108954416 0 0 0 -608.3936819629802 591.1388612654289 -2.383260157039706 0 0 0 0.04695251018372737 -144.9967470857301 448.6429689358307 0 0 0 -71.42828957868562 989.6525471598306 0 0 0 0 0 0 0 0 0 0 0 0 0.0915560524645621 0 0 0 0.1225679396907201 -2.947195378818367 -201.900503160314 0 0 0 -724.3709624548276 478.6838105610934 -2.578104719655003 0 0 0 0.04094753017532948 -152.1072607385667 459.7316141347222 0 0 0 -60.15080479718722 993.825523268501 0 0 0 0 0 0 0 0 0 0 0 0 0.07736847070232096 0 0 0 0.1221379039448165 -4.289704068899173 -147.0414800880831 0 0 0 -669.4981818365803 532.2145125250058 -0.7800393134209638 0 0 0 0.09607563439579081 -69.01461011071055 296.9592545323732 0 0 0 -224.6661017015499 912.3477488877739 0 0 0 0 0 0 0 0 0 0 0 0 0.1125487759523596 0 0 0 0.1232041715218175 -0.9385921839645799 -361.5326271468841 0 0 0 -884.0234429330544 321.0392970458893 -0.7253304588685398 0 0 0 0.09774293077827345 -65.61543165038874 287.6532304047224 0 0 0 -234.0251673873707 906.3861943658924 0 0 0 0 0 0 0 0 0 0 0 0 0.09576710654181164 0 0 0 0.1226955721310027 -2.546414171019257 -222.9967252944092 0 0 0 -745.4712680105598 457.9841585807201 -0.7725940850678725 0 0 0 0.09630256851312935 -68.55646974555398 295.7265661120786 0 0 0 -225.9060084160802 911.5657556042827 0 0 0 0 0 0 0 0 0 0 0 0 0.1060746291989274 0 0 0 0.1230079671457718 -1.560898510317582 -292.3146775432258 0 0 0 -814.7992153870188 389.641414469948 -1.214476897042524 0 0 0 0.08281477038388263 -93.60690812855165 355.4077455563754 0 0 0 -165.796433957938 946.6383794775567 0 0 0 0 0.09851868639035012 -9.685728543967244 0 0 0 0 -2461.312900868142 3210.740838738222 0 0 0 0 0 0 0 0 0 0 0 0 0 0 0 0 0 0 0 0 0 0 0 0 0 0 0 0 0 0 0 0 0 0 0 0 0.04446013872335904 0 0 0 0.09986611062381637 -5.41925729417382 -405.1504950811155 0 0 0 -2866.506508663747 2809.812354768177 -1.973623642002635 0 0 0 0.03862216009981112 -177.173053591035 2122.730653834885 0 0 0 -336.6685199175449 5167.957791168043 0 0 0 0 0 0 0 0 0 0 0 0 0.07530283188114642 0 0 0 0.100800791397359 -2.444434534555036 -951.4733312440869 0 0 0 -3412.859252839103 2266.433498671667 -2.136127666716997 0 0 0 0.03368314678638606 -189.3583578237845 2175.722661487592 0 0 0 -283.5189472534366 5208.926998612715 0 0 0 0 0 0 0 0 0 0 0 0 0.06363635232534884 0 0 0 0.1004472460678822 -3.571146908208275 -692.9870703859781 0 0 0 -3154.361679046769 2523.804713635678 -0.6431112981820406 0 0 0 0.07901910198694195 -68.69907084727035 1401.953701041189 0 0 0 -1058.735588113175 4554.32430877429 0 0 0 0 0 0 0 0 0 0 0 0 0.092563517175329 0 0 0 0.10132385519423 -0.7741707603769397 -1703.553483315977 0 0 0 -4164.95614253249 1516.006349688661 -0.5979156779693241 0 0 0 0.080390029192419 -64.70791160957602 1357.902149898785 0 0 0 -1102.830963948586 4514.218721249368 0 0 0 0 0 0 0 0 0 0 0 0 0.07876541491533721 0 0 0 0.1009057217065414 -2.109685278822164 -1050.870253294324 0 0 0 -3512.259532542065 2167.367863294128 -0.6369599064475879 0 0 0 0.07920569832102875 -68.15716388106573 1396.117803571986 0 0 0 -1064.577450377777 4549.024166879558 0 0 0 0 0 0 0 0 0 0 0 0 0.08724054282564125 0 0 0 0.1011625503424069 -1.289677101682157 -1377.454868733987 0 0 0 -3838.852366281003 1841.594780903695 -1.002489933652008 0 0 0 0.06811496460345468 -99.66347993573855 1678.981317247705 0 0 0 -781.3594974085718 4800.746894527809 3.278902543609509e-13 0 0 0 0.09093088069976922 -8.974553299667036 3.278902543609509e-13 0 0 0 -5163.154328294548 6746.439057745941 0 0 0 0 0 0 0 0 0 0 0 0 0 0 0 0 0 0 0 0 0 0 0 0 0 0 0 0 0 0 0 0 0 0 0 0 0.0410367479012114 0 0 0 0.09217447833539874 -5.012852683039774 -849.926959239745 0 0 0 -6013.121080684558 5900.432762374923 -1.823118751570642 0 0 0 0.03564837117373942 -175.1439369335425 4455.119430825833 0 0 0 -706.2670612266702 11037.21222368947 0 0 0 0 0 0 0 0 0 0 0 0 0.06950372870005493 0 0 0 0.09303713592749117 -2.258449082993447 -1995.971846666507 0 0 0 -7159.193572434527 4757.113811567408 -1.973357986179751 0 0 0 0.03108970794614918 -188.0473495864946 4566.470169543053 0 0 0 -594.7706419380684 11135.80978898835 0 0 0 0 0 0 0 0 0 0 0 0 0.05873596225699242 0 0 0 0.09271083362104657 -3.300912896472684 -1453.737548358649 0 0 0 -6616.948832662532 5298.316413828229 -0.5937546435404993 0 0 0 0.07293369945617278 -65.14915039457324 2941.600827013941 0 0 0 -2220.977743818309 9632.459042308517 0 0 0 0 0 0 0 0 0 0 0 0 0.08543457472282723 0 0 0 0.09351989400573538 -0.714792979093028 -3573.613096576565 0 0 0 -8736.850270432529 3181.000286915227 -0.5520177156227472 0 0 0 0.07419900864390394 -61.26880153675407 2849.141847946862 0 0 0 -2313.477194504119 9543.838675171339 0 0 0 0 0 0 0 0 0 0 0 0 0.07269955661547653 0 0 0 0.09313398063943419 -1.948909983507238 -2204.478516617411 0 0 0 -7367.703341368634 4548.913484888075 -0.588073912141288 0 0 0 0.0731059202468175 -64.62159636702596 2929.351778265556 0 0 0 -2233.232301077303 9620.73186685628 0 0 0 0 0 0 0 0 0 0 0 0 0.08052172910582932 0 0 0 0.09337101884092314 -1.191004828018923 -2889.557394358357 0 0 0 -8052.789804243869 3864.584690130127 -0.9256844377461005 0 0 0 0.062869581884615 -95.6552957138089 3523.137119125316 0 0 0 -1639.119586030301 10183.82111889486 0 0 0 0 0.1032443404556974 -10.11060835766597 0 0 0 0 -1644.35590886331 2141.443538062206 0 0 0 0 0 0 0 0 0 0 0 0 0 0 0 0 0 0 0 0 0 0 0 0 0 0 0 0 0 0 0 0 0 0 0 0 0.04659174473270061 0 0 0 0.1046564536520014 -5.666617691806429 -270.6625419050357 0 0 0 -1915.063630399882 1875.178395078298 -2.066565338713013 0 0 0 0.04047377344539127 -174.3905238052864 1417.439889043629 0 0 0 -224.9122250479777 3396.670076996928 0 0 0 0 0 0 0 0 0 0 0 0 0.07891414921335206 0 0 0 0.1056360087460182 -2.559062786802718 -635.6469334654701 0 0 0 -2280.079364809703 1513.269236018386 -2.236575706587684 0 0 0 0.03529790486525419 -185.6877833500458 1452.782195945263 0 0 0 -189.4050836470497 3420.885134721677 0 0 0 0 0 0 0 0 0 0 0 0 0.06668786308785325 0 0 0 0.1052654895060071 -3.73691840306809 -462.9577253966849 0 0 0 -2107.378300974032 1684.792814757031 -0.6737577583001038 0 0 0 0.08280876572477003 -70.12387564704055 936.3955789571917 0 0 0 -707.3070077225489 3018.499607488324 0 0 0 0 0 0 0 0 0 0 0 0 0.09700328583915788 0 0 0 0.1061841853241882 -0.8110197806845586 -1138.102126399363 0 0 0 -2782.552098703643 1012.543996953985 -0.6264198323659599 0 0 0 0.08424548763926532 -66.14588853149995 906.9820562304938 0 0 0 -736.7664316532664 2993.016733951232 0 0 0 0 0 0 0 0 0 0 0 0 0.0825429036610064 0 0 0 0.1057459768384124 -2.208913411755492 -702.0523052720667 0 0 0 -2346.488255402655 1447.210384832389 -0.6673148875011545 0 0 0 0.08300431725598456 -69.58440709173641 932.4989722823075 0 0 0 -711.2098617167007 3015.136026497944 0 0 0 0 0 0 0 0 0 0 0 0 0.09142480080988889 0 0 0 0.1060151360512574 -1.350782476803945 -920.2389647176778 0 0 0 -2564.683527586202 1229.872974424581 -1.050109820636194 0 0 0 0.07138136432278364 -100.6205257427333 1121.340371919097 0 0 0 -521.9972900997088 3173.324102416872 0 0 0 0 0.1175208601211754 -11.25287030254965 0 0 0 0 -599.0328744832904 772.6550272689806 0 0 0 0 0 0 0 0 0 0 0 0 0 0 0 0 0 0 0 0 0 0 0 0 0 0 0 0 0 0 0 0 0 0 0 0 0.05302761770116769 0 0 0 0.1191286188208298 -6.367893367284209 -98.57847936338678 0 0 0 -697.6627737056787 678.9084972231581 -2.340891510818939 0 0 0 0.04606391430635659 -150.1656230593781 514.8491230169053 0 0 0 -81.91431690138086 1150.932289039876 0 0 0 0 0 0 0 0 0 0 0 0 0.08982137952856142 0 0 0 0.1202438953702268 -2.895582582232139 -231.5336836411316 0 0 0 -830.6536564687013 549.388809968638 -2.532508472173629 0 0 0 0.04017269763820153 -157.8398316118302 527.5962396751326 0 0 0 -68.98147449846715 1156.196814107006 0 0 0 0 0 0 0 0 0 0 0 0 0.07590312425137259 0 0 0 0.1198220385594472 -4.217279464606534 -168.6247056550952 0 0 0 -767.7311820841986 610.9900093275772 -0.7655822013996652 0 0 0 0.09425512498426569 -69.73221006866316 340.6509026431506 0 0 0 -257.639655373877 1055.592172347417 0 0 0 0 0 0 0 0 0 0 0 0 0.1104152425209093 0 0 0 0.1208680262602966 -0.9212668374649817 -414.5866948692285 0 0 0 -1013.726637428901 368.289520622316 -0.711868544179808 0 0 0 0.09589075096913313 -66.21297510216013 329.9707003664948 0 0 0 -268.3719356817678 1048.377491380045 0 0 0 0 0 0 0 0 0 0 0 0 0.09395245734674941 0 0 0 0.1203691003100784 -2.501340455625026 -255.7253368508058 0 0 0 -854.849315551254 525.5872678077527 -0.7582722414225066 0 0 0 0.09447774862901681 -69.2574361805226 339.2361561940129 0 0 0 -259.061489159347 1054.644889826443 0 0 0 0 0 0 0 0 0 0 0 0 0.104064148751971 0 0 0 0.1206755536743146 -1.532544758959393 -335.2136697410065 0 0 0 -934.3474536794956 447.0576189228124 -1.192217328358543 0 0 0 0.08124605801443097 -95.41403984271916 407.7450916670666 0 0 0 -190.1318402899719 1097.431166724236 0 0 0 0 0.1134638052883789 -10.95532325653594 0 0 0 0 -776.3638085439668 1004.960998939169 0 0 0 0 0 0 0 0 0 0 0 0 0 0 0 0 0 0 0 0 0 0 0 0 0 0 0 0 0 0 0 0 0 0 0 0 0.05119945530419742 0 0 0 0.1150159233417101 -6.177547872055531 -127.7716712355777 0 0 0 -904.1851271167955 881.9159036327673 -2.264204142780709 0 0 0 0.04447606064716236 -158.8288194513632 667.9953749009488 0 0 0 -106.1732172448785 1527.347081788071 0 0 0 0 0 0 0 0 0 0 0 0 0.08672235354946238 0 0 0 0.1160926006806969 -2.801871501669261 -300.0889744134242 0 0 0 -1076.536876515548 712.9387539270618 -2.449890694313502 0 0 0 0.03878808813062085 -167.5582350464172 684.5778198013334 0 0 0 -89.41077376547776 1535.385797644934 0 0 0 0 0 0 0 0 0 0 0 0 0.07328506621691122 0 0 0 0.1156853443510113 -4.084770192806944 -218.5566108108706 0 0 0 -994.9914828819916 793.2016561258104 -0.739638099703655 0 0 0 0.09100282526066839 -70.586939954572 441.7237950341762 0 0 0 -333.9228363901146 1387.792815375013 0 0 0 0 0 0 0 0 0 0 0 0 0.106604051468588 0 0 0 0.1166951299064684 -0.8901497402914307 -537.3258726910852 0 0 0 -1313.793053961902 477.5936957128596 -0.6877172680692267 0 0 0 0.0925819008311568 -66.87939562907897 427.8649485013246 0 0 0 -347.83202467903 1377.58959233602 0 0 0 0 0 0 0 0 0 0 0 0 0.09071062168471553 0 0 0 0.1162134722233189 -2.419683739138899 -331.4418486825066 0 0 0 -1107.893618181223 681.9640791523746 -0.7325718845123872 0 0 0 0.09121775210333427 -70.0859316111122 439.8879275047551 0 0 0 -335.7655552078845 1386.45088997386 0 0 0 0 0 0 0 0 0 0 0 0 0.1004726525484973 0 0 0 0.116509319008786 -1.48145220458444 -434.459199517609 0 0 0 -1210.920435200404 579.875197820963 -1.152180054923736 0 0 0 0.07844339913296983 -98.05994383817932 528.8158024724269 0 0 0 -246.4308464227717 1447.824360884876 3.885141628384548e-14 0 0 0 0.1171826566146916 -11.22904523419331 3.885141628384548e-14 0 0 0 -611.6710247444066 789.2137336575884 0 0 0 0 0 0 0 0 0 0 0 0 0 0 0 0 0 0 0 0 0 0 0 0 0 0 0 0 0 0 0 0 0 0 0 0 0.05287524751631142 0 0 0 0.1187857753960116 -6.352355171554225 -100.6590550427627 0 0 0 -712.3813519159042 693.3784934299485 -2.334546179531459 0 0 0 0.04593157561585581 -150.919740266373 525.7644992901074 0 0 0 -83.6432303557666 1177.622084095048 0 0 0 0 0 0 0 0 0 0 0 0 0.08956305999811084 0 0 0 0.1198978331006375 -2.887842287380389 -236.4195505613085 0 0 0 -848.1774231892273 561.0458229830948 -2.525676571078168 0 0 0 0.04005730019981923 -158.6798962222819 538.7850177745095 0 0 0 -70.43745575523383 1183.073577015087 0 0 0 0 0 0 0 0 0 0 0 0 0.07568490473135794 0 0 0 0.1194771938478077 -4.206381694816683 -172.1833068854981 0 0 0 -783.9277219974028 623.9774054067357 -0.7634251036459131 0 0 0 0.09398402579140241 -69.82488883065977 347.8545193449727 0 0 0 -263.0762789266113 1079.23583450974 0 0 0 0 0 0 0 0 0 0 0 0 0.1100975412727681 0 0 0 0.120520162587034 -0.9186808465955592 -423.3341721803981 0 0 0 -1035.111956960105 376.0798283235154 -0.7098601858912248 0 0 0 0.09561493663084364 -66.2885798819686 336.9477590445242 0 0 0 -274.0349732339751 1071.811818240229 0 0 0 0 0 0 0 0 0 0 0 0 0.09368223063721043 0 0 0 0.1200226766708177 -2.4945873621439 -261.1215746410995 0 0 0 -872.8834415960872 536.7329346579012 -0.7561353627466334 0 0 0 0.09420600768333687 -69.34774427486516 346.4097574004904 0 0 0 -264.5281086301009 1078.260927380154 0 0 0 0 0 0 0 0 0 0 0 0 0.1037647668509488 0 0 0 0.1203282455325641 -1.528306589116336 -342.2867884574347 0 0 0 -954.0584323797746 456.5239190783797 -1.188892751200112 0 0 0 0.08101244804978203 -95.66454942965356 416.3740850155143 0 0 0 -194.1442171862572 1122.341207228843 0 0 0 0 0.1133187473286045 -10.9442312297895 0 0 0 0 -783.8851737741658 1014.812598354738 0 0 0 0 0 0 0 0 0 0 0 0 0 0 0 0 0 0 0 0 0 0 0 0 0 0 0 0 0 0 0 0 0 0 0 0 0.05113407713508851 0 0 0 0.1148688767147907 -6.170590557090961 -129.0098719562084 0 0 0 -912.9446296781232 890.5252329940927 -2.261440483061662 0 0 0 0.04441927509012356 -159.1200834947124 674.4904984095119 0 0 0 -107.2021343538307 1543.388684982388 0 0 0 0 0 0 0 0 0 0 0 0 0.08661153986880149 0 0 0 0.1159441744807743 -2.79848807723875 -302.9966880458056 0 0 0 -1086.965847932688 719.875041921614 -2.446911417156742 0 0 0 0.03873857017481308 -167.8879005042023 691.2355806916511 0 0 0 -90.27726184251173 1551.551421189133 0 0 0 0 0 0 0 0 0 0 0 0 0.07319144672653104 0 0 0 0.1155374399852164 -4.079964240180701 -220.6744271785751 0 0 0 -1004.630573706811 800.9292467190448 -0.7387078986198433 0 0 0 0.09088653248803735 -70.60682978740904 446.0105749533029 0 0 0 -337.1583231370836 1401.899282649041 0 0 0 0 0 0 0 0 0 0 0 0 0.1064677812292559 0 0 0 0.1165459316464381 -0.8890335122305559 -542.5317607962276 0 0 0 -1326.520175167305 482.2295674948397 -0.6868514949895261 0 0 0 0.09246358658325571 -66.89328325694385 432.016919618286 0 0 0 -351.2022578216356 1391.567317440859 0 0 0 0 0 0 0 0 0 0 0 0 0.09059470296710358 0 0 0 0.1160648911441571 -2.416739424544604 -334.6533005431618 0 0 0 -1118.626322876479 688.5961949138537 -0.7316504441060198 0 0 0 0.0911011841962529 -70.1049814638917 444.1568473867412 0 0 0 -339.018893506451 1400.540345951483 0 0 0 0 0 0 0 0 0 0 0 0 0.1003442350215339 0 0 0 0.1163603588422574 -1.479615807660059 -438.6686191645871 0 0 0 -1222.651095562261 585.5082503772585 -1.150742595088993 0 0 0 0.07834318014520525 -98.13909767762732 533.9506881641279 0 0 0 -248.8187185821324 1462.719162666117 0 0 0 0 0.1090903312630726 -10.60856037721236 0 0 0 0 -1050.906285266318 1364.504032059321 0 0 0 0 0 0 0 0 0 0 0 0 0 0 0 0 0 0 0 0 0 0 0 0 0 0 0 0 0 0 0 0 0 0 0 0 0.04922796616663327 0 0 0 0.1105825108138282 -5.9637083464497 -172.9678161034906 0 0 0 -1223.921837156425 1196.131840020426 -2.180301214103923 0 0 0 0.04276365043942665 -166.8481374050987 905.0621233905185 0 0 0 -143.7301873425192 2115.506879636057 0 0 0 0 0 0 0 0 0 0 0 0 0.08338108584989154 0 0 0 0.1116176080792617 -2.698986212583686 -406.2250633690461 0 0 0 -1457.212202444398 966.1051617690531 -2.359391310485143 0 0 0 0.03729481368192022 -176.7313980533469 927.5798521239865 0 0 0 -121.0388373494277 2128.320437817658 0 0 0 0 0 0 0 0 0 0 0 0 0.07046213232964706 0 0 0 0.1112260797041927 -3.938048133129157 -295.8601340548591 0 0 0 -1346.834745705066 1075.243948116215 -0.711524165632852 0 0 0 0.08749639384406793 -70.85096373701566 598.193154597752 0 0 0 -452.0232004403522 1903.166307462902 0 0 0 0 0 0 0 0 0 0 0 0 0.1024954459569131 0 0 0 0.1121968676663674 -0.8563987216932571 -727.3493135335173 0 0 0 -1778.354987709389 646.8043847353656 -0.6615544960083637 0 0 0 0.08901453434790108 -66.98825792191468 579.4139441907964 0 0 0 -470.8508623764285 1888.199833201423 0 0 0 0 0 0 0 0 0 0 0 0 0.08721546579105667 0 0 0 0.1117338116075403 -2.33025451610767 -448.6648984057313 0 0 0 -1499.655755657496 924.0302240489029 -0.7047232972316344 0 0 0 0.08770302704239918 -70.32812119620782 595.7054179300642 0 0 0 -454.517531343243 1901.194612467621 0 0 0 0 0 0 0 0 0 0 0 0 0.09660074238727934 0 0 0 0.112018232821801 -1.425829742684861 -588.109794125595 0 0 0 -1639.109752232742 785.4803678258656 -1.108682925623686 0 0 0 0.07542151300007305 -99.92545374522422 716.2394199047941 0 0 0 -333.5918512541633 1992.535241521726 0 0 0 0 0.1175838264060888 -11.25728544105675 0 0 0 0 -596.7174482270389 769.6212699438399 0 0 0 0 0 0 0 0 0 0 0 0 0 0 0 0 0 0 0 0 0 0 0 0 0 0 0 0 0 0 0 0 0 0 0 0 0.05305598516779843 0 0 0 0.1191924489940529 -6.370779277852473 -98.19729832995685 0 0 0 -694.9661939195755 676.2574217919196 -2.342071866110733 0 0 0 0.0460885523587895 -150.024710928143 512.8493079567356 0 0 0 -81.59756367823979 1146.0452242796 0 0 0 0 0 0 0 0 0 0 0 0 0.08986947267257361 0 0 0 0.1203083248481705 -2.89702213693443 -230.638547161522 0 0 0 -827.4431403627913 547.2531166137678 -2.53377925071249 0 0 0 0.04019418162366062 -157.6829702912391 525.5463336091002 0 0 0 -68.71472501200856 1151.27569795347 0 0 0 0 0 0 0 0 0 0 0 0 0.07594375150754731 0 0 0 0.1198862413447652 -4.219305246161605 -167.9727365644708 0 0 0 -764.7638261280786 608.6105698227568 -0.7659836865306409 0 0 0 0.09430559748200151 -69.71453984564766 339.3311275888086 0 0 0 -256.6436151806237 1051.261126814588 0 0 0 0 0 0 0 0 0 0 0 0 0.1104743915812111 0 0 0 0.1209327911350857 -0.9217481235433146 -412.9840757074061 0 0 0 -1009.808649361297 366.8622571623662 -0.7122423524068164 0 0 0 0.09594210134784542 -66.19850835933583 328.6924332502799 0 0 0 -267.3344143494104 1044.084722628248 0 0 0 0 0 0 0 0 0 0 0 0 0.09400276740288352 0 0 0 0.1204335970701733 -2.502596589649251 -254.7366957029018 0 0 0 -851.5452969266795 523.5452603249428 -0.7586699643221712 0 0 0 0.09452834061039816 -69.24021059831392 337.9218803121223 0 0 0 -258.0599534363901 1050.318895063027 0 0 0 0 0 0 0 0 0 0 0 0 0.1041198870296659 0 0 0 0.1207402151166909 -1.533333368486183 -333.9178085128934 0 0 0 -930.7362202382512 445.3232936164875 -1.192836016614416 0 0 0 0.08128955068143906 -95.36684307709027 406.1641712039901 0 0 0 -189.3967352821589 1092.868719528411 0 0 0 0 0.1198014899332527 -11.40855125258101 0 0 0 0 -522.0925572824118 671.8362491058741 0 0 0 0 0 0 0 0 0 0 0 0 0 0 0 0 0 0 0 0 0 0 0 0 0 0 0 0 0 0 0 0 0 0 0 0 0.05405495546504226 0 0 0 0.1214405457075359 -6.470979657388294 -85.91199348608396 0 0 0 -608.0569666681864 590.8077722595178 -2.383434154018369 0 0 0 0.04695617802756136 -144.9750964360737 448.3932314696843 0 0 0 -71.38873697061479 989.0463695460842 0 0 0 0 0 0 0 0 0 0 0 0 0.09156321328983641 0 0 0 0.1225775340707821 -2.947407075974094 -201.7887290205641 0 0 0 -723.9700734721282 478.4171010486272 -2.578291891725835 0 0 0 0.04095072840133085 -152.083336432919 459.4756200719983 0 0 0 -60.1174960802195 993.2153758892603 0 0 0 0 0 0 0 0 0 0 0 0 0.07737451956066629 0 0 0 0.1221474645514827 -4.290000220374696 -146.9600697042703 0 0 0 -669.1276555316244 531.9173559142496 -0.7800988873294881 0 0 0 0.09608314962698283 -69.01131436319986 296.7944487723523 0 0 0 -224.5417279630363 911.8080336549372 0 0 0 0 0 0 0 0 0 0 0 0 0.1125575836669522 0 0 0 0.1232138158706551 -0.9386635536666511 -361.3325115185693 0 0 0 -883.5342140587106 320.8610677025523 -0.7253859380969675 0 0 0 0.09775057677339416 -65.61264928623135 287.4936082541111 0 0 0 -233.8956140033636 905.8511452644319 0 0 0 0 0 0 0 0 0 0 0 0 0.09577459757685282 0 0 0 0.1227051765350323 -2.546599210970908 -222.8732754562166 0 0 0 -745.0587036496036 457.7291510936907 -0.772653102478874 0 0 0 0.09631010154178132 -68.5532450010742 295.5624471038043 0 0 0 -225.7809484645201 911.0266555636641 0 0 0 0 0 0 0 0 0 0 0 0 0.1060829288147637 0 0 0 0.1230175960848333 -1.561015157837642 -292.1528659322692 0 0 0 -814.3482900373441 389.4248363395336 -1.214568539937356 0 0 0 0.08282124600111107 -93.59902331466057 355.2103264117148 0 0 0 -165.7046425746917 946.0706719954467 0 0 0 0 0.119792113542702 -11.40792942846875 0 0 0 0 -522.3816790681971 672.2151357242216 0 0 0 0 0 0 0 0 0 0 0 0 0 0 0 0 0 0 0 0 0 0 0 0 0 0 0 0 0 0 0 0 0 0 0 0 0.05405073230998027 0 0 0 0.1214310406136577 -6.470562065407308 -85.95959108954416 0 0 0 -608.3936819629802 591.1388612654289 -2.383260157039706 0 0 0 0.04695251018372737 -144.9967470857301 448.6429689358307 0 0 0 -71.42828957868562 989.6525471598306 0 0 0 0 0 0 0 0 0 0 0 0 0.0915560524645621 0 0 0 0.1225679396907201 -2.947195378818367 -201.900503160314 0 0 0 -724.3709624548276 478.6838105610934 -2.578104719655003 0 0 0 0.04094753017532948 -152.1072607385667 459.7316141347222 0 0 0 -60.15080479718722 993.825523268501 0 0 0 0 0 0 0 0 0 0 0 0 0.07736847070232096 0 0 0 0.1221379039448165 -4.289704068899173 -147.0414800880831 0 0 0 -669.4981818365803 532.2145125250058 -0.7800393134209638 0 0 0 0.09607563439579081 -69.01461011071055 296.9592545323732 0 0 0 -224.6661017015499 912.3477488877739 0 0 0 0 0 0 0 0 0 0 0 0 0.1125487759523596 0 0 0 0.1232041715218175 -0.9385921839645799 -361.5326271468841 0 0 0 -884.0234429330544 321.0392970458893 -0.7253304588685398 0 0 0 0.09774293077827345 -65.61543165038874 287.6532304047224 0 0 0 -234.0251673873707 906.3861943658924 0 0 0 0 0 0 0 0 0 0 0 0 0.09576710654181164 0 0 0 0.1226955721310027 -2.546414171019257 -222.9967252944092 0 0 0 -745.4712680105598 457.9841585807201 -0.7725940850678725 0 0 0 0.09630256851312935 -68.55646974555398 295.7265661120786 0 0 0 -225.9060084160802 911.5657556042827 0 0 0 0 0 0 0 0 0 0 0 0 0.1060746291989274 0 0 0 0.1230079671457718 -1.560898510317582 -292.3146775432258 0 0 0 -814.7992153870188 389.641414469948 -1.214476897042524 0 0 0 0.08281477038388263 -93.60690812855165 355.4077455563754 0 0 0 -165.796433957938 946.6383794775567 0 0 0 0 0.1193418792940813 -11.37789046893561 0 0 0 0 -536.5141328969619 690.735005137594 0 0 0 0 0 0 0 0 0 0 0 0 0 0 0 0 0 0 0 0 0 0 0 0 0 0 0 0 0 0 0 0 0 0 0 0 0.0538479398868017 0 0 0 0.120974626617541 -6.450448382220203 -88.28618942809784 0 0 0 -624.852537517623 607.3224098563247 -2.374896144905374 0 0 0 0.0467763828279697 -146.0337726521637 460.8501584868588 0 0 0 -73.36164376166369 1019.30417758613 0 0 0 0 0 0 0 0 0 0 0 0 0.09121220089769452 0 0 0 0.1221072385810099 -2.937016507823698 -207.3640900155848 0 0 0 -743.9666697541574 491.7205768822234 -2.569106588703929 0 0 0 0.04079395316493706 -153.2540087385884 472.2446203287573 0 0 0 -61.77895390562975 1023.672613785403 0 0 0 0 0 0 0 0 0 0 0 0 0.07707801232769196 0 0 0 0.1216788244801381 -4.27545541575245 -151.0208676616324 0 0 0 -687.6097416257359 546.7394945168171 -0.7771776178427345 0 0 0 0.09571476549202873 -69.16971164949243 305.0150175170922 0 0 0 -230.745564875829 938.7353790919722 0 0 0 0 0 0 0 0 0 0 0 0 0.1121258470376314 0 0 0 0.1227410711434196 -0.9351636322010035 -371.3144022976822 0 0 0 -907.9372618498323 329.7512038296088 -0.7226655177897078 0 0 0 0.09737578306217454 -65.74604185391149 295.4556185685672 0 0 0 -240.3578149068369 932.5451378389751 0 0 0 0 0 0 0 0 0 0 0 0 0.09540739945114603 0 0 0 0.1222343897181604 -2.537518667826896 -229.0310276378511 0 0 0 -765.6376754238401 470.4489419014004 -0.7697591304498339 0 0 0 0.09594084503887035 -68.70818285764435 303.748760683427 0 0 0 -232.0190141173402 937.923232562762 0 0 0 0 0 0 0 0 0 0 0 0 0.1056760971040315 0 0 0 0.122545606674549 -1.555293329821205 -300.2241277215587 0 0 0 -836.8407329882441 400.2277984580456 -1.210073910990683 0 0 0 0.08250382030109171 -93.98158890096477 365.0576458425545 0 0 0 -170.2832512024096 974.39902645911 0 0 0 0 0.1193047135522257 -11.37539511784177 0 0 0 0 -537.7029071798818 692.2928035003102 0 0 0 0 0 0 0 0 0 0 0 0 0 0 0 0 0 0 0 0 0 0 0 0 0 0 0 0 0 0 0 0 0 0 0 0 0.05383119938431012 0 0 0 0.1209369507795197 -6.448782666715117 -88.48189482070316 0 0 0 -626.2370009627419 608.6836899313494 -2.374204929052709 0 0 0 0.04676184348002455 -146.1191396647176 461.8769743146307 0 0 0 -73.52427080627058 1021.800238197118 0 0 0 0 0 0 0 0 0 0 0 0 0.09118381643706668 0 0 0 0.1220692088713524 -2.936175081594285 -207.8236682222085 0 0 0 -745.6149947232082 492.8171714979121 -2.568362899215904 0 0 0 0.04078127531907061 -153.3484802510766 473.297159568584 0 0 0 -61.91590815031509 1026.185240834875 0 0 0 0 0 0 0 0 0 0 0 0 0.077054035250778 0 0 0 0.1216409286259951 -4.274276779976409 -151.3556000473245 0 0 0 -689.1332250473833 547.9612677556004 -0.7769412976100769 0 0 0 0.09568497633315864 -69.18223709497038 305.6926370971967 0 0 0 -231.2569485222941 940.9555399179883 0 0 0 0 0 0 0 0 0 0 0 0 0.1120909351741533 0 0 0 0.1227028433908181 -0.9348804804682966 -372.137212010343 0 0 0 -909.9488119955604 330.4840151921664 -0.7224454510490518 0 0 0 0.09734547561937268 -65.75655990426816 296.1119253987032 0 0 0 -240.8904955680624 934.746009563636 0 0 0 0 0 0 0 0 0 0 0 0 0.09537770619411007 0 0 0 0.1221963202802209 -2.53678347158167 -229.538612507328 0 0 0 -767.3340057866759 471.4974249330481 -0.7695250192824508 0 0 0 0.09591098533955666 -68.7204304725088 304.4235566405952 0 0 0 -232.5332192482168 940.1408498055208 0 0 0 0 0 0 0 0 0 0 0 0 0.1056431990519454 0 0 0 0.1225074399961579 -1.554830286607559 -300.889443726191 0 0 0 -838.6947913786807 401.1182814063015 -1.209710238694795 0 0 0 0.08247815171331596 -94.01216951011739 365.869356651696 0 0 0 -170.66066685133 976.7350959984253 0 0 0 0 0.1184183542437954 -11.31518350325516 0 0 0 0 -567.0997600915035 730.813692961732 0 0 0 0 0 0 0 0 0 0 0 0 0 0 0 0 0 0 0 0 0 0 0 0 0 0 0 0 0 0 0 0 0 0 0 0 0.05343193672116792 0 0 0 0.1200384274727248 -6.40881803941783 -93.32142713368923 0 0 0 -660.472999088685 642.345199355159 -2.357685316681335 0 0 0 0.04641507657060862 -148.1430671295956 487.2682587379867 0 0 0 -77.54581931450878 1083.61175339006 0 0 0 0 0 0 0 0 0 0 0 0 0.09050686485001268 0 0 0 0.121162246989384 -2.916055441146486 -219.1884314854041 0 0 0 -786.375954549012 519.9338826735867 -2.550586137877949 0 0 0 0.04047890420039746 -155.5915857339641 499.324511004451 0 0 0 -65.30260239921802 1088.412387873352 0 0 0 0 0 0 0 0 0 0 0 0 0.07648219040738026 0 0 0 0.1207371587194138 -4.246059124369218 -159.6330878244193 0 0 0 -726.8070113018546 578.1732473257914 -0.7713011595343841 0 0 0 0.094974526183352 -69.46818374090464 322.4491091581094 0 0 0 -243.9027936019202 995.8811030417264 0 0 0 0 0 0 0 0 0 0 0 0 0.1112583233217134 0 0 0 0.1217911588990523 -0.9281217407083232 -392.4842256026802 0 0 0 -959.6918712128502 348.6052707982769 -0.7171934668488227 0 0 0 0.09662266574679679 -65.99531358295417 312.3413738629203 0 0 0 -254.0629884502314 989.1921302118024 0 0 0 0 0 0 0 0 0 0 0 0 0.09466954305708829 0 0 0 0.12128841102281 -2.519210222166609 -242.0905187175411 0 0 0 -809.2820782953227 497.4244779822225 -0.7639376386215754 0 0 0 0.09519885298103137 -68.99984075628578 321.1102059448362 0 0 0 -245.2488360093086 995.0031792921593 0 0 0 0 0 0 0 0 0 0 0 0 0.1048586103941634 0 0 0 0.1215972119027802 -1.543771759415458 -317.3418387392585 0 0 0 -884.5432785834972 423.1384073559191 -1.201027479045425 0 0 0 0.08186596764152054 -94.72521103468213 385.9416287048691 0 0 0 -179.9936562941913 1034.54632161422 0 0 0 0 0.119782768663506 -11.40730954106444 0 0 0 0 -522.6700372209293 672.5930213357049 0 0 0 0 0 0 0 0 0 0 0 0 0 0 0 0 0 0 0 0 0 0 0 0 0 0 0 0 0 0 0 0 0 0 0 0 0.05404652334297814 0 0 0 0.1214215674639064 -6.470145824315025 -86.00706297553475 0 0 0 -608.7295079210066 591.4690755535764 -2.383086737120653 0 0 0 0.04694885466192744 -145.0183228672138 448.8920466797418 0 0 0 -71.46773771806852 990.2571414264179 0 0 0 0 0 0 0 0 0 0 0 0 0.09154891570130347 0 0 0 0.1225583775550315 -2.946984381531171 -202.0119820778898 0 0 0 -724.7707926056289 478.9498155016469 -2.57791816766415 0 0 0 0.04094434269342795 -152.1311030022334 459.9869319421123 0 0 0 -60.18402553712303 994.4340779843122 0 0 0 0 0 0 0 0 0 0 0 0 0.07736244216806799 0 0 0 0.1221283754690054 -4.289408888825204 -147.1226754470486 0 0 0 -669.8677295033406 532.5108840987273 -0.7799799388014739 0 0 0 0.09606814441807832 -69.01789213171901 297.1236249667056 0 0 0 -224.7901469396677 912.8860436505572 0 0 0 0 0 0 0 0 0 0 0 0 0.1125399978368828 0 0 0 0.123194559585401 -0.9385210528133577 -361.7322142249558 0 0 0 -884.5113796528001 321.2170556011631 -0.7252751652844026 0 0 0 0.09773531047626216 -65.61820214646164 287.8124309233856 0 0 0 -234.1543785904466 906.9198348189775 0 0 0 0 0 0 0 0 0 0 0 0 0.09575964067889854 0 0 0 0.1226860000050883 -2.546229744193026 -223.119849072422 0 0 0 -745.8827427026887 458.2384924194753 -0.7725352650919545 0 0 0 0.0962950607977836 -68.55968101956481 295.8902516088922 0 0 0 -226.030738054811 912.1034367311886 0 0 0 0 0 0 0 0 0 0 0 0 0.1060663574737611 0 0 0 0.1229983705673423 -1.560782251401253 -292.4760617725912 0 0 0 -815.2489497490905 389.857420495303 -1.214385560015476 0 0 0 0.08280831652522314 -93.61476315681827 355.6046432152407 0 0 0 -165.8879828978115 947.2045964952071 0 0 0 0 0.1198014899332527 -11.40855125258101 0 0 0 0 -522.0925572824118 671.8362491058741 0 0 0 0 0 0 0 0 0 0 0 0 0 0 0 0 0 0 0 0 0 0 0 0 0 0 0 0 0 0 0 0 0 0 0 0 0.05405495546504226 0 0 0 0.1214405457075359 -6.470979657388294 -85.91199348608396 0 0 0 -608.0569666681864 590.8077722595178 -2.383434154018369 0 0 0 0.04695617802756136 -144.9750964360737 448.3932314696843 0 0 0 -71.38873697061479 989.0463695460842 0 0 0 0 0 0 0 0 0 0 0 0 0.09156321328983641 0 0 0 0.1225775340707821 -2.947407075974094 -201.7887290205641 0 0 0 -723.9700734721282 478.4171010486272 -2.578291891725835 0 0 0 0.04095072840133085 -152.083336432919 459.4756200719983 0 0 0 -60.1174960802195 993.2153758892603 0 0 0 0 0 0 0 0 0 0 0 0 0.07737451956066629 0 0 0 0.1221474645514827 -4.290000220374696 -146.9600697042703 0 0 0 -669.1276555316244 531.9173559142496 -0.7800988873294881 0 0 0 0.09608314962698283 -69.01131436319986 296.7944487723523 0 0 0 -224.5417279630363 911.8080336549372 0 0 0 0 0 0 0 0 0 0 0 0 0.1125575836669522 0 0 0 0.1232138158706551 -0.9386635536666511 -361.3325115185693 0 0 0 -883.5342140587106 320.8610677025523 -0.7253859380969675 0 0 0 0.09775057677339416 -65.61264928623135 287.4936082541111 0 0 0 -233.8956140033636 905.8511452644319 0 0 0 0 0 0 0 0 0 0 0 0 0.09577459757685282 0 0 0 0.1227051765350323 -2.546599210970908 -222.8732754562166 0 0 0 -745.0587036496036 457.7291510936907 -0.772653102478874 0 0 0 0.09631010154178132 -68.5532450010742 295.5624471038043 0 0 0 -225.7809484645201 911.0266555636641 0 0 0 0 0 0 0 0 0 0 0 0 0.1060829288147637 0 0 0 0.1230175960848333 -1.561015157837642 -292.1528659322692 0 0 0 -814.3482900373441 389.4248363395336 -1.214568539937356 0 0 0 0.08282124600111107 -93.59902331466057 355.2103264117148 0 0 0 -165.7046425746917 946.0706719954467 0 0 0 0 0.1198014899332527 -11.40855125258101 0 0 0 0 -522.0925572824118 671.8362491058741 0 0 0 0 0 0 0 0 0 0 0 0 0 0 0 0 0 0 0 0 0 0 0 0 0 0 0 0 0 0 0 0 0 0 0 0 0.05405495546504226 0 0 0 0.1214405457075359 -6.470979657388294 -85.91199348608396 0 0 0 -608.0569666681864 590.8077722595178 -2.383434154018369 0 0 0 0.04695617802756136 -144.9750964360737 448.3932314696843 0 0 0 -71.38873697061479 989.0463695460842 0 0 0 0 0 0 0 0 0 0 0 0 0.09156321328983641 0 0 0 0.1225775340707821 -2.947407075974094 -201.7887290205641 0 0 0 -723.9700734721282 478.4171010486272 -2.578291891725835 0 0 0 0.04095072840133085 -152.083336432919 459.4756200719983 0 0 0 -60.1174960802195 993.2153758892603 0 0 0 0 0 0 0 0 0 0 0 0 0.07737451956066629 0 0 0 0.1221474645514827 -4.290000220374696 -146.9600697042703 0 0 0 -669.1276555316244 531.9173559142496 -0.7800988873294881 0 0 0 0.09608314962698283 -69.01131436319986 296.7944487723523 0 0 0 -224.5417279630363 911.8080336549372 0 0 0 0 0 0 0 0 0 0 0 0 0.1125575836669522 0 0 0 0.1232138158706551 -0.9386635536666511 -361.3325115185693 0 0 0 -883.5342140587106 320.8610677025523 -0.7253859380969675 0 0 0 0.09775057677339416 -65.61264928623135 287.4936082541111 0 0 0 -233.8956140033636 905.8511452644319 0 0 0 0 0 0 0 0 0 0 0 0 0.09577459757685282 0 0 0 0.1227051765350323 -2.546599210970908 -222.8732754562166 0 0 0 -745.0587036496036 457.7291510936907 -0.772653102478874 0 0 0 0.09631010154178132 -68.5532450010742 295.5624471038043 0 0 0 -225.7809484645201 911.0266555636641 0 0 0 0 0 0 0 0 0 0 0 0 0.1060829288147637 0 0 0 0.1230175960848333 -1.561015157837642 -292.1528659322692 0 0 0 -814.3482900373441 389.4248363395336 -1.214568539937356 0 0 0 0.08282124600111107 -93.59902331466057 355.2103264117148 0 0 0 -165.7046425746917 946.0706719954467 0 0 0 0 0.1198014899332527 -11.40855125258101 0 0 0 0 -522.0925572824118 671.8362491058741 0 0 0 0 0 0 0 0 0 0 0 0 0 0 0 0 0 0 0 0 0 0 0 0 0 0 0 0 0 0 0 0 0 0 0 0 0.05405495546504226 0 0 0 0.1214405457075359 -6.470979657388294 -85.91199348608396 0 0 0 -608.0569666681864 590.8077722595178 -2.383434154018369 0 0 0 0.04695617802756136 -144.9750964360737 448.3932314696843 0 0 0 -71.38873697061479 989.0463695460842 0 0 0 0 0 0 0 0 0 0 0 0 0.09156321328983641 0 0 0 0.1225775340707821 -2.947407075974094 -201.7887290205641 0 0 0 -723.9700734721282 478.4171010486272 -2.578291891725835 0 0 0 0.04095072840133085 -152.083336432919 459.4756200719983 0 0 0 -60.1174960802195 993.2153758892603 0 0 0 0 0 0 0 0 0 0 0 0 0.07737451956066629 0 0 0 0.1221474645514827 -4.290000220374696 -146.9600697042703 0 0 0 -669.1276555316244 531.9173559142496 -0.7800988873294881 0 0 0 0.09608314962698283 -69.01131436319986 296.7944487723523 0 0 0 -224.5417279630363 911.8080336549372 0 0 0 0 0 0 0 0 0 0 0 0 0.1125575836669522 0 0 0 0.1232138158706551 -0.9386635536666511 -361.3325115185693 0 0 0 -883.5342140587106 320.8610677025523 -0.7253859380969675 0 0 0 0.09775057677339416 -65.61264928623135 287.4936082541111 0 0 0 -233.8956140033636 905.8511452644319 0 0 0 0 0 0 0 0 0 0 0 0 0.09577459757685282 0 0 0 0.1227051765350323 -2.546599210970908 -222.8732754562166 0 0 0 -745.0587036496036 457.7291510936907 -0.772653102478874 0 0 0 0.09631010154178132 -68.5532450010742 295.5624471038043 0 0 0 -225.7809484645201 911.0266555636641 0 0 0 0 0 0 0 0 0 0 0 0 0.1060829288147637 0 0 0 0.1230175960848333 -1.561015157837642 -292.1528659322692 0 0 0 -814.3482900373441 389.4248363395336 -1.214568539937356 0 0 0 0.08282124600111107 -93.59902331466057 355.2103264117148 0 0 0 -165.7046425746917 946.0706719954467 0 0 0 0 0.1198014899332527 -11.40855125258101 0 0 0 0 -522.0925572824118 671.8362491058741 0 0 0 0 0 0 0 0 0 0 0 0 0 0 0 0 0 0 0 0 0 0 0 0 0 0 0 0 0 0 0 0 0 0 0 0 0.05405495546504226 0 0 0 0.1214405457075359 -6.470979657388294 -85.91199348608396 0 0 0 -608.0569666681864 590.8077722595178 -2.383434154018369 0 0 0 0.04695617802756136 -144.9750964360737 448.3932314696843 0 0 0 -71.38873697061479 989.0463695460842 0 0 0 0 0 0 0 0 0 0 0 0 0.09156321328983641 0 0 0 0.1225775340707821 -2.947407075974094 -201.7887290205641 0 0 0 -723.9700734721282 478.4171010486272 -2.578291891725835 0 0 0 0.04095072840133085 -152.083336432919 459.4756200719983 0 0 0 -60.1174960802195 993.2153758892603 0 0 0 0 0 0 0 0 0 0 0 0 0.07737451956066629 0 0 0 0.1221474645514827 -4.290000220374696 -146.9600697042703 0 0 0 -669.1276555316244 531.9173559142496 -0.7800988873294881 0 0 0 0.09608314962698283 -69.01131436319986 296.7944487723523 0 0 0 -224.5417279630363 911.8080336549372 0 0 0 0 0 0 0 0 0 0 0 0 0.1125575836669522 0 0 0 0.1232138158706551 -0.9386635536666511 -361.3325115185693 0 0 0 -883.5342140587106 320.8610677025523 -0.7253859380969675 0 0 0 0.09775057677339416 -65.61264928623135 287.4936082541111 0 0 0 -233.8956140033636 905.8511452644319 0 0 0 0 0 0 0 0 0 0 0 0 0.09577459757685282 0 0 0 0.1227051765350323 -2.546599210970908 -222.8732754562166 0 0 0 -745.0587036496036 457.7291510936907 -0.772653102478874 0 0 0 0.09631010154178132 -68.5532450010742 295.5624471038043 0 0 0 -225.7809484645201 911.0266555636641 0 0 0 0 0 0 0 0 0 0 0 0 0.1060829288147637 0 0 0 0.1230175960848333 -1.561015157837642 -292.1528659322692 0 0 0 -814.3482900373441 389.4248363395336 -1.214568539937356 0 0 0 0.08282124600111107 -93.59902331466057 355.2103264117148 0 0 0 -165.7046425746917 946.0706719954467 0 0 0 0 0.1193325944528574 -11.37726729739679 0 0 0 0 -536.8107941219646 691.1237575677128 0 0 0 0 0 0 0 0 0 0 0 0 0 0 0 0 0 0 0 0 0 0 0 0 0 0 0 0 0 0 0 0 0 0 0 0 0.05384375773826555 0 0 0 0.1209652143424126 -6.450032325364567 -88.33502814016478 0 0 0 -625.1980333999782 607.6621206418421 -2.374723474762316 0 0 0 0.04677275057727126 -146.0551027774533 461.1064027918274 0 0 0 -73.40222769925055 1019.927048354246 0 0 0 0 0 0 0 0 0 0 0 0 0.09120510982370943 0 0 0 0.1220977379004907 -2.936806317395901 -207.4787787670323 0 0 0 -744.3780128553731 491.9942346708576 -2.568920811290488 0 0 0 0.04079078595911589 -153.2776127079384 472.5072839796657 0 0 0 -61.81313113950222 1024.299616948128 0 0 0 0 0 0 0 0 0 0 0 0 0.07707202231899407 0 0 0 0.1216693572398096 -4.275161000661419 -151.1044008649915 0 0 0 -687.9899302464883 547.0443909771377 -0.777118581052449 0 0 0 0.09570732349208499 -69.17284478191606 305.1841190237189 0 0 0 -230.8731817881541 939.2894176879649 0 0 0 0 0 0 0 0 0 0 0 0 0.1121171252676913 0 0 0 0.1227315209871772 -0.9350928963973706 -371.5197362654175 0 0 0 -908.4392485861155 329.9340785780271 -0.7226105413197365 0 0 0 0.0973682115830341 -65.74867328562189 295.6194014277314 0 0 0 -240.4907465357833 933.0943635485389 0 0 0 0 0 0 0 0 0 0 0 0 0.0953999814097737 0 0 0 0.1222248791126432 -2.537335011910718 -229.157696557068 0 0 0 -766.0609983757827 470.7105933147212 -0.769700645510249 0 0 0 0.09593338541636942 -68.71124655439397 303.9171575482181 0 0 0 -232.1473351372728 938.4766365044441 0 0 0 0 0 0 0 0 0 0 0 0 0.1056678784308561 0 0 0 0.1225360717760365 -1.555177656134112 -300.3901587904247 0 0 0 -837.303417313497 400.45002054012 -1.20998306051715 0 0 0 0.08249740771435499 -93.98923366199797 365.2602101405311 0 0 0 -170.3774361076549 974.9819844041599 0 0 0 0 0.1198014899332527 -11.40855125258101 0 0 0 0 -522.0925572824118 671.8362491058741 0 0 0 0 0 0 0 0 0 0 0 0 0 0 0 0 0 0 0 0 0 0 0 0 0 0 0 0 0 0 0 0 0 0 0 0 0.05405495546504226 0 0 0 0.1214405457075359 -6.470979657388294 -85.91199348608396 0 0 0 -608.0569666681864 590.8077722595178 -2.383434154018369 0 0 0 0.04695617802756136 -144.9750964360737 448.3932314696843 0 0 0 -71.38873697061479 989.0463695460842 0 0 0 0 0 0 0 0 0 0 0 0 0.09156321328983641 0 0 0 0.1225775340707821 -2.947407075974094 -201.7887290205641 0 0 0 -723.9700734721282 478.4171010486272 -2.578291891725835 0 0 0 0.04095072840133085 -152.083336432919 459.4756200719983 0 0 0 -60.1174960802195 993.2153758892603 0 0 0 0 0 0 0 0 0 0 0 0 0.07737451956066629 0 0 0 0.1221474645514827 -4.290000220374696 -146.9600697042703 0 0 0 -669.1276555316244 531.9173559142496 -0.7800988873294881 0 0 0 0.09608314962698283 -69.01131436319986 296.7944487723523 0 0 0 -224.5417279630363 911.8080336549372 0 0 0 0 0 0 0 0 0 0 0 0 0.1125575836669522 0 0 0 0.1232138158706551 -0.9386635536666511 -361.3325115185693 0 0 0 -883.5342140587106 320.8610677025523 -0.7253859380969675 0 0 0 0.09775057677339416 -65.61264928623135 287.4936082541111 0 0 0 -233.8956140033636 905.8511452644319 0 0 0 0 0 0 0 0 0 0 0 0 0.09577459757685282 0 0 0 0.1227051765350323 -2.546599210970908 -222.8732754562166 0 0 0 -745.0587036496036 457.7291510936907 -0.772653102478874 0 0 0 0.09631010154178132 -68.5532450010742 295.5624471038043 0 0 0 -225.7809484645201 911.0266555636641 0 0 0 0 0 0 0 0 0 0 0 0 0.1060829288147637 0 0 0 0.1230175960848333 -1.561015157837642 -292.1528659322692 0 0 0 -814.3482900373441 