<?xml version="1.0" encoding="UTF-8"?>
<!-- This file was created by ACADEMIC version of SMILE -->
<smile version="1.0" id="unknown" numsamples="10000" discsamples="10000">
	<nodes>
		<cpt id="Sex">
			<state id="M" />
			<state id="W" />
			<probabilities>0.695118 0.304882</probabilities>
		</cpt>
		<cpt id="Age">
			<state id="age_2_young" />
			<state id="age_3_young_adult" />
			<state id="age_4_adult" />
			<state id="age_5_old_adult" />
			<probabilities>0.19078 0.380053 0.298359 0.130808</probabilities>
		</cpt>
		<cpt id="SD">
			<state id="SD_1_short" />
			<state id="SD_2_normal" />
			<state id="SD_3_excessive" />
			<parents>Age Sex</parents>
			<probabilities>0.060844313 0.937824307 0.00133138 0.078497363 0.919507767 0.00199487 0.091220196 0.90787856 0.000901244 0.11412849 0.885107393 0.000764117 0.121549326 0.877796408 0.000654266 0.159430754 0.839586651 0.000982595 0.149294451 0.8500227970000001 0.000682752 0.225208895 0.774069936 0.000721169</probabilities>
		</cpt>
		<cpt id="SES">
			<state id="ses_0" />
			<state id="ses_1" />
			<state id="ses_2" />
			<parents>Age Sex</parents>
			<probabilities>0.265038 0.608924 0.126038 0.227351 0.606203 0.166446 0.2481707518292481 0.6176143823856175 0.1342148657851343 0.194898 0.6426539999999999 0.162448 0.252783 0.615168 0.132049 0.188273 0.641218 0.170509 0.2429122429122429 0.6313856313856314 0.1257021257021257 0.162707 0.664855 0.172438</probabilities>
		</cpt>
		<cpt id="Depression">
			<state id="False" />
			<state id="True" />
			<parents>Age SES Sex</parents>
			<probabilities>0.997863655 0.002136345 0.994321309 0.005678691 0.99885487 0.00114513 0.997887385 0.002112615 0.998969781 0.001030219 0.998266781 0.001733219 0.996706037 0.003293963 0.988462896 0.011537104 0.997612648 0.002387352 0.994959954 0.005040046 0.997874826 0.002125174 0.99539649 0.00460351 0.9932493100000001 0.00675069 0.9801555749999999 0.019844425 0.996694208 0.003305792 0.992654556 0.007345444 0.997027521 0.002972479 0.993538526 0.006461474 0.993046405 0.006953595 0.965170613 0.034829387 0.994559063 0.005440937 0.98925555 0.01074445 0.9972002679999999 0.002799732 0.993063387 0.006936613</probabilities>
		</cpt>
		<cpt id="PA">
			<state id="PA_1" />
			<state id="PA_2" />
			<parents>Age SD SES Sex</parents>
			<probabilities>0.482960174 0.517039826 0.620871248 0.379128752 0.471864678 0.528135322 0.554851444 0.445148556 0.424304227 0.575695773 0.490459825 0.509540175 0.394941489 0.605058511 0.514621382 0.485378618 0.389521957 0.610478043 0.461170736 0.538829264 0.336538844 0.663461156 0.362231129 0.637768871 0.524754729 0.475245271 0.542883361 0.457116639 0.42757625 0.57242375 0.5888450200000001 0.41115498 0.489527729 0.510472271 0.514850294 0.485149706 0.540085956 0.459914044 0.59533725 0.40466275 0.517562867 0.482437133 0.5801786209999999 0.419821379 0.471672205 0.528327795 0.541112446 0.458887554 0.468980888 0.531019112 0.525066668 0.474933332 0.467361722 0.532638278 0.496116563 0.503883437 0.393204847 0.606795153 0.427089822 0.572910178 0.486764295 0.513235705 0.50487751 0.49512249 0.550936659 0.449063341 0.58643991 0.41356009 0.512318406 0.487681594 0.533888241 0.466111759 0.56087748 0.43912252 0.538736484 0.461263516 0.518199623 0.481800377 0.512441111 0.487558889 0.448944356 0.551055644 0.447486087 0.552513913 0.484326733 0.515673267 0.479155827 0.520844173 0.484082075 0.515917925 0.452198731 0.547801269 0.39545848 0.6045415200000001 0.37222709 0.62777291 0.531613695 0.468386305 0.488367237 0.511632763 0.581409954 0.418590046 0.490921527 0.509078473 0.48954251 0.51045749 0.464206372 0.535793628 0.537268254 0.462731746 0.579118873 0.420881127 0.514437807 0.485562193 0.5156834259999999 0.484316574 0.464639523 0.535360477 0.473053893 0.526946107 0.483202866 0.516797134 0.500088604 0.499911396 0.473048548 0.526951452 0.436542761 0.563457239 0.393267294 0.606732706 0.378980607 0.621019393 0.492440477 0.507559523 0.533342164 0.466657836 0.6309098869999999 0.369090113 0.492169558 0.507830442 0.488970119 0.511029881 0.503256046 0.496743954</probabilities>
		</cpt>
		<cpt id="Smoking">
			<state id="sm_1_not_smoker" />
			<state id="sm_2_smoker" />
			<state id="sm_3_ex_smoker" />
			<parents>Age PA Sex</parents>
			<probabilities>0.446330401 0.440945892 0.112723707 0.529641379 0.337748088 0.132610534 0.557463069 0.325515129 0.117021802 0.5886502850000001 0.271293166 0.140056549 0.471714462 0.360802735 0.167482803 0.554434337 0.28323897 0.162326693 0.551256389 0.255864566 0.192879044 0.579066261 0.225941944 0.194991794 0.398959148 0.359016238 0.242024614 0.496183584 0.327477342 0.176339073 0.483745206 0.24334485 0.272909944 0.542385494 0.242025861 0.215588646 0.37681277 0.303406481 0.319780749 0.543890929 0.26998268 0.18612639 0.4486828 0.20376842 0.347548781 0.5693515179999999 0.188244006 0.242404476</probabilities>
		</cpt>
		<cpt id="Anxiety">
			<state id="False" />
			<state id="True" />
			<parents>Depression SD Sex Smoking</parents>
			<probabilities>0.971336721 0.028663279 0.9615512980000001 0.038448702 0.968828833 0.031171167 0.943572812 0.056427188 0.924390764 0.075609236 0.925219217 0.074780783 0.984691033 0.015308967 0.980021819 0.019978181 0.979219465 0.020780535 0.969387083 0.030612917 0.951017224 0.048982776 0.957426591 0.042573409 0.979844732 0.020155268 0.970985053 0.029014947 0.987399873 0.012600127 0.984583757 0.015416243 0.953909558 0.046090442 0.9500612859999999 0.049938714 0.87238812 0.12761188 0.88629607 0.11370393 0.926218112 0.073781888 0.910199251 0.089800749 0.850381421 0.149618579 0.912162308 0.08783769199999999 0.887635786 0.112364214 0.916113641 0.08388635899999999 0.875464154 0.124535846 0.900114221 0.09988577899999999 0.887995922 0.112004078 0.858307872 0.141692128 0.915760002 0.084239998 0.972142923 0.027857077 0.972142923 0.027857077 0.973071964 0.026928036 0.971281878 0.028718122 0.971245613 0.028754387</probabilities>
		</cpt>
		<cpt id="Alcohol">
			<state id="high" />
			<state id="low" />
			<parents>Age Sex Smoking</parents>
			<probabilities>0.006440306 0.993559694 0.025006952 0.974993048 0.019256092 0.980743908 0.001413651 0.998586349 0.004426413 0.995573587 0.002911964 0.997088036 0.019231995 0.9807680050000001 0.061380648 0.938619352 0.044717488 0.955282512 0.00302048 0.99697952 0.008328991000000001 0.991671009 0.00690617 0.99309383 0.052038441 0.947961559 0.134326352 0.865673648 0.09703972900000001 0.902960271 0.009248324 0.990751676 0.020016907 0.979983093 0.021599909 0.978400091 0.103943403 0.896056597 0.21175689 0.78824311 0.1629616 0.8370384 0.019931973 0.980068027 0.039153935 0.960846065 0.030181896 0.969818104</probabilities>
		</cpt>
		<cpt id="BMI">
			<state id="bmi_1_underweight" />
			<state id="bmi_2_normal" />
			<state id="bmi_3_overweight" />
			<state id="bmi_4_obese" />
			<parents>Age PA Sex Smoking</parents>
			<probabilities>0.006932337 0.405827629 0.419231818 0.168008215 0.013099617 0.446791412 0.391008827 0.149100144 0.005357608 0.335709669 0.45172678 0.207205942 0.049956089 0.654860039 0.204120659 0.091063214 0.067968655 0.6401471 0.192224039 0.099660206 0.040770745 0.633626296 0.215411425 0.110191534 0.002990791 0.535477987 0.377235618 0.084295604 0.008436353000000001 0.531863616 0.369361733 0.090338298 0.001517427 0.464137135 0.43166399 0.102681447 0.058817872 0.7117822069999999 0.164448222 0.064951698 0.054191728 0.70086799 0.170365884 0.074574398 0.036164178 0.702517794 0.185604945 0.075713083 0.001641685 0.304311832 0.481547262 0.212499221 0.005710138 0.344742465 0.449492701 0.200054696 0.001256896 0.22830507 0.494927316 0.275510718 0.030358861 0.60786677 0.239963269 0.1218111 0.039411622 0.59800915 0.249830043 0.112749185 0.022061478 0.571115555 0.274545154 0.132277812 0.001652834 0.426926902 0.44926847 0.122151794 0.004118361 0.402353375 0.461015239 0.132513025 0.000486406 0.328585612 0.499500428 0.171427554 0.034010075 0.676452006 0.203350167 0.08618775200000001 0.036077128 0.67214929 0.206867442 0.08490614 0.020230869 0.647274652 0.239095822 0.093398657 0.001241755 0.220345696 0.510119266 0.268293283 0.004605307 0.285101739 0.465571839 0.244721115 0.000543301 0.147949379 0.495925175 0.355582145 0.012451221 0.493821986 0.319496163 0.17423063 0.023428805 0.532743674 0.312302796 0.131524726 0.007733406 0.456598716 0.350007018 0.18566086 0.000822645 0.321627775 0.512940933 0.164608647 0.002545302 0.316431751 0.493400531 0.187622417 0.000440481 0.205498496 0.548690936 0.245370087 0.017710449 0.596761693 0.282985983 0.102541876 0.020386634 0.6101968639999999 0.274267264 0.095149238 0.010340505 0.57178982 0.310156253 0.107713421 0.0008818539999999999 0.17016489 0.519801186 0.309152069 0.007458112 0.275716949 0.459284453 0.257540485 0.000603617 0.119128558 0.482802397 0.397465428 0.006456409 0.365499465 0.385650355 0.242393771 0.020055464 0.467361196 0.36587761 0.14670573 0.003204784 0.363890078 0.402922768 0.229982369 0.0006687419999999999 0.249137387 0.546656377 0.203537495 0.005186149 0.29683172 0.499814007 0.198168124 0.000319515 0.163586929 0.551184751 0.284908806 0.01123616 0.477033685 0.371178884 0.140551272 0.014591224 0.5470441660000001 0.335189882 0.103174728 0.008640798999999999 0.474752803 0.375526209 0.141080189</probabilities>
		</cpt>
		<cpt id="Hyperchol_">
			<state id="False" />
			<state id="True" />
			<parents>Age Alcohol BMI PA Sex Smoking</parents>
			<probabilities>0.466145186 0.533854814 0.498714283 0.501285717 0.448949082 0.5510509179999999 0.448949082 0.5510509179999999 0.436380985 0.563619015 0.465471033 0.534528967 0.465471033 0.534528967 0.450401296 0.549598704 0.465471033 0.534528967 0.466145186 0.533854814 0.44942442 0.55057558 0.449296467 0.550703533 0.524512014 0.475487986 0.656359165 0.343640835 0.476129293 0.523870707 0.487493212 0.512506788 0.431150689 0.568849311 0.429230214 0.5707697859999999 0.542360475 0.457639525 0.583678742 0.416321258 0.529807363 0.470192637 0.536611961 0.463388039 0.537376217 0.462623783 0.485252543 0.514747457 0.467411585 0.532588415 0.470948698 0.5290513019999999 0.490112596 0.509887404 0.449013666 0.550986334 0.485440808 0.514559192 0.465471033 0.534528967 0.465224428 0.534775572 0.532650249 0.467349751 0.475227164 0.524772836 0.482320107 0.5176798929999999 0.522541941 0.477458059 0.448666281 0.5513337190000001 0.447915944 0.552084056 0.486344067 0.513655933 0.437771357 0.562228643 0.448318278 0.551681722 0.449360971 0.5506390289999999 0.448601257 0.551398743 0.425710251 0.574289749 0.423702477 0.576297523 0.409233794 0.590766206 0.465177412 0.534822588 0.448949082 0.5510509179999999 0.435233002 0.564766998 0.643548714 0.356451286 0.736291679 0.263708321 0.495230901 0.504769099 0.743362269 0.256637731 0.77084625 0.22915375 0.721697283 0.278302717 0.723345616 0.276654384 0.709917181 0.290082819 0.534927434 0.465072566 0.712944994 0.287055006 0.722246668 0.277753332 0.603084536 0.396915464 0.748597117 0.251402883 0.765892152 0.234107848 0.686176261 0.313823739 0.790214305 0.209785695 0.802753242 0.197246758 0.7598304259999999 0.240169574 0.795649456 0.204350544 0.796386595 0.203613405 0.742621984 0.257378016 0.780033381 0.219966619 0.787289477 0.212710523 0.751590946 0.248409054 0.63798352 0.36201648 0.61888669 0.38111331 0.58603984 0.41396016 0.704826305 0.295173695 0.700674756 0.299325244 0.668683292 0.331316708 0.701416087 0.298583913 0.665528514 0.334471486 0.643780393 0.356219607 0.703453486 0.296546514 0.702071306 0.297928694 0.655293546 0.344706454 0.553849142 0.446150858 0.5346477509999999 0.465352249 0.5177457009999999 0.482254299 0.681940374 0.318059626 0.67723163 0.32276837 0.65305908 0.34694092 0.595807106 0.404192894 0.5412975880000001 0.458702412 0.534255878 0.465744122 0.63795317 0.36204683 0.6188731 0.3811269 0.555621093 0.444378907 0.434876521 0.565123479 0.498616693 0.501383307 0.435233002 0.564766998 0.448949082 0.5510509179999999 0.456819886 0.543180114 0.449296686 0.5507033140000001 0.465808216 0.534191784 0.482519389 0.517480611 0.448949082 0.5510509179999999 0.48166638 0.5183336200000001 0.465937725 0.534062275 0.439570813 0.560429187 0.454525291 0.5454747089999999 0.438865516 0.561134484 0.377095308 0.622904692 0.512489047 0.487510953 0.496578212 0.503421788 0.442390213 0.557609787 0.433861485 0.566138515 0.434553637 0.565446363 0.416478109 0.583521891 0.515501774 0.484498226 0.496583148 0.503416852 0.531147626 0.468852374 0.366031715 0.633968285 0.317932366 0.682067634 0.318047629 0.6819523709999999 0.512211409 0.487788591 0.487506342 0.512493658 0.437561297 0.562438703 0.354939693 0.6450603070000001 0.347170226 0.652829774 0.361571798 0.6384282019999999 0.409223529 0.590776471 0.371908287 0.628091713 0.416264881 0.583735119 0.292855081 0.707144919 0.30864661 0.69135339 0.284297876 0.715702124 0.469205784 0.530794216 0.441679768 0.558320232 0.434602199 0.565397801 0.261164078 0.738835922 0.278248543 0.721751457 0.31661404 0.68338596 0.421995183 0.5780048169999999 0.448164938 0.551835062 0.434958629 0.565041371 0.635238544 0.364761456 0.599297108 0.400702892 0.447221307 0.552778693 0.648568457 0.351431543 0.648015347 0.351984653 0.552661538 0.447338462 0.573275644 0.426724356 0.549471852 0.450528148 0.483167524 0.516832476 0.659064249 0.340935751 0.622653419 0.377346581 0.5570795160000001 0.442920484 0.60458073 0.39541927 0.578169169 0.421830831 0.5274716149999999 0.472528385 0.740296881 0.259703119 0.720583835 0.279416165 0.702353351 0.297646649 0.649203534 0.350796466 0.600270156 0.399729844 0.588626279 0.411373721 0.734614816 0.265385184 0.7156833460000001 0.284316654 0.696509537 0.303490463 0.51241969 0.48758031 0.45427519 0.5457248099999999 0.454171836 0.545828164 0.64450909 0.35549091 0.615591668 0.384408332 0.614144347 0.385855653 0.544570483 0.455429517 0.485984242 0.514015758 0.492218948 0.507781052 0.633296651 0.366703349 0.6017463790000001 0.398253621 0.601701038 0.398298962 0.439863791 0.5601362090000001 0.397872006 0.6021279940000001 0.400644497 0.599355503 0.607723983 0.392276017 0.548483658 0.451516342 0.550029756 0.449970244 0.462234098 0.537765902 0.389736595 0.610263405 0.4078816 0.5921184 0.6000506799999999 0.39994932 0.527168353 0.472831647 0.570429178 0.429570822 0.448601257 0.551398743 0.42552229 0.57447771 0.434684256 0.565315744 0.464883977 0.5351160230000001 0.422164328 0.577835672 0.435315059 0.564684941 0.448601257 0.551398743 0.426719674 0.573280326 0.448949082 0.5510509179999999 0.434298455 0.565701545 0.444297582 0.555702418 0.4481002 0.5518998000000001 0.340436412 0.659563588 0.334737936 0.665262064 0.286679206 0.713320794 0.408594063 0.591405937 0.327595453 0.672404547 0.432553918 0.567446082 0.305175287 0.694824713 0.33055336 0.66944664 0.230811999 0.769188001 0.314459932 0.685540068 0.34235908 0.65764092 0.387908383 0.612091617 0.279728149 0.720271851 0.245380007 0.754619993 0.228378163 0.771621837 0.404883012 0.595116988 0.378475974 0.621524026 0.393080074 0.606919926 0.257984365 0.742015635 0.240341631 0.7596583690000001 0.227273047 0.772726953 0.368526926 0.631473074 0.346542279 0.653457721 0.405535715 0.594464285 0.234474859 0.765525141 0.23569893 0.76430107 0.238747347 0.761252653 0.357171852 0.642828148 0.384541844 0.615458156 0.407061796 0.592938204 0.264679813 0.735320187 0.234549805 0.765450195 0.226783972 0.773216028 0.435682188 0.564317812 0.425933353 0.574066647 0.429431096 0.570568904 0.457594463 0.542405537 0.462484951 0.537515049 0.496004017 0.503995983 0.475692628 0.524307372 0.43971282 0.56028718 0.464708944 0.535291056 0.426951225 0.573048775 0.459887756 0.540112244 0.482411396 0.517588604 0.446450263 0.553549737 0.512096232 0.487903768 0.446091978 0.553908022 0.435798393 0.564201607 0.426198592 0.573801408 0.362622319 0.637377681 0.515705797 0.484294203 0.474254583 0.525745417 0.4643778 0.5356222 0.46995358 0.53004642 0.428070309 0.571929691 0.408110611 0.591889389 0.517335828 0.482664172 0.454599203 0.545400797 0.468985241 0.5310147589999999 0.395450402 0.604549598 0.330471156 0.669528844 0.339888416 0.660111584 0.429908664 0.5700913359999999 0.356554069 0.643445931 0.381120215 0.618879785 0.394612897 0.605387103 0.33118533 0.6688146699999999 0.364880291 0.635119709 0.431997414 0.568002586 0.358107097 0.641892903 0.365673311 0.634326689 0.361238046 0.638761954 0.312968887 0.687031113 0.326662397 0.673337603 0.418940332 0.581059668 0.325988323 0.674011677 0.345654775 0.654345225 0.347847236 0.652152764 0.308539041 0.691460959 0.327150657 0.672849343 0.402934789 0.597065211 0.350327757 0.649672243 0.377649883 0.622350117 0.434958456 0.565041544 0.487441969 0.512558031 0.435233002 0.564766998 0.434876521 0.565123479 0.421533525 0.578466475 0.448601257 0.551398743 0.448949082 0.5510509179999999 0.470000918 0.529999082 0.448601257 0.551398743 0.435945067 0.564054933 0.449013268 0.550986732 0.433507159 0.566492841 0.283496463 0.716503537 0.27821845 0.72178155 0.25083882 0.74916118 0.392256199 0.607743801 0.354833525 0.645166475 0.346328023 0.653671977 0.279305155 0.720694845 0.279620896 0.720379104 0.251591606 0.748408394 0.339633051 0.660366949 0.361600811 0.638399189 0.355479797 0.644520203 0.248091712 0.751908288 0.236093858 0.763906142 0.235580731 0.764419269 0.329848312 0.670151688 0.332635607 0.6673643929999999 0.382763037 0.617236963 0.228121218 0.771878782 0.242747145 0.7572528549999999 0.236509737 0.763490263 0.385269182 0.614730818 0.316138615 0.683861385 0.394824524 0.605175476 0.256503852 0.743496148 0.229028962 0.770971038 0.212077577 0.787922423 0.404036887 0.595963113 0.406667571 0.5933324290000001 0.437094121 0.562905879 0.275235434 0.7247645660000001 0.235943026 0.7640569740000001 0.240734211 0.759265789 0.354962678 0.645037322 0.433233874 0.566766126 0.408199389 0.591800611 0.465059414 0.5349405860000001 0.439735966 0.560264034 0.452305158 0.547694842 0.401483513 0.598516487 0.359473079 0.640526921 0.448814818 0.551185182 0.466786457 0.533213543 0.460214046 0.539785954 0.434849198 0.565150802 0.336065695 0.6639343049999999 0.450607774 0.549392226 0.406007378 0.593992622 0.362609927 0.6373900729999999 0.323061571 0.676938429 0.324883662 0.675116338 0.251449613 0.748550387 0.254089943 0.745910057 0.226841122 0.773158878 0.344464953 0.655535047 0.313706712 0.686293288 0.319675185 0.680324815 0.255230491 0.7447695090000001 0.237387281 0.762612719 0.205835343 0.7941646570000001 0.343176756 0.656823244 0.297672398 0.702327602 0.313339234 0.686660766 0.228270185 0.771729815 0.220375847 0.779624153 0.206894107 0.793105893 0.334749585 0.665250415 0.299773046 0.700226954 0.315997666 0.684002334 0.220650231 0.779349769 0.201778177 0.798221823 0.195059364 0.804940636 0.327111754 0.672888246 0.268920801 0.731079199 0.311898597 0.688101403 0.260073695 0.739926305 0.258541168 0.741458832 0.219669797 0.780330203 0.333098153 0.666901847 0.264045849 0.7359541509999999 0.295123546 0.704876454 0.250126832 0.749873168 0.227059653 0.772940347 0.229118598 0.770881402</probabilities>
		</cpt>
		<cpt id="Diabetes">
			<state id="False" />
			<state id="True" />
			<parents>Age BMI PA Sex</parents>
			<probabilities>0.986650693 0.013349307 0.99633026 0.00366974 0.9910621509999999 0.008937848999999999 0.9947869580000001 0.005213042 0.99278223 0.00721777 0.994720888 0.005279112 0.9931408309999999 0.006859169 0.995934647 0.004065353 0.992488923 0.007511077 0.991948298 0.008051702000000001 0.993003147 0.006996853 0.992059187 0.007940813 0.985940308 0.014059692 0.9868037079999999 0.013196292 0.984771657 0.015228343 0.982024107 0.017975893 0.979732617 0.020267383 0.993282865 0.006717135 0.986847565 0.013152435 0.992272736 0.007727264 0.989521163 0.010478837 0.993125589 0.006874411 0.990074837 0.009925163000000001 0.993658418 0.006341582 0.984624401 0.015375599 0.987038172 0.012961828 0.986787639 0.013212361 0.986320211 0.013679789 0.956998539 0.043001461 0.974967085 0.025032915 0.957173339 0.042826661 0.966025735 0.033974265 0.982256834 0.017743166 0.994263159 0.005736841 0.956712992 0.043287008 0.992523802 0.007476198 0.971790656 0.028209344 0.9891762589999999 0.010823741 0.9757134159999999 0.024286584 0.990874035 0.009125965 0.947443145 0.052556855 0.979281983 0.020718017 0.956670061 0.043329939 0.978156594 0.021843406 0.878437324 0.121562676 0.9382233 0.0617767 0.884979471 0.115020529 0.930775022 0.06922497800000001 0.948706405 0.051293595 0.9690942259999999 0.030905774 0.9509874230000001 0.049012577 0.981813997 0.018186003 0.922690072 0.077309928 0.976164736 0.023835264 0.925331645 0.07466835500000001 0.978779266 0.021220734 0.874766205 0.125233795 0.949096195 0.050903805 0.885999053 0.114000947 0.95319783 0.04680217 0.786184334 0.213815666 0.875426033 0.124573967 0.78447323 0.21552677 0.892336478 0.107663522</probabilities>
		</cpt>
		<cpt id="Hypertension">
			<state id="False" />
			<state id="True" />
			<parents>Age Alcohol BMI Diabetes PA Smoking</parents>
			<probabilities>0.851078798 0.148921202 0.8713456429999999 0.128654357 0.850890799 0.149109201 0.855408562 0.144591438 0.847343618 0.152656382 0.850984798 0.149015202 0.846087813 0.153912187 0.846087813 0.153912187 0.846087813 0.153912187 0.846087813 0.153912187 0.846087813 0.153912187 0.846087813 0.153912187 0.928558686 0.07144131400000001 0.9521785699999999 0.04782143 0.901338418 0.098661582 0.924287673 0.075712327 0.9389993599999999 0.06100064 0.936421609 0.063578391 0.846087813 0.153912187 0.8512665 0.1487335 0.846087813 0.153912187 0.851078798 0.148921202 0.863598234 0.136401766 0.850890799 0.149109201 0.880949953 0.119050047 0.888936473 0.111063527 0.915714645 0.08428535500000001 0.87432071 0.12567929 0.9161160350000001 0.083883965 0.903424733 0.09657526700000001 0.8196847819999999 0.180315218 0.825238766 0.174761234 0.846087813 0.153912187 0.846184901 0.153815099 0.820202169 0.179797831 0.82042886 0.17957114 0.883274566 0.116725434 0.823937504 0.176062496 0.843994724 0.156005276 0.796334476 0.203665524 0.839053426 0.160946574 0.807332323 0.192667677 0.8507966810000001 0.149203319 0.851360085 0.148639915 0.846184901 0.153815099 0.846184901 0.153815099 0.846087813 0.153912187 0.846087813 0.153912187 0.987478551 0.012521449 0.98424618 0.01575382 0.964624908 0.035375092 0.986270682 0.013729318 0.980416082 0.019583918 0.942307652 0.057692348 0.859754239 0.140245761 0.851547315 0.148452685 0.8507966810000001 0.149203319 0.85577288 0.14422712 0.851453848 0.148546152 0.846281867 0.153718133 0.982679882 0.017320118 0.984041917 0.015958083 0.981728095 0.018271905 0.978964727 0.021035273 0.979562911 0.020437089 0.982462154 0.017537846 0.916089975 0.083910025 0.911115051 0.088884949 0.860237448 0.139762552 0.939916876 0.060083124 0.908957549 0.091042451 0.907100329 0.092899671 0.950062757 0.049937243 0.946986503 0.053013497 0.949113397 0.050886603 0.947782364 0.052217636 0.957212362 0.042787638 0.948824111 0.051175889 0.872888284 0.127111716 0.905056645 0.09494335499999999 0.883019266 0.116980734 0.889788314 0.110211686 0.9212328950000001 0.078767105 0.896791461 0.103208539 0.855149999 0.144850001 0.877133176 0.122866824 0.872255626 0.127744374 0.8604686070000001 0.139531393 0.873386701 0.126613299 0.864063103 0.135936897 0.799408891 0.200591109 0.757397022 0.242602978 0.768188662 0.231811338 0.804658892 0.195341108 0.79499039 0.20500961 0.783037093 0.216962907 0.850890799 0.149109201 0.886575436 0.113424564 0.851078857 0.148921143 0.858946389 0.141053611 0.86793986 0.13206014 0.860195519 0.139804481 0.846087813 0.153912187 0.846184901 0.153815099 0.846087813 0.153912187 0.846087813 0.153912187 0.846184901 0.153815099 0.846087813 0.153912187 0.913456912 0.086543088 0.921064798 0.078935202 0.919793073 0.080206927 0.920166758 0.079833242 0.915990073 0.084009927 0.9122108 0.0877892 0.825679825 0.174320175 0.848833427 0.151166573 0.796110811 0.203889189 0.851266559 0.148733441 0.811094405 0.188905595 0.81211585 0.18788415 0.857937647 0.142062353 0.829221655 0.170778345 0.841611356 0.158388644 0.871607913 0.128392087 0.8604513580000001 0.139548642 0.876497096 0.123502904 0.789980888 0.210019112 0.766137506 0.233862494 0.810311765 0.189688235 0.782287878 0.217712122 0.830596613 0.169403387 0.85361981 0.14638019 0.658083547 0.341916453 0.709518351 0.290481649 0.682075862 0.317924138 0.724793693 0.275206307 0.682033243 0.317966757 0.730341979 0.269658021 0.726847864 0.273152136 0.736779461 0.263220539 0.797132747 0.202867253 0.710414219 0.289585781 0.755601119 0.244398881 0.768020248 0.231979752 0.983184701 0.016815299 0.977223262 0.022776738 0.931291303 0.068708697 0.9788814850000001 0.021118515 0.965169121 0.034830879 0.949999 0.050001 0.855417615 0.144582385 0.860371342 0.139628658 0.846087813 0.153912187 0.860107329 0.139892671 0.851453966 0.148546034 0.850984858 0.149015142 0.968609934 0.031390066 0.963934118 0.036065882 0.97612723 0.02387277 0.967239292 0.032760708 0.96734912 0.03265088 0.970436894 0.029563106 0.8899994020000001 0.110000598 0.88513209 0.11486791 0.884829534 0.115170466 0.881114545 0.118885455 0.925142696 0.074857304 0.894014971 0.105985029 0.916774614 0.083225386 0.914089887 0.085910113 0.920641254 0.07935874599999999 0.916128061 0.08387193900000001 0.9171606329999999 0.082839367 0.912653384 0.087346616 0.807944183 0.192055817 0.800119351 0.199880649 0.783711241 0.216288759 0.819155399 0.180844601 0.821311108 0.178688892 0.8143948989999999 0.185605101 0.784277331 0.215722669 0.798652516 0.201347484 0.777499537 0.222500463 0.791249425 0.208750575 0.798090473 0.201909527 0.786276848 0.213723152 0.572593284 0.427406716 0.5820724269999999 0.417927573 0.581306286 0.418693714 0.592495562 0.407504438 0.621308853 0.378691147 0.637091379 0.362908621 0.850984858 0.149015142 0.847919472 0.152080528 0.825979273 0.174020727 0.851641019 0.148358981 0.854243487 0.145756513 0.8465725200000001 0.15342748 0.846087813 0.153912187 0.846184901 0.153815099 0.8456511249999999 0.154348875 0.846087813 0.153912187 0.846087813 0.153912187 0.846087813 0.153912187 0.858700126 0.141299874 0.799024272 0.200975728 0.859255058 0.140744942 0.840882066 0.159117934 0.834266384 0.165733616 0.835845309 0.164154691 0.86211977 0.13788023 0.746888216 0.253111784 0.814616821 0.185383179 0.793175843 0.206824157 0.821522212 0.178477788 0.8491378469999999 0.150862153 0.737310974 0.262689026 0.70699622 0.29300378 0.721038064 0.278961936 0.739641425 0.260358575 0.745061341 0.254938659 0.725371954 0.274628046 0.656081303 0.343918697 0.549198047 0.450801953 0.683028685 0.316971315 0.755577676 0.244422324 0.593922934 0.406077066 0.64019053 0.35980947 0.580999047 0.419000953 0.529365149 0.470634851 0.5093942 0.4906058 0.5766160809999999 0.423383919 0.564842998 0.435157002 0.540486163 0.459513837 0.525585236 0.474414764 0.515485662 0.484514338 0.467647491 0.532352509 0.617913594 0.382086406 0.60808854 0.39191146 0.59690499 0.40309501 0.947963922 0.052036078 0.944456673 0.055543327 0.896195728 0.103804272 0.95134948 0.04865052 0.923645749 0.076354251 0.919680524 0.080319476 0.8456511249999999 0.154348875 0.847151268 0.152848732 0.845554098 0.154445902 0.85586363 0.14413637 0.8507966810000001 0.149203319 0.846184901 0.153815099 0.919395194 0.080604806 0.895978228 0.104021772 0.903087646 0.09691235400000001 0.918161581 0.081838419 0.90636812 0.09363188 0.91075499 0.08924501 0.773289643 0.226710357 0.7239886129999999 0.276011387 0.815077243 0.184922757 0.783222883 0.216777117 0.730371155 0.269628845 0.699517147 0.300482853 0.806177473 0.193822527 0.798085588 0.201914412 0.780496853 0.219503147 0.807663497 0.192336503 0.799376607 0.200623393 0.794877351 0.205122649 0.574305806 0.425694194 0.605524676 0.394475324 0.607332384 0.392667616 0.5923912 0.4076088 0.581748225 0.418251775 0.619006173 0.380993827 0.639884835 0.360115165 0.634170197 0.365829803 0.604264607 0.395735393 0.646174977 0.353825023 0.638091259 0.361908741 0.6196060370000001 0.380393963 0.38761984 0.61238016 0.430270451 0.5697295489999999 0.408289033 0.591710967 0.454414994 0.545585006 0.451208556 0.548791444 0.43899591 0.56100409 0.855408562 0.144591438 0.793480078 0.206519922 0.850890799 0.149109201 0.849913457 0.150086543 0.830080091 0.169919909 0.8512665 0.1487335 0.846087813 0.153912187 0.850890799 0.149109201 0.846087813 0.153912187 0.846087813 0.153912187 0.845554098 0.154445902 0.846087813 0.153912187 0.766670488 0.233329512 0.659596692 0.340403308 0.738496367 0.261503633 0.766234674 0.233765326 0.688391873 0.311608127 0.703463553 0.296536447 0.74907475 0.25092525 0.736911882 0.263088118 0.78776579 0.21223421 0.773926822 0.226073178 0.749704433 0.250295567 0.789888849 0.210111151 0.607569532 0.392430468 0.590640176 0.409359824 0.547465656 0.452534344 0.619290696 0.380709304 0.60484724 0.39515276 0.570737572 0.429262428 0.64183147 0.35816853 0.574041756 0.425958244 0.564350284 0.435649716 0.632163565 0.367836435 0.543732493 0.456267507 0.59701262 0.40298738 0.472985273 0.527014727 0.461148151 0.538851849 0.440754235 0.559245765 0.465361867 0.534638133 0.578340027 0.421659973 0.46812915 0.53187085 0.531477529 0.468522471 0.447470677 0.552529323 0.451899703 0.548100297 0.570610717 0.429389283 0.6394991370000001 0.360500863 0.464915118 0.535084882 0.875912592 0.124087408 0.8663921570000001 0.133607843 0.836131513 0.163868487 0.870681247 0.129318753 0.886484952 0.113515048 0.809982209 0.190017791 0.846184901 0.153815099 0.8554997130000001 0.144500287 0.846184901 0.153815099 0.851078857 0.148921143 0.845846066 0.154153934 0.846184901 0.153815099 0.797808009 0.202191991 0.773848392 0.226151608 0.7959148660000001 0.204085134 0.816823439 0.183176561 0.796799386 0.203200614 0.795574925 0.204425075 0.61360481 0.38639519 0.746383283 0.253616717 0.731951824 0.268048176 0.647660355 0.352339645 0.706156053 0.293843947 0.698522278 0.301477722 0.661130039 0.338869961 0.659376747 0.340623253 0.647858628 0.352141372 0.666056074 0.333943926 0.672370188 0.327629812 0.629996304 0.370003696 0.460181725 0.539818275 0.547694062 0.452305938 0.489643911 0.510356089 0.459396231 0.540603769 0.489287626 0.510712374 0.48221406 0.51778594 0.483752883 0.516247117 0.494926416 0.505073584 0.462490043 0.537509957 0.500508435 0.499491565 0.509723192 0.490276808 0.489275328 0.510724672 0.341472716 0.658527284 0.390194906 0.609805094 0.353819907 0.646180093 0.400591237 0.599408763 0.45109129 0.54890871 0.360333847 0.639666153</probabilities>
		</cpt>
		<cpt id="CRC">
			<state id="False" />
			<state id="True" />
			<parents>Age Alcohol Diabetes Hyperchol_ Hypertension Sex Smoking</parents>
			<probabilities>0.999872252 0.000127748 0.999961059 3.89e-05 0.999789424 0.000210576 0.999477181 0.000522819 0.999565497 0.000434503 0.999349301 0.000650699 0.99937935 0.00062065 0.999507521 0.000492479 0.999269505 0.000730495 0.999173126 0.000826874 0.999198929 0.000801071 0.999173648 0.000826352 0.999855688 0.000144312 0.999936548 6.35e-05 0.999773643 0.000226357 0.999292985 0.000707015 0.999473236 0.000526764 0.999309577 0.000690423 0.9994789549999999 0.000521045 0.999625806 0.000374194 0.999289863 0.000710137 0.999173126 0.000826874 0.999173648 0.000826352 0.999198424 0.000801576 0.999200444 0.000799556 0.999247496 0.000752504 0.999174168 0.000825832 0.999173126 0.000826874 0.999173126 0.000826874 0.999173126 0.000826874 0.999173126 0.000826874 0.999198929 0.000801071 0.999173126 0.000826874 0.999173126 0.000826874 0.999173126 0.000826874 0.999173126 0.000826874 0.999198424 0.000801576 0.999269963 0.000730037 0.999199435 0.000800565 0.999173648 0.000826352 0.999173648 0.000826352 0.999173126 0.000826874 0.999198929 0.000801071 0.999198424 0.000801576 0.999198424 0.000801576 0.999173126 0.000826874 0.999173126 0.000826874 0.999173126 0.000826874 0.999828551 0.000171449 0.999999997 3.22e-09 0.9999998 2e-07 0.999813176 0.000186824 0.9998442239999999 0.000155776 0.99981091 0.00018909 0.9999940980000001 5.9e-06 0.999981952 1.8e-05 0.99993096 6.9e-05 0.999867458 0.000132542 0.999832389 0.000167611 0.999580584 0.000419416 0.999845095 0.000154905 0.999999963 3.74e-08 0.9999989889999999 1.01e-06 0.999982981 1.7e-05 0.999429244 0.000570756 0.999994336 5.66e-06 0.999989256 1.07e-05 0.999980083 1.99e-05 0.999927057 7.29e-05 0.999819389 0.000180611 0.999722207 0.000277793 0.999498745 0.000501255 0.999841749 0.000158251 0.999822473 0.000177527 0.999536673 0.000463327 0.999736121 0.000263879 0.999615461 0.000384539 0.999515657 0.000484343 0.999405921 0.000594079 0.999332483 0.000667517 0.999269504 0.000730496 0.999271802 0.000728198 0.999198424 0.000801576 0.99917469 0.00082531 0.999794926 0.000205074 0.999776515 0.000223485 0.999532496 0.000467504 0.999689958 0.000310042 0.999568965 0.000431035 0.999396552 0.000603448 0.999444584 0.000555416 0.999523493 0.000476507 0.999327424 0.000672576 0.999246547 0.000753453 0.999174169 0.000825831 0.999198424 0.000801576 0.999456586 0.000543414 0.999986703 1.33e-05 0.999939952 6e-05 0.9996702119999999 0.000329788 0.999711304 0.000288696 0.9995668599999999 0.00043314 0.999717487 0.000282513 0.999795153 0.000204847 0.999662411 0.000337589 0.999223691 0.000776309 0.999202456 0.000797544 0.999199434 0.000800566 0.999983039 1.7e-05 0.99999486 5.14e-06 0.999975567 2.44e-05 0.999620134 0.000379866 0.999708927 0.000291073 0.999589923 0.000410077 0.999876486 0.000123514 0.9999421550000001 5.78e-05 0.9998549370000001 0.000145063 0.999202959 0.000797041 0.999270884 0.000729116 0.9991746889999999 0.000825311 0.999313476 0.000686524 0.999386705 0.000613295 0.999269964 0.000730036 0.999173648 0.000826352 0.999244643 0.000755357 0.999173648 0.000826352 0.999176249 0.000823751 0.999295206 0.000704794 0.999247971 0.000752029 0.999173126 0.000826874 0.999173126 0.000826874 0.999173126 0.000826874 0.999334572 0.000665428 0.999510284 0.000489716 0.99939844 0.00060156 0.999173126 0.000826874 0.999173648 0.000826352 0.999198929 0.000801071 0.999500374 0.000499626 0.999473232 0.000526768 0.999381298 0.0006187020000000001 0.999173126 0.000826874 0.999173648 0.000826352 0.999173126 0.000826874 0.99976252 0.00023748 0.999757883 0.000242117 0.999577037 0.000422963 0.9997653399999999 0.00023466 0.9998050550000001 0.000194945 0.999830985 0.000169015 0.9994149369999999 0.000585063 0.999993873 6.13e-06 0.9999867690000001 1.32e-05 0.99997486 2.51e-05 0.999933652 6.63e-05 0.999854552 0.000145448 0.999758147 0.000241853 0.999823405 0.000176595 0.999452988 0.000547012 0.999796969 0.000203031 0.999574753 0.000425247 0.9996499250000001 0.000350075 0.999972235 2.78e-05 0.999998671 1.33e-06 0.999352072 0.000647928 0.99996931 3.07e-05 0.999926194 7.38e-05 0.999876751 0.000123249 0.9999158500000001 8.42e-05 0.999899801 0.000100199 0.9998142330000001 0.000185767 0.999846718 0.000153282 0.999725424 0.000274576 0.999626685 0.000373315 0.999747591 0.000252409 0.9997079800000001 0.00029202 0.999640593 0.000359407 0.999490571 0.000509429 0.999329961 0.000670039 0.999247496 0.000752504 0.999950245 4.98e-05 0.997998344 0.002001656 0.99988484 0.00011516 0.999818648 0.000181352 0.999714644 0.000285356 0.999580066 0.000419934 0.999897474 0.000102526 0.99936832 0.00063168 0.999814731 0.000185269 0.999395824 0.000604176 0.999494654 0.0005053460000000001 0.99923099 0.00076901 0.9994726390000001 0.000527361 0.999236849 0.000763151 0.99769086 0.00230914 0.999615186 0.000384814 0.9996732780000001 0.000326722 0.999094475 0.000905525 0.999839134 0.000160866 0.998979841 0.001020159 0.999859689 0.000140311 0.999346433 0.000653567 0.999348074 0.000651926 0.9992059639999999 0.000794036 0.998898412 0.001101588 0.998931324 0.001068676 0.9987796410000001 0.001220359 0.999815174 0.000184826 0.999848705 0.000151295 0.999782137 0.000217863 0.998674348 0.001325652 0.998670934 0.001329066 0.996332508 0.003667492 0.99946788 0.00053212 0.999520775 0.000479225 0.999404436 0.000595564 0.9976654190000001 0.002334581 0.999624842 0.000375158 0.999457501 0.000542499 0.999198424 0.000801576 0.999199939 0.000800061 0.999199435 0.000800565 0.999372413 0.000627587 0.999559555 0.000440445 0.998847721 0.001152279 0.999173648 0.000826352 0.999198929 0.000801071 0.999173648 0.000826352 0.999631575 0.000368425 0.999822839 0.000177161 0.999712029 0.000287971 0.999198929 0.000801071 0.99928852 0.00071148 0.999269505 0.000730495 0.9997499399999999 0.00025006 0.999865515 0.000134485 0.999791681 0.000208319 0.99917469 0.00082531 0.9992232009999999 0.000776799 0.999200948 0.000799052 0.999149184 0.000850816 0.999403307 0.000596693 0.998924457 0.001075543 0.998874109 0.001125891 0.999250017 0.000749983 0.998519147 0.001480853 0.999746693 0.000253307 0.999994508 5.49e-06 0.999692179 0.000307821 0.999257875 0.0007421249999999999 0.999946475 5.35e-05 0.999903772 9.619999999999999e-05 0.999163657 0.000836343 0.999188866 0.000811134 0.9983469190000001 0.001653081 0.999026563 0.000973437 0.999919496 8.050000000000001e-05 0.998950049 0.001049951 0.9992673520000001 0.000732648 0.999434674 0.000565326 0.99882494 0.00117506 0.999994964 5.04e-06 0.999678076 0.000321924 0.996695526 0.003304474 0.997200588 0.002799412 0.999920738 7.93e-05 0.999905131 9.49e-05 0.99971853 0.00028147 0.999597641 0.000402359 0.999605882 0.000394118 0.99269766 0.00730234 0.9998926930000001 0.000107307 0.99837824 0.00162176 0.999538552 0.000461448 0.999380582 0.0006194180000000001 0.999430024 0.000569976 0.998856453 0.001143547 0.999979026 2.1e-05 0.999976442 2.36e-05 0.999866455 0.000133545 0.999809658 0.000190342 0.9996795979999999 0.000320402 0.999107992 0.000892008 0.998196783 0.001803217 0.9973686470000001 0.002631353 0.999797497 0.000202503 0.999723307 0.000276693 0.999527875 0.000472125 0.999865157 0.000134843 0.999906211 9.38e-05 0.999871626 0.000128374 0.999465855 0.000534145 0.999373981 0.000626019 0.9992596969999999 0.000740303 0.991151082 0.008848918000000001 0.9992827439999999 0.000717256 0.9917036 0.008296400000000001 0.999350119 0.000649881 0.999227108 0.000772892 0.999201955 0.000798045 0.999047816 0.000952184 0.999085384 0.000914616 0.997935335 0.002064665 0.989387621 0.010612379 0.9996979499999999 0.00030205 0.998327344 0.001672656 0.99957259 0.00042741 0.99899459 0.00100541 0.9977737759999999 0.002226224 0.982449712 0.017550288 0.99947447 0.00052553 0.998788663 0.001211337 0.999409612 0.000590388 0.999431671 0.000568329 0.999523473 0.000476527 0.999174169 0.000825831 0.999198929 0.000801071 0.999173126 0.000826874 0.999506187 0.000493813 0.999492224 0.000507776 0.999594646 0.000405354 0.999173648 0.000826352 0.999174169 0.000825831 0.9991746889999999 0.000825311 0.999645409 0.000354591 0.999670248 0.000329752 0.9905957480000001 0.009404252 0.9992232 0.0007768 0.999224668 0.000775332 0.999225158 0.000774842 0.999758891 0.000241109 0.999825606 0.000174394 0.999862644 0.000137356 0.999247497 0.000752503 0.999174168 0.000825832 0.99922418 0.00077582 0.997338277 0.002661723 0.998362289 0.001637711 0.997538734 0.002461266 0.996059748 0.003940252 0.997323925 0.002676075 0.998715263 0.001284737 0.995068346 0.004931654 0.999699572 0.000300428 0.997256662 0.002743338 0.994616834 0.005383166 0.999717255 0.000282745 0.99969882 0.00030118 0.997988994 0.002011006 0.999003477 0.000996523 0.997077229 0.002922771 0.996408556 0.003591444 0.99999556 4.44e-06 0.9976959359999999 0.002304064 0.998167702 0.001832298 0.99683038 0.00316962 0.99732304 0.00267696 0.997946891 0.002053109 0.999452971 0.000547029 0.995082716 0.004917284 0.999313286 0.0006867140000000001 0.999813782 0.000186218 0.998282939 0.001717061 0.999538542 0.000461458 0.999389386 0.000610614 0.999374761 0.000625239 0.99223326 0.00776674 0.999827819 0.000172181 0.996915898 0.003084102 0.999599626 0.000400374 0.999274083 0.000725917 0.999324569 0.000675431 0.994059931 0.005940069 0.999490591 0.0005094089999999999 0.991892504 0.008107496 0.999786372 0.000213628 0.999605722 0.000394278 0.999625438 0.000374562 0.998503928 0.001496072 0.991269045 0.008730955 0.99554076 0.00445924 0.992665677 0.007334323 0.999643234 0.000356766 0.9995658120000001 0.000434188</probabilities>
		</cpt>
		<decision id="Screening">
			<state id="No_screening" />
			<state id="gFOBT" />
			<state id="FIT" />
			<state id="Stool_DNA" />
			<state id="Colon_capsule" />
			<state id="NewTest" />
			<parents>PA SD Smoking BMI Alcohol Sex Age</parents>
		</decision>
		<cpt id="Results_of_Screening">
			<state id="No_pred_screening" />
			<state id="Predicted_False" />
			<state id="Predicted_True" />
			<parents>CRC Screening</parents>
			<probabilities>1 0 0 0 0.978 0.02200000000000002 0 0.966 0.03400000000000003 0 0.866 0.134 0 0.92 0.07999999999999996 0 0.9399999999999999 0.06000000000000005 1 0 0 0 0.55 0.45 0 0.25 0.75 0 0.07699999999999996 0.923 0 0.13 0.87 0 0.15 0.85</probabilities>
		</cpt>
		<decision id="Colonoscopy">
			<state id="No_Colonoscopy" />
			<state id="Colonoscopy" />
			<parents>Screening</parents>
		</decision>
		<cpt id="Results_of_Colonoscopy">
			<state id="no_pred" />
			<state id="colon_pred_false" />
			<state id="colon_pred_true" />
			<parents>CRC Colonoscopy</parents>
			<probabilities>1 0 0 0 0.99 0.01000000000000001 1 0 0 0 0.03000000000000003 0.97</probabilities>
		</cpt>
		<utility id="Value_of_CRC_detection_by_screening">
			<parents>Age Alcohol Diabetes Hyperchol_ Hypertension Sex Smoking CRC Screening Results_of_Screening</parents>
			<utilities>0 0 0 0 0.04391601054800792 -1.949789831025942 0 0.07438104645243529 -2.110359340899007 0 0.09143031423852564 -0.5906289724760063 0 0.08617254345896816 -0.9903053853902121 0 0.08433898665617784 -1.320129931527946 0 0 0 0 -452.0888766138933 2368.88051321537 0 -1061.701773124372 2428.031881072195 0 -1900.905200752774 1515.278264549305 0 -1537.030597548535 1873.603049047267 0 -1441.518627008746 2080.981870719758 0 0 0 0 0.03923364219377969 -1.743439266121343 0 0.0664495697113742 -1.887149462108525 0 0.08168020581661135 -0.5278037713965429 0 0.07698330173653649 -0.8851231901704155 0 0.07534533237119297 -1.180088726623545 0 0 0 0 -1326.483469633607 6954.089612236545 0 -3115.102804420663 7127.962546653969 0 -5577.295654722056 4446.914485858068 0 -4509.704935583953 5499.027036754394 0 -4229.476447189516 6108.133201528251 0 0 0 0 0.04623583190268451 -2.051099716496565 0 0.07831113895892812 -2.219865666346393 0 0.09626192117211005 -0.6216656291094531 0 0.09072610821207075 -1.042172720304389 0 0.08879559464922014 -1.389083096417672 0 0 0 0 -288.7284823200933 1512.185124058404 0 -678.0722558248391 1549.898565007765 0 -1214.059789794939 967.5554266388643 0 -981.6572676028435 1196.250251997823 0 -920.6550588291045 1328.565707077116 0 0 0 0 0.05115441553194278 -2.262300372940427 0 0.0866460126429974 -2.44783840773301 0 0.1065101731655044 -0.6871208414703426 0 0.1003841840965975 -1.151189811549958 0 0.09824788098729594 -1.533606147708672 0 0 0 0 -128.6230384924426 672.4613222943987 0 -302.088272320141 689.155594339667 0 -540.9053589360683 430.719779100508 0 -437.3535298503797 532.3464702722091 0 -410.1730289854125 591.0766483954181 0 0 0 0 0.0500703463080716 -2.216288787600808 0 0.08480866471055769 -2.398220452690124 0 0.1042508187158184 -0.67274679598114 0 0.09825500508186839 -1.127305005466658 0 0.09616409124514071 -1.50200330823156 0 0 0 0 -151.4999147233327 792.4601931896327 0 -355.8109877402824 812.1589765910148 0 -637.0891042205561 507.4299874632902 0 -515.126535936444 627.215959429893 0 -483.113440557862 696.4629358801368 0 0 0 0 0.05249884740806113 -2.318833741813647 0 0.08892495584856244 -2.508755909840031 0 0.1093127672407859 -0.7048952326344805 0 0.1030252400741878 -1.180669989601258 0 0.1008326140449546 -1.572552099551246 0 0 0 0 -106.047935655892 554.0356917211445 0 -249.0744030320483 567.7642962083311 0 -445.9909742187033 355.0188011600152 0 -360.6068366622396 438.7236516319307 0 -338.19513611125 487.074037221626 0 0 0 0 0.05220236874277577 -2.306420858362699 0 0.08842236313572305 -2.495385237426789 0 0.1086946674924021 -0.7009808785267071 0 0.1024427733250595 -1.174183360751749 0 0.100262571142365 -1.563988872549294 0 0 0 0 -110.557656843151 577.6939912176476 0 -259.6647139791191 592.0151113728954 0 -464.9515114371863 370.1414964451796 0 -375.9381194367724 457.4267197274245 0 -352.5737829954876 507.8508000697749 0 0 0 0 0.05079903724658117 -2.247256427147471 0 0.08604367184583023 -2.431618839888777 0 0.1057694690580839 -0.682412629063113 0 0.09968616126372805 -1.143370450290612 0 0.09756474002840629 -1.523264581359567 0 0 0 0 -135.6024927685526 709.0723827752367 0 -318.4783976245274 726.6833665050946 0 -570.2497873997767 454.1233628127777 0 -461.0810845201435 561.2904177516018 0 -432.4262225286334 623.2292982277253 3.697225952398783e-14 0 0 0 0.05323868958786396 -2.349666611399611 0 0.09017922745076316 -2.541955134059088 0 0.1108553576029056 -0.7146491741393998 0 0.1044788840499352 -1.1968187532694 0 0.1022552463536782 -1.593854290745728 3.697225952398783e-14 0 0 0 -95.78747910175369 500.2064003495953 0 -224.9795135917314 512.5867425751354 0 -402.8523550364746 320.6112205761905 0 -325.7254033494501 396.1695647219035 0 -305.4811160219426 439.8015093199084 0 0 0 0 0.05405495546504226 -2.383434154018369 0 0.09156321328983642 -2.578291891725836 0 0.1125575836669522 -0.7253859380969676 0 0.1060829288147637 -1.214568539937357 0 0.1038250605134362 -1.61723967133895 0 0 0 0 -85.91199348608397 448.3932314696844 0 -201.7887290205641 459.4756200719984 0 -361.3325115185693 287.4936082541112 0 -292.1528659322692 355.2103264117148 0 -273.9946531517969 394.300237623021 0 0 0 0 0.05384375773826555 -2.374723474762316 0 0.09120510982370943 -2.568920811290488 0 0.1121171252676913 -0.7226105413197365 0 0.1056678784308561 -1.20998306051715 0 0.1034188684641556 -1.611201314442255 0 0 0 0 -88.33502814016478 461.1064027918274 0 -207.4787787670323 472.5072839796657 0 -371.5197362654175 295.6194014277314 0 -300.3901587904247 365.2602101405311 0 -281.7201116686052 405.4646131160198 0 0 0 0 0.05405073230998027 -2.383260157039706 0 0.0915560524645621 -2.578104719655003 0 0.1125487759523596 -0.7253304588685398 0 0.1060746291989274 -1.214476897042524 0 0.103816938042219 -1.617119013218657 0 0 0 0 -85.95959108954416 448.6429689358307 0 -201.900503160314 459.7316141347222 0 -361.5326271468841 287.6532304047224 0 -292.3146775432258 355.4077455563754 0 -274.1464104048971 394.5195500598483 0 0 0 0 0.04446013872335905 -1.973623642002636 0 0.07530283188114645 -2.136127666716997 0 0.09256351717532903 -0.5979156779693242 0 0.08724054282564128 -1.002489933652008 0 0.08538424848994222 -1.336336248469793 0 0 0 0 -405.1504950811157 2122.730653834886 0 -951.4733312440871 2175.722661487593 0 -1703.553483315977 1357.902149898785 0 -1377.454868733988 1678.981317247706 0 -1291.858617115938 1864.792994938794 0 0 0 0 0.04103674790122486 -1.823118751571568 0 0.06950372869974984 -1.973357986180398 0 0.08543457472252737 -0.5520177156232562 0 0.08052172910552784 -0.9256844377467321 0 0.0788084551098165 -1.234117010765675 0 0 0 0 -849.9269592400236 4455.119430827293 0 -1995.971846667162 4566.47016954455 0 -3573.613096577737 2849.141847947796 0 -2889.557394359304 3523.13711912647 0 -2710.001955439304 3913.301805636539 0 0 0 0 0.04659174473270061 -2.066565338713013 0 0.07891414921335206 -2.236575706587684 0 0.09700328583915788 -0.6264198323659599 0 0.09142480080988889 -1.050109820636194 0 0.08947940722793871 -1.399626036342083 0 0 0 0 -270.6625419050357 1417.439889043629 0 -635.6469334654701 1452.782195945263 0 -1138.102126399363 906.9820562304938 0 -920.2389647176778 1121.340371919097 0 -863.0531555834448 1245.353937936439 0 0 0 0 0.05302761770112967 -2.340891510818978 0 0.08982137952856145 -2.532508472173669 0 0.1104152425208713 -0.7118685441798465 0 0.104064148751933 -1.192217328358544 0 0.1018493597890998 -1.587786898210157 0 0 0 0 -98.5784793633868 514.8491230169055 0 -231.5336836411317 527.5962396751327 0 -414.5866948692286 329.9707003664948 0 -335.2136697410067 407.7450916670667 0 -314.3798147088442 452.6605836343107 0 0 0 0 0.05119945530419743 -2.264204142780709 0 0.08672235354946239 -2.449890694313502 0 0.106604051468588 -0.687717268069227 0 0.1004726525484973 -1.152180054923736 0 0.09833446317165404 -1.534915475913615 0 0 0 0 -127.7716712355778 667.9953749009489 0 -300.0889744134243 684.5778198013335 0 -537.3258726910854 427.8649485013247 0 -434.4591995176091 528.815802472427 0 -407.4585437725632 587.1545662660168 0 0 0 0 0.05287524751627463 -2.334546179531568 0 0.08956305999807546 -2.525676571078304 0 0.1100975412727723 -0.7098601858912912 0 0.1037647668509528 -1.188892751200158 0 0.1015563650172151 -1.583401913658547 0 0 0 0 -100.6590550427666 525.7644992901278 0 -236.4195505613176 538.7850177745302 0 -423.3341721804145 336.9477590445371 0 -342.2867884574479 416.3740850155303 0 -321.0134341554592 462.2463785267622 0 0 0 0 0.05113407713509104 -2.261440483061798 0 0.086611539868756 -2.446911417156888 0 0.1064677812292114 -0.6868514949895601 0 0.1003442350214891 -1.150742595089075 0 0.0982087836721014 -1.533014800860746 0 0 0 0 -129.0098719562149 674.4904984095452 0 -302.9966880458206 691.2355806916852 0 -542.5317607962544 432.0169196183074 0 -438.6686191646088 533.9506881641543 0 -411.4064025320832 592.8587113762341 0 0 0 0 0.04922796616656983 -2.180301214104136 0 0.08338108584983039 -2.3593913104853 0 0.10249544595692 -0.6615544960084748 0 0.09660074238728579 -1.108682925623827 0 0.09454508417464588 -1.477337044285938 0 0 0 0 -172.9678161035022 905.0621233905789 0 -406.2250633690733 927.5798521240486 0 -727.3493135335659 579.4139441908352 0 -588.1097941256344 716.2394199048418 0 -551.5617115894505 795.3543524286341 0 0 0 0 0.05305598516779843 -2.342071866110733 0 0.08986947267257361 -2.53377925071249 0 0.1104743915812111 -0.7122423524068164 0 0.1041198870296659 -1.192836016614416 0 0.1019039088842865 -1.588602810119419 0 0 0 0 -98.19729832995685 512.8493079567356 0 -230.638547161522 525.5463336091002 0 -412.9840757074061 328.6924332502799 0 -333.9178085128934 406.1641712039901 0 -313.1644738042509 450.9043653896444 0 0 0 0 0.05405495546504226 -2.383434154018369 0 0.09156321328983642 -2.578291891725836 0 0.1125575836669522 -0.7253859380969676 0 0.1060829288147637 -1.214568539937357 0 0.1038250605134362 -1.61723967133895 0 0 0 0 -85.91199348608397 448.3932314696844 0 -201.7887290205641 459.4756200719984 0 -361.3325115185693 287.4936082541112 0 -292.1528659322692 355.2103264117148 0 -273.9946531517969 394.300237623021 0 0 0 0 0.05405073230998027 -2.383260157039706 0 0.0915560524645621 -2.578104719655003 0 0.1125487759523596 -0.7253304588685398 0 0.1060746291989274 -1.214476897042524 0 0.103816938042219 -1.617119013218657 0 0 0 0 -85.95959108954416 448.6429689358307 0 -201.900503160314 459.7316141347222 0 -361.5326271468841 287.6532304047224 0 -292.3146775432258 355.4077455563754 0 -274.1464104048971 394.5195500598483 0 0 0 0 0.0538479398868017 -2.374896144905374 0 0.09121220089769452 -2.569106588703929 0 0.1121258470376314 -0.7226655177897078 0 0.1056760971040315 -1.210073910990683 0 0.1034269117353599 -1.611320971129583 0 0 0 0 -88.28618942809784 460.8501584868588 0 -207.3640900155848 472.2446203287573 0 -371.3144022976822 295.4556185685672 0 -300.2241277215587 365.0576458425545 0 -281.5643971507721 405.2395855539366 0 0 0 0 0.05383119938434427 -2.374204929052692 0 0.0911838164371008 -2.568362899215904 0 0.1120909351741533 -0.7224454510490175 0 0.1056431990519454 -1.209710238694795 0 0.1033947157878559 -1.610841983209391 0 0 0 0 -88.48189482070313 461.8769743146307 0 -207.8236682222085 473.297159568584 0 -372.137212010343 296.1119253987032 0 -300.889443726191 365.869356651696 0 -282.1883729002177 406.1413105439732 0 0 0 0 0.05343193672116792 -2.357685316681335 0 0.09050686485001268 -2.550586137877949 0 0.1112583233217134 -0.7171934668488227 0 0.1048586103941634 -1.201027479045425 0 0.1026268702775411 -1.599402108354506 0 0 0 0 -93.32142713368923 487.2682587379867 0 -219.1884314854041 499.324511004451 0 -392.4842256026802 312.3413738629203 0 -317.3418387392585 385.9416287048691 0 -297.6184762683706 428.4394250340778 0 0 0 0 0.05404652334297813 -2.383086737120653 0 0.09154891570130345 -2.577918167664149 0 0.1125399978368827 -0.7252751652844025 0 0.1060663574737611 -1.214385560015475 0 0.1038088428660567 -1.616998756941551 0 0 0 0 -86.00706297553474 448.8920466797418 0 -202.0119820778898 459.9869319421122 0 -361.7322142249558 287.8124309233856 0 -292.4760617725911 355.6046432152406 0 -274.2977668320289 394.7382831671393 0 0 0 0 0.05405495546504226 -2.383434154018369 0 0.09156321328983642 -2.578291891725836 0 0.1125575836669522 -0.7253859380969676 0 0.1060829288147637 -1.214568539937357 0 0.1038250605134362 -1.61723967133895 0 0 0 0 -85.91199348608397 448.3932314696844 0 -201.7887290205641 459.4756200719984 0 -361.3325115185693 287.4936082541112 0 -292.1528659322692 355.2103264117148 0 -273.9946531517969 394.300237623021 0 0 0 0 0.05405495546504226 -2.383434154018369 0 0.09156321328983642 -2.578291891725836 0 0.1125575836669522 -0.7253859380969676 0 0.1060829288147637 -1.214568539937357 0 0.1038250605134362 -1.61723967133895 0 0 0 0 -85.91199348608397 448.3932314696844 0 -201.7887290205641 459.4756200719984 0 -361.3325115185693 287.4936082541112 0 -292.1528659322692 355.2103264117148 0 -273.9946531517969 394.300237623021 0 0 0 0 0.05405495546504226 -2.383434154018369 0 0.09156321328983642 -2.578291891725836 0 0.1125575836669522 -0.7253859380969676 0 0.1060829288147637 -1.214568539937357 0 0.1038250605134362 -1.61723967133895 0 0 0 0 -85.91199348608397 448.3932314696844 0 -201.7887290205641 459.4756200719984 0 -361.3325115185693 287.4936082541112 0 -292.1528659322692 355.2103264117148 0 -273.9946531517969 394.300237623021 0 0 0 0 0.05405495546504226 -2.383434154018369 0 0.09156321328983642 -2.578291891725836 0 0.1125575836669522 -0.7253859380969676 0 0.1060829288147637 -1.214568539937357 0 0.1038250605134362 -1.61723967133895 0 0 0 0 -85.91199348608397 448.3932314696844 0 -201.7887290205641 459.4756200719984 0 -361.3325115185693 287.4936082541112 0 -292.1528659322692 355.2103264117148 0 -273.9946531517969 394.300237623021 0 0 0 0 0.05384375773826555 -2.374723474762316 0 0.09120510982370943 -2.568920811290488 0 0.1121171252676913 -0.7226105413197365 0 0.1056678784308561 -1.20998306051715 0 0.1034188684641556 -1.611201314442255 0 0 0 0 -88.33502814016478 461.1064027918274 0 -207.4787787670323 472.5072839796657 0 -371.5197362654175 295.6194014277314 0 -300.3901587904247 365.2602101405311 0 -281.7201116686052 405.4646131160198 0 0 0 0 0.05405495546504226 -2.383434154018369 0 0.09156321328983642 -2.578291891725836 0 0.1125575836669522 -0.7253859380969676 0 0.1060829288147637 -1.214568539937357 0 0.1038250605134362 -1.61723967133895 0 0 0 0 -85.91199348608397 448.3932314696844 0 -201.7887290205641 459.4756200719984 0 -361.3325115185693 287.4936082541112 0 -292.1528659322692 355.2103264117148 0 -273.9946531517969 394.300237623021 0 0 0 0 0.05405495546504226 -2.383434154018369 0 0.09156321328983642 -2.578291891725836 0 0.1125575836669522 -0.7253859380969676 0 0.1060829288147637 -1.214568539937357 0 0.1038250605134362 -1.61723967133895 0 0 0 0 -85.91199348608397 448.3932314696844 0 -201.7887290205641 459.4756200719984 0 -361.3325115185693 287.4936082541112 0 -292.1528659322692 355.2103264117148 0 -273.9946531517969 394.300237623021 0 0 0 0 0.05405495546504226 -2.383434154018369 0 0.09156321328983642 -2.578291891725836 0 0.1125575836669522 -0.7253859380969676 0 0.1060829288147637 -1.214568539937357 0 0.1038250605134362 -1.61723967133895 0 0 0 0 -85.91199348608397 448.3932314696844 0 -201.7887290205641 459.4756200719984 0 -361.3325115185693 287.4936082541112 0 -292.1528659322692 355.2103264117148 0 -273.9946531517969 394.300237623021 0 0 0 0 0.05405495546504226 -2.383434154018369 0 0.09156321328983642 -2.578291891725836 0 0.1125575836669522 -0.7253859380969676 0 0.1060829288147637 -1.214568539937357 0 0.1038250605134362 -1.61723967133895 0 0 0 0 -85.91199348608397 448.3932314696844 0 -201.7887290205641 459.4756200719984 0 -361.3325115185693 287.4936082541112 0 -292.1528659322692 355.2103264117148 0 -273.9946531517969 394.300237623021 0 0 0 0 0.0538479398868017 -2.374896144905374 0 0.09121220089769452 -2.569106588703929 0 0.1121258470376314 -0.7226655177897078 0 0.1056760971040315 -1.210073910990683 0 0.1034269117353599 -1.611320971129583 0 0 0 0 -88.28618942809784 460.8501584868588 0 -207.3640900155848 472.2446203287573 0 -371.3144022976822 295.4556185685672 0 -300.2241277215587 365.0576458425545 0 -281.5643971507721 405.2395855539366 3.699263164007935e-14 0 0 0 0.05323462178053437 -2.349497660840282 0 0.09017233085547086 -2.541773268400114 0 0.1108468754520031 -0.7145956016858561 0 0.1044708910527025 -1.196730118024316 0 0.1022474239006527 -1.593737436121566 3.699263164007935e-14 0 0 0 -95.84029244479274 500.4834831450331 0 -225.1035363307401 512.8707659416094 0 -403.0744006191019 320.7883281887824 0 -325.9049471423257 396.3886065452754 0 -305.6495035970878 440.0448398083627 0 0 0 0 0.05383956531912945 -2.374550373286639 0 0.09119800133978419 -2.568734569147334 0 0.1121083820871003 -0.722555429115887 0 0.1056596395812162 -1.209891984974685 0 0.1034108054467895 -1.611081360482209 0 0 0 0 -88.38402208887101 461.3634614823136 0 -207.5938320652039 472.7707824124814 0 -371.7257229053084 295.7837048512019 0 -300.5567176028669 365.4634182495406 0 -281.8763211377557 405.6903558719357 0 0 0 0 0.05405073230998027 -2.383260157039706 0 0.0915560524645621 -2.578104719655003 0 0.1125487759523596 -0.7253304588685398 0 0.1060746291989274 -1.214476897042524 0 0.103816938042219 -1.617119013218657 0 0 0 0 -85.95959108954416 448.6429689358307 0 -201.900503160314 459.7316141347222 0 -361.5326271468841 287.6532304047224 0 -292.3146775432258 355.4077455563754 0 -274.1464104048971 394.5195500598483 0 0 0 0 0.05405073230998027 -2.383260157039706 0 0.0915560524645621 -2.578104719655003 0 0.1125487759523596 -0.7253304588685398 0 0.1060746291989274 -1.214476897042524 0 0.103816938042219 -1.617119013218657 0 0 0 0 -85.95959108954416 448.6429689358307 0 -201.900503160314 459.7316141347222 0 -361.5326271468841 287.6532304047224 0 -292.3146775432258 355.4077455563754 0 -274.1464104048971 394.5195500598483 0 0 0 0 0.05405495546504226 -2.383434154018369 0 0.09156321328983642 -2.578291891725836 0 0.1125575836669522 -0.7253859380969676 0 0.1060829288147637 -1.214568539937357 0 0.1038250605134362 -1.61723967133895 0 0 0 0 -85.91199348608397 448.3932314696844 0 -201.7887290205641 459.4756200719984 0 -361.3325115185693 287.4936082541112 0 -292.1528659322692 355.2103264117148 0 -273.9946531517969 394.300237623021 0 0 0 0 0.05384375773826555 -2.374723474762316 0 0.09120510982370943 -2.568920811290488 0 0.1121171252676913 -0.7226105413197365 0 0.1056678784308561 -1.20998306051715 0 0.1034188684641556 -1.611201314442255 0 0 0 0 -88.33502814016478 461.1064027918274 0 -207.4787787670323 472.5072839796657 0 -371.5197362654175 295.6194014277314 0 -300.3901587904247 365.2602101405311 0 -281.7201116686052 405.4646131160198 0 0 0 0 0.0538479398868017 -2.374896144905374 0 0.09121220089769452 -2.569106588703929 0 0.1121258470376314 -0.7226655177897078 0 0.1056760971040315 -1.210073910990683 0 0.1034269117353599 -1.611320971129583 0 0 0 0 -88.28618942809784 460.8501584868588 0 -207.3640900155848 472.2446203287573 0 -371.3144022976822 295.4556185685672 0 -300.2241277215587 365.0576458425545 0 -281.5643971507721 405.2395855539366 0 0 0 0 0.0538479398868017 -2.374896144905374 0 0.09121220089769452 -2.569106588703929 0 0.1121258470376314 -0.7226655177897078 0 0.1056760971040315 -1.210073910990683 0 0.1034269117353599 -1.611320971129583 0 0 0 0 -88.28618942809784 460.8501584868588 0 -207.3640900155848 472.2446203287573 0 -371.3144022976822 295.4556185685672 0 -300.2241277215587 365.0576458425545 0 -281.5643971507721 405.2395855539366 0 0 0 0 0.05405495546504226 -2.383434154018369 0 0.09156321328983642 -2.578291891725836 0 0.1125575836669522 -0.7253859380969676 0 0.1060829288147637 -1.214568539937357 0 0.1038250605134362 -1.61723967133895 0 0 0 0 -85.91199348608397 448.3932314696844 0 -201.7887290205641 459.4756200719984 0 -361.3325115185693 287.4936082541112 0 -292.1528659322692 355.2103264117148 0 -273.9946531517969 394.300237623021 0 0 0 0 0.05405495546504226 -2.383434154018369 0 0.09156321328983642 -2.578291891725836 0 0.1125575836669522 -0.7253859380969676 0 0.1060829288147637 -1.214568539937357 0 0.1038250605134362 -1.61723967133895 0 0 0 0 -85.91199348608397 448.3932314696844 0 -201.7887290205641 459.4756200719984 0 -361.3325115185693 287.4936082541112 0 -292.1528659322692 355.2103264117148 0 -273.9946531517969 394.300237623021 0 0 0 0 0.05405495546504226 -2.383434154018369 0 0.09156321328983642 -2.578291891725836 0 0.1125575836669522 -0.7253859380969676 0 0.1060829288147637 -1.214568539937357 0 0.1038250605134362 -1.61723967133895 0 0 0 0 -85.91199348608397 448.3932314696844 0 -201.7887290205641 459.4756200719984 0 -361.3325115185693 287.4936082541112 0 -292.1528659322692 355.2103264117148 0 -273.9946531517969 394.300237623021 0 0 0 0 0.0452526048149462 -2.008261126636723 0 0.07664535983989648 -2.173570066161683 0 0.09421399251290166 -0.6085208481708266 0 0.08879604249489786 -1.020215919067429 0 0.08690662886537227 -1.359904735499712 0 0 0 0 -347.0923896193004 1818.263249674018 0 -815.1317994627137 1863.636345444549 0 -1459.449307622239 1163.242370310533 0 -1180.075748748892 1438.251448959439 0 -1106.7442341387 1597.385903346305 0 0 0 0 0.02129173440825772 -0.9465142633946249 0 0.03606135323178381 -1.024566563542731 0 0.04432668151919553 -0.2864694292976875 0 0.0417777794663934 -0.480444457068777 0 0.04088888990033553 -0.6405926038732859 0 0 0 0 -8696900.595133018 45603582.47046982 0 -20423561.00695194 46744464.08262098 0 -36566201.39525975 29158161.49596797 0 -29566870.58429065 36058326.55458026 0 -27729635.87167202 40053660.24944851 0 0 0 0 0.02664409168798357 -1.184448630677968 0 0.04512652744663484 -1.282121484097468 0 0.05546961319226201 -0.3584824805605834 0 0.05227996502020965 -0.6012189521233519 0 0.05116762524257486 -0.8016250056607476 0 0 0 0 -175218.6038238111 918785.6090513289 0 -411478.5439786498 941771.1399489366 0 -736708.3444812313 587456.4148916334 0 -595691.0803216076 726475.5261624047 0 -558675.8544528651 806970.3155479913 0 0 0 0 0.04565824536648615 -2.025954052932608 0 0.07733258291660557 -2.192692496567789 0 0.09505886488949866 -0.6139457461257707 0 0.08959229282916106 -1.0292795609262 0 0.08768592416388897 -1.371951589169656 0 0 0 0 -321.3782466807944 1683.411480155532 0 -754.7456822443851 1725.409952526356 0 -1351.334809475974 1077.026311850909 0 -1092.655907768359 1331.630341593488 0 -1024.756479865569 1478.948987752297 0 0 0 0 0.04480824415343359 -1.988850092626686 0 0.07589255556764034 -2.152588136469701 0 0.09328850638619472 -0.6025752887725176 0 0.08792381426685202 -1.010279385228062 0 0.08605297234541993 -1.346694384399479 0 0 0 0 -378.2687886611623 1981.758744040885 0 -888.3453026005026 2031.223152264364 0 -1590.529831372515 1267.77216527435 0 -1286.065577199338 1567.520396157466 0 -1206.148071762119 1740.980278045289 0 0 0 0 0.04571577360168027 -2.028461121938866 0 0.07743004665341605 -2.195401935077233 0 0.09517868772420855 -0.6147149003279143 0 0.08970521965822809 -1.030564403532674 0 0.08779644628789109 -1.373659082336147 0 0 0 0 -317.9263129097722 1665.308510275009 0 -746.6392940149073 1706.853954312698 0 -1336.821243127156 1065.452412178226 0 -1080.920444193169 1317.317190036919 0 -1013.750233289995 1463.049630445601 0 0 0 0 0.03355902937214 -1.491763858628343 0 0.05683825836748971 -1.614771378783568 0 0.06986572897069813 -0.4515112519705556 0 0.06584825650359775 -0.7572309726793367 0 0.06444722629513354 -1.009631493472208 0 0 0 0 -7481.079086495785 39226.9138060227 0 -17568.38133579464 40208.1823098083 0 -31454.33947544246 25081.52912204347 0 -25433.48795268576 31016.77628536414 0 -23853.09187026522 34453.32786181525 0 0 0 0 0.03669809424534574 -1.631105098212877 0 0.06215494405747798 -1.765585256426282 0 0.0764010908108769 -0.4937260912660892 0 0.07200779415597526 -0.8280096459042312 0 0.07047570184016744 -1.103980160958613 0 0 0 0 -2681.468549646215 14059.26870758516 0 -6297.110657512633 14410.90095148883 0 -11274.3379419921 8989.808369164113 0 -9116.246809662778 11116.99400921827 0 -8549.77590026287 12348.59467742993 0 0 0 0 0.04135895819993602 -1.83733301887705 0 0.0700495131076521 -1.988734865940494 0 0.08610549779126345 -0.5563423457888796 0 0.08115405959665706 -0.9329262366767889 0 0.07942732741060171 -1.243760489835967 0 0 0 0 -788.3163187051071 4132.041700603807 0 -1851.287332112786 4235.309077405169 0 -3314.571255704958 2642.576162160535 0 -2680.100038136327 3267.686575758076 0 -2513.559894845554 3629.545238242843 0 0 0 0 0.04407901835885442 -1.956933957202977 0 0.07465718896764957 -2.118083692336362 0 0.09176979019709669 -0.5928122905992852 0 0.08649248672692128 -0.9939566639369258 0 0.08465211854724158 -1.324986852419145 0 0 0 0 -437.352291427857 2291.600592532058 0 -1027.094890423172 2348.818218571492 0 -1838.945433932077 1465.869171698894 0 -1486.930833303024 1812.500535810345 0 -1394.531963258539 2013.108277257897 0 0 0 0 0.0451468695343293 -2.003644989457812 0 0.07646622905148132 -2.168580592290053 0 0.09399377075413581 -0.6071063686042052 0 0.08858849390451692 -1.017852242858172 0 0.08670349956126855 -1.356762597355458 0 0 0 0 -354.2119605914458 1855.599915599199 0 -831.8511339882541 1901.907334384708 0 -1489.383387212435 1187.113267533055 0 -1204.280016671316 1467.771915365319 0 -1129.444498774692 1630.177812298373 0 0 0 0 0.04986852319098693 -2.207684418263489 0 0.08446662517118585 -2.388938262725176 0 0.1038302344098654 -0.6700670055522517 0 0.0978586486859597 -1.12284812874175 0 0.09577618271207031 -1.496101882628342 0 0 0 0 -156.3192648346067 817.7387690868417 0 -367.128484428298 838.0704185201263 0 -657.3516796625574 523.5898606766563 0 -531.5106004808699 647.2011465309538 0 -498.4794435668892 718.6634719032793 0 0 0 0 0.0447825248414141 -1.987725697598576 0 0.07584898426194131 -2.151372667486295 0 0.09323494084705412 -0.6022310767726156 0 0.08787333109791449 -1.009704028031948 0 0.0860035640411753 -1.345929361509046 0 0 0 0 -380.1777012060836 1991.76942050793 0 -892.8281232353299 2041.484332466616 0 -1598.555817769663 1274.172448193292 0 -1292.555274086653 1575.435430753242 0 -1212.234512059203 1749.772440022403 3.279833343746172e-10 0 0 0 0.02417620173493878 -1.074741659375158 0 0.04094671409499115 -1.163367929346949 0 0.05033177816722618 -0.3252784634248 0 0.04743756902877121 -0.545531932925268 0 0.04642825905831956 -0.7273758658005487 3.279833343746172e-10 0 0 0 -850209.2569110476 4458206.691681647 0 -1996607.936707774 4569739.233404352 0 -3574712.966317919 2850502.4986877 0 -2890458.166091317 3525062.653161981 0 -2710850.043028271 3915646.436157406 0 0 0 0 0.02955834947495683 -1.313989791104593 0 0.05006234951230477 -1.422344036642495 0 0.06153673934970935 -0.397691293316742 0 0.05799821423640395 -0.6669758483267725 0 0.05676420914795815 -0.8892996528433744 0 0 0 0 -38491.75847970385 201836.5066410552 0 -90393.00113168482 206885.849595115 0 -161839.0277258371 129051.2992763834 0 -130860.5516927622 159590.6107050456 0 -122729.0987125006 177273.417160265 0 0 0 0 0.03652302585217114 -1.623340046680564 0 0.06185842427847889 -1.757181406285429 0 0.07603660112637531 -0.4913723231420887 0 0.07166426562111301 -0.8240638713838337 0 0.07013948312050627 -1.098721091797791 0 0 0 0 -2825.660418863624 14815.36858431867 0 -6635.726743407567 15185.91690264447 0 -11880.59365729153 9473.243261846213 0 -9606.455947598601 11714.83291858202 0 -9009.524295786339 13012.67619485001 0 0 0 0 0.05168503376355178 -2.284686714863315 0 0.087545418024279 -2.471967395237084 0 0.1076162115949316 -0.6941432669598722 0 0.101426480674833 -1.162844721622726 0 0.09926795266488751 -1.549011784767736 0 0 0 0 -119.0367122042535 622.1742897603037 0 -279.5763552952767 637.6093299407589 0 -500.6006837428522 398.5743899987173 0 -404.7636386153305 492.5910295695897 0 -379.6081752465868 546.9137670012381 0 0 0 0 0.03345249575740648 -1.487031782310012 0 0.05665782244214481 -1.609649415828754 0 0.06964393526167298 -0.450078264704001 0 0.06563921695811328 -0.7548280662380513 0 0.0642426345525282 -1.00642804681665 0 0 0 0 -7773.543990786067 40760.50428194882 0 -18255.1977641517 41780.13945661081 0 -32684.01072378109 26062.07940395647 0 -26427.78132653618 32229.37059760271 0 -24785.60156492943 35800.28055316299 1.667448406139447e-12 0 0 0 0.0351642943953915 -1.563046384530808 0 0.05955710709330495 -1.691925190214243 0 0.07320777445810202 -0.473101691392569 0 0.06899811646542807 -0.7934327767752498 0 0.06753006483346501 -1.057891740867861 1.667448406139447e-12 0 0 0 -4322.379916145784 22663.70879901431 0 -10150.58055505993 23230.6053974712 0 -18173.56214898521 14491.31929252061 0 -14694.85429837165 17920.42510538648 0 -13781.73839481904 19905.86705701438 0 0 0 0 0.03700954146116848 -1.644916788598622 0 0.06268245503719652 -1.780532971030476 0 0.07704952172522724 -0.4979132247391724 0 0.072618934693468 -0.8350285695965418 0 0.07107383805597801 -1.113334968456121 0 0 0 0 -2446.028621264918 12824.68976929797 0 -5744.210240664565 13145.43530541393 0 -10284.4291826864 8200.444070499181 0 -8315.821656358985 10140.82788731749 0 -7799.087770450708 11264.26586300377 2.893566120073588e-13 0 0 0 0.04157503028551727 -1.846860258934832 0 0.07041551527919064 -1.999040940906094 0 0.08655541966139108 -0.5592419554452239 0 0.08157810068029965 -0.9377812859441845 0 0.07984234323706087 -1.250225140263894 2.893566120073588e-13 0 0 0 -750.0382347920815 3931.31607735457 0 -1761.396279195164 4029.561286611893 0 -3153.631146025878 2514.238777379803 0 -2549.966269331316 3108.977380198651 0 -2391.512398282792 3453.249678693559 0 0 0 0 0.04549763065239928 -2.018951629653317 0 0.07706047282437542 -2.185124588219649 0 0.09472433134136352 -0.6117980449609433 0 0.08927701191240814 -1.02569161456827 0 0.08737735683887596 -1.367183059770975 0 0 0 0 -331.2662197304332 1735.26680177611 0 -777.9662197976818 1778.562948183741 0 -1392.908545527929 1110.179400027056 0 -1126.271838994814 1372.629910770924 0 -1056.283587563418 1524.492173205174 0 0 0 0 0.04763069418534895 -2.111571455068966 0 0.08067448606109948 -2.285190856957366 0 0.09916757023209272 -0.6402843166597152 0 0.0934644951109332 -1.07324210258878 0 0.09147565665232199 -1.430337108919314 0 0 0 0 -225.453430156657 1180.339153543252 0 -529.4797844265698 1209.747340671418 0 -948.0221896336988 755.3987581420262 0 -766.5429484387367 933.8794907765611 0 -718.9074632849658 1037.117005217413 0 0 0 0 0.05090351720009172 -2.251683412479573 0 0.08622075543987494 -2.436392142790959 0 0.1059872287161832 -0.6837972304755854 0 0.09989137354237028 -1.14567041258082 0 0.09776557734115678 -1.526306887650838 0 0 0 0 -133.5012240552424 698.0501665090085 0 -313.5439045272133 715.3851678173928 0 -561.4152046170815 447.0773896447237 0 -453.9375470114775 552.5764548162308 0 -425.7265638323407 613.5493234843531 0 0 0 0 0.04488070854971778 -1.992017567809292 0 0.07601531842301502 -2.156012125808902 0 0.09343942836384035 -0.6035450590786051 0 0.08806605154432078 -1.011900322503043 0 0.08619218115060086 -1.348849602952171 0 0 0 0 -372.9540430566568 1953.887241561248 0 -875.8643483221429 2002.654200840486 0 -1568.184086635222 1249.952652315519 0 -1267.997129932027 1545.483543288439 0 -1189.202361059583 1716.50134367471 0 0 0 0 0.0454162753731702 -2.015403143491004 0 0.07692264334240696 -2.181289401973771 0 0.09455488370771382 -0.6107100280131939 0 0.08911731591820914 -1.023873812310641 0 0.08722106134764662 -1.364766945989521 0 0 0 0 -336.4193599577775 1762.291235114174 0 -790.0676586622818 1806.263659678497 0 -1414.574800062256 1127.457185903736 0 -1143.790863366704 1393.996889592584 0 -1072.714016281304 1548.227052378072 0 0 0 0 0.05044139266576804 -2.232077119308315 0 0.08543751337727942 -2.415249816539204 0 0.1050240865135044 -0.6776705293526841 0 0.09898372487315667 -1.135490718487281 0 0.09687727800332926 -1.512838666742961 0 0 0 0 -143.1237708201048 748.5247059897309 0 -336.140925403824 767.1234930304743 0 -601.8723142354787 479.3435493163428 0 -486.6506752846265 592.4808784510202 0 -456.4069913795157 657.8773966705193 0 0 0 0 0.04736562665596599 -2.100109811919954 0 0.0802253584676369 -2.272811941348315 0 0.09861537212537007 -0.6367490848186185 0 0.09294408751804499 -1.067345860310542 0 0.09096633442081153 -1.422511443158683 0 0 0 0 -236.0236977900273 1235.776106978122 0 -554.3025354464673 1266.571811378522 0 -992.4644182503612 790.8404176492563 0 -802.4783279605307 977.7098051753878 0 -752.6099011071113 1085.805081129968 0 0 0 0 0.04937957305771189 -2.186792195006229 0 0.08363800515309458 -2.366396073198646 0 0.1028113520780762 -0.6635702042067857 0 0.0968984538874734 -1.112038182096168 0 0.09483645142429407 -1.481782928549963 0 0 0 0 -168.8312226307898 883.3655407325073 0 -396.5109006948936 905.3401266493581 0 -709.9572884220867 565.5436498340939 0 -574.0468266317505 699.0859119517337 0 -538.3725806606594 776.2994830553313 0 0 0 0 0.05070089376854046 -2.243094853358156 0 0.0858773298116166 -2.427131437384871 0 0.1055649195566724 -0.6811116993544778 0 0.09949339760148859 -1.141209156124465 0 0.09737608581195825 -1.520405349003061 0 0 0 0 -137.6150578859182 719.6292354243138 0 -323.2045857875559 737.5045455531941 0 -578.7114285004459 460.8718763639122 0 -467.9230653276747 569.636493216131 0 -438.8430622328303 632.500593800756 0 0 0 0 0.05193097580920854 -2.295030763461826 0 0.0879623124591455 -2.483113811599755 0 0.1081288982587549 -0.6973950207864432 0 0.1019096169716029 -1.168238230179887 0 0.09974078573155051 -1.556137341436308 0 0 0 0 -114.9050096315149 600.4999949088597 0 -269.8737398343588 615.3922576626516 0 -483.2294223193882 384.719573630324 0 -390.7174340106043 475.4561527093194 0 -366.4347580267242 527.8791775046952 0 0 0 0 0.05266027241251094 -2.325578738014192 0 0.0891986127742187 -2.516020149014492 0 0.1096493222318356 -0.7070251679045289 0 0.1033423912916764 -1.184198180957744 0 0.1011429999647958 -1.577208240369813 0 0 0 0 -103.6922274977482 541.677262294464 0 -243.5424285295265 555.0963408871366 0 -436.0867189985198 347.1192126058373 0 -352.5983625153152 428.9537620440311 0 -330.6842818930115 476.2208875517881 0 0 0 0 0.05323869846742655 -2.349666980192713 0 0.09017924250524831 -2.541955531043279 0 0.1108553761184947 -0.7146492910813886 0 0.1044789014977413 -1.196818946748403 0 0.1022552634291991 -1.593854545823023 0 0 0 0 -95.78736385743743 500.205795725438 0 -224.9792429609622 512.5861228059073 0 -402.8518705094684 320.6108341085641 0 -325.7250115658549 396.1690867493575 0 -305.4807485823974 439.8009783468997 0 0 0 0 0.05321826895275047 -2.348818403945771 0 0.09014460617132133 -2.541042081138621 0 0.1108127767764632 -0.7143802307526482 0 0.1044387587916162 -1.196373781480073 0 0.1022159772335073 -1.593267642846677 0 0 0 0 -96.05298679432748 501.5993733479361 0 -225.6030111849048 514.014607719023 0 -403.968641379708 321.501590622003 0 -326.6280210904 397.2707497501128 0 -306.3276482791942 441.0248001965728 0 0 0 0 0.0538479398868017 -2.374896144905374 0 0.09121220089769452 -2.569106588703929 0 0.1121258470376314 -0.7226655177897078 0 0.1056760971040315 -1.210073910990683 0 0.1034269117353599 -1.611320971129583 0 0 0 0 -88.28618942809784 460.8501584868588 0 -207.3640900155848 472.2446203287573 0 -371.3144022976822 295.4556185685672 0 -300.2241277215587 365.0576458425545 0 -281.5643971507721 405.2395855539366 0 0 0 0 0.05404229618520362 -2.382912560160553 0 0.09154174809805678 -2.577730800628313 0 0.1125311817918067 -0.7252196319787282 0 0.1060580500062029 -1.214293826212413 0 0.1038007127100635 -1.616877977390874 0 0 0 0 -86.05477441656272 449.1423812302966 0 -202.1240235480156 460.2435380372067 0 -361.932808475909 287.9724347786934 0 -292.638260391601 355.8025344175593 0 -274.4498870454855 394.9581199869949 0 0 0 0 0.04610679930916412 -2.045487177958848 0 0.07809252700939721 -2.213801026263452 0 0.09599315327023872 -0.6199414944214825 0 0.09047280960894209 -1.039293714295655 0 0.08854769030672667 -1.385258243288758 0 0 0 0 -295.6490829593414 1548.479331593981 0 -694.3243186901331 1587.101069829262 0 -1243.157247318562 990.759466129037 0 -1005.18506222794 1224.946183786115 0 -942.7208869279962 1360.441831633038 0 0 0 0 0.04652845818926159 -2.063817022814054 0 0.07880692410827968 -2.233606401484363 0 0.09687145836452972 -0.6255746298770707 0 0.09130056136783742 -1.048698937036815 0 0.08935781377492441 -1.397752135877516 0 0 0 0 -273.7692180891777 1433.732656835243 0 -642.9425245588502 1469.482718160088 0 -1151.164041730937 917.398465029572 0 -930.8006471121142 1134.222148897864 0 -872.958558192641 1259.663347935689 0 0 0 0 0.05049367872764709 -2.234298678401578 0 0.08552612963646673 -2.417645710440797 0 0.1051330553997469 -0.6783640395000646 0 0.09908641566724689 -1.136643342758155 0 0.09697777975849305 -1.514364014421188 0 0 0 0 -141.9914566737528 742.5852890465611 0 -333.4818643282684 761.0353687426465 0 -597.1115994954357 475.5467132539773 0 -482.8012196559818 587.7852409466393 0 -452.7967301402413 652.6612282458419 0 0 0 0 0.04820734496874257 -2.13645342494578 0 0.08165158809451098 -2.312059472268432 0 0.1003689292854441 -0.6479700429929719 0 0.09459668468705661 -1.08605533421562 0 0.09258372698973708 -1.447337239311067 0 0 0 0 -204.4420373971027 1070.140711205712 0 -480.1375874708115 1096.790659035692 0 -859.6808119142925 684.9479568391421 0 -695.1113022033965 846.7534734349533 0 -651.9144110015761 940.3344859025922 5.887948802600443e-14 0 0 0 0.0500244375542428 -2.214332563310728 0 0.08473086028973301 -2.396110214306921 0 0.1041551471443719 -0.6721373224785594 0 0.09816484482623294 -1.12629146830722 0 0.09607585268871843 -1.500661382075741 5.887948802600443e-14 0 0 0 -152.5793379074147 798.1220360545568 0 -358.345845306297 817.9625689446218 0 -641.6274519223302 511.0494329573936 0 -518.7961872040296 631.6921924164333 0 -486.5550696599088 701.4353604097619 0 0 0 0 0.05202770442376128 -2.299093336482766 0 0.08812627981140422 -2.487490999460803 0 0.1083305436944714 -0.6986733675836991 0 0.102099639228681 -1.170357959290833 0 0.09992675539257953 -1.558937135587271 0 0 0 0 -113.3306831591725 592.2412079688606 0 -266.1766982453362 606.9266446194092 0 -476.6103567291781 379.4403638025516 0 -385.3653319427382 468.9270996011611 0 -361.4152186619175 520.6262472216196 4.705785278511569e-14 0 0 0 0.05151906448963102 -2.27769462215476 0 0.08726409176966263 -2.464431902133901 0 0.1072702481787745 -0.6919477425412539 0 0.1011004565966541 -1.159201915824291 0 0.09894888081051391 -1.544197814156627 4.705785278511569e-14 0 0 0 -121.9334081947874 637.3696983096593 0 -286.378767669275 653.1852561149058 0 -512.7795177567324 408.2878027363211 0 -414.6113036145578 504.604011262866 0 -388.8439365112209 560.2585783279492 0 0 0 0 0.05060516621330664 -2.239032881957156 0 0.08571508418640389 -2.422751182673773 0 0.1053654085431146 -0.6798425154980066 0 0.09930538177810865 -1.139100308301827 0 0.0971920781016708 -1.517615175046542 0 0 0 0 -139.6150620828203 730.1201359524241 0 -327.9012778092033 748.2581174781423 0 -587.1202622107237 467.5782531799236 0 -474.7223462140644 577.9304472635681 0 -445.2198551221806 641.7139819998363 0 0 0 0 0.05270822685798674 -2.327580607242996 0 0.08927990902315917 -2.518175959280604 0 0.1097493046078921 -0.7076577230324952 0 0.1034366090499409 -1.185245800311405 0 0.1012352078444202 -1.57859056571229 0 0 0 0 -103.0054778032668 538.074430489893 0 -241.9297158460128 551.4032718490553 0 -433.1993750124985 344.8162701456799 0 -350.2636870022395 426.1055718609262 0 -328.4946752740142 473.0568936431814 0 0 0 0 0.05344017288931655 -2.35802674277358 0 0.09052082891392886 -2.550953605234024 0 0.1112754980523059 -0.7173018716455092 0 0.1048747946035679 -1.20120676587597 0 0.1026427091423127 -1.59963840093501 0 0 0 0 -93.2181656416882 486.7264924212207 0 -218.9459404290517 498.7691736199537 0 -392.0500791307899 311.9950875183123 0 -316.9907922522347 385.5133498190595 0 -297.2892425486409 427.9636548614032 0 0 0 0 0.05404651524692195 -2.38308640353466 0 0.09154890197348246 -2.577917808816967 0 0.1125399809519215 -0.7252750589246703 0 0.1060663415628404 -1.214385384323808 0 0.103808827294747 -1.616998525621335 0 0 0 0 -86.00715432216177 448.8925259614612 0 -202.0121965884993 459.987423231115 0 -361.7325982755638 287.8127372611006 0 -292.4763723122906 355.6050220907434 0 -274.2980580759723 394.7387040589577 0 0 0 0 0.0538479398868017 -2.374896144905374 0 0.09121220089769452 -2.569106588703929 0 0.1121258470376314 -0.7226655177897078 0 0.1056760971040315 -1.210073910990683 0 0.1034269117353599 -1.611320971129583 0 0 0 0 -88.28618942809784 460.8501584868588 0 -207.3640900155848 472.2446203287573 0 -371.3144022976822 295.4556185685672 0 -300.2241277215587 365.0576458425545 0 -281.5643971507721 405.2395855539366 0 0 0 0 0.05138675360348671 -2.272113937377827 0 0.08703982211505039 -2.458416918961841 0 0.1069944533259357 -0.6901968218870557 0 0.1008405561821878 -1.156296110657342 0 0.09869452231242765 -1.540357037146273 0 0 0 0 -124.3078618109097 649.8254108836715 0 -291.9547824707469 665.9528725352906 0 -522.7626500838999 416.2499579199396 0 -422.6835484614318 514.4511199497749 0 -396.4145964932227 571.1973791094839 1.36534496945881e-12 0 0 0 0.03578985895372686 -1.590811482639306 0 0.06061663799607073 -1.721976030856985 0 0.07451016947310743 -0.481514100141778 0 0.07022561523060476 -0.8075369347262774 0 0.06873144485472081 -1.076692347372173 1.36534496945881e-12 0 0 0 -3539.256738930901 18557.25321726851 0 -8311.516139143816 19021.41550856873 0 -14880.91462254943 11865.73022056393 0 -12032.46974717792 14673.4969198395 0 -11284.78981069356 16299.16968175485 0 0 0 0 0.04081970041799208 -1.813539162057309 0 0.06913607976441204 -1.96299446321008 0 0.08498263225530163 -0.549104115268143 0 0.08009578256573881 -0.9208050093597622 0 0.07839157401076258 -1.227618848922172 0 0 0 0 -894.7514346181057 4690.172147511346 0 -2101.23626372858 4807.40383113685 0 -3762.077569415333 2999.427377600243 0 -3041.946942065765 3708.988409508971 0 -2852.922294989251 4119.746864155241 0 0 0 0 0.04853770226807903 -2.15067390775589 0 0.08221137997368169 -2.327412339822003 0 0.1010572142155182 -0.6523697941102683 0 0.09524533687391259 -1.093386848147634 0 0.0932185594454247 -1.457060555345201 0 0 0 0 -193.5144865518432 1012.827869867403 0 -454.4758450910985 1038.04322455123 0 -813.7365210564052 648.3077856939522 0 -657.9613599442579 801.4406581266502 0 -617.0728760563657 889.9993417039872 0 0 0 0 0.04783123975768041 -2.120233164932474 0 0.08101429422483386 -2.294544880088714 0 0.09958536518791715 -0.642958043210657 0 0.09385823607982123 -1.07770045574529 0 0.09186101002269606 -1.436253236268643 0 0 0 0 -217.8499514858073 1140.461492114825 0 -511.6241164081076 1168.871569437993 0 -916.053716574891 729.9045186920479 0 -740.6936746680786 902.3509871029684 0 -694.6644030460504 1002.09411728434 0 0 0 0 0.05005233694201455 -2.215521459641247 0 0.08477814307500967 -2.397392719150124 0 0.104213288006275 -0.672507715000236 0 0.09821963639818224 -1.126907427986612 0 0.09612947642164833 -1.501476922651365 0 0 0 0 -151.9221926023765 794.6751473917217 0 -356.8026416694676 814.4293843295327 0 -638.8645373934017 508.8459402723368 0 -516.5621290386224 628.9670938671059 0 -484.4598298067186 698.4081842274243 0 0 0 0 0.04771825344137595 -2.115354275832357 0 0.08082284746687599 -2.289276125906189 0 0.09934998050242588 -0.6414517840740157 0 0.09363640347998668 -1.075188927391024 0 0.09164390301635394 -1.432920620131185 0 0 0 0 -222.0932344379715 1162.716108470689 0 -521.5888509300976 1191.683205559172 0 -933.8944004775892 744.1321316748733 0 -755.1194100207146 919.946158021357 0 -708.1937569636883 1021.639410698547 0 0 0 0 0.04610141735564763 -2.045253015115479 0 0.07808340873546857 -2.213547995504979 0 0.09598194302427397 -0.6198695745339815 0 0.09046224457622266 -1.039173614016965 0 0.08853735026507581 -1.385098678965011 0 0 0 0 -295.9422217814152 1550.016657633393 0 -695.0127142775749 1588.676868731796 0 -1244.389740868537 991.742328659953 0 -1006.18163914258 1226.161668062086 0 -943.6555386910961 1361.792020124211 0 0 0 0 0.04866398296258318 -2.156102905220823 0 0.0824253672134907 -2.333273044853586 0 0.1013203222719184 -0.6540509532733096 0 0.09549329386234827 -1.096187537189733 0 0.09346123335849524 -1.460774151813563 0 0 0 0 -189.5331425551649 991.9462917428391 0 -445.1262494523815 1016.6389483857 0 -796.9971901587754 634.9582470193739 0 -644.4261580612238 784.9312815053196 0 -604.3787183175413 871.6600909594587 0 0 0 0 0.05363621388547753 -2.366145458691902 0 0.09085321275562921 -2.559690828759375 0 0.1116843081145209 -0.7198813741366406 0 0.1052600263169422 -1.205472069126475 0 0.1030197203068851 -1.605258964523518 0 0 0 0 -90.80350882228878 474.0577640960581 0 -213.2755550839803 485.7830916403443 0 -381.8980469913387 303.8975278500051 0 -308.7819598259031 375.498458868727 0 -289.5904771962508 416.8382115568455 0 0 0 0 0.05381449353044655 -2.373515028014134 0 0.09115549079543654 -2.567620613943715 0 0.1120560957042252 -0.7222258283181936 0 0.1056103692035315 -1.209347288004479 0 0.1033625865836249 -1.610363932343828 0 0 0 0 -88.67775835326877 462.9046182413405 0 -208.2836178228929 474.3505475676971 0 -372.9606866972593 296.7687620979881 0 -301.5552974091576 366.681722548931 0 -282.8128529148088 407.0437630716642 0 0 0 0 0.05383957360646953 -2.374550715472855 0 0.09119801539147553 -2.568734937310595 0 0.1121083993702002 -0.7225555380598512 0 0.1056596558673562 -1.209892165010563 0 0.1034108213853358 -1.611081597605062 0 0 0 0 -88.38392520504333 461.3629531578036 0 -207.5936045513108 472.7702613536129 0 -371.7253155738937 295.7833799469311 0 -300.5563882386102 365.4630164126307 0 -281.8760122389656 405.6899094735639 0 0 0 0 0.03652302567571204 -1.623340038836811 0 0.06185842397944184 -1.757181397797552 0 0.07603660075805764 -0.4913723207651717 0 0.07166426527434459 -0.8240638673979966 0 0.07013948277988485 -1.098721086485229 0 0 0 0 -2825.660569074231 14815.36937197883 0 -6635.727096157888 15185.91771001025 0 -11880.59428885309 9473.243765460187 0 -9606.456458269651 11714.83354137533 0 -9009.52477472518 13012.67688665093 0 0 0 0 0.03320786139749922 -1.476164919378627 0 0.05624348569056747 -1.59788715973051 0 0.06913462844932261 -0.4467876275476541 0 0.0651591975802506 -0.7493101021267297 0 0.06377282868164558 -0.9990716848194071 0 0 0 0 -8497.378805154693 44556.05699030786 0 -19955.03127674092 45670.64753250986 0 -35727.38057271827 28488.88810710725 0 -28888.60365814607 35230.47556304611 0 -27093.51263012023 39133.91510331759 7.830870697645248e-13 0 0 0 0.03765883677356033 -1.67370031919781 0 0.06378219945498774 -1.811683042997324 0 0.07840136188392026 -0.5066414029881384 0 0.07389303112869995 -0.8496585971747272 0 0.07232082285705775 -1.132832646635366 7.830870697645248e-13 0 0 0 -2029.906624407708 10642.66242994991 0 -4767.001269051295 10908.81773572397 0 -8534.841663387466 6805.302281880878 0 -6901.131794828084 8415.527399900131 0 -6472.304262490824 9347.795427289808 0 0 0 0 0.04931148564121837 -2.18387780859458 0 0.08352262096065896 -2.363251069981765 0 0.1026694762033094 -0.6626650122886628 0 0.09676474944578897 -1.110531517698834 0 0.09470559626273586 -1.479786606949324 0 0 0 0 -170.6732579286754 893.027103531588 0 -400.8366409679338 915.243554040043 0 -717.7019989706123 571.7201318538496 0 -580.3090999893166 706.7244216120542 0 -544.2457325335289 784.7846773888035 0 0 0 0 0.04787417381237154 -2.122086377435556 0 0.08108704316260346 -2.296546115337327 0 0.09967481064548564 -0.6435303404455226 0 0.09394253169990818 -1.078654625599103 0 0.09194350990396889 -1.437519267426536 0 0 0 0 -216.2643606155294 1132.145565790502 0 -507.9005867070551 1160.347498853051 0 -909.3871757365588 724.5880683277585 0 -735.3031998449177 895.7761730564051 0 -689.6088796560724 994.7905947179685 0 0 0 0 0.04974077141620531 -2.202232048115871 0 0.08425012147938964 -2.383055850360098 0 0.1035640159794193 -0.668370151599628 0 0.09760776516232508 -1.120025406159547 0 0.09553064623155079 -1.492363595818905 0 0 0 0 -159.471128774641 834.2708520934456 0 -374.5301510889371 855.0163843917552 0 -670.6034506902622 534.1584063111131 0 -542.225815261966 660.2714215812946 0 -508.5288434915232 733.1825620455538 0 0 0 0 0.04376792809877133 -1.943296914844096 0 0.07413018987746874 -2.103338831964508 0 0.09112192474181366 -0.5886452813136227 0 0.08588189766508908 -0.9869876546099717 0 0.08405452839893032 -1.315716365739048 0 0 0 0 -466.0115201423122 2441.891828245279 0 -1094.397227496879 2502.870112294291 0 -1959.442773792345 1561.958299713443 0 -1584.363224137732 1931.330597061455 0 -1485.910097101792 2145.106473296658 0 0 0 0 0.04067794192631988 -1.807280619044148 0 0.06889596125625574 -1.956223593660113 0 0.08468746080280541 -0.547200995234036 0 0.07981758928171867 -0.9176176458955941 0 0.07811930145210687 -1.223373874997321 0 0 0 0 -925.5841545509933 4851.853939988975 0 -2173.642878282251 4973.130832488943 0 -3891.713733059 3102.801889219542 0 -3146.768798676174 3836.826929961751 0 -2951.230712281529 4261.750849614947 0 0 0 0 0.04448360416425624 -1.97465057703392 0 0.07534258425496966 -2.137237876199603 0 0.0926123873759412 -0.5982298294819409 0 0.08728660097037161 -1.003015154193122 0 0.08542932602843802 -1.337034728422214 0 0 0 0 -403.2654354341059 2112.845139478226 0 -947.0465246214735 2165.589779983781 0 -1695.627781874104 1351.581861267615 0 -1371.04626135451 1671.16522023835 0 -1285.848227744228 1856.110743879131 3.424872485956239e-14 0 0 0 0.05381031211464158 -2.373342330152425 0 0.09114840099903394 -2.567434801495752 0 0.1120473755298886 -0.7221708557384062 0 0.1056021520268777 -1.209256437881024 0 0.103354544774573 -1.610244269429483 3.424872485956239e-14 0 0 0 -88.72687056158115 463.1622966989889 0 -208.3989488458076 474.6146812566351 0 -373.1671705840476 296.9334619085648 0 -301.7222582847572 366.8854207957559 0 -282.9694394627186 407.2700502329836 0 0 0 0 0.05322643592096462 -2.349157653167753 0 0.09015845249118001 -2.541407267729082 0 0.1108298064030263 -0.7144877931139787 0 0.1044548063492233 -1.196551747444351 0 0.1022316823909788 -1.593502274272607 0 0 0 0 -95.94668602045958 501.0416718866859 0 -225.3533827182526 513.4429365840822 0 -403.5217160724252 321.1451150654616 0 -326.2666418520551 396.8298706941814 0 -305.9887238731646 440.5350339239736 0 0 0 0 0.0540423042851618 -2.382912893919153 0 0.09154176183236447 -2.577731159662455 0 0.1125311986848206 -0.7252197383902296 0 0.1060580659246696 -1.21429400199123 0 0.1038007282887873 -1.616878208827531 0 0 0 0 -86.05468296069714 449.1419013756153 0 -202.1238087808759 460.2430461608978 0 -361.9324239660148 287.9721280746947 0 -292.6379494805286 355.8021550890701 0 -274.4495954532454 394.9576985919787 0 0 0 0 0.05283904030512954 -2.333037057547939 0 0.08950167718861277 -2.524051610540871 0 0.1100220485080648 -0.7093828179902342 0 0.1036936270066691 -1.188102394365602 0 0.1014867428442176 -1.582359314790818 0 0 0 0 -101.1617985946424 528.402034433088 0 -237.6001559785316 541.4886151926376 0 -425.4478854897883 338.6336669734437 0 -343.9959147743058 418.4591565015055 0 -322.6163611923523 464.5626447205854 0 0 0 0 0.05212814436700666 -2.303308313631936 0 0.08829654042405244 -2.492032083953605 0 0.1085399299534726 -0.7000004212261874 0 0.1022969556985429 -1.172558091768365 0 0.100119863560856 -1.561842730927595 0 0 0 0 -111.7252528554187 583.819190192195 0 -262.4066157005949 598.2937094536163 0 -469.8605226471722 374.0568356697382 0 -379.9074914394751 462.2690214977375 0 -356.2965109694898 513.2299792299921 0 0 0 0 0.05323461289672811 -2.349497291857927 0 0.09017231579376515 -2.541772871210982 0 0.1108468569276265 -0.7145954846869588 0 0.1044708735965903 -1.196729924449728 0 0.1022474068170062 -1.593737180916555 0 0 0 0 -95.84040782646696 500.4840884896159 0 -225.1038072840742 512.871386449297 0 -403.0748857236219 320.7887151169726 0 -325.9053393928909 396.389085087401 0 -305.6498714745867 440.0453714140829 0 0 0 0 0.05405073230998027 -2.383260157039706 0 0.0915560524645621 -2.578104719655003 0 0.1125487759523596 -0.7253304588685398 0 0.1060746291989274 -1.214476897042524 0 0.103816938042219 -1.617119013218657 0 0 0 0 -85.95959108954416 448.6429689358307 0 -201.900503160314 459.7316141347222 0 -361.5326271468841 287.6532304047224 0 -292.3146775432258 355.4077455563754 0 -274.1464104048971 394.5195500598483 0 0 0 0 0.05345667373834682 -2.358710695204567 0 0.09054880543327794 -2.551689716774299 0 0.1113099070653938 -0.7175190484417699 0 0.1049072191298742 -1.201565938284971 0 0.102674441778756 -1.600111765806645 0 0 0 0 -93.01173122680359 485.6434232632252 0 -218.4611663281814 497.6589738723782 0 -391.1821586370363 311.3028115038105 0 -316.289000427622 384.6571587844206 0 -296.6310575434205 427.0125217735957 0 0 0 0 0.05405073230998027 -2.383260157039706 0 0.0915560524645621 -2.578104719655003 0 0.1125487759523596 -0.7253304588685398 0 0.1060746291989274 -1.214476897042524 0 0.103816938042219 -1.617119013218657 0 0 0 0 -85.95959108954416 448.6429689358307 0 -201.900503160314 459.7316141347222 0 -361.5326271468841 287.6532304047224 0 -292.3146775432258 355.4077455563754 0 -274.1464104048971 394.5195500598483 3.327310219539124e-14 0 0 0 0.05402965943125563 -2.382391826919918 0 0.09152032114234616 -2.577170629244875 0 0.1125048269747279 -0.7250536150919328 0 0.1060332155328139 -1.214019583172048 0 0.1037764082927276 -1.616516895362386 3.327310219539124e-14 0 0 0 -86.19760977531764 449.8918156517437 0 -202.4594459079896 461.0117477471486 0 -362.5333343251063 288.451443571643 0 -293.1238399230995 356.3949677118617 0 -274.9052945094675 395.6162525127507 0 0 0 0 0.0530073793027059 -2.340049212080593 0 0.08978706821786847 -2.531601630615193 0 0.1103730436162496 -0.7116018368585173 0 0.1040243831900974 -1.191775882488469 0 0.1018104426222018 -1.58720470768543 0 0 0 0 -98.85160062404363 516.2820140188683 0 -232.1750608451586 529.0650213112568 0 -415.7349929162449 330.8865948521673 0 -336.1421716046303 408.8778406335717 0 -315.2506226791 453.9189352552002 0 0 0 0 0.05342781135625215 -2.357514291610108 0 0.09049987047991505 -2.550402067460183 0 0.1112497207856748 -0.7171391676111321 0 0.1048505039924305 -1.200937674403032 0 0.1026189368527157 -1.599283748398389 0 0 0 0 -93.3732050025699 487.5399136324689 0 -219.3100225081259 499.6029707565145 0 -392.7019174027341 312.5150103676007 0 -317.5178621462682 386.156378266804 0 -297.7835622130136 428.6779878764133 0 0 0 0 0.05405495546504226 -2.383434154018369 0 0.09156321328983642 -2.578291891725836 0 0.1125575836669522 -0.7253859380969676 0 0.1060829288147637 -1.214568539937357 0 0.1038250605134362 -1.61723967133895 0 0 0 0 -85.91199348608397 448.3932314696844 0 -201.7887290205641 459.4756200719984 0 -361.3325115185693 287.4936082541112 0 -292.1528659322692 355.2103264117148 0 -273.9946531517969 394.300237623021 0 0 0 0 0.05405495546504226 -2.383434154018369 0 0.09156321328983642 -2.578291891725836 0 0.1125575836669522 -0.7253859380969676 0 0.1060829288147637 -1.214568539937357 0 0.1038250605134362 -1.61723967133895 0 0 0 0 -85.91199348608397 448.3932314696844 0 -201.7887290205641 459.4756200719984 0 -361.3325115185693 287.4936082541112 0 -292.1528659322692 355.2103264117148 0 -273.9946531517969 394.300237623021 0 0 0 0 0.05405495546504226 -2.383434154018369 0 0.09156321328983642 -2.578291891725836 0 0.1125575836669522 -0.7253859380969676 0 0.1060829288147637 -1.214568539937357 0 0.1038250605134362 -1.61723967133895 0 0 0 0 -85.91199348608397 448.3932314696844 0 -201.7887290205641 459.4756200719984 0 -361.3325115185693 287.4936082541112 0 -292.1528659322692 355.2103264117148 0 -273.9946531517969 394.300237623021 0 0 0 0 0.05264039035090163 -2.324748505402752 0 0.08916490724912558 -2.515126050121713 0 0.1096078695195743 -0.7067628838012252 0 0.1033033285608097 -1.183763767432857 0 0.1011047705203199 -1.57663500632256 0 0 0 0 -103.9786924877528 543.1801130687147 0 -244.2151420097862 556.6368321303361 0 -437.2911216346456 348.0798414811622 0 -353.572229591215 430.1418300566206 0 -331.5976361303672 477.5406865333956 0 0 0 0 0.05076584791432315 -2.245849433038088 0 0.08598741950396327 -2.430101715291686 0 0.1057002958560929 -0.6819727241418726 0 0.09962097375862401 -1.142639650482061 0 0.0975009422412729 -1.522297825130265 0 0 0 0 -136.2788419122809 712.6201601836854 0 -320.066695572179 730.3199749025521 0 -573.0934334420242 456.3912921238767 0 -463.3804224265077 564.0952304810762 0 -434.5826861755622 626.3450447298268 0 0 0 0 0.05200830450509412 -2.298278807545018 0 0.08809339431499215 -2.486613414957819 0 0.108290101326515 -0.698417007737324 0 0.1020615280576058 -1.1699328957819 0 0.09988945702745362 -1.558375730496564 0 0 0 0 -113.6441914603122 593.8858514763814 0 -266.9129198022662 608.612475459207 0 -477.9284642412647 380.491656675514 0 -386.4311389058158 470.2272848689815 0 -362.4147997606421 522.0705848288422 0 0 0 0 0.05405495546504226 -2.383434154018369 0 0.09156321328983642 -2.578291891725836 0 0.1125575836669522 -0.7253859380969676 0 0.1060829288147637 -1.214568539937357 0 0.1038250605134362 -1.61723967133895 0 0 0 0 -85.91199348608397 448.3932314696844 0 -201.7887290205641 459.4756200719984 0 -361.3325115185693 287.4936082541112 0 -292.1528659322692 355.2103264117148 0 -273.9946531517969 394.300237623021 0 0 0 0 0.05405073230998027 -2.383260157039706 0 0.0915560524645621 -2.578104719655003 0 0.1125487759523596 -0.7253304588685398 0 0.1060746291989274 -1.214476897042524 0 0.103816938042219 -1.617119013218657 0 0 0 0 -85.95959108954416 448.6429689358307 0 -201.900503160314 459.7316141347222 0 -361.5326271468841 287.6532304047224 0 -292.3146775432258 355.4077455563754 0 -274.1464104048971 394.5195500598483 0 0 0 0 0.05384375773826555 -2.374723474762316 0 0.09120510982370943 -2.568920811290488 0 0.1121171252676913 -0.7226105413197365 0 0.1056678784308561 -1.20998306051715 0 0.1034188684641556 -1.611201314442255 0 0 0 0 -88.33502814016478 461.1064027918274 0 -207.4787787670323 472.5072839796657 0 -371.5197362654175 295.6194014277314 0 -300.3901587904247 365.2602101405311 0 -281.7201116686052 405.4646131160198 0 0 0 0 0.05088423018625685 -2.250866446112474 0 0.08618806563138796 -2.435511288934654 0 0.105947029960497 -0.6835416579228305 0 0.0998534910820916 -1.145245907379223 0 0.09772850251581144 -1.525745396846669 0 0 0 0 -133.8859626089838 700.0683202193642 0 -314.4474013101488 717.4538538736732 0 -563.032800635468 448.3674962935181 0 -455.2455157636096 554.1719686237223 0 -426.9532591921595 615.3217133226341 0 0 0 0 0.05119950084078689 -2.264206067219539 0 0.08672243073260544 -2.449892768852055 0 0.1066041463827633 -0.6877178710423072 0 0.1004727419930984 -1.1521810560018 0 0.09833455070920923 -1.534916799530003 0 0 0 0 -127.7708141425448 667.990878911473 0 -300.0869616695877 684.5732112320728 0 -537.3222691318134 427.8620744689938 0 -434.4562857220567 528.8122480561415 0 -407.4558110316264 587.1506178017696 0 0 0 0 0.05218277550018265 -2.305599420327769 0 0.08838914920337808 -2.494500316852202 0 0.1086538207170053 -0.7007220828393637 0 0.102404281202558 -1.173754384218301 0 0.1002248999999457 -1.563422437729383 0 0 0 0 -110.8643356807585 579.3028292408753 0 -260.3848972870819 593.6642412235017 0 -466.2409039964076 371.1698939139001 0 -376.9807079825659 458.6985923836454 0 -353.551588445119 509.263688655246 0 0 0 0 0.05405495546504226 -2.383434154018369 0 0.09156321328983642 -2.578291891725836 0 0.1125575836669522 -0.7253859380969676 0 0.1060829288147637 -1.214568539937357 0 0.1038250605134362 -1.61723967133895 0 0 0 0 -85.91199348608397 448.3932314696844 0 -201.7887290205641 459.4756200719984 0 -361.3325115185693 287.4936082541112 0 -292.1528659322692 355.2103264117148 0 -273.9946531517969 394.300237623021 0 0 0 0 0.05405073230998027 -2.383260157039706 0 0.0915560524645621 -2.578104719655003 0 0.1125487759523596 -0.7253304588685398 0 0.1060746291989274 -1.214476897042524 0 0.103816938042219 -1.617119013218657 0 0 0 0 -85.95959108954416 448.6429689358307 0 -201.900503160314 459.7316141347222 0 -361.5326271468841 287.6532304047224 0 -292.3146775432258 