<?xml version="1.0" encoding="UTF-8"?>
<!-- This file was created by ACADEMIC version of SMILE -->
<smile version="1.0" id="unknown" numsamples="10000" discsamples="10000">
	<nodes>
		<cpt id="Sex">
			<state id="M" />
			<state id="W" />
			<probabilities>0.695118 0.304882</probabilities>
		</cpt>
		<cpt id="Age">
			<state id="age_2_young" />
			<state id="age_3_young_adult" />
			<state id="age_4_adult" />
			<state id="age_5_old_adult" />
			<probabilities>0.19078 0.380053 0.298359 0.130808</probabilities>
		</cpt>
		<cpt id="SD">
			<state id="SD_1_short" />
			<state id="SD_2_normal" />
			<state id="SD_3_excessive" />
			<parents>Age Sex</parents>
			<probabilities>0.060844313 0.937824307 0.00133138 0.078497363 0.919507767 0.00199487 0.091220196 0.90787856 0.000901244 0.11412849 0.885107393 0.000764117 0.121549326 0.877796408 0.000654266 0.159430754 0.839586651 0.000982595 0.149294451 0.8500227970000001 0.000682752 0.225208895 0.774069936 0.000721169</probabilities>
		</cpt>
		<cpt id="SES">
			<state id="ses_0" />
			<state id="ses_1" />
			<state id="ses_2" />
			<parents>Age Sex</parents>
			<probabilities>0.265038 0.608924 0.126038 0.227351 0.606203 0.166446 0.2481707518292481 0.6176143823856175 0.1342148657851343 0.194898 0.6426539999999999 0.162448 0.252783 0.615168 0.132049 0.188273 0.641218 0.170509 0.2429122429122429 0.6313856313856314 0.1257021257021257 0.162707 0.664855 0.172438</probabilities>
		</cpt>
		<cpt id="Depression">
			<state id="False" />
			<state id="True" />
			<parents>Age SES Sex</parents>
			<probabilities>0.997863655 0.002136345 0.994321309 0.005678691 0.99885487 0.00114513 0.997887385 0.002112615 0.998969781 0.001030219 0.998266781 0.001733219 0.996706037 0.003293963 0.988462896 0.011537104 0.997612648 0.002387352 0.994959954 0.005040046 0.997874826 0.002125174 0.99539649 0.00460351 0.9932493100000001 0.00675069 0.9801555749999999 0.019844425 0.996694208 0.003305792 0.992654556 0.007345444 0.997027521 0.002972479 0.993538526 0.006461474 0.993046405 0.006953595 0.965170613 0.034829387 0.994559063 0.005440937 0.98925555 0.01074445 0.9972002679999999 0.002799732 0.993063387 0.006936613</probabilities>
		</cpt>
		<cpt id="PA">
			<state id="PA_1" />
			<state id="PA_2" />
			<parents>Age SD SES Sex</parents>
			<probabilities>0.482960174 0.517039826 0.620871248 0.379128752 0.471864678 0.528135322 0.554851444 0.445148556 0.424304227 0.575695773 0.490459825 0.509540175 0.394941489 0.605058511 0.514621382 0.485378618 0.389521957 0.610478043 0.461170736 0.538829264 0.336538844 0.663461156 0.362231129 0.637768871 0.524754729 0.475245271 0.542883361 0.457116639 0.42757625 0.57242375 0.5888450200000001 0.41115498 0.489527729 0.510472271 0.514850294 0.485149706 0.540085956 0.459914044 0.59533725 0.40466275 0.517562867 0.482437133 0.5801786209999999 0.419821379 0.471672205 0.528327795 0.541112446 0.458887554 0.468980888 0.531019112 0.525066668 0.474933332 0.467361722 0.532638278 0.496116563 0.503883437 0.393204847 0.606795153 0.427089822 0.572910178 0.486764295 0.513235705 0.50487751 0.49512249 0.550936659 0.449063341 0.58643991 0.41356009 0.512318406 0.487681594 0.533888241 0.466111759 0.56087748 0.43912252 0.538736484 0.461263516 0.518199623 0.481800377 0.512441111 0.487558889 0.448944356 0.551055644 0.447486087 0.552513913 0.484326733 0.515673267 0.479155827 0.520844173 0.484082075 0.515917925 0.452198731 0.547801269 0.39545848 0.6045415200000001 0.37222709 0.62777291 0.531613695 0.468386305 0.488367237 0.511632763 0.581409954 0.418590046 0.490921527 0.509078473 0.48954251 0.51045749 0.464206372 0.535793628 0.537268254 0.462731746 0.579118873 0.420881127 0.514437807 0.485562193 0.5156834259999999 0.484316574 0.464639523 0.535360477 0.473053893 0.526946107 0.483202866 0.516797134 0.500088604 0.499911396 0.473048548 0.526951452 0.436542761 0.563457239 0.393267294 0.606732706 0.378980607 0.621019393 0.492440477 0.507559523 0.533342164 0.466657836 0.6309098869999999 0.369090113 0.492169558 0.507830442 0.488970119 0.511029881 0.503256046 0.496743954</probabilities>
		</cpt>
		<cpt id="Smoking">
			<state id="sm_1_not_smoker" />
			<state id="sm_2_smoker" />
			<state id="sm_3_ex_smoker" />
			<parents>Age PA Sex</parents>
			<probabilities>0.446330401 0.440945892 0.112723707 0.529641379 0.337748088 0.132610534 0.557463069 0.325515129 0.117021802 0.5886502850000001 0.271293166 0.140056549 0.471714462 0.360802735 0.167482803 0.554434337 0.28323897 0.162326693 0.551256389 0.255864566 0.192879044 0.579066261 0.225941944 0.194991794 0.398959148 0.359016238 0.242024614 0.496183584 0.327477342 0.176339073 0.483745206 0.24334485 0.272909944 0.542385494 0.242025861 0.215588646 0.37681277 0.303406481 0.319780749 0.543890929 0.26998268 0.18612639 0.4486828 0.20376842 0.347548781 0.5693515179999999 0.188244006 0.242404476</probabilities>
		</cpt>
		<cpt id="Anxiety">
			<state id="False" />
			<state id="True" />
			<parents>Depression SD Sex Smoking</parents>
			<probabilities>0.971336721 0.028663279 0.9615512980000001 0.038448702 0.968828833 0.031171167 0.943572812 0.056427188 0.924390764 0.075609236 0.925219217 0.074780783 0.984691033 0.015308967 0.980021819 0.019978181 0.979219465 0.020780535 0.969387083 0.030612917 0.951017224 0.048982776 0.957426591 0.042573409 0.979844732 0.020155268 0.970985053 0.029014947 0.987399873 0.012600127 0.984583757 0.015416243 0.953909558 0.046090442 0.9500612859999999 0.049938714 0.87238812 0.12761188 0.88629607 0.11370393 0.926218112 0.073781888 0.910199251 0.089800749 0.850381421 0.149618579 0.912162308 0.08783769199999999 0.887635786 0.112364214 0.916113641 0.08388635899999999 0.875464154 0.124535846 0.900114221 0.09988577899999999 0.887995922 0.112004078 0.858307872 0.141692128 0.915760002 0.084239998 0.972142923 0.027857077 0.972142923 0.027857077 0.973071964 0.026928036 0.971281878 0.028718122 0.971245613 0.028754387</probabilities>
		</cpt>
		<cpt id="Alcohol">
			<state id="high" />
			<state id="low" />
			<parents>Age Sex Smoking</parents>
			<probabilities>0.006440306 0.993559694 0.025006952 0.974993048 0.019256092 0.980743908 0.001413651 0.998586349 0.004426413 0.995573587 0.002911964 0.997088036 0.019231995 0.9807680050000001 0.061380648 0.938619352 0.044717488 0.955282512 0.00302048 0.99697952 0.008328991000000001 0.991671009 0.00690617 0.99309383 0.052038441 0.947961559 0.134326352 0.865673648 0.09703972900000001 0.902960271 0.009248324 0.990751676 0.020016907 0.979983093 0.021599909 0.978400091 0.103943403 0.896056597 0.21175689 0.78824311 0.1629616 0.8370384 0.019931973 0.980068027 0.039153935 0.960846065 0.030181896 0.969818104</probabilities>
		</cpt>
		<cpt id="BMI">
			<state id="bmi_1_underweight" />
			<state id="bmi_2_normal" />
			<state id="bmi_3_overweight" />
			<state id="bmi_4_obese" />
			<parents>Age PA Sex Smoking</parents>
			<probabilities>0.006932337 0.405827629 0.419231818 0.168008215 0.013099617 0.446791412 0.391008827 0.149100144 0.005357608 0.335709669 0.45172678 0.207205942 0.049956089 0.654860039 0.204120659 0.091063214 0.067968655 0.6401471 0.192224039 0.099660206 0.040770745 0.633626296 0.215411425 0.110191534 0.002990791 0.535477987 0.377235618 0.084295604 0.008436353000000001 0.531863616 0.369361733 0.090338298 0.001517427 0.464137135 0.43166399 0.102681447 0.058817872 0.7117822069999999 0.164448222 0.064951698 0.054191728 0.70086799 0.170365884 0.074574398 0.036164178 0.702517794 0.185604945 0.075713083 0.001641685 0.304311832 0.481547262 0.212499221 0.005710138 0.344742465 0.449492701 0.200054696 0.001256896 0.22830507 0.494927316 0.275510718 0.030358861 0.60786677 0.239963269 0.1218111 0.039411622 0.59800915 0.249830043 0.112749185 0.022061478 0.571115555 0.274545154 0.132277812 0.001652834 0.426926902 0.44926847 0.122151794 0.004118361 0.402353375 0.461015239 0.132513025 0.000486406 0.328585612 0.499500428 0.171427554 0.034010075 0.676452006 0.203350167 0.08618775200000001 0.036077128 0.67214929 0.206867442 0.08490614 0.020230869 0.647274652 0.239095822 0.093398657 0.001241755 0.220345696 0.510119266 0.268293283 0.004605307 0.285101739 0.465571839 0.244721115 0.000543301 0.147949379 0.495925175 0.355582145 0.012451221 0.493821986 0.319496163 0.17423063 0.023428805 0.532743674 0.312302796 0.131524726 0.007733406 0.456598716 0.350007018 0.18566086 0.000822645 0.321627775 0.512940933 0.164608647 0.002545302 0.316431751 0.493400531 0.187622417 0.000440481 0.205498496 0.548690936 0.245370087 0.017710449 0.596761693 0.282985983 0.102541876 0.020386634 0.6101968639999999 0.274267264 0.095149238 0.010340505 0.57178982 0.310156253 0.107713421 0.0008818539999999999 0.17016489 0.519801186 0.309152069 0.007458112 0.275716949 0.459284453 0.257540485 0.000603617 0.119128558 0.482802397 0.397465428 0.006456409 0.365499465 0.385650355 0.242393771 0.020055464 0.467361196 0.36587761 0.14670573 0.003204784 0.363890078 0.402922768 0.229982369 0.0006687419999999999 0.249137387 0.546656377 0.203537495 0.005186149 0.29683172 0.499814007 0.198168124 0.000319515 0.163586929 0.551184751 0.284908806 0.01123616 0.477033685 0.371178884 0.140551272 0.014591224 0.5470441660000001 0.335189882 0.103174728 0.008640798999999999 0.474752803 0.375526209 0.141080189</probabilities>
		</cpt>
		<cpt id="Hyperchol_">
			<state id="False" />
			<state id="True" />
			<parents>Age Alcohol BMI PA Sex Smoking</parents>
			<probabilities>0.466145186 0.533854814 0.498714283 0.501285717 0.448949082 0.5510509179999999 0.448949082 0.5510509179999999 0.436380985 0.563619015 0.465471033 0.534528967 0.465471033 0.534528967 0.450401296 0.549598704 0.465471033 0.534528967 0.466145186 0.533854814 0.44942442 0.55057558 0.449296467 0.550703533 0.524512014 0.475487986 0.656359165 0.343640835 0.476129293 0.523870707 0.487493212 0.512506788 0.431150689 0.568849311 0.429230214 0.5707697859999999 0.542360475 0.457639525 0.583678742 0.416321258 0.529807363 0.470192637 0.536611961 0.463388039 0.537376217 0.462623783 0.485252543 0.514747457 0.467411585 0.532588415 0.470948698 0.5290513019999999 0.490112596 0.509887404 0.449013666 0.550986334 0.485440808 0.514559192 0.465471033 0.534528967 0.465224428 0.534775572 0.532650249 0.467349751 0.475227164 0.524772836 0.482320107 0.5176798929999999 0.522541941 0.477458059 0.448666281 0.5513337190000001 0.447915944 0.552084056 0.486344067 0.513655933 0.437771357 0.562228643 0.448318278 0.551681722 0.449360971 0.5506390289999999 0.448601257 0.551398743 0.425710251 0.574289749 0.423702477 0.576297523 0.409233794 0.590766206 0.465177412 0.534822588 0.448949082 0.5510509179999999 0.435233002 0.564766998 0.643548714 0.356451286 0.736291679 0.263708321 0.495230901 0.504769099 0.743362269 0.256637731 0.77084625 0.22915375 0.721697283 0.278302717 0.723345616 0.276654384 0.709917181 0.290082819 0.534927434 0.465072566 0.712944994 0.287055006 0.722246668 0.277753332 0.603084536 0.396915464 0.748597117 0.251402883 0.765892152 0.234107848 0.686176261 0.313823739 0.790214305 0.209785695 0.802753242 0.197246758 0.7598304259999999 0.240169574 0.795649456 0.204350544 0.796386595 0.203613405 0.742621984 0.257378016 0.780033381 0.219966619 0.787289477 0.212710523 0.751590946 0.248409054 0.63798352 0.36201648 0.61888669 0.38111331 0.58603984 0.41396016 0.704826305 0.295173695 0.700674756 0.299325244 0.668683292 0.331316708 0.701416087 0.298583913 0.665528514 0.334471486 0.643780393 0.356219607 0.703453486 0.296546514 0.702071306 0.297928694 0.655293546 0.344706454 0.553849142 0.446150858 0.5346477509999999 0.465352249 0.5177457009999999 0.482254299 0.681940374 0.318059626 0.67723163 0.32276837 0.65305908 0.34694092 0.595807106 0.404192894 0.5412975880000001 0.458702412 0.534255878 0.465744122 0.63795317 0.36204683 0.6188731 0.3811269 0.555621093 0.444378907 0.434876521 0.565123479 0.498616693 0.501383307 0.435233002 0.564766998 0.448949082 0.5510509179999999 0.456819886 0.543180114 0.449296686 0.5507033140000001 0.465808216 0.534191784 0.482519389 0.517480611 0.448949082 0.5510509179999999 0.48166638 0.5183336200000001 0.465937725 0.534062275 0.439570813 0.560429187 0.454525291 0.5454747089999999 0.438865516 0.561134484 0.377095308 0.622904692 0.512489047 0.487510953 0.496578212 0.503421788 0.442390213 0.557609787 0.433861485 0.566138515 0.434553637 0.565446363 0.416478109 0.583521891 0.515501774 0.484498226 0.496583148 0.503416852 0.531147626 0.468852374 0.366031715 0.633968285 0.317932366 0.682067634 0.318047629 0.6819523709999999 0.512211409 0.487788591 0.487506342 0.512493658 0.437561297 0.562438703 0.354939693 0.6450603070000001 0.347170226 0.652829774 0.361571798 0.6384282019999999 0.409223529 0.590776471 0.371908287 0.628091713 0.416264881 0.583735119 0.292855081 0.707144919 0.30864661 0.69135339 0.284297876 0.715702124 0.469205784 0.530794216 0.441679768 0.558320232 0.434602199 0.565397801 0.261164078 0.738835922 0.278248543 0.721751457 0.31661404 0.68338596 0.421995183 0.5780048169999999 0.448164938 0.551835062 0.434958629 0.565041371 0.635238544 0.364761456 0.599297108 0.400702892 0.447221307 0.552778693 0.648568457 0.351431543 0.648015347 0.351984653 0.552661538 0.447338462 0.573275644 0.426724356 0.549471852 0.450528148 0.483167524 0.516832476 0.659064249 0.340935751 0.622653419 0.377346581 0.5570795160000001 0.442920484 0.60458073 0.39541927 0.578169169 0.421830831 0.5274716149999999 0.472528385 0.740296881 0.259703119 0.720583835 0.279416165 0.702353351 0.297646649 0.649203534 0.350796466 0.600270156 0.399729844 0.588626279 0.411373721 0.734614816 0.265385184 0.7156833460000001 0.284316654 0.696509537 0.303490463 0.51241969 0.48758031 0.45427519 0.5457248099999999 0.454171836 0.545828164 0.64450909 0.35549091 0.615591668 0.384408332 0.614144347 0.385855653 0.544570483 0.455429517 0.485984242 0.514015758 0.492218948 0.507781052 0.633296651 0.366703349 0.6017463790000001 0.398253621 0.601701038 0.398298962 0.439863791 0.5601362090000001 0.397872006 0.6021279940000001 0.400644497 0.599355503 0.607723983 0.392276017 0.548483658 0.451516342 0.550029756 0.449970244 0.462234098 0.537765902 0.389736595 0.610263405 0.4078816 0.5921184 0.6000506799999999 0.39994932 0.527168353 0.472831647 0.570429178 0.429570822 0.448601257 0.551398743 0.42552229 0.57447771 0.434684256 0.565315744 0.464883977 0.5351160230000001 0.422164328 0.577835672 0.435315059 0.564684941 0.448601257 0.551398743 0.426719674 0.573280326 0.448949082 0.5510509179999999 0.434298455 0.565701545 0.444297582 0.555702418 0.4481002 0.5518998000000001 0.340436412 0.659563588 0.334737936 0.665262064 0.286679206 0.713320794 0.408594063 0.591405937 0.327595453 0.672404547 0.432553918 0.567446082 0.305175287 0.694824713 0.33055336 0.66944664 0.230811999 0.769188001 0.314459932 0.685540068 0.34235908 0.65764092 0.387908383 0.612091617 0.279728149 0.720271851 0.245380007 0.754619993 0.228378163 0.771621837 0.404883012 0.595116988 0.378475974 0.621524026 0.393080074 0.606919926 0.257984365 0.742015635 0.240341631 0.7596583690000001 0.227273047 0.772726953 0.368526926 0.631473074 0.346542279 0.653457721 0.405535715 0.594464285 0.234474859 0.765525141 0.23569893 0.76430107 0.238747347 0.761252653 0.357171852 0.642828148 0.384541844 0.615458156 0.407061796 0.592938204 0.264679813 0.735320187 0.234549805 0.765450195 0.226783972 0.773216028 0.435682188 0.564317812 0.425933353 0.574066647 0.429431096 0.570568904 0.457594463 0.542405537 0.462484951 0.537515049 0.496004017 0.503995983 0.475692628 0.524307372 0.43971282 0.56028718 0.464708944 0.535291056 0.426951225 0.573048775 0.459887756 0.540112244 0.482411396 0.517588604 0.446450263 0.553549737 0.512096232 0.487903768 0.446091978 0.553908022 0.435798393 0.564201607 0.426198592 0.573801408 0.362622319 0.637377681 0.515705797 0.484294203 0.474254583 0.525745417 0.4643778 0.5356222 0.46995358 0.53004642 0.428070309 0.571929691 0.408110611 0.591889389 0.517335828 0.482664172 0.454599203 0.545400797 0.468985241 0.5310147589999999 0.395450402 0.604549598 0.330471156 0.669528844 0.339888416 0.660111584 0.429908664 0.5700913359999999 0.356554069 0.643445931 0.381120215 0.618879785 0.394612897 0.605387103 0.33118533 0.6688146699999999 0.364880291 0.635119709 0.431997414 0.568002586 0.358107097 0.641892903 0.365673311 0.634326689 0.361238046 0.638761954 0.312968887 0.687031113 0.326662397 0.673337603 0.418940332 0.581059668 0.325988323 0.674011677 0.345654775 0.654345225 0.347847236 0.652152764 0.308539041 0.691460959 0.327150657 0.672849343 0.402934789 0.597065211 0.350327757 0.649672243 0.377649883 0.622350117 0.434958456 0.565041544 0.487441969 0.512558031 0.435233002 0.564766998 0.434876521 0.565123479 0.421533525 0.578466475 0.448601257 0.551398743 0.448949082 0.5510509179999999 0.470000918 0.529999082 0.448601257 0.551398743 0.435945067 0.564054933 0.449013268 0.550986732 0.433507159 0.566492841 0.283496463 0.716503537 0.27821845 0.72178155 0.25083882 0.74916118 0.392256199 0.607743801 0.354833525 0.645166475 0.346328023 0.653671977 0.279305155 0.720694845 0.279620896 0.720379104 0.251591606 0.748408394 0.339633051 0.660366949 0.361600811 0.638399189 0.355479797 0.644520203 0.248091712 0.751908288 0.236093858 0.763906142 0.235580731 0.764419269 0.329848312 0.670151688 0.332635607 0.6673643929999999 0.382763037 0.617236963 0.228121218 0.771878782 0.242747145 0.7572528549999999 0.236509737 0.763490263 0.385269182 0.614730818 0.316138615 0.683861385 0.394824524 0.605175476 0.256503852 0.743496148 0.229028962 0.770971038 0.212077577 0.787922423 0.404036887 0.595963113 0.406667571 0.5933324290000001 0.437094121 0.562905879 0.275235434 0.7247645660000001 0.235943026 0.7640569740000001 0.240734211 0.759265789 0.354962678 0.645037322 0.433233874 0.566766126 0.408199389 0.591800611 0.465059414 0.5349405860000001 0.439735966 0.560264034 0.452305158 0.547694842 0.401483513 0.598516487 0.359473079 0.640526921 0.448814818 0.551185182 0.466786457 0.533213543 0.460214046 0.539785954 0.434849198 0.565150802 0.336065695 0.6639343049999999 0.450607774 0.549392226 0.406007378 0.593992622 0.362609927 0.6373900729999999 0.323061571 0.676938429 0.324883662 0.675116338 0.251449613 0.748550387 0.254089943 0.745910057 0.226841122 0.773158878 0.344464953 0.655535047 0.313706712 0.686293288 0.319675185 0.680324815 0.255230491 0.7447695090000001 0.237387281 0.762612719 0.205835343 0.7941646570000001 0.343176756 0.656823244 0.297672398 0.702327602 0.313339234 0.686660766 0.228270185 0.771729815 0.220375847 0.779624153 0.206894107 0.793105893 0.334749585 0.665250415 0.299773046 0.700226954 0.315997666 0.684002334 0.220650231 0.779349769 0.201778177 0.798221823 0.195059364 0.804940636 0.327111754 0.672888246 0.268920801 0.731079199 0.311898597 0.688101403 0.260073695 0.739926305 0.258541168 0.741458832 0.219669797 0.780330203 0.333098153 0.666901847 0.264045849 0.7359541509999999 0.295123546 0.704876454 0.250126832 0.749873168 0.227059653 0.772940347 0.229118598 0.770881402</probabilities>
		</cpt>
		<cpt id="Diabetes">
			<state id="False" />
			<state id="True" />
			<parents>Age BMI PA Sex</parents>
			<probabilities>0.986650693 0.013349307 0.99633026 0.00366974 0.9910621509999999 0.008937848999999999 0.9947869580000001 0.005213042 0.99278223 0.00721777 0.994720888 0.005279112 0.9931408309999999 0.006859169 0.995934647 0.004065353 0.992488923 0.007511077 0.991948298 0.008051702000000001 0.993003147 0.006996853 0.992059187 0.007940813 0.985940308 0.014059692 0.9868037079999999 0.013196292 0.984771657 0.015228343 0.982024107 0.017975893 0.979732617 0.020267383 0.993282865 0.006717135 0.986847565 0.013152435 0.992272736 0.007727264 0.989521163 0.010478837 0.993125589 0.006874411 0.990074837 0.009925163000000001 0.993658418 0.006341582 0.984624401 0.015375599 0.987038172 0.012961828 0.986787639 0.013212361 0.986320211 0.013679789 0.956998539 0.043001461 0.974967085 0.025032915 0.957173339 0.042826661 0.966025735 0.033974265 0.982256834 0.017743166 0.994263159 0.005736841 0.956712992 0.043287008 0.992523802 0.007476198 0.971790656 0.028209344 0.9891762589999999 0.010823741 0.9757134159999999 0.024286584 0.990874035 0.009125965 0.947443145 0.052556855 0.979281983 0.020718017 0.956670061 0.043329939 0.978156594 0.021843406 0.878437324 0.121562676 0.9382233 0.0617767 0.884979471 0.115020529 0.930775022 0.06922497800000001 0.948706405 0.051293595 0.9690942259999999 0.030905774 0.9509874230000001 0.049012577 0.981813997 0.018186003 0.922690072 0.077309928 0.976164736 0.023835264 0.925331645 0.07466835500000001 0.978779266 0.021220734 0.874766205 0.125233795 0.949096195 0.050903805 0.885999053 0.114000947 0.95319783 0.04680217 0.786184334 0.213815666 0.875426033 0.124573967 0.78447323 0.21552677 0.892336478 0.107663522</probabilities>
		</cpt>
		<cpt id="Hypertension">
			<state id="False" />
			<state id="True" />
			<parents>Age Alcohol BMI Diabetes PA Smoking</parents>
			<probabilities>0.851078798 0.148921202 0.8713456429999999 0.128654357 0.850890799 0.149109201 0.855408562 0.144591438 0.847343618 0.152656382 0.850984798 0.149015202 0.846087813 0.153912187 0.846087813 0.153912187 0.846087813 0.153912187 0.846087813 0.153912187 0.846087813 0.153912187 0.846087813 0.153912187 0.928558686 0.07144131400000001 0.9521785699999999 0.04782143 0.901338418 0.098661582 0.924287673 0.075712327 0.9389993599999999 0.06100064 0.936421609 0.063578391 0.846087813 0.153912187 0.8512665 0.1487335 0.846087813 0.153912187 0.851078798 0.148921202 0.863598234 0.136401766 0.850890799 0.149109201 0.880949953 0.119050047 0.888936473 0.111063527 0.915714645 0.08428535500000001 0.87432071 0.12567929 0.9161160350000001 0.083883965 0.903424733 0.09657526700000001 0.8196847819999999 0.180315218 0.825238766 0.174761234 0.846087813 0.153912187 0.846184901 0.153815099 0.820202169 0.179797831 0.82042886 0.17957114 0.883274566 0.116725434 0.823937504 0.176062496 0.843994724 0.156005276 0.796334476 0.203665524 0.839053426 0.160946574 0.807332323 0.192667677 0.8507966810000001 0.149203319 0.851360085 0.148639915 0.846184901 0.153815099 0.846184901 0.153815099 0.846087813 0.153912187 0.846087813 0.153912187 0.987478551 0.012521449 0.98424618 0.01575382 0.964624908 0.035375092 0.986270682 0.013729318 0.980416082 0.019583918 0.942307652 0.057692348 0.859754239 0.140245761 0.851547315 0.148452685 0.8507966810000001 0.149203319 0.85577288 0.14422712 0.851453848 0.148546152 0.846281867 0.153718133 0.982679882 0.017320118 0.984041917 0.015958083 0.981728095 0.018271905 0.978964727 0.021035273 0.979562911 0.020437089 0.982462154 0.017537846 0.916089975 0.083910025 0.911115051 0.088884949 0.860237448 0.139762552 0.939916876 0.060083124 0.908957549 0.091042451 0.907100329 0.092899671 0.950062757 0.049937243 0.946986503 0.053013497 0.949113397 0.050886603 0.947782364 0.052217636 0.957212362 0.042787638 0.948824111 0.051175889 0.872888284 0.127111716 0.905056645 0.09494335499999999 0.883019266 0.116980734 0.889788314 0.110211686 0.9212328950000001 0.078767105 0.896791461 0.103208539 0.855149999 0.144850001 0.877133176 0.122866824 0.872255626 0.127744374 0.8604686070000001 0.139531393 0.873386701 0.126613299 0.864063103 0.135936897 0.799408891 0.200591109 0.757397022 0.242602978 0.768188662 0.231811338 0.804658892 0.195341108 0.79499039 0.20500961 0.783037093 0.216962907 0.850890799 0.149109201 0.886575436 0.113424564 0.851078857 0.148921143 0.858946389 0.141053611 0.86793986 0.13206014 0.860195519 0.139804481 0.846087813 0.153912187 0.846184901 0.153815099 0.846087813 0.153912187 0.846087813 0.153912187 0.846184901 0.153815099 0.846087813 0.153912187 0.913456912 0.086543088 0.921064798 0.078935202 0.919793073 0.080206927 0.920166758 0.079833242 0.915990073 0.084009927 0.9122108 0.0877892 0.825679825 0.174320175 0.848833427 0.151166573 0.796110811 0.203889189 0.851266559 0.148733441 0.811094405 0.188905595 0.81211585 0.18788415 0.857937647 0.142062353 0.829221655 0.170778345 0.841611356 0.158388644 0.871607913 0.128392087 0.8604513580000001 0.139548642 0.876497096 0.123502904 0.789980888 0.210019112 0.766137506 0.233862494 0.810311765 0.189688235 0.782287878 0.217712122 0.830596613 0.169403387 0.85361981 0.14638019 0.658083547 0.341916453 0.709518351 0.290481649 0.682075862 0.317924138 0.724793693 0.275206307 0.682033243 0.317966757 0.730341979 0.269658021 0.726847864 0.273152136 0.736779461 0.263220539 0.797132747 0.202867253 0.710414219 0.289585781 0.755601119 0.244398881 0.768020248 0.231979752 0.983184701 0.016815299 0.977223262 0.022776738 0.931291303 0.068708697 0.9788814850000001 0.021118515 0.965169121 0.034830879 0.949999 0.050001 0.855417615 0.144582385 0.860371342 0.139628658 0.846087813 0.153912187 0.860107329 0.139892671 0.851453966 0.148546034 0.850984858 0.149015142 0.968609934 0.031390066 0.963934118 0.036065882 0.97612723 0.02387277 0.967239292 0.032760708 0.96734912 0.03265088 0.970436894 0.029563106 0.8899994020000001 0.110000598 0.88513209 0.11486791 0.884829534 0.115170466 0.881114545 0.118885455 0.925142696 0.074857304 0.894014971 0.105985029 0.916774614 0.083225386 0.914089887 0.085910113 0.920641254 0.07935874599999999 0.916128061 0.08387193900000001 0.9171606329999999 0.082839367 0.912653384 0.087346616 0.807944183 0.192055817 0.800119351 0.199880649 0.783711241 0.216288759 0.819155399 0.180844601 0.821311108 0.178688892 0.8143948989999999 0.185605101 0.784277331 0.215722669 0.798652516 0.201347484 0.777499537 0.222500463 0.791249425 0.208750575 0.798090473 0.201909527 0.786276848 0.213723152 0.572593284 0.427406716 0.5820724269999999 0.417927573 0.581306286 0.418693714 0.592495562 0.407504438 0.621308853 0.378691147 0.637091379 0.362908621 0.850984858 0.149015142 0.847919472 0.152080528 0.825979273 0.174020727 0.851641019 0.148358981 0.854243487 0.145756513 0.8465725200000001 0.15342748 0.846087813 0.153912187 0.846184901 0.153815099 0.8456511249999999 0.154348875 0.846087813 0.153912187 0.846087813 0.153912187 0.846087813 0.153912187 0.858700126 0.141299874 0.799024272 0.200975728 0.859255058 0.140744942 0.840882066 0.159117934 0.834266384 0.165733616 0.835845309 0.164154691 0.86211977 0.13788023 0.746888216 0.253111784 0.814616821 0.185383179 0.793175843 0.206824157 0.821522212 0.178477788 0.8491378469999999 0.150862153 0.737310974 0.262689026 0.70699622 0.29300378 0.721038064 0.278961936 0.739641425 0.260358575 0.745061341 0.254938659 0.725371954 0.274628046 0.656081303 0.343918697 0.549198047 0.450801953 0.683028685 0.316971315 0.755577676 0.244422324 0.593922934 0.406077066 0.64019053 0.35980947 0.580999047 0.419000953 0.529365149 0.470634851 0.5093942 0.4906058 0.5766160809999999 0.423383919 0.564842998 0.435157002 0.540486163 0.459513837 0.525585236 0.474414764 0.515485662 0.484514338 0.467647491 0.532352509 0.617913594 0.382086406 0.60808854 0.39191146 0.59690499 0.40309501 0.947963922 0.052036078 0.944456673 0.055543327 0.896195728 0.103804272 0.95134948 0.04865052 0.923645749 0.076354251 0.919680524 0.080319476 0.8456511249999999 0.154348875 0.847151268 0.152848732 0.845554098 0.154445902 0.85586363 0.14413637 0.8507966810000001 0.149203319 0.846184901 0.153815099 0.919395194 0.080604806 0.895978228 0.104021772 0.903087646 0.09691235400000001 0.918161581 0.081838419 0.90636812 0.09363188 0.91075499 0.08924501 0.773289643 0.226710357 0.7239886129999999 0.276011387 0.815077243 0.184922757 0.783222883 0.216777117 0.730371155 0.269628845 0.699517147 0.300482853 0.806177473 0.193822527 0.798085588 0.201914412 0.780496853 0.219503147 0.807663497 0.192336503 0.799376607 0.200623393 0.794877351 0.205122649 0.574305806 0.425694194 0.605524676 0.394475324 0.607332384 0.392667616 0.5923912 0.4076088 0.581748225 0.418251775 0.619006173 0.380993827 0.639884835 0.360115165 0.634170197 0.365829803 0.604264607 0.395735393 0.646174977 0.353825023 0.638091259 0.361908741 0.6196060370000001 0.380393963 0.38761984 0.61238016 0.430270451 0.5697295489999999 0.408289033 0.591710967 0.454414994 0.545585006 0.451208556 0.548791444 0.43899591 0.56100409 0.855408562 0.144591438 0.793480078 0.206519922 0.850890799 0.149109201 0.849913457 0.150086543 0.830080091 0.169919909 0.8512665 0.1487335 0.846087813 0.153912187 0.850890799 0.149109201 0.846087813 0.153912187 0.846087813 0.153912187 0.845554098 0.154445902 0.846087813 0.153912187 0.766670488 0.233329512 0.659596692 0.340403308 0.738496367 0.261503633 0.766234674 0.233765326 0.688391873 0.311608127 0.703463553 0.296536447 0.74907475 0.25092525 0.736911882 0.263088118 0.78776579 0.21223421 0.773926822 0.226073178 0.749704433 0.250295567 0.789888849 0.210111151 0.607569532 0.392430468 0.590640176 0.409359824 0.547465656 0.452534344 0.619290696 0.380709304 0.60484724 0.39515276 0.570737572 0.429262428 0.64183147 0.35816853 0.574041756 0.425958244 0.564350284 0.435649716 0.632163565 0.367836435 0.543732493 0.456267507 0.59701262 0.40298738 0.472985273 0.527014727 0.461148151 0.538851849 0.440754235 0.559245765 0.465361867 0.534638133 0.578340027 0.421659973 0.46812915 0.53187085 0.531477529 0.468522471 0.447470677 0.552529323 0.451899703 0.548100297 0.570610717 0.429389283 0.6394991370000001 0.360500863 0.464915118 0.535084882 0.875912592 0.124087408 0.8663921570000001 0.133607843 0.836131513 0.163868487 0.870681247 0.129318753 0.886484952 0.113515048 0.809982209 0.190017791 0.846184901 0.153815099 0.8554997130000001 0.144500287 0.846184901 0.153815099 0.851078857 0.148921143 0.845846066 0.154153934 0.846184901 0.153815099 0.797808009 0.202191991 0.773848392 0.226151608 0.7959148660000001 0.204085134 0.816823439 0.183176561 0.796799386 0.203200614 0.795574925 0.204425075 0.61360481 0.38639519 0.746383283 0.253616717 0.731951824 0.268048176 0.647660355 0.352339645 0.706156053 0.293843947 0.698522278 0.301477722 0.661130039 0.338869961 0.659376747 0.340623253 0.647858628 0.352141372 0.666056074 0.333943926 0.672370188 0.327629812 0.629996304 0.370003696 0.460181725 0.539818275 0.547694062 0.452305938 0.489643911 0.510356089 0.459396231 0.540603769 0.489287626 0.510712374 0.48221406 0.51778594 0.483752883 0.516247117 0.494926416 0.505073584 0.462490043 0.537509957 0.500508435 0.499491565 0.509723192 0.490276808 0.489275328 0.510724672 0.341472716 0.658527284 0.390194906 0.609805094 0.353819907 0.646180093 0.400591237 0.599408763 0.45109129 0.54890871 0.360333847 0.639666153</probabilities>
		</cpt>
		<cpt id="CRC">
			<state id="False" />
			<state id="True" />
			<parents>Age Alcohol Diabetes Hyperchol_ Hypertension Sex Smoking</parents>
			<probabilities>0.999872252 0.000127748 0.999961059 3.89e-05 0.999789424 0.000210576 0.999477181 0.000522819 0.999565497 0.000434503 0.999349301 0.000650699 0.99937935 0.00062065 0.999507521 0.000492479 0.999269505 0.000730495 0.999173126 0.000826874 0.999198929 0.000801071 0.999173648 0.000826352 0.999855688 0.000144312 0.999936548 6.35e-05 0.999773643 0.000226357 0.999292985 0.000707015 0.999473236 0.000526764 0.999309577 0.000690423 0.9994789549999999 0.000521045 0.999625806 0.000374194 0.999289863 0.000710137 0.999173126 0.000826874 0.999173648 0.000826352 0.999198424 0.000801576 0.999200444 0.000799556 0.999247496 0.000752504 0.999174168 0.000825832 0.999173126 0.000826874 0.999173126 0.000826874 0.999173126 0.000826874 0.999173126 0.000826874 0.999198929 0.000801071 0.999173126 0.000826874 0.999173126 0.000826874 0.999173126 0.000826874 0.999173126 0.000826874 0.999198424 0.000801576 0.999269963 0.000730037 0.999199435 0.000800565 0.999173648 0.000826352 0.999173648 0.000826352 0.999173126 0.000826874 0.999198929 0.000801071 0.999198424 0.000801576 0.999198424 0.000801576 0.999173126 0.000826874 0.999173126 0.000826874 0.999173126 0.000826874 0.999828551 0.000171449 0.999999997 3.22e-09 0.9999998 2e-07 0.999813176 0.000186824 0.9998442239999999 0.000155776 0.99981091 0.00018909 0.9999940980000001 5.9e-06 0.999981952 1.8e-05 0.99993096 6.9e-05 0.999867458 0.000132542 0.999832389 0.000167611 0.999580584 0.000419416 0.999845095 0.000154905 0.999999963 3.74e-08 0.9999989889999999 1.01e-06 0.999982981 1.7e-05 0.999429244 0.000570756 0.999994336 5.66e-06 0.999989256 1.07e-05 0.999980083 1.99e-05 0.999927057 7.29e-05 0.999819389 0.000180611 0.999722207 0.000277793 0.999498745 0.000501255 0.999841749 0.000158251 0.999822473 0.000177527 0.999536673 0.000463327 0.999736121 0.000263879 0.999615461 0.000384539 0.999515657 0.000484343 0.999405921 0.000594079 0.999332483 0.000667517 0.999269504 0.000730496 0.999271802 0.000728198 0.999198424 0.000801576 0.99917469 0.00082531 0.999794926 0.000205074 0.999776515 0.000223485 0.999532496 0.000467504 0.999689958 0.000310042 0.999568965 0.000431035 0.999396552 0.000603448 0.999444584 0.000555416 0.999523493 0.000476507 0.999327424 0.000672576 0.999246547 0.000753453 0.999174169 0.000825831 0.999198424 0.000801576 0.999456586 0.000543414 0.999986703 1.33e-05 0.999939952 6e-05 0.9996702119999999 0.000329788 0.999711304 0.000288696 0.9995668599999999 0.00043314 0.999717487 0.000282513 0.999795153 0.000204847 0.999662411 0.000337589 0.999223691 0.000776309 0.999202456 0.000797544 0.999199434 0.000800566 0.999983039 1.7e-05 0.99999486 5.14e-06 0.999975567 2.44e-05 0.999620134 0.000379866 0.999708927 0.000291073 0.999589923 0.000410077 0.999876486 0.000123514 0.9999421550000001 5.78e-05 0.9998549370000001 0.000145063 0.999202959 0.000797041 0.999270884 0.000729116 0.9991746889999999 0.000825311 0.999313476 0.000686524 0.999386705 0.000613295 0.999269964 0.000730036 0.999173648 0.000826352 0.999244643 0.000755357 0.999173648 0.000826352 0.999176249 0.000823751 0.999295206 0.000704794 0.999247971 0.000752029 0.999173126 0.000826874 0.999173126 0.000826874 0.999173126 0.000826874 0.999334572 0.000665428 0.999510284 0.000489716 0.99939844 0.00060156 0.999173126 0.000826874 0.999173648 0.000826352 0.999198929 0.000801071 0.999500374 0.000499626 0.999473232 0.000526768 0.999381298 0.0006187020000000001 0.999173126 0.000826874 0.999173648 0.000826352 0.999173126 0.000826874 0.99976252 0.00023748 0.999757883 0.000242117 0.999577037 0.000422963 0.9997653399999999 0.00023466 0.9998050550000001 0.000194945 0.999830985 0.000169015 0.9994149369999999 0.000585063 0.999993873 6.13e-06 0.9999867690000001 1.32e-05 0.99997486 2.51e-05 0.999933652 6.63e-05 0.999854552 0.000145448 0.999758147 0.000241853 0.999823405 0.000176595 0.999452988 0.000547012 0.999796969 0.000203031 0.999574753 0.000425247 0.9996499250000001 0.000350075 0.999972235 2.78e-05 0.999998671 1.33e-06 0.999352072 0.000647928 0.99996931 3.07e-05 0.999926194 7.38e-05 0.999876751 0.000123249 0.9999158500000001 8.42e-05 0.999899801 0.000100199 0.9998142330000001 0.000185767 0.999846718 0.000153282 0.999725424 0.000274576 0.999626685 0.000373315 0.999747591 0.000252409 0.9997079800000001 0.00029202 0.999640593 0.000359407 0.999490571 0.000509429 0.999329961 0.000670039 0.999247496 0.000752504 0.999950245 4.98e-05 0.997998344 0.002001656 0.99988484 0.00011516 0.999818648 0.000181352 0.999714644 0.000285356 0.999580066 0.000419934 0.999897474 0.000102526 0.99936832 0.00063168 0.999814731 0.000185269 0.999395824 0.000604176 0.999494654 0.0005053460000000001 0.99923099 0.00076901 0.9994726390000001 0.000527361 0.999236849 0.000763151 0.99769086 0.00230914 0.999615186 0.000384814 0.9996732780000001 0.000326722 0.999094475 0.000905525 0.999839134 0.000160866 0.998979841 0.001020159 0.999859689 0.000140311 0.999346433 0.000653567 0.999348074 0.000651926 0.9992059639999999 0.000794036 0.998898412 0.001101588 0.998931324 0.001068676 0.9987796410000001 0.001220359 0.999815174 0.000184826 0.999848705 0.000151295 0.999782137 0.000217863 0.998674348 0.001325652 0.998670934 0.001329066 0.996332508 0.003667492 0.99946788 0.00053212 0.999520775 0.000479225 0.999404436 0.000595564 0.9976654190000001 0.002334581 0.999624842 0.000375158 0.999457501 0.000542499 0.999198424 0.000801576 0.999199939 0.000800061 0.999199435 0.000800565 0.999372413 0.000627587 0.999559555 0.000440445 0.998847721 0.001152279 0.999173648 0.000826352 0.999198929 0.000801071 0.999173648 0.000826352 0.999631575 0.000368425 0.999822839 0.000177161 0.999712029 0.000287971 0.999198929 0.000801071 0.99928852 0.00071148 0.999269505 0.000730495 0.9997499399999999 0.00025006 0.999865515 0.000134485 0.999791681 0.000208319 0.99917469 0.00082531 0.9992232009999999 0.000776799 0.999200948 0.000799052 0.999149184 0.000850816 0.999403307 0.000596693 0.998924457 0.001075543 0.998874109 0.001125891 0.999250017 0.000749983 0.998519147 0.001480853 0.999746693 0.000253307 0.999994508 5.49e-06 0.999692179 0.000307821 0.999257875 0.0007421249999999999 0.999946475 5.35e-05 0.999903772 9.619999999999999e-05 0.999163657 0.000836343 0.999188866 0.000811134 0.9983469190000001 0.001653081 0.999026563 0.000973437 0.999919496 8.050000000000001e-05 0.998950049 0.001049951 0.9992673520000001 0.000732648 0.999434674 0.000565326 0.99882494 0.00117506 0.999994964 5.04e-06 0.999678076 0.000321924 0.996695526 0.003304474 0.997200588 0.002799412 0.999920738 7.93e-05 0.999905131 9.49e-05 0.99971853 0.00028147 0.999597641 0.000402359 0.999605882 0.000394118 0.99269766 0.00730234 0.9998926930000001 0.000107307 0.99837824 0.00162176 0.999538552 0.000461448 0.999380582 0.0006194180000000001 0.999430024 0.000569976 0.998856453 0.001143547 0.999979026 2.1e-05 0.999976442 2.36e-05 0.999866455 0.000133545 0.999809658 0.000190342 0.9996795979999999 0.000320402 0.999107992 0.000892008 0.998196783 0.001803217 0.9973686470000001 0.002631353 0.999797497 0.000202503 0.999723307 0.000276693 0.999527875 0.000472125 0.999865157 0.000134843 0.999906211 9.38e-05 0.999871626 0.000128374 0.999465855 0.000534145 0.999373981 0.000626019 0.9992596969999999 0.000740303 0.991151082 0.008848918000000001 0.9992827439999999 0.000717256 0.9917036 0.008296400000000001 0.999350119 0.000649881 0.999227108 0.000772892 0.999201955 0.000798045 0.999047816 0.000952184 0.999085384 0.000914616 0.997935335 0.002064665 0.989387621 0.010612379 0.9996979499999999 0.00030205 0.998327344 0.001672656 0.99957259 0.00042741 0.99899459 0.00100541 0.9977737759999999 0.002226224 0.982449712 0.017550288 0.99947447 0.00052553 0.998788663 0.001211337 0.999409612 0.000590388 0.999431671 0.000568329 0.999523473 0.000476527 0.999174169 0.000825831 0.999198929 0.000801071 0.999173126 0.000826874 0.999506187 0.000493813 0.999492224 0.000507776 0.999594646 0.000405354 0.999173648 0.000826352 0.999174169 0.000825831 0.9991746889999999 0.000825311 0.999645409 0.000354591 0.999670248 0.000329752 0.9905957480000001 0.009404252 0.9992232 0.0007768 0.999224668 0.000775332 0.999225158 0.000774842 0.999758891 0.000241109 0.999825606 0.000174394 0.999862644 0.000137356 0.999247497 0.000752503 0.999174168 0.000825832 0.99922418 0.00077582 0.997338277 0.002661723 0.998362289 0.001637711 0.997538734 0.002461266 0.996059748 0.003940252 0.997323925 0.002676075 0.998715263 0.001284737 0.995068346 0.004931654 0.999699572 0.000300428 0.997256662 0.002743338 0.994616834 0.005383166 0.999717255 0.000282745 0.99969882 0.00030118 0.997988994 0.002011006 0.999003477 0.000996523 0.997077229 0.002922771 0.996408556 0.003591444 0.99999556 4.44e-06 0.9976959359999999 0.002304064 0.998167702 0.001832298 0.99683038 0.00316962 0.99732304 0.00267696 0.997946891 0.002053109 0.999452971 0.000547029 0.995082716 0.004917284 0.999313286 0.0006867140000000001 0.999813782 0.000186218 0.998282939 0.001717061 0.999538542 0.000461458 0.999389386 0.000610614 0.999374761 0.000625239 0.99223326 0.00776674 0.999827819 0.000172181 0.996915898 0.003084102 0.999599626 0.000400374 0.999274083 0.000725917 0.999324569 0.000675431 0.994059931 0.005940069 0.999490591 0.0005094089999999999 0.991892504 0.008107496 0.999786372 0.000213628 0.999605722 0.000394278 0.999625438 0.000374562 0.998503928 0.001496072 0.991269045 0.008730955 0.99554076 0.00445924 0.992665677 0.007334323 0.999643234 0.000356766 0.9995658120000001 0.000434188</probabilities>
		</cpt>
		<decision id="Screening">
			<state id="No_screening" />
			<state id="gFOBT" />
			<state id="FIT" />
			<state id="Blood_based" />
			<state id="Stool_DNA" />
			<state id="CTC" />
			<state id="Colon_capsule" />
			<parents>PA SD Smoking BMI Alcohol Sex Age</parents>
		</decision>
		<cpt id="Results_of_Screening">
			<state id="No_pred_screening" />
			<state id="Predicted_False" />
			<state id="Predicted_True" />
			<parents>CRC Screening</parents>
			<probabilities>1 0 0 0 0.961 0.039 0 0.95 0.05 0 0.786 0.214 0 0.872 0.128 0 0.89 0.11 0 0.95 0.05 1 0 0 0 0.418 0.582 0 0.11 0.89 0 0.068 0.9320000000000001 0 0.025 0.975 0 0.05 0.95 0 0.09 0.91</probabilities>
		</cpt>
		<decision id="Colonoscopy">
			<state id="No_Colonoscopy" />
			<state id="Colonoscopy" />
			<parents>Screening</parents>
		</decision>
		<cpt id="Results_of_Colonoscopy">
			<state id="no_pred" />
			<state id="colon_pred_false" />
			<state id="colon_pred_true" />
			<parents>CRC Colonoscopy</parents>
			<probabilities>1 0 0 0 0.99 0.01 1 0 0 0 0.03 0.97</probabilities>
		</cpt>
		<utility id="Value_of_CRC_detection_by_screening">
			<parents>Age Alcohol Diabetes Hyperchol_ Hypertension Sex Smoking CRC Screening Results_of_Screening</parents>
			<utilities>0 0 0 0 0.0567019432429897 -1.395902570369102 0 0.08873317804965289 -1.684028705851686 0 0.09167123157717094 -0.3366072314675679 0 0.0974764486018579 -0.6637366057005336 0 0.0947155507177789 -0.7659151845062837 0 0.0908459949386594 -1.724080656851487 0 0 0 0 -653.8748537356021 2121.765982874243 0 -1693.456382383097 2259.955143708494 0 -1922.404054685091 1155.428868497688 0 -2789.966165138817 1594.241423141398 0 -2261.544456863628 1692.779200376639 0 -1851.083107016592 2277.371587873219 0 0 0 0 0.05065603940090884 -1.24786515164969 0 0.07927078628514556 -1.505627111577008 0 0.08189542304949653 -0.3007684984171339 0 0.0870813486654437 -0.5931541417523277 0 0.08461498234310448 -0.6844979005781212 0 0.0811582191916024 -1.541463390111087 0 0 0 0 -1918.53403665948 6227.945172194702 0 -4968.651335488823 6633.969078032251 0 -5640.37212379575 3390.625897797545 0 -8185.744215396769 4678.735438008399 0 -6635.390090161485 4968.046108374529 0 -5431.120286225336 6685.149253498277 0 0 0 0 0.05969748432987783 -1.468767663528054 0 0.09342215164291914 -1.771723579219115 0 0.09651557931166074 -0.3543325494833641 0 0.1026278177747909 -0.6985938995748681 0 0.09972090019099816 -0.8061046092931557 0 0.09564670062933767 -1.813831309646369 0 0 0 0 -417.6027763781034 1354.58300531549 0 -1081.564492075528 1442.724727970932 0 -1227.790889307833 737.8266951220148 0 -1781.895614443726 1017.95852519972 0 -1444.39673064996 1080.851809617878 0 -1182.238935642432 1453.831987921798 0 0 0 0 0.06604943734736581 -1.62139134996695 0 0.10336764169602 -1.954958163229391 0 0.1067908763434713 -0.3917947109983196 0 0.1135548655181276 -0.7720613383561287 0 0.1103379667716676 -0.890737256732361 0 0.1058293586644344 -2.001297049790581 0 0 0 0 -186.0388217789391 602.6173333768329 0 -481.8690848167167 641.6935449021148 0 -547.0235874920256 328.5319024999681 0 -793.9212798104797 453.1280705321678 0 -643.5381650985727 481.0817152016804 0 -526.7268141073893 646.6152167091682 0 0 0 0 0.06464934753813675 -1.588032004983361 0 0.1011750685682326 -1.914976151997505 0 0.1045255563699704 -0.3835559186710155 0 0.1111457791397017 -0.755934619656961 0 0.1079972587581395 -0.8721706794335188 0 0.1035844726906013 -1.960401496625038 0 0 0 0 -219.1260820401205 710.0726953044634 0 -567.5566926305867 756.1618287238012 0 -644.2950917948292 387.0164368446302 0 -935.0877827735669 533.8388947979417 0 -757.9688076170405 566.7856970197213 0 -620.3897518141043 761.9676306488217 0 0 0 0 0.06778589020646064 -1.662487254193939 0 0.1060873641209923 -2.004145451174759 0 0.109600873377844 -0.4019944342266187 0 0.1165432753904214 -0.7919962646140408 0 0.1132415185248899 -0.9136773116065386 0 0.1086139980490824 -2.051598625283769 0 0 0 0 -153.388064525357 496.5725495343116 0 -397.3122718948595 528.7268760480252 0 -451.0358041446908 270.8174817001676 0 -654.6180158924689 373.4788666349277 0 -530.6177799806751 396.504681947374 0 -434.2999579076583 532.7758782803747 0 0 0 0 0.06740295136926198 -1.653452815654612 0 0.1054875447749056 -1.993339117781677 0 0.1089811406234665 -0.3997469798987984 0 0.1158841863513987 -0.7876068008801174 0 0.1126011485520928 -0.9086272665809687 0 0.1079998588883506 -2.040548470384556 0 0 0 0 -159.9105470840594 517.7573067311687 0 -414.2037372161153 551.2945323431292 0 -470.210767941905 282.3469562846823 0 -682.445857900226 389.3903189185759 0 -553.1752703123589 413.4005974943092 0 -452.7635760575482 555.5178837841494 0 0 0 0 0.06559045402640325 -1.610476091529708 0 0.1026488335882591 -1.941880979918575 0 0.106048216276027 -0.3890952064390008 0 0.1127650673398901 -0.7667795427229558 0 0.1095705885704532 -0.8846571754999611 0 0.1050933984373754 -1.987921785742571 0 0 0 0 -196.1333351505628 635.4012680143418 0 -508.0112802932392 676.6171698557769 0 -576.6998768513761 346.3749393774835 0 -836.9893507337803 477.7522276318983 0 -678.4494802471251 507.2292719513275 0 -555.3021774909863 681.808597333878 0 0 0 0 0.06874151530755954 -1.684957661240203 0 0.1075843230438027 -2.031004682256302 0 0.111147540067631 -0.4075979768191722 0 0.11818818499648 -0.8029322698249811 0 0.1148397004430616 -0.9262561489931205 0 0.1101467019675405 -2.079061274750169 0 0 0 0 -138.5482106391183 448.3716681965802 0 -358.8811511439321 477.3793039817587 0 -407.4093272592189 244.585454062967 0 -591.3047443147846 337.2766271268873 0 -479.2954689635719 358.0624793179828 0 -392.2919159385766 481.0315830984742 0 0 0 0 0.0697959023120988 -1.709618492095603 0 0.1092361794958605 -2.06045014356531 0 0.1128542657748877 -0.4137718579716662 0 0.1200033582219243 -0.8149669789610138 0 0.1166032917626472 -0.9400935431457046 0 0.111838014939735 -2.109163684477313 0 0 0 0 -124.265162123261 401.9767331081297 0 -321.8921400029403 427.955213008239 0 -365.4199347706137 219.3371342793141 0 -530.3673890193039 302.431549219616 0 -429.8990598600416 321.0612826392904 0 -351.8602204473383 431.225581859014 0 0 0 0 0.06952308888812143 -1.703251537162932 0 0.1088087561311319 -2.052851254815705 0 0.1124126429184773 -0.4121753413506359 0 0.1195336701196211 -0.811856409087124 0 0.1161469526542352 -0.9365175855688395 0 0.1114003807227214 -2.101395740332475 0 0 0 0 -127.7696282573071 413.3603912076243 0 -330.9676907027173 440.0821549884907 0 -375.7223669048292 225.5320787466261 0 -545.3188459966063 310.981205615696 0 -442.0188592906522 330.1399818732796 0 -361.7804598484523 443.4462362273829 0 0 0 0 0.06979044704068703 -1.709491273116542 0 0.1092276324507097 -2.060298332760627 0 0.1128454347738955 -0.4137399399356191 0 0.1199939659807304 -0.8149048021148927 0 0.1165941664709778 -0.940022067545818 0 0.1118292637020835 -2.109008499653535 0 0 0 0 -124.3340031368698 402.2003531874183 0 -322.0704181602938 428.1934343751599 0 -365.6223135064549 219.458826883607 0 -530.6610921274971 302.5994977543126 0 -430.1371385414495 321.2396237251987 0 -352.0550914766364 431.4656441434191 0 0 0 0 0.05740455226773174 -1.413030270327042 0 0.0898329322206122 -1.70465123281859 0 0.09280742233027239 -0.3407671618444241 0 0.09868463760987806 -0.6719212026511954 0 0.09588949743872205 -0.7753532208006941 0 0.09197195128616524 -1.7451878986494 0 0 0 0 -585.9867217365836 1901.334346453997 0 -1517.641126769639 2025.144093514313 0 -1722.820421347145 1035.439755335464 0 -2500.316526900845 1428.659318038855 0 -2026.752855249693 1516.955606481059 0 -1658.903701953945 2040.747819501604 0 0 0 0 0.05298418041659782 -1.304984332645567 0 0.08291438063347048 -1.574489321769351 0 0.08565968678214594 -0.3145765890684197 0 0.09108404451824942 -0.6203605907558589 0 0.08850428167102282 -0.7158850831177528 0 0.08488858929702119 -1.611956709183116 0 0 0 0 -1229.278095008302 3990.043757381575 0 -3183.625879739758 4250.098794242871 0 -3614.02918911175 2172.418039276575 0 -5244.971518810431 2997.654404113317 0 -4251.58477928297 3182.992909037273 0 -3479.95159788872 4282.877931318779 0 0 0 0 0.0601570823609958 -1.479906608405159 0 0.09414162575223375 -1.785119805070325 0 0.09725889937873691 -0.3570494403372225 0 0.1034182588025359 -0.7039323730199806 0 0.1004889302743237 -0.8122581365693841 0 0.09638332272372642 -1.827540184802138 0 0 0 0 -391.4735865253697 1269.738027553554 0 -1013.895859783341 1352.344443412038 0 -1150.97419819924 691.6437869087283 0 -1670.414012820842 954.2265683378956 0 -1354.029074286834 1013.177743272523 0 -1108.272010276688 1362.753892520954 0 0 0 0 0.06846887792445785 -1.67855812889425 0 0.1071572283845725 -2.023357949285542 0 0.1107062618469462 -0.4060000463489361 0 0.1177188739587372 -0.7998149343689702 0 0.1143837228185583 -0.922670962323477 0 0.1097094078790887 -2.071243140376754 0 0 0 0 -142.5848751202101 461.4832822469587 0 -369.3349836937044 491.3469161417974 0 -419.2763713955924 251.7210131839635 0 -608.5268785363663 347.1242948933273 0 -493.2558903682644 368.5194699597655 0 -403.7187225221317 495.1071168639383 4.930994317648088e-14 0 0 0 0.06610760831510527 -1.62277323267324 0 0.1034587446761215 -1.956613383221884 0 0.1068850025654893 -0.3921367433516013 0 0.1136549665457373 -0.7727303887177345 0 0.1104352260370562 -0.8915073677730408 0 0.1059226356786939 -2.002989946755956 4.930994317648088e-14 0 0 0 -184.807473883154 598.6182434909425 0 -478.6802124396162 637.433442372071 0 -543.4036202876965 326.3553661209653 0 -788.6677603513558 450.1243496819642 0 -639.2796205292559 477.8921638165193 0 -523.2411397364538 642.3222076122624 0 0 0 0 0.0682720664350725 -1.673932802410007 0 0.1068489253703237 -2.017829824389248 0 0.1103877210390399 -0.4048461576182248 0 0.1173800990123987 -0.7975632468310722 0 0.114054571930337 -0.9200811182408126 0 0.1093937428406712 -2.065590906671305 0 0 0 0 -145.5940429093531 471.2573283005571 0 -377.1278936196521 501.7590480964395 0 -428.1227745055126 257.0402538712931 0 -621.3652895077641 354.4652707884882 0 -503.6628233488984 376.3146614267816 0 -412.2369459878076 505.5996964562476 0 0 0 0 0.06602316939956535 -1.620767228552794 0 0.1033265029784436 -1.954210562984703 0 0.1067483724575067 -0.3916402538859208 0 0.1135096636650163 -0.7717591922265574 0 0.1102940481365449 -0.8903894667485136 0 0.1057872382447485 -2.000532428397752 0 0 0 0 -186.5983060489513 604.4343859855634 0 -483.3180044481907 643.6291924499176 0 -548.6683825827204 329.520848885366 0 -796.3083078960915 454.492861738973 0 -645.4731089647659 482.5309414844206 0 -528.3105909049808 648.5658158325922 0 0 0 0 0.06356144697731536 -1.561988261281149 0 0.09947156587625937 -1.883732253723446 0 0.1027655501415453 -0.3771460886878446 0 0.1092741105650415 -0.7433746225481573 0 0.1061786986579192 -0.8577056312815454 0 0.1018403377408288 -1.928439454939408 0 0 0 0 -250.1755422700709 810.9054980466988 0 -647.9671466331326 863.5746701150387 0 -735.5760729696345 441.8980648901361 0 -1067.56060497881 609.5768251336738 0 -865.3522236701042 647.2089125677272 0 -708.2843918346248 870.210016665785 0 0 0 0 0.06850551942582268 -1.67941873350683 0 0.1072146276355128 -2.024386405620655 0 0.1107655672208577 -0.406214837824311 0 0.117781946637758 -0.8002340198772088 0 0.1144450036344484 -0.9231529653001525 0 0.1097681778275843 -2.07229466798393 0 0 0 0 -142.0335673480355 459.692573999994 0 -367.9072500757514 489.439302244028 0 -417.6556281159755 250.7464760263853 0 -606.1747626762185 345.7793541019997 0 -491.3492436460143 367.0913117380867 0 -402.1581047773373 493.184763886367 0 0 0 0 0.0697959023120988 -1.709618492095603 0 0.1092361794958605 -2.06045014356531 0 0.1128542657748877 -0.4137718579716662 0 0.1200033582219243 -0.8149669789610138 0 0.1166032917626472 -0.9400935431457046 0 0.111838014939735 -2.109163684477313 0 0 0 0 -124.265162123261 401.9767331081297 0 -321.8921400029403 427.955213008239 0 -365.4199347706137 219.3371342793141 0 -530.3673890193039 302.431549219616 0 -429.8990598600416 321.0612826392904 0 -351.8602204473383 431.225581859014 0 0 0 0 0.06979044704068703 -1.709491273116542 0 0.1092276324507097 -2.060298332760627 0 0.1128454347738955 -0.4137399399356191 0 0.1199939659807304 -0.8149048021148927 0 0.1165941664709778 -0.940022067545818 0 0.1118292637020835 -2.109008499653535 0 0 0 0 -124.3340031368698 402.2003531874183 0 -322.0704181602938 428.1934343751599 0 -365.6223135064549 219.458826883607 0 -530.6610921274971 302.5994977543126 0 -430.1371385414495 321.2396237251987 0 -352.0550914766364 431.4656441434191 0 0 0 0 0.06952849111888115 -1.703377710472897 0 0.108817219798435 -2.053001864486923 0 0.1124213877454522 -0.4122069618118891 0 0.1195429706552001 -0.8119180271766316 0 0.1161559888721617 -0.9365884264163759 0 0.111409046572006 -2.101549703998226 0 0 0 0 -127.6989921893929 413.1309438828568 0 -330.7847636784784 439.8377263975901 0 -375.5147108126371 225.4072137483965 0 -545.0174839771307 310.8088794660105 0 -441.7745722732049 329.9569924718605 0 -361.5805072473981 443.1999188191996 0 0 0 0 0.06950686682203584 -1.702872635165182 0 0.1087833410760665 -2.052398964131248 0 0.1123863835886569 -0.4120803884465791 0 0.119505742091599 -0.8116713739600148 0 0.1161198183268529 -0.9363048541880442 0 0.1113743585495429 -2.100933376581951 0 0 0 0 -127.9820434607001 414.0503796226427 0 -331.517784782073 440.817194641076 0 -376.3468256911474 225.9075698821518 0 -546.2250951799998 311.4994207539761 0 -442.7534737868804 330.690263268961 0 -362.3817528663286 444.1869558766834 0 0 0 0 0.06899113177733511 -1.690808745662705 0 0.1079753663917179 -2.037994113334958 0 0.111551570836969 -0.4090604433853541 0 0.1186178847033541 -0.8057844521136538 0 0.1152571910482058 -0.9295360692069004 0 0.1105470845907248 -2.086207092776649 0 0 0 0 -134.9815246664115 436.7864374772879 0 -349.6444404603814 465.0377023131424 0 -396.9239441934467 238.2806346531119 0 -576.0877612599751 328.575421581658 0 -466.9604392354291 348.8228797575662 0 -382.1955138713648 468.5946201520328 0 0 0 0 0.0697850100982037 -1.70936447761993 0 0.10921911412821 -2.060147026334041 0 0.1128366334503416 -0.4137081288758586 0 0.119984605304174 -0.8148428332273858 0 0.1165850718462611 -0.9399508308489761 0 0.1118205418736513 -2.108853830279846 0 0 0 0 -124.4026623241858 402.4233825555465 0 -322.2482254445579 428.4310264501645 0 -365.8241577147335 219.5801980516254 0 -530.9540195024708 302.7670026608528 0 -430.3745884046523 321.4174937278372 0 -352.2494478077281 431.7050722715298 0 0 0 0 0.0697959023120988 -1.709618492095603 0 0.1092361794958605 -2.06045014356531 0 0.1128542657748877 -0.4137718579716662 0 0.1200033582219243 -0.8149669789610138 0 0.1166032917626472 -0.9400935431457046 0 0.111838014939735 -2.109163684477313 0 0 0 0 -124.265162123261 401.9767331081297 0 -321.8921400029403 427.955213008239 0 -365.4199347706137 219.3371342793141 0 -530.3673890193039 302.431549219616 0 -429.8990598600416 321.0612826392904 0 -351.8602204473383 431.225581859014 0 0 0 0 0.0697959023120988 -1.709618492095603 0 0.1092361794958605 -2.06045014356531 0 0.1128542657748877 -0.4137718579716662 0 0.1200033582219243 -0.8149669789610138 0 0.1166032917626472 -0.9400935431457046 0 0.111838014939735 -2.109163684477313 0 0 0 0 -124.265162123261 401.9767331081297 0 -321.8921400029403 427.955213008239 0 -365.4199347706137 219.3371342793141 0 -530.3673890193039 302.431549219616 0 -429.8990598600416 321.0612826392904 0 -351.8602204473383 431.225581859014 0 0 0 0 0.0697959023120988 -1.709618492095603 0 0.1092361794958605 -2.06045014356531 0 0.1128542657748877 -0.4137718579716662 0 0.1200033582219243 -0.8149669789610138 0 0.1166032917626472 -0.9400935431457046 0 0.111838014939735 -2.109163684477313 0 0 0 0 -124.265162123261 401.9767331081297 0 -321.8921400029403 427.955213008239 0 -365.4199347706137 219.3371342793141 0 -530.3673890193039 302.431549219616 0 -429.8990598600416 321.0612826392904 0 -351.8602204473383 431.225581859014 0 0 0 0 0.0697959023120988 -1.709618492095603 0 0.1092361794958605 -2.06045014356531 0 0.1128542657748877 -0.4137718579716662 0 0.1200033582219243 -0.8149669789610138 0 0.1166032917626472 -0.9400935431457046 0 0.111838014939735 -2.109163684477313 0 0 0 0 -124.265162123261 401.9767331081297 0 -321.8921400029403 427.955213008239 0 -365.4199347706137 219.3371342793141 0 -530.3673890193039 302.431549219616 0 -429.8990598600416 321.0612826392904 0 -351.8602204473383 431.225581859014 0 0 0 0 0.06952308888812143 -1.703251537162932 0 0.1088087561311319 -2.052851254815705 0 0.1124126429184773 -0.4121753413506359 0 0.1195336701196211 -0.811856409087124 0 0.1161469526542352 -0.9365175855688395 0 0.1114003807227214 -2.101395740332475 0 0 0 0 -127.7696282573071 413.3603912076243 0 -330.9676907027173 440.0821549884907 0 -375.7223669048292 225.5320787466261 0 -545.3188459966063 310.981205615696 0 -442.0188592906522 330.1399818732796 0 -361.7804598484523 443.4462362273829 0 0 0 0 0.0697959023120988 -1.709618492095603 0 0.1092361794958605 -2.06045014356531 0 0.1128542657748877 -0.4137718579716662 0 0.1200033582219243 -0.8149669789610138 0 0.1166032917626472 -0.9400935431457046 0 0.111838014939735 -2.109163684477313 0 0 0 0 -124.265162123261 401.9767331081297 0 -321.8921400029403 427.955213008239 0 -365.4199347706137 219.3371342793141 0 -530.3673890193039 302.431549219616 0 -429.8990598600416 321.0612826392904 0 -351.8602204473383 431.225581859014 0 0 0 0 0.0697959023120988 -1.709618492095603 0 0.1092361794958605 -2.06045014356531 0 0.1128542657748877 -0.4137718579716662 0 0.1200033582219243 -0.8149669789610138 0 0.1166032917626472 -0.9400935431457046 0 0.111838014939735 -2.109163684477313 0 0 0 0 -124.265162123261 401.9767331081297 0 -321.8921400029403 427.955213008239 0 -365.4199347706137 219.3371342793141 0 -530.3673890193039 302.431549219616 0 -429.8990598600416 321.0612826392904 0 -351.8602204473383 431.225581859014 0 0 0 0 0.0697959023120988 -1.709618492095603 0 0.1092361794958605 -2.06045014356531 0 0.1128542657748877 -0.4137718579716662 0 0.1200033582219243 -0.8149669789610138 0 0.1166032917626472 -0.9400935431457046 0 0.111838014939735 -2.109163684477313 0 0 0 0 -124.265162123261 401.9767331081297 0 -321.8921400029403 427.955213008239 0 -365.4199347706137 219.3371342793141 0 -530.3673890193039 302.431549219616 0 -429.8990598600416 321.0612826392904 0 -351.8602204473383 431.225581859014 0 0 0 0 0.0697959023120988 -1.709618492095603 0 0.1092361794958605 -2.06045014356531 0 0.1128542657748877 -0.4137718579716662 0 0.1200033582219243 -0.8149669789610138 0 0.1166032917626472 -0.9400935431457046 0 0.111838014939735 -2.109163684477313 0 0 0 0 -124.265162123261 401.9767331081297 0 -321.8921400029403 427.955213008239 0 -365.4199347706137 219.3371342793141 0 -530.3673890193039 302.431549219616 0 -429.8990598600416 321.0612826392904 0 -351.8602204473383 431.225581859014 0 0 0 0 0.06952849111888115 -1.703377710472897 0 0.108817219798435 -2.053001864486923 0 0.1124213877454522 -0.4122069618118891 0 0.1195429706552001 -0.8119180271766316 0 0.1161559888721617 -0.9365884264163759 0 0.111409046572006 -2.101549703998226 0 0 0 0 -127.6989921893929 413.1309438828568 0 -330.7847636784784 439.8377263975901 0 -375.5147108126371 225.4072137483965 0 -545.0174839771307 310.8088794660105 0 -441.7745722732049 329.9569924718605 0 -361.5805072473981 443.1999188191996 0 0 0 0 0.0687362609694231 -1.68483441439978 0 0.1075760918404871 -2.030857436999844 0 0.111139035499073 -0.4075671868525266 0 0.118179140138491 -0.8028722124219494 0 0.1148309125664522 -0.9261870815625711 0 0.1101382741867761 -2.078910732004977 0 0 0 0 -138.6245953378804 448.6197775267105 0 -359.0789660628694 477.6436115079748 0 -407.6338839663903 244.7204786824163 0 -591.6306338115054 337.4629726891761 0 -479.5596380324081 358.2603550731473 0 -392.5081421598487 481.2979328472979 0 0 0 0 0.06951767339192697 -1.703125050185582 0 0.1088002716862763 -2.052700269791631 0 0.1124038766243541 -0.4121436429874356 0 0.1195243467538446 -0.8117946387716957 0 0.1161378942543459 -0.9364465695588812 0 0.1113916936000211 -2.101241392821093 0 0 0 0 -127.8404888464729 413.5905677706614 0 -331.1511991761721 440.3273604214118 0 -375.9306830503221 225.6573406205221 0 -545.6211659244339 311.1540794809455 0 -442.2639227969491 330.3235528782995 0 -361.9810480164001 443.6933364792491 0 0 0 0 0.06979044704068703 -1.709491273116542 0 0.1092276324507097 -2.060298332760627 0 0.1128454347738955 -0.4137399399356191 0 0.1199939659807304 -0.8149048021148927 0 0.1165941664709778 -0.940022067545818 0 0.1118292637020835 -2.109008499653535 0 0 0 0 -124.3340031368698 402.2003531874183 0 -322.0704181602938 428.1934343751599 0 -365.6223135064549 219.458826883607 0 -530.6610921274971 302.5994977543126 0 -430.1371385414495 321.2396237251987 0 -352.0550914766364 431.4656441434191 0 0 0 0 0.06979044704068703 -1.709491273116542 0 0.1092276324507097 -2.060298332760627 0 0.1128454347738955 -0.4137399399356191 0 0.1199939659807304 -0.8149048021148927 0 0.1165941664709778 -0.940022067545818 0 0.1118292637020835 -2.109008499653535 0 0 0 0 -124.3340031368698 402.2003531874183 0 -322.0704181602938 428.1934343751599 0 -365.6223135064549 219.458826883607 0 -530.6610921274971 302.5994977543126 0 -430.1371385414495 321.2396237251987 0 -352.0550914766364 431.4656441434191 0 0 0 0 0.0697959023120988 -1.709618492095603 0 0.1092361794958605 -2.06045014356531 0 0.1128542657748877 -0.4137718579716662 0 0.1200033582219243 -0.8149669789610138 0 0.1166032917626472 -0.9400935431457046 0 0.111838014939735 -2.109163684477313 0 0 0 0 -124.265162123261 401.9767331081297 0 -321.8921400029403 427.955213008239 0 -365.4199347706137 219.3371342793141 0 -530.3673890193039 302.431549219616 0 -429.8990598600416 321.0612826392904 0 -351.8602204473383 431.225581859014 0 0 0 0 0.06952308888812143 -1.703251537162932 0 0.1088087561311319 -2.052851254815705 0 0.1124126429184773 -0.4121753413506359 0 0.1195336701196211 -0.811856409087124 0 0.1161469526542352 -0.9365175855688395 0 0.1114003807227214 -2.101395740332475 0 0 0 0 -127.7696282573071 413.3603912076243 0 -330.9676907027173 440.0821549884907 0 -375.7223669048292 225.5320787466261 0 -545.3188459966063 310.981205615696 0 -442.0188592906522 330.1399818732796 0 -361.7804598484523 443.4462362273829 0 0 0 0 0.06952849111888115 -1.703377710472897 0 0.108817219798435 -2.053001864486923 0 0.1124213877454522 -0.4122069618118891 0 0.1195429706552001 -0.8119180271766316 0 0.1161559888721617 -0.9365884264163759 0 0.111409046572006 -2.101549703998226 0 0 0 0 -127.6989921893929 413.1309438828568 0 -330.7847636784784 439.8377263975901 0 -375.5147108126371 225.4072137483965 0 -545.0174839771307 310.8088794660105 0 -441.7745722732049 329.9569924718605 0 -361.5805072473981 443.1999188191996 0 0 0 0 0.06952849111888115 -1.703377710472897 0 0.108817219798435 -2.053001864486923 0 0.1124213877454522 -0.4122069618118891 0 0.1195429706552001 -0.8119180271766316 0 0.1161559888721617 -0.9365884264163759 0 0.111409046572006 -2.101549703998226 0 0 0 0 -127.6989921893929 413.1309438828568 0 -330.7847636784784 439.8377263975901 0 -375.5147108126371 225.4072137483965 0 -545.0174839771307 310.8088794660105 0 -441.7745722732049 329.9569924718605 0 -361.5805072473981 443.1999188191996 0 0 0 0 0.0697959023120988 -1.709618492095603 0 0.1092361794958605 -2.06045014356531 0 0.1128542657748877 -0.4137718579716662 0 0.1200033582219243 -0.8149669789610138 0 0.1166032917626472 -0.9400935431457046 0 0.111838014939735 -2.109163684477313 0 0 0 0 -124.265162123261 401.9767331081297 0 -321.8921400029403 427.955213008239 0 -365.4199347706137 219.3371342793141 0 -530.3673890193039 302.431549219616 0 -429.8990598600416 321.0612826392904 0 -351.8602204473383 431.225581859014 0 0 0 0 0.0697959023120988 -1.709618492095603 0 0.1092361794958605 -2.06045014356531 0 0.1128542657748877 -0.4137718579716662 0 0.1200033582219243 -0.8149669789610138 0 0.1166032917626472 -0.9400935431457046 0 0.111838014939735 -2.109163684477313 0 0 0 0 -124.265162123261 401.9767331081297 0 -321.8921400029403 427.955213008239 0 -365.4199347706137 219.3371342793141 0 -530.3673890193039 302.431549219616 0 -429.8990598600416 321.0612826392904 0 -351.8602204473383 431.225581859014 0 0 0 0 0.0697959023120988 -1.709618492095603 0 0.1092361794958605 -2.06045014356531 0 0.1128542657748877 -0.4137718579716662 0 0.1200033582219243 -0.8149669789610138 0 0.1166032917626472 -0.9400935431457046 0 0.111838014939735 -2.109163684477313 0 0 0 0 -124.265162123261 401.9767331081297 0 -321.8921400029403 427.955213008239 0 -365.4199347706137 219.3371342793141 0 -530.3673890193039 302.431549219616 0 -429.8990598600416 321.0612826392904 0 -351.8602204473383 431.225581859014 1.339145124809677e-13 0 0 0 0.05842784310418563 -1.437936676858511 0 0.09143468587804462 -1.734630378845358 0 0.09446224975311461 -0.3468232196037551 0 0.1004443391369717 -0.6838322472087836 0 0.09759932080210815 -0.7890868972678979 0 0.09361187117367477 -1.775870354389684 1.339145124809677e-13 0 0 0 -502.0158789033874 1628.679194830247 0 -1300.175363047395 1734.702325048195 0 -1475.955592882844 887.0245613679734 0 -2142.049229374662 1223.849370734805 0 -1736.339356106238 1299.477710836005 0 -1421.197150218737 1748.063799943057 0 0 0 0 0.02749049326518834 -0.6773939289731118 0 0.0430191469965512 -0.8173637222665581 0 0.04444347521892059 -0.1632363037899928 0 0.04725774643321369 -0.3219433977352591 0 0.04591931250905472 -0.3715289690977345 0 0.04404341016308221 -0.8368247621343278 0 0 0 0 -12578556.18974661 40839611.51510292 0 -32575813.52266704 43503260.68802041 0 -36979742.49258299 22231471.7456384 0 -53667653.79297422 30678446.12833457 0 -43503261.45946481 32575813.19415721 0 -35607848.26000176 43839041.24963207 0 0 0 0 0.03440110979862204 -0.8476774004854962 0 0.05383338713186751 -1.022832546988828 0 0.05561576622289061 -0.2042709045873052 0 0.05913749909962922 -0.4028739069398606 0 0.05746260453579212 -0.4649243110253817 0 0.05511513452484273 -1.047185660965391 0 0 0 0 -253423.2816576475 822805.0268309487 0 -656313.0042435888 876470.0601489726 0 -745040.0601878262 447902.8169274733 0 -1081255.576755543 618085.9256910866 0 -876471.0255189148 656312.5931526648 0 -717400.1646781689 883235.0910894836 0 0 0 0 0.05895164313478111 -1.450666382866628 0 0.092254615509585 -1.749948116479953 0 0.09530935015798049 -0.3499219154876637 0 0.1013451296516547 -0.6899246782437314 0 0.09847457619991844 -0.7961108438390848 0 0.09445133974485305 -1.791546782458915 0 0 0 0 -464.8249002019682 1507.917809300458 0 -1203.859091299017 1606.062858629474 0 -1366.618394031386 821.2906634341387 0 -1983.371575438715 1133.137687022139 0 -1607.714332169754 1203.155235070688 0 -1315.916177353588 1618.431187399361 0 0 0 0 0.05785404963002403 -1.423976719579044 0 0.09053652060371155 -1.717828588885916 0 0.09353432317727511 -0.3434277713995591 0 0.09945760388841626 -0.6771547195224833 0 0.09664055500524792 -0.7813878010578963 0 0.09269230405618631 -1.758674597493729 0 0 0 0 -547.10705633599 1775.091734588291 0 -1416.951435751352 1890.666143941798 0 -1608.518548169054 966.7215616182771 0 -2334.433734993876 1333.829692714474 0 -1892.287331975679 1416.260584470898 0 -1548.842240276558 1905.231692210787 0 0 0 0 0.0590259292372397 -1.452470602774768 0 0.09237090074096731 -1.752118874711621 0 0.09542948899190398 -0.3503613033675994 0 0.101472883326475 -0.6907884496739564 0 0.09859870823726534 -0.7971066397632294 0 0.09457039616263728 -1.793768333964559 0 0 0 0 -459.8322864710846 1491.706404291772 0 -1190.929348484021 1588.793861274353 0 -1351.940689272708 812.4663575783007 0 -1962.070284492793 1120.960278394334 0 -1590.447381440827 1190.224612744998 0 -1301.782990548257 1601.028864989051 0 0 0 0 0.04332924106095436 -1.067631310056624 0 0.06780484538013529 -1.288224858410148 0 0.07004981374529168 -0.2572825246838363 0 0.07448555981707489 -0.5074215170891029 0 0.07237597127650476 -0.5855725822803434 0 0.06941925077124377 -1.318895322681225 0 0 0 0 -10820.08675267612 35129.34867293321 0 -28021.79211433924 37420.41108200439 0 -31810.06918525345 19123.35387062788 0 -46165.08037910252 26389.22885427706 0 -37421.62693089152 28021.27434660233 0 -30629.96028630238 37709.22036291781 0 0 0 0 0.0473822344545442 -1.167394639329243 0 0.07414741652544123 -1.408576736788021 0 0.07660239630652994 -0.2813419181236601 0 0.0814530983621249 -0.554861337724294 0 0.07914616122548938 -0.6403149497552781 0 0.07591284558848251 -1.442109087861705 0 0 0 0 -3878.284220384882 12590.8627135402 0 -10043.98854554229 13411.90142478292 0 -11401.84438608249 6854.322524205973 0 -16547.20381019595 9458.494836618182 0 -13413.23085535849 10043.42237800906 0 -10978.85052305242 13515.39872829484 0 0 0 0 0.05340021768389425 -1.315178842405834 0 0.08356550628341765 -1.586776666110528 0 0.08633237823971983 -0.3170432596202848 0 0.09179934843756485 -0.6252193815148703 0 0.08919931937141967 -0.7214900206371253 0 0.08555522333826342 -1.624534666079994 0 0 0 0 -1140.16905432555 3700.718826690772 0 -2952.852642840856 3941.902027425009 0 -3352.057751230012 2014.924056772921 0 -4864.780045595866 2780.318229849463 0 -3943.399604771749 2952.214718326502 0 -3227.698897383699 3972.302147328229 0 0 0 0 0.05691242736725666 -1.40103573535089 0 0.08906263394458803 -1.690209782675031 0 0.09201160257893698 -0.3378535824119167 0 0.09783838767137215 -0.6661890106497235 0 0.0950672320479601 -0.7687432485154364 0 0.09118330007757812 -1.730407087765186 0 0 0 0 -632.5609680716467 2052.560361695516 0 -1638.258119470712 2186.235066618836 0 -1859.743564209749 1117.757609559292 0 -2699.028900596663 1542.256022028311 0 -2187.830209169463 1637.578438856141 0 -1790.747219311391 2203.082403609602 0 0 0 0 0.05829130887714545 -1.4346163158966 0 0.09122096535238997 -1.730634431206825 0 0.09424144726800029 -0.3460153648234038 0 0.1002095425827297 -0.6822436625628459 0 0.09737117984422552 -0.7872553361698785 0 0.0933930578952446 -1.771780758592152 0 0 0 0 -512.3130853558364 1662.114678224589 0 -1326.842820936148 1770.319003219074 0 -1506.228206469153 905.2245183681039 0 -2185.982931128459 1248.964978975224 0 -1771.952266470436 1326.14678656533 0 -1450.346700425212 1783.955448787787 0 0 0 0 0.06438869760301227 -1.581801508886663 0 0.1007669133569728 -1.907503868711066 0 0.1041038617896715 -0.3820208032179738 0 0.1106973278082389 -0.7529275853197691 0 0.1075615334230316 -0.8687079143685951 0 0.1031665811919318 -1.952757784199951 0 0 0 0 -226.09640367331 732.7090736965554 0 -585.6080919496975 780.2754369122142 0 -664.7868207727456 399.3369306924075 0 -964.8266855939302 550.8415191919341 0 -782.0753792475023 584.840150948686 0 -640.1212795305574 786.2674738404952 0 0 0 0 0.05782083899762475 -1.423168261731836 0 0.09048453629291452 -1.716855440177916 0 0.09348061639446499 -0.3432312153294518 0 0.09940049349277139 -0.6767681197034023 0 0.09658506336850829 -0.7809420386796695 0 0.09263908108678684 -1.757678614394722 0 0 0 0 -549.8679627941472 1784.056448823102 0 -1424.101568447359 1900.215668513737 0 -1616.635303038321 971.6013544480594 0 -2346.213330803781 1340.563706021317 0 -1901.835938890546 1423.411110944973 0 -1556.657876948591 1914.854940255513 0 0 0 0 0.03121473118451815 -0.7691627844919759 0 0.04884710624086044 -0.9280947129833608 0 0.05046439364874056 -0.1853505147911586 0 0.0536599282763205 -0.3655582085893844 0 0.05214016966485803 -0.4218613054353799 0 0.05001013248214908 -0.9501921989702613 0 0 0 0 -1229680.025365783 3992481.020025147 0 -3184612.523279077 4252879.302791427 0 -3615140.758219911 2173349.216809877 0 -5246551.495743215 2999125.536910934 0 -4252880.17874597 3184612.150264878 0 -3481024.334746032 4285705.200998396 0 0 0 0 0.03816381091415403 -0.9403885628746504 0 0.05972154634193598 -1.134699247243865 0 0.06169887823606794 -0.2266131484028489 0 0.06560581092247897 -0.4469378741720356 0 0.06374771993163779 -0.5157747719052957 0 0.061143488584519 -1.161715661319553 0 0 0 0 -55671.64777269792 180751.9238100997 0 -144177.8912796929 192540.8287752804 0 -163669.3274566996 98394.49378577548 0 -237528.687133582 135779.908637388 0 -192541.8997268077 144177.4352264673 0 -157597.4336263107 194026.9398124086 0 0 0 0 0.04715619432735679 -1.161833919622835 0 0.07379367952521222 -1.401869195810673 0 0.07623694615522986 -0.2800003064343893 0 0.08106450442382285 -0.5522163173882736 0 0.07876857423523224 -0.6372628972879298 0 0.07555068541426803 -1.435242155149828 0 0 0 0 -4086.832688023482 13267.97534149529 0 -10584.08495803473 14133.17761143263 0 -12014.9564749825 7222.914210740415 0 -17436.99589235154 9967.135830244133 0 -14134.5007120542 10583.52148881697 0 -11569.21706259133 14242.24220370599 0 0 0 0 0.06673476362854582 -1.63764949360269 0 0.104440979662191 -1.974426806683701 0 0.1078998359050755 -0.3958228106678697 0 0.1147342242821225 -0.7799383088769625 0 0.1114838418766364 -0.8998031818125366 0 0.106928312346534 -2.02120808187635 0 0 0 0 -172.173947928554 557.587317460889 0 -445.962680787313 593.7244222198667 0 -506.2631009654593 304.0241624964962 0 -734.7671692538011 419.3061565714219 0 -595.5873651846738 445.1673185851626 0 -487.4784507380608 598.2755515092813 0 0 0 0 0.0431916911091217 -1.064243933122151 0 0.06758959431011656 -1.284138026287163 0 0.06982743562481356 -0.2564658943687795 0 0.07424909959096361 -0.5058111284467089 0 0.07214620834592471 -0.5837142393044652 0 0.06919887448539602 -1.314711253066266 0 0 0 0 -11243.08642332382 36502.73200876924 0 -29117.2721041038 38883.36997757595 0 -33053.64725210638 19870.96848928126 0 -47969.8499487681 27420.90439452806 0 -38884.58196939389 29116.75597945881 0 -31827.40343630407 39183.47119451695 1.667448406139447e-12 0 0 0 0.04540186897735413 -1.118661910330413 0 0.07104830337519853 -1.349790062786869 0 0.07340066539959755 -0.2695869415418802 0 0.07804860741143024 -0.5316845524612966 0 0.07583810082361908 -0.6135710142156372 0 0.07273993783926669 -1.381924964550586 1.667448406139447e-12 0 0 0 -6251.577271715323 20296.42909743681 0 -16190.31608202747 21620.04866815104 0 -18379.09451933648 11048.91375750443 0 -26673.08823465008 15246.85188686878 0 -21621.32262011301 16189.77355931663 0 -17697.25499550355 21786.90162385346 0 0 0 0 0.0477843609831459 -1.177285957088622 0 0.07477671815874097 -1.420507706465778 0 0.0772525359169892 -0.2837285718063465 0 0.08214441134791707 -0.5595665522002932 0 0.07981789256787152 -0.6457441842925755 0 0.07655713224699673 -1.454323531936365 0 0 0 0 -3537.761304780722 11485.25634890196 0 -9162.106266042592 12234.1835873128 0 -10400.74037725949 6252.477083232327 0 -15094.33014502926 8627.973376188042 0 -12235.5242771267 9161.535298576458 0 -10014.88598699512 12328.59046652103 2.893566120073586e-13 0 0 0 0.05367921039862541 -1.322012754657693 0 0.08400215168612976 -1.595012919015012 0 0.08678348602085612 -0.3186972357486419 0 0.09227903288429194 -0.6284770795974393 0 0.08966541292524803 -0.7252478955888527 0 0.08600226891588784 -1.632965632834732 2.893566120073586e-13 0 0 0 -1084.806487806642 3520.963672413984 0 -2809.47553196699 3750.421890089541 0 -3189.297512462819 1917.074516386506 0 -4628.570892082254 2645.289223257419 0 -3751.927237595631 2808.834286223088 0 -3070.976812182526 3779.343936518105 0 0 0 0 0.05874424219391727 -1.445627645195778 0 0.09192995842334628 -1.743885367355529 0 0.09497393438723656 -0.3486950809890302 0 0.100988454416823 -0.6875127423167202 0 0.09812801201280356 -0.7933301936127607 0 0.09411894591712519 -1.785342120440911 0 0 0 0 -479.126110921644 1554.354840662241 0 -1240.896005042136 1655.529310664909 0 -1408.662300395566 846.5676332122905 0 -2044.388576824423 1168.01950458475 0 -1657.175068020252 1240.194604806946 0 -1356.400325852744 1668.279542109525 0 0 0 0 0.06149872687185892 -1.512349970793211 0 0.09624199580197486 -1.824120123647965 0 0.09942889302251896 -0.3649757063137447 0 0.1057258344464396 -0.7194989776318416 0 0.1027310709844884 -0.8301985373630885 0 0.09853376007799323 -1.867448206076795 0 0 0 0 -326.0866195581668 1057.413844580911 0 -844.5587496075568 1126.167569399485 0 -958.7445938087792 576.0726221040029 0 -1391.437469622144 794.7388516361758 0 -1127.888958452148 843.8247930659958 0 -923.1737814384578 1134.830662211645 0 0 0 0 0.06572539270521856 -1.613687282561044 0 0.102860156299486 -1.94572871842517 0 0.1062665509429705 -0.3898889895835377 0 0.1129972595278242 -0.7683328773528096 0 0.1097961898096106 -0.8864453644697334 0 0.1053097634993549 -1.991857304318291 0 0 0 0 -193.0942310898359 625.5312391801743 0 -500.1407784664356 666.1029689304655 0 -567.7653822953009 341.0030397613687 0 -824.0230562959326 470.3387861707887 0 -667.938901459081 499.3571932582653 0 -546.6991334539954 671.2131843086598 0 0 0 0 0.05794762098722051 -1.426254288655771 0 0.09068298740702706 -1.720570056143849 0 0.09368564311522355 -0.3439815527701849 0 0.09961851364951956 -0.6782439052098711 0 0.09679690384306001 -0.7826436576790272 0 0.09284226082965301 -1.761480382462986 0 0 0 0 -539.4202111484478 1750.132383281701 0 -1397.044220202054 1864.078573507637 0 -1585.92008820356 953.1353625788653 0 -2301.637288264925 1315.081014873853 0 -1865.702346659938 1396.352259531782 0 -1527.082145794124 1878.438862054953 0 0 0 0 0.05863918884508831 -1.443074578940403 0 0.09176551330798262 -1.74081324717275 0 0.09480403990009671 -0.3480736067108097 0 0.1008077918383624 -0.6862908451011756 0 0.097952470758848 -0.791921471909417 0 0.09395058207092546 -1.782198061566541 0 0 0 0 -486.579220622486 1578.555546061384 0 -1260.197883110649 1681.308791824503 0 -1430.573585384 859.7407731056859 0 -2076.187738751893 1186.198218399397 0 -1682.951652600917 1259.497727152048 0 -1377.498739063928 1694.25805081035 0 0 0 0 0.06512855123555658 -1.599470707890873 0 0.1019254828579807 -1.928690797083464 0 0.1053008656463812 -0.3863771627755968 0 0.1119702867561847 -0.7614592279828414 0 0.1087983666840628 -0.8785319417177893 0 0.1043527891852645 -1.974430229273592 0 0 0 0 -207.0115021481871 670.7296222212564 0 -536.182970730496 714.2511840144604 0 -608.6800284240429 365.6030272547233 0 -883.4009498645217 504.2877066938294 0 -716.0710764448598 535.4063642716362 0 -586.0959333099005 719.7332897643386 0 0 0 0 0.06115642872946236 -1.504083462787802 0 0.09570610617074428 -1.814185539104838 0 0.09887523813121664 -0.3629541662800017 0 0.105137073652899 -0.7155299934923151 0 0.1021590068420279 -0.8256247346195786 0 0.09798509520810086 -1.857282775693326 0 0 0 0 -341.3746347129673 1107.057587530649 0 -884.1511410512658 1179.050315346956 0 -1003.689431725388 603.0942366557626 0 -1456.664426236629 832.0286620938904 0 -1180.762341879219 883.4212224228169 0 -966.4512473107079 1188.121738598138 0 0 0 0 0.06375723858126003 -1.566682816549844 0 0.09977813807373064 -1.889365965765558 0 0.1030822900444257 -0.3783001670849672 0 0.1096109437098172 -0.7456368296639525 0 0.1065059751527696 -0.8603112508838066 0 0.1021542216433217 -1.934202914388358 0 0 0 0 -244.1927017590186 791.4765638562849 0 -632.4730492279762 842.8779051452365 0 -717.9873575618044 431.323121918628 0 -1042.034722899665 594.9832026395068 0 -844.6607651358491 631.7125161151661 0 -691.3481830874319 849.3534171394107 0 0 0 0 0.06546369966381538 -1.607458051673707 0 0.1024503303493393 -1.938264288928462 0 0.105843126665875 -0.3883494611921278 0 0.1125469613198435 -0.7653200371163176 0 0.1093586734410172 -0.8829769386126715 0 0.104890158887365 -1.984222529769488 0 0 0 0 -199.0441458465884 644.8545919032547 0 -515.5495376797636 686.6874621243796 0 -585.257212100476 351.5200583852214 0 -849.408289678797 484.8526943602598 0 -688.5163677398672 514.7690110715004 0 -563.5420539065188 691.956671954973 0 0 0 0 0.06705241914128299 -1.645168466489543 0 0.1049385065149949 -1.983426468806725 0 0.1084138768007534 -0.3976887593717821 0 0.1152809024229776 -0.7835853520853948 0 0.1120149968388125 -0.9040000508064854 0 0.1074377145378623 -2.030411661522656 0 0 0 0 -166.1981958303267 538.1789689247701 0 -430.487065526908 573.0492282282653 0 -488.6953857750663 293.4612511732453 0 -709.2718406882806 404.728734732283 0 -574.9206397002332 429.6880039826165 0 -470.5624575941525 577.4406412670489 0 0 0 0 0.06799439314892715 -1.667399232512328 0 0.1064139645846915 -2.010019073874052 0 0.1099383176190781 -0.4032176589548455 0 0.1169021511417863 -0.7943845500022727 0 0.1135902007570874 -0.9164247364402963 0 0.1089483963120071 -2.057604527092432 0 0 0 0 -149.9809667969274 485.5062699118258 0 -388.4888191476662 516.9381880596248 0 -441.0195408473666 264.7948868009008 0 -640.0818272706215 365.1672521664178 0 -518.8346169327418 387.6788083758107 0 -424.6552738213454 520.8961121821968 0 0 0 0 0.06874152677716544 -1.684957930270556 0 0.1075843410115942 -2.031005003670951 0 0.1111475586321553 -0.4075980440299989 0 0.1181882047404011 -0.8029324009227119 0 0.1148397196260001 -0.9262562997584863 0 0.110146720364444 -2.079061603362599 0 0 0 0 -138.5480439596042 448.3711267956279 0 -358.8807194908028 477.3787272346081 0 -407.4088372526726 244.58515942491 0 -591.3040331893491 337.2762205010703 0 -479.2948925186531 358.0620475320559 0 -392.2914441100338 481.0310018949752 0 0 0 0 0.06871513823002258 -1.684338920513279 0 0.1075430019826588 -2.030265452970299 0 0.1111048467038988 -0.4074434071284333 0 0.1181427793623008 -0.802630769975289 0 0.1147955848636859 -0.9259094156886815 0 0.1101043940810208 -2.078305489567811 0 0 0 0 -138.9322182437994 449.6189836291773 0 -359.8756230393066 478.7080522026258 0 -408.5382377407931 245.2642610731746 0 -592.9430835951911 338.213438932491 0 -480.6235220707324 359.0572566256006 0 -393.378946694738 482.3705981326996 0 0 0 0 0.06952849111888115 -1.703377710472897 0 0.108817219798435 -2.053001864486923 0 0.1124213877454522 -0.4122069618118891 0 0.1195429706552001 -0.8119180271766316 0 0.1161559888721617 -0.9365884264163759 0 0.111409046572006 -2.101549703998226 0 0 0 0 -127.6989921893929 413.1309438828568 0 -330.7847636784784 439.8377263975901 0 -375.5147108126371 225.4072137483965 0 -545.0174839771307 310.8088794660105 0 -441.7745722732049 329.9569924718605 0 -361.5805072473981 443.1999188191996 0 0 0 0 0.06977954965916487 -1.709237130183327 0 0.1092105589981925 -2.059995060302549 0 0.1128277940969793 -0.413676180074478 0 0.1199752041820393 -0.8147805955804572 0 0.1165759379250128 -0.9398792850408916 0 0.111811782358718 -2.108698486502353 0 0 0 0 -124.4716679834428 402.6475373121917 0 -322.426929994194 428.6698173856661 0 -366.0270204860665 219.7021816739922 0 -531.2484250744346 302.9353528059461 0 -430.6132365080437 321.5962612681513 0 -352.4447849157456 431.945708523268 0 0 0 0 0.05953086277646594 -1.464726431886188 0 0.09316131940360937 -1.766862690955321 0 0.09624610254810918 -0.3533473812498498 0 0.1023412590172126 -0.6966578054816466 0 0.09944246569571152 -0.8038728066379404 0 0.09537965198083578 -1.808856873711655 0 0 0 0 -427.612203194044 1387.084759131379 0 -1107.486630458068 1477.346873720168 0 -1257.217418729066 755.5181515173994 0 -1824.601399315006 1042.372527955297 0 -1479.014293945428 1106.775918970834 0 -1210.573791532767 1488.72144125482 0 0 0 0 0.06007535874166469 -1.47792682087043 0 0.09401369090343563 -1.782739032555129 0 0.09712672419046421 -0.3565663935399235 0 0.1032777044412179 -0.702983320371896 0 0.1003523610897158 -0.8111642214337281 0 0.09625233858404889 -1.825103878911946 0 0 0 0 -395.9668442321478 1284.32829247459 0 -1025.532367968621 1367.886589353882 0 -1164.183834562443 699.5855562149405 0 -1689.584732982501 965.1861406546443 0 -1369.568976025348 1024.81521743809 0 -1120.991592209614 1378.41603790837 0 0 0 0 0.06519607892839206 -1.601080900953576 0 0.1020312310233699 -1.930620954041647 0 0.1054101222367116 -0.38677460969401 0 0.1120864768613736 -0.7622373301589618 0 0.1089112590670987 -0.8794278138195694 0 0.1044610602885035 -1.976404530887603 0 0 0 0 -205.3738144969074 665.4110448333205 0 -531.9417734837467 708.5855023702486 0 -603.8654738926674 362.7082828616076 0 -876.4137654929328 500.2928580163265 0 -710.4072120652231 531.1643769009505 0 -581.45998862536 714.023848224062 0 0 0 0 0.06224340174579406 -1.530306315275455 0 0.09740787094516834 -1.845693177776523 0 0.1006334217506843 -0.3693717856315585 0 0.1070067471593973 -0.728127031891743 0 0.1039756547415764 -0.8401403147701244 0 0.0997274315128797 -1.889521595821147 0 0 0 0 -295.6973786533737 958.7315916582282 0 -765.8577734655684 1021.046597383022 0 -869.404140223004 522.3592797338058 0 -1261.78066479822 720.6142568371391 0 -1022.788314906057 765.1150410217435 0 -837.1476938717924 1028.897978561085 5.887948802600443e-14 0 0 0 0.06459005724068234 -1.586615279561505 0 0.1010822243438167 -1.913277190753107 0 0.1044296322352074 -0.3832067595329365 0 0.1110437684157209 -0.7552507329036773 0 0.1078981429286635 -0.8713831671077392 0 0.1034894136742428 -1.958663576182275 5.887948802600443e-14 0 0 0 -220.6872730871362 715.1427394959212 0 -571.599788199451 761.5627421802519 0 -648.8847645696605 389.7759466098141 0 -941.7486077855315 537.6470980989405 0 -763.3681212280763 570.8294872566871 0 -624.8091571513286 767.4102569831106 0 0 0 0 0.06717735364698507 -1.648122683082563 0 0.1051341890636821 -1.986961719841129 0 0.1086160549045692 -0.3984224409739621 0 0.1154959179824635 -0.7850190237763215 0 0.1122239065357296 -0.9056497436014291 0 0.1076380680730663 -2.034026911186885 0 0 0 0 -163.9212209921978 530.7836188339138 0 -424.5903077352806 565.171148788281 0 -482.0014643992016 289.4363891418602 0 -699.557220429108 399.1741821940641 0 -567.0458866015863 423.7897921807429 0 -464.1168652115869 569.5017020401626 0 0 0 0 0.0665204021230177 -1.632569409905311 0 0.1041052454241336 -1.968344834361336 0 0.1075529587146333 -0.3945632197278719 0 0.114365325064446 -0.777475743570143 0 0.1111254169198662 -0.8969691219963798 0 0.1065845651451262 -2.014988090352285 0 0 0 0 -176.3634898809252 571.1941584465116 0 -456.8124933779341 608.2194018502053 0 -518.5796670523855 311.429683518154 0 -752.6417185507512 429.5261719257304 0 -610.0766212676467 456.0196295013619 0 -499.3381000188398 612.8825019342586 0 0 0 0 0.06534006605830814 -1.604512826860313 0 0.1022567164870584 -1.934734494866935 0 0.1056430888640875 -0.387621978046344 0 0.1123342281541198 -0.7638961107592058 0 0.1091519784630799 -0.8813376034455405 0 0.1046919255186737 -1.980612102880595 0 0 0 0 -201.9367897262572 654.2488697315897 0 -523.0407500276843 696.6948478857637 0 -593.7611427839281 356.6330564251491 0 -861.7497260476974 491.9088251975415 0 -698.5204304021674 522.2616691407259 0 -571.7305068457066 702.0413532625823 0 0 0 0 0.06805633337295604 -1.668857459293356 0 0.106510989592054 -2.011762547096992 0 0.1100385641808447 -0.4035809786777542 0 0.1170087647696872 -0.7950938068284771 0 0.1136937859982835 -0.9172406094439832 0 0.1090477379497764 -2.059387230796631 0 0 0 0 -148.9877100597948 482.2801418869506 0 -385.9165566070198 513.5014547330757 0 -438.0995436552028 263.0391406020794 0 -635.844156851112 362.7441922943516 0 -515.3995234941744 385.1058269871679 0 -421.8436014299941 517.4328266040958 3.59811789379899e-14 0 0 0 0.06900177046336928 -1.691057945711204 0 0.1079920329599985 -2.038291753679233 0 0.1115687909628711 -0.4091227623180786 0 0.1186361989104557 -0.8059059709155482 0 0.1152749848688288 -0.9296758051535221 0 0.1105641492230229 -2.086511386706055 3.59811789379899e-14 0 0 0 -134.8321761267434 436.3013232532719 0 -349.2576700570039 464.5209156857565 0 -396.4848879426118 238.0166309649732 0 -575.4505780250319 328.2110726651206 0 -466.4439324545669 348.4359862848104 0 -381.7727454803979 468.0738403430134 0 0 0 0 0.06978499964008186 -1.709364233720944 0 0.1092190977429553 -2.060146735285825 0 0.1128366165207314 -0.4137080676859896 0 0.1199845872985934 -0.8148427140273408 0 0.1165850543524771 -0.9399506938217033 0 0.1118205250969243 -2.108853532762651 0 0 0 0 -124.4027944399648 402.4238117143369 0 -322.248567585924 428.4314836308765 0 -365.8245461085698 219.580431597142 0 -530.9545831608901 302.7673249780811 0 -430.3750453118099 321.4178359898452 0 -352.2498217931976 431.7055329852205 0 0 0 0 0.06952849111888115 -1.703377710472897 0 0.108817219798435 -2.053001864486923 0 0.1124213877454522 -0.4122069618118891 0 0.1195429706552001 -0.8119180271766316 0 0.1161559888721617 -0.9365884264163759 0 0.111409046572006 -2.101549703998226 0 0 0 0 -127.6989921893929 413.1309438828568 0 -330.7847636784784 439.8377263975901 0 -375.5147108126371 225.4072137483965 0 -545.0174839771307 310.8088794660105 0 -441.7745722732049 329.9569924718605 0 -361.5805072473981 443.1999188191996 0 0 0 0 0.06634951415818041 -1.628516133704555 0 0.1038376046435909 -1.963491335549983 0 0.1072764354583286 -0.393558850851906 0 0.1140712472919313 -0.7755117747767948 0 0.1108396885267857 -0.8947087394967265 0 0.1063105369203696 -2.010024330373104 0 0 0 0 -179.7977041520261 582.3477425271539 0 -465.7062107194218 620.1009830701743 0 -528.6757000341873 317.500052104 0 -767.293698273171 437.9035896602827 0 -621.9536347171975 464.9153395845687 0 -509.0595927421523 624.8558641177164 1.36534496945881e-12 0 0 0 0.04620956524108927 -1.138541390920479 0 0.07231227802628275 -1.373771731674662 0 0.074706492251937 -0.2743814772315625 0 0.07943712896527433 -0.5411381334282349 0 0.077187293659408 -0.6244797445646298 0 0.07403400929596014 -1.406476841900004 1.36534496945881e-12 0 0 0 -5118.925709988793 16618.95874230095 0 -13256.98772064225 17702.72280414639 0 -15049.20919939594 9047.050165670255 0 -21840.52041009554 12484.3659690361 0 -17704.01938858441 13256.43555317571 0 -14490.90350237635 17839.3394358883 0 0 0 0 0.05270393001093012 -1.298114739527437 0 0.0824757736822031 -1.56620889503138 0 0.08520655313126006 -0.3129148384822655 0 0.09060220722830734 -0.6170870572891572 0 0.08803609564157931 -0.7121087528986892 0 0.08443953591226246 -1.603480357468458 0 0 0 0 -1294.108879615924 4200.540019434889 0 -3351.523681671762 4474.325048169066 0 -3804.62507452483 2287.001812961483 0 -5521.577757782456 3155.775916490591 0 -4475.803220968456 3350.894048692545 0 -3663.476668111508 4508.835010985355 0 0 0 0 0.06267002477298718 -1.540575601036045 0 0.09807582423474906 -1.858026554667644 0 0.1013235228536272 -0.3718891167733615 0 0.1077406153719391 -0.733065793656197 0 0.1046887068221703 -0.8458303647514197 0 0.1004113115652123 -1.902140400653982 0 0 0 0 -279.8926254928706 907.4083930022738 0 -724.9272256497135 966.3745925460535 0 -822.9402538509285 494.4240302680254 0 -1194.349209061552 682.0633850613584 0 -968.127930393899 724.1794711091968 0 -792.4075301838068 973.8037967963426 0 0 0 0 0.06175770569176256 -1.51859909562073 0 0.09664745108856958 -1.831628982716833 0 0.09984779024364743 -0.3665048371505433 0 0.1061712943851671 -0.7225006287680283 0 0.1031638974583474 -0.8336573955877093 0 0.09894888163693441 -1.875131365762027 0 0 0 0 -315.0895393493249 1021.703504570924 0 -816.0788913424577 1088.127270334968 0 -926.4145807364606 556.6351960355563 0 -1344.51799904333 767.915173159968 0 -1089.855735420227 815.3418813979586 0 -892.0431526880296 1096.496632180803 0 0 0 0 0.06462608876487207 -1.587476280540824 0 0.1011386469945263 -1.914309726887772 0 0.1044879265827067 -0.3834189507936527 0 0.1111057616522534 -0.7556663491591024 0 0.1079583769052375 -0.8718617608632997 0 0.1035471822794054 -1.959719790895242 0 0 0 0 -219.73683086002 712.0561332167888 0 -569.1383797341191 758.2747052734155 0 -646.0906036921865 388.0959765612591 0 -937.6935437847716 535.328691047585 0 -760.081056623398 568.3676566202503 0 -622.1186539090617 764.0968256048085 0 0 0 0 0.06161179818989685 -1.515078928124444 0 0.09641901861019592 -1.827399335337863 0 0.09961178453825993 -0.365643368609186 0 0.1059203231493245 -0.7208096450017586 0 0.1029200439643331 -0.8317088655280297 0 0.09871500315168158 -1.870803556334613 0 0 0 0 -321.2266936358707 1041.632446853147 0 -831.9726800018904 1109.356501943099 0 -944.4570296865757 567.4826703447891 0 -1370.702403077362 782.8847093932078 0 -1111.080981234472 831.2373901549724 0 -909.4162598619567 1117.889787449233 0 0 0 0 0.05952391299819808 -1.46455783898314 0 0.09315044014834184 -1.76665989542694 0 0.09623486273622203 -0.3533062877388874 0 0.1023293067287008 -0.6965770431990354 0 0.09943085226352508 -0.8037797078660908 0 0.09536851344376934 -1.808649339847248 0 0 0 0 -428.036176751917 1388.461447537695 0 -1108.584625632568 1478.813375978287 0 -1258.463850920605 756.2675156314049 0 -1826.410306721596 1043.406641293219 0 -1480.480605021451 1107.87399636485 0 -1211.773983233071 1490.199265905826 0 0 0 0 0.06283310481005421 -1.544497528771814 0 0.09833115976433833 -1.862735909346591 0 0.1015873252110223 -0.372851150457276 0 0.1080211494302149 -0.7349528237488053 0 0.104961283079394 -0.8480043113586397 0 0.1006727356908852 -1.906958618976932 0 0 0 0 -274.134322465924 888.7091456078791 0 -710.0145995972163 946.4552074870408 0 -806.0116137666342 484.2460714259423 0 -1169.781255092058 668.0176932444813 0 -948.2129821133079 709.264926445622 0 -776.1069104195045 953.7305911484385 0 0 0 0 0.06925499883588369 -1.696985305804075 0 0.1083887467198274 -2.045370258304782 0 0.1119786816162856 -0.4106058318563284 0 0.1190721331984118 -0.8087974183051642 0 0.1156985317995313 -0.9330005478603139 0 0.1109703385004416 -2.093747979571976 0 0 0 0 -131.3398247389297 424.9573748908739 0 -340.2134739889793 452.436325516918 0 -386.2180461483353 231.8431770592062 0 -560.5507600026647 319.6911348625443 0 -454.3659972434232 339.3888621878388 0 -371.8867769597443 455.8958716297161 0 0 0 0 0.06948528730456952 -1.702368544687972 0 0.108749532597511 -2.051797224464095 0 0.1123514520174518 -0.4119540731153373 0 0.1194685907437221 -0.8114252168959164 0 0.116083722794794 -0.9360218499613521 0 0.111339742454855 -2.100318233575849 0 0 0 0 -128.2653234593271 414.970557146772 0 -332.2513982870177 441.7974529380861 0 -377.1796130649871 226.4083300920755 0 -547.4336823844349 312.1905195090779 0 -443.7331664397555 331.4241259696538 0 -363.1836460299626 445.1747890709686 0 0 0 0 0.06951768409700461 -1.703125300222866 0 0.1088002884579594 -2.052700568257116 0 0.1124038939531439 -0.4121437056475077 0 0.1195243651838279 -0.8117947608772333 0 0.1161379121605516 -0.9364467099411387 0 0.1113917107723234 -2.101241697933629 0 0 0 0 -127.8403487221159 413.5901126045663 0 -331.1508362945276 440.3268755362629 0 -375.9302711123656 225.6570929195272 0 -545.6205680972538 311.1537376289075 0 -442.2634381923595 330.3231898730443 0 -361.9806513602514 443.6928478471635 0 0 0 0 0.04715619409813959 -1.161833914008236 0 0.07379367916745765 -1.401869189038744 0 0.07623694578565503 -0.2800003050806497 0 0.08106450403183298 -0.5522163147176088 0 0.07876857385417449 -0.6372628942067758 0 0.0755506850485428 -1.435242148215474 0 0 0 0 -4086.832905281462 13267.9760468857 0 -10584.08552068695 14133.17836283094 0 -12014.95711369971 7222.914594725394 0 -17436.99681930361 9967.136360127197 0 -14134.50146344613 10583.52205147191 0 -11569.21767761308 14242.2429609041 0 0 0 0 0.04287583368435958 -1.056465180763003 0 0.06709531138339388 -1.274752981412285 0 0.06931678683075983 -0.2545906390493433 0 0.07370611401121119 -0.5021131092756763 0 0.07161860177335058 -0.5794468187823333 0 0.06869282251228295 -1.305102901325452 0 0 0 0 -12289.98772482515 39901.7809429008 0 -31828.52584089597 42504.11345659419 0 -36131.43572524156 21721.27412370902 0 -52436.55706222173 29974.24531759438 0 -42505.31659097383 31828.01348938858 0 -34791.01048370771 42832.16158763981 7.830870697645248e-13 0 0 0 0.0486227036441678 -1.197901562187237 0 0.07608867719179493 -1.445373048013428 0 0.0786079383999788 -0.2887038416364008 0 0.08358565309180412 -0.5693745496245366 0 0.08121831000165163 -0.6570611838020993 0 0.07790033237198488 -1.479779473167257 7.830870697645248e-13 0 0 0 -2935.913211380944 9531.179316077125 0 -7603.447216489329 10152.65444827979 0 -8631.366118142554 5188.760970280387 0 -12526.48788078137 7160.089317232097 0 -10154.0186030178 7602.866243982719 0 -8311.152880771793 10230.99461470944 0 0 0 0 0.0636693074466315 -1.564574855634377 0 0.09964045418282652 -1.886836396911842 0 0.1029400397075428 -0.3777818896013671 0 0.1094596692323215 -0.7446209522118087 0 0.1063589926948403 -0.8591411742631385 0 0.1020132539729238 -1.931615101701295 0 0 0 0 -246.8568753373359 800.1283310308262 0 -639.3726081067032 852.0942437220992 0 -725.819654761244 436.0321730519744 0 -1053.401459006652 601.4817852849196 0 -853.8747211263162 638.6131073866228 0 -698.889917538134 858.6409308841153 8.344628741467802e-14 0 0 0 0.06181314971844425 -1.519936355640012 0 0.09673425468301748 -1.833235671063716 0 0.09993747169098395 -0.3668321651054199 0 0.106266662796558 -0.7231431021281357 0 0.1032565610964584 -0.8343977062858289 0 0.09903775473286623 -1.87677532906562 8.344628741467802e-14 0 0 0 -312.7962642020352 1014.256622549169 0 -810.1398480935848 1080.194504082884 0 -919.6726462245791 552.5818082026042 0 -1334.733655062532 762.3214867274871 0 -1081.924483192851 809.4021846419819 0 -885.5513315436465 1088.502611878864 0 0 0 0 0.06422371023324672 -1.577854607013938 0 0.1005085618349972 -1.902769568355509 0 0.1038369406200086 -0.3810488947559564 0 0.1104134712208193 -0.7510234441336994 0 0.1072857316145204 -0.8665150702181784 0 0.1029020671530313 -1.94791476253471 0 0 0 0 -230.6550076465242 747.5131993446922 0 -597.4137479946312 796.0456501620356 0 -678.1884588175955 407.394535374291 0 -984.276000111832 561.9612196770637 0 -797.8411339987766 596.6477414862479 0 -653.0257439470271 802.1594818990449 0 0 0 0 0.05651073206550208 -1.39123789684157 0 0.08843389087942749 -1.678411393575181 0 0.09136202901518492 -0.3354749025982153 0 0.09714765342902591 -0.6615083944040284 0 0.09439607375352625 -0.7633455969416459 0 0.09053957743542772 -1.718331195632304 0 0 0 0 -674.0115164755697 2187.149032312957 0 -1745.60590540182 2329.603267806425 0 -1981.603648756166 1191.019411360232 0 -2875.880740760655 1643.355461390717 0 -2331.187283126247 1744.930993695757 0 -1908.086491624684 2347.557380860711 0 0 0 0 0.05252089265321282 -1.293627073330218 0 0.08218931176913878 -1.560799341967945 0 0.08491060370648541 -0.3118294498642686 0 0.09028751123751798 -0.6149488105533852 0 0.08773031538925372 -0.7096420448340843 0 0.08414625134311331 -1.59794277384906 0 0 0 0 -1338.703031814726 4345.330631615271 0 -3467.012963887137 4628.559851659637 0 -3935.727340351727 2365.818746178432 0 -5711.842651257271 3264.540433447371 0 -4630.032920686216 3466.385511154072 0 -3789.715240396651 4664.260364413319 0 0 0 0 0.05743485233771972 -1.413768436676735 0 0.08988035986357068 -1.705539906157509 0 0.09285642138784518 -0.340946528598629 0 0.09873674177559301 -0.6722740537021656 0 0.09594012481664176 -0.7757600915135036 0 0.09202050896027961 -1.746097443479048 0 0 0 0 -583.2603140030855 1892.481702301887 0 -1510.580335529495 2015.713958081615 0 -1714.805085553187 1030.620947957874 0 -2488.68411589888 1422.009471982848 0 -2017.323557862956 1509.894455797846 0 -1651.185721990435 2031.244883413868 0 0 0 0 0.06947988603156777 -1.702242363180547 0 0.1087410704748251 -2.051646597555975 0 0.1123427087906459 -0.4119224562218288 0 0.119459291918771 -0.8113636024165453 0 0.1160746882347837 -0.9359510120556037 0 0.1113310781901273 -2.100164251224328 0 0 0 0 -128.33635509216 415.2012887890578 0 -332.4353497420889 442.0432496210225 0 -377.3884320811181 226.5338942140076 0 -547.7367321231246 312.3638104198172 0 -443.9788215303437 331.6081398005081 0 -363.3847184121387 445.4224851321425 0 0 0 0 0.06872568739633067 -1.684586388104685 0 0.1075595277843801 -2.030561112916996 0 0.1111219213380937 -0.4075052259383568 0 0.1181609387294826 -0.8027513533602892 0 0.1148132282923328 -0.9260480903803557 0 0.11012131454922 -2.078607771521646 0 0 0 0 -138.7784739002238 449.119598706052 0 -359.4774683377925 478.1760642446996 0 -408.0862581325965 244.9924885371065 0 -592.2871450011238 337.8383695952162 0 -480.0918121293243 358.6589797751965 0 -392.9437343880907 481.8344996777328 0 0 0 0 0.06977956012222861 -1.709237374205568 0 0.1092105753912274 -2.059995351499729 0 0.1128278110345681 -0.4136762412938542 0 0.1199752221960896 -0.814780714838837 0 0.1165759554270834 -0.9398794221355126 0 0.1118117991433824 -2.108698784172072 0 0 0 0 -124.4715357096741 402.6471076403387 0 -322.4265874436729 428.6693596584107 0 -366.0266316277621 219.7019478492221 0 -531.247860741949 302.9350301033427 0 -430.6127790544833 321.5959185969285 0 