<?xml version="1.0" encoding="UTF-8"?>
<!-- This file was created by ACADEMIC version of SMILE -->
<smile version="1.0" id="unknown" numsamples="10000" discsamples="10000">
	<nodes>
		<cpt id="Sex">
			<state id="M" />
			<state id="W" />
			<probabilities>0.695118 0.304882</probabilities>
		</cpt>
		<cpt id="Age">
			<state id="age_2_young" />
			<state id="age_3_young_adult" />
			<state id="age_4_adult" />
			<state id="age_5_old_adult" />
			<probabilities>0.19078 0.380053 0.298359 0.130808</probabilities>
		</cpt>
		<cpt id="SD">
			<state id="SD_1_short" />
			<state id="SD_2_normal" />
			<state id="SD_3_excessive" />
			<parents>Age Sex</parents>
			<probabilities>0.060844313 0.937824307 0.00133138 0.078497363 0.919507767 0.00199487 0.091220196 0.90787856 0.000901244 0.11412849 0.885107393 0.000764117 0.121549326 0.877796408 0.000654266 0.159430754 0.839586651 0.000982595 0.149294451 0.8500227970000001 0.000682752 0.225208895 0.774069936 0.000721169</probabilities>
		</cpt>
		<cpt id="SES">
			<state id="ses_0" />
			<state id="ses_1" />
			<state id="ses_2" />
			<parents>Age Sex</parents>
			<probabilities>0.265038 0.608924 0.126038 0.227351 0.606203 0.166446 0.2481707518292481 0.6176143823856175 0.1342148657851343 0.194898 0.6426539999999999 0.162448 0.252783 0.615168 0.132049 0.188273 0.641218 0.170509 0.2429122429122429 0.6313856313856314 0.1257021257021257 0.162707 0.664855 0.172438</probabilities>
		</cpt>
		<cpt id="Depression">
			<state id="False" />
			<state id="True" />
			<parents>Age SES Sex</parents>
			<probabilities>0.997863655 0.002136345 0.994321309 0.005678691 0.99885487 0.00114513 0.997887385 0.002112615 0.998969781 0.001030219 0.998266781 0.001733219 0.996706037 0.003293963 0.988462896 0.011537104 0.997612648 0.002387352 0.994959954 0.005040046 0.997874826 0.002125174 0.99539649 0.00460351 0.9932493100000001 0.00675069 0.9801555749999999 0.019844425 0.996694208 0.003305792 0.992654556 0.007345444 0.997027521 0.002972479 0.993538526 0.006461474 0.993046405 0.006953595 0.965170613 0.034829387 0.994559063 0.005440937 0.98925555 0.01074445 0.9972002679999999 0.002799732 0.993063387 0.006936613</probabilities>
		</cpt>
		<cpt id="PA">
			<state id="PA_1" />
			<state id="PA_2" />
			<parents>Age SD SES Sex</parents>
			<probabilities>0.482960174 0.517039826 0.620871248 0.379128752 0.471864678 0.528135322 0.554851444 0.445148556 0.424304227 0.575695773 0.490459825 0.509540175 0.394941489 0.605058511 0.514621382 0.485378618 0.389521957 0.610478043 0.461170736 0.538829264 0.336538844 0.663461156 0.362231129 0.637768871 0.524754729 0.475245271 0.542883361 0.457116639 0.42757625 0.57242375 0.5888450200000001 0.41115498 0.489527729 0.510472271 0.514850294 0.485149706 0.540085956 0.459914044 0.59533725 0.40466275 0.517562867 0.482437133 0.5801786209999999 0.419821379 0.471672205 0.528327795 0.541112446 0.458887554 0.468980888 0.531019112 0.525066668 0.474933332 0.467361722 0.532638278 0.496116563 0.503883437 0.393204847 0.606795153 0.427089822 0.572910178 0.486764295 0.513235705 0.50487751 0.49512249 0.550936659 0.449063341 0.58643991 0.41356009 0.512318406 0.487681594 0.533888241 0.466111759 0.56087748 0.43912252 0.538736484 0.461263516 0.518199623 0.481800377 0.512441111 0.487558889 0.448944356 0.551055644 0.447486087 0.552513913 0.484326733 0.515673267 0.479155827 0.520844173 0.484082075 0.515917925 0.452198731 0.547801269 0.39545848 0.6045415200000001 0.37222709 0.62777291 0.531613695 0.468386305 0.488367237 0.511632763 0.581409954 0.418590046 0.490921527 0.509078473 0.48954251 0.51045749 0.464206372 0.535793628 0.537268254 0.462731746 0.579118873 0.420881127 0.514437807 0.485562193 0.5156834259999999 0.484316574 0.464639523 0.535360477 0.473053893 0.526946107 0.483202866 0.516797134 0.500088604 0.499911396 0.473048548 0.526951452 0.436542761 0.563457239 0.393267294 0.606732706 0.378980607 0.621019393 0.492440477 0.507559523 0.533342164 0.466657836 0.6309098869999999 0.369090113 0.492169558 0.507830442 0.488970119 0.511029881 0.503256046 0.496743954</probabilities>
		</cpt>
		<cpt id="Smoking">
			<state id="sm_1_not_smoker" />
			<state id="sm_2_smoker" />
			<state id="sm_3_ex_smoker" />
			<parents>Age PA Sex</parents>
			<probabilities>0.446330401 0.440945892 0.112723707 0.529641379 0.337748088 0.132610534 0.557463069 0.325515129 0.117021802 0.5886502850000001 0.271293166 0.140056549 0.471714462 0.360802735 0.167482803 0.554434337 0.28323897 0.162326693 0.551256389 0.255864566 0.192879044 0.579066261 0.225941944 0.194991794 0.398959148 0.359016238 0.242024614 0.496183584 0.327477342 0.176339073 0.483745206 0.24334485 0.272909944 0.542385494 0.242025861 0.215588646 0.37681277 0.303406481 0.319780749 0.543890929 0.26998268 0.18612639 0.4486828 0.20376842 0.347548781 0.5693515179999999 0.188244006 0.242404476</probabilities>
		</cpt>
		<cpt id="Anxiety">
			<state id="False" />
			<state id="True" />
			<parents>Depression SD Sex Smoking</parents>
			<probabilities>0.971336721 0.028663279 0.9615512980000001 0.038448702 0.968828833 0.031171167 0.943572812 0.056427188 0.924390764 0.075609236 0.925219217 0.074780783 0.984691033 0.015308967 0.980021819 0.019978181 0.979219465 0.020780535 0.969387083 0.030612917 0.951017224 0.048982776 0.957426591 0.042573409 0.979844732 0.020155268 0.970985053 0.029014947 0.987399873 0.012600127 0.984583757 0.015416243 0.953909558 0.046090442 0.9500612859999999 0.049938714 0.87238812 0.12761188 0.88629607 0.11370393 0.926218112 0.073781888 0.910199251 0.089800749 0.850381421 0.149618579 0.912162308 0.08783769199999999 0.887635786 0.112364214 0.916113641 0.08388635899999999 0.875464154 0.124535846 0.900114221 0.09988577899999999 0.887995922 0.112004078 0.858307872 0.141692128 0.915760002 0.084239998 0.972142923 0.027857077 0.972142923 0.027857077 0.973071964 0.026928036 0.971281878 0.028718122 0.971245613 0.028754387</probabilities>
		</cpt>
		<cpt id="Alcohol">
			<state id="high" />
			<state id="low" />
			<parents>Age Sex Smoking</parents>
			<probabilities>0.006440306 0.993559694 0.025006952 0.974993048 0.019256092 0.980743908 0.001413651 0.998586349 0.004426413 0.995573587 0.002911964 0.997088036 0.019231995 0.9807680050000001 0.061380648 0.938619352 0.044717488 0.955282512 0.00302048 0.99697952 0.008328991000000001 0.991671009 0.00690617 0.99309383 0.052038441 0.947961559 0.134326352 0.865673648 0.09703972900000001 0.902960271 0.009248324 0.990751676 0.020016907 0.979983093 0.021599909 0.978400091 0.103943403 0.896056597 0.21175689 0.78824311 0.1629616 0.8370384 0.019931973 0.980068027 0.039153935 0.960846065 0.030181896 0.969818104</probabilities>
		</cpt>
		<cpt id="BMI">
			<state id="bmi_1_underweight" />
			<state id="bmi_2_normal" />
			<state id="bmi_3_overweight" />
			<state id="bmi_4_obese" />
			<parents>Age PA Sex Smoking</parents>
			<probabilities>0.006932337 0.405827629 0.419231818 0.168008215 0.013099617 0.446791412 0.391008827 0.149100144 0.005357608 0.335709669 0.45172678 0.207205942 0.049956089 0.654860039 0.204120659 0.091063214 0.067968655 0.6401471 0.192224039 0.099660206 0.040770745 0.633626296 0.215411425 0.110191534 0.002990791 0.535477987 0.377235618 0.084295604 0.008436353000000001 0.531863616 0.369361733 0.090338298 0.001517427 0.464137135 0.43166399 0.102681447 0.058817872 0.7117822069999999 0.164448222 0.064951698 0.054191728 0.70086799 0.170365884 0.074574398 0.036164178 0.702517794 0.185604945 0.075713083 0.001641685 0.304311832 0.481547262 0.212499221 0.005710138 0.344742465 0.449492701 0.200054696 0.001256896 0.22830507 0.494927316 0.275510718 0.030358861 0.60786677 0.239963269 0.1218111 0.039411622 0.59800915 0.249830043 0.112749185 0.022061478 0.571115555 0.274545154 0.132277812 0.001652834 0.426926902 0.44926847 0.122151794 0.004118361 0.402353375 0.461015239 0.132513025 0.000486406 0.328585612 0.499500428 0.171427554 0.034010075 0.676452006 0.203350167 0.08618775200000001 0.036077128 0.67214929 0.206867442 0.08490614 0.020230869 0.647274652 0.239095822 0.093398657 0.001241755 0.220345696 0.510119266 0.268293283 0.004605307 0.285101739 0.465571839 0.244721115 0.000543301 0.147949379 0.495925175 0.355582145 0.012451221 0.493821986 0.319496163 0.17423063 0.023428805 0.532743674 0.312302796 0.131524726 0.007733406 0.456598716 0.350007018 0.18566086 0.000822645 0.321627775 0.512940933 0.164608647 0.002545302 0.316431751 0.493400531 0.187622417 0.000440481 0.205498496 0.548690936 0.245370087 0.017710449 0.596761693 0.282985983 0.102541876 0.020386634 0.6101968639999999 0.274267264 0.095149238 0.010340505 0.57178982 0.310156253 0.107713421 0.0008818539999999999 0.17016489 0.519801186 0.309152069 0.007458112 0.275716949 0.459284453 0.257540485 0.000603617 0.119128558 0.482802397 0.397465428 0.006456409 0.365499465 0.385650355 0.242393771 0.020055464 0.467361196 0.36587761 0.14670573 0.003204784 0.363890078 0.402922768 0.229982369 0.0006687419999999999 0.249137387 0.546656377 0.203537495 0.005186149 0.29683172 0.499814007 0.198168124 0.000319515 0.163586929 0.551184751 0.284908806 0.01123616 0.477033685 0.371178884 0.140551272 0.014591224 0.5470441660000001 0.335189882 0.103174728 0.008640798999999999 0.474752803 0.375526209 0.141080189</probabilities>
		</cpt>
		<cpt id="Hyperchol_">
			<state id="False" />
			<state id="True" />
			<parents>Age Alcohol BMI PA Sex Smoking</parents>
			<probabilities>0.466145186 0.533854814 0.498714283 0.501285717 0.448949082 0.5510509179999999 0.448949082 0.5510509179999999 0.436380985 0.563619015 0.465471033 0.534528967 0.465471033 0.534528967 0.450401296 0.549598704 0.465471033 0.534528967 0.466145186 0.533854814 0.44942442 0.55057558 0.449296467 0.550703533 0.524512014 0.475487986 0.656359165 0.343640835 0.476129293 0.523870707 0.487493212 0.512506788 0.431150689 0.568849311 0.429230214 0.5707697859999999 0.542360475 0.457639525 0.583678742 0.416321258 0.529807363 0.470192637 0.536611961 0.463388039 0.537376217 0.462623783 0.485252543 0.514747457 0.467411585 0.532588415 0.470948698 0.5290513019999999 0.490112596 0.509887404 0.449013666 0.550986334 0.485440808 0.514559192 0.465471033 0.534528967 0.465224428 0.534775572 0.532650249 0.467349751 0.475227164 0.524772836 0.482320107 0.5176798929999999 0.522541941 0.477458059 0.448666281 0.5513337190000001 0.447915944 0.552084056 0.486344067 0.513655933 0.437771357 0.562228643 0.448318278 0.551681722 0.449360971 0.5506390289999999 0.448601257 0.551398743 0.425710251 0.574289749 0.423702477 0.576297523 0.409233794 0.590766206 0.465177412 0.534822588 0.448949082 0.5510509179999999 0.435233002 0.564766998 0.643548714 0.356451286 0.736291679 0.263708321 0.495230901 0.504769099 0.743362269 0.256637731 0.77084625 0.22915375 0.721697283 0.278302717 0.723345616 0.276654384 0.709917181 0.290082819 0.534927434 0.465072566 0.712944994 0.287055006 0.722246668 0.277753332 0.603084536 0.396915464 0.748597117 0.251402883 0.765892152 0.234107848 0.686176261 0.313823739 0.790214305 0.209785695 0.802753242 0.197246758 0.7598304259999999 0.240169574 0.795649456 0.204350544 0.796386595 0.203613405 0.742621984 0.257378016 0.780033381 0.219966619 0.787289477 0.212710523 0.751590946 0.248409054 0.63798352 0.36201648 0.61888669 0.38111331 0.58603984 0.41396016 0.704826305 0.295173695 0.700674756 0.299325244 0.668683292 0.331316708 0.701416087 0.298583913 0.665528514 0.334471486 0.643780393 0.356219607 0.703453486 0.296546514 0.702071306 0.297928694 0.655293546 0.344706454 0.553849142 0.446150858 0.5346477509999999 0.465352249 0.5177457009999999 0.482254299 0.681940374 0.318059626 0.67723163 0.32276837 0.65305908 0.34694092 0.595807106 0.404192894 0.5412975880000001 0.458702412 0.534255878 0.465744122 0.63795317 0.36204683 0.6188731 0.3811269 0.555621093 0.444378907 0.434876521 0.565123479 0.498616693 0.501383307 0.435233002 0.564766998 0.448949082 0.5510509179999999 0.456819886 0.543180114 0.449296686 0.5507033140000001 0.465808216 0.534191784 0.482519389 0.517480611 0.448949082 0.5510509179999999 0.48166638 0.5183336200000001 0.465937725 0.534062275 0.439570813 0.560429187 0.454525291 0.5454747089999999 0.438865516 0.561134484 0.377095308 0.622904692 0.512489047 0.487510953 0.496578212 0.503421788 0.442390213 0.557609787 0.433861485 0.566138515 0.434553637 0.565446363 0.416478109 0.583521891 0.515501774 0.484498226 0.496583148 0.503416852 0.531147626 0.468852374 0.366031715 0.633968285 0.317932366 0.682067634 0.318047629 0.6819523709999999 0.512211409 0.487788591 0.487506342 0.512493658 0.437561297 0.562438703 0.354939693 0.6450603070000001 0.347170226 0.652829774 0.361571798 0.6384282019999999 0.409223529 0.590776471 0.371908287 0.628091713 0.416264881 0.583735119 0.292855081 0.707144919 0.30864661 0.69135339 0.284297876 0.715702124 0.469205784 0.530794216 0.441679768 0.558320232 0.434602199 0.565397801 0.261164078 0.738835922 0.278248543 0.721751457 0.31661404 0.68338596 0.421995183 0.5780048169999999 0.448164938 0.551835062 0.434958629 0.565041371 0.635238544 0.364761456 0.599297108 0.400702892 0.447221307 0.552778693 0.648568457 0.351431543 0.648015347 0.351984653 0.552661538 0.447338462 0.573275644 0.426724356 0.549471852 0.450528148 0.483167524 0.516832476 0.659064249 0.340935751 0.622653419 0.377346581 0.5570795160000001 0.442920484 0.60458073 0.39541927 0.578169169 0.421830831 0.5274716149999999 0.472528385 0.740296881 0.259703119 0.720583835 0.279416165 0.702353351 0.297646649 0.649203534 0.350796466 0.600270156 0.399729844 0.588626279 0.411373721 0.734614816 0.265385184 0.7156833460000001 0.284316654 0.696509537 0.303490463 0.51241969 0.48758031 0.45427519 0.5457248099999999 0.454171836 0.545828164 0.64450909 0.35549091 0.615591668 0.384408332 0.614144347 0.385855653 0.544570483 0.455429517 0.485984242 0.514015758 0.492218948 0.507781052 0.633296651 0.366703349 0.6017463790000001 0.398253621 0.601701038 0.398298962 0.439863791 0.5601362090000001 0.397872006 0.6021279940000001 0.400644497 0.599355503 0.607723983 0.392276017 0.548483658 0.451516342 0.550029756 0.449970244 0.462234098 0.537765902 0.389736595 0.610263405 0.4078816 0.5921184 0.6000506799999999 0.39994932 0.527168353 0.472831647 0.570429178 0.429570822 0.448601257 0.551398743 0.42552229 0.57447771 0.434684256 0.565315744 0.464883977 0.5351160230000001 0.422164328 0.577835672 0.435315059 0.564684941 0.448601257 0.551398743 0.426719674 0.573280326 0.448949082 0.5510509179999999 0.434298455 0.565701545 0.444297582 0.555702418 0.4481002 0.5518998000000001 0.340436412 0.659563588 0.334737936 0.665262064 0.286679206 0.713320794 0.408594063 0.591405937 0.327595453 0.672404547 0.432553918 0.567446082 0.305175287 0.694824713 0.33055336 0.66944664 0.230811999 0.769188001 0.314459932 0.685540068 0.34235908 0.65764092 0.387908383 0.612091617 0.279728149 0.720271851 0.245380007 0.754619993 0.228378163 0.771621837 0.404883012 0.595116988 0.378475974 0.621524026 0.393080074 0.606919926 0.257984365 0.742015635 0.240341631 0.7596583690000001 0.227273047 0.772726953 0.368526926 0.631473074 0.346542279 0.653457721 0.405535715 0.594464285 0.234474859 0.765525141 0.23569893 0.76430107 0.238747347 0.761252653 0.357171852 0.642828148 0.384541844 0.615458156 0.407061796 0.592938204 0.264679813 0.735320187 0.234549805 0.765450195 0.226783972 0.773216028 0.435682188 0.564317812 0.425933353 0.574066647 0.429431096 0.570568904 0.457594463 0.542405537 0.462484951 0.537515049 0.496004017 0.503995983 0.475692628 0.524307372 0.43971282 0.56028718 0.464708944 0.535291056 0.426951225 0.573048775 0.459887756 0.540112244 0.482411396 0.517588604 0.446450263 0.553549737 0.512096232 0.487903768 0.446091978 0.553908022 0.435798393 0.564201607 0.426198592 0.573801408 0.362622319 0.637377681 0.515705797 0.484294203 0.474254583 0.525745417 0.4643778 0.5356222 0.46995358 0.53004642 0.428070309 0.571929691 0.408110611 0.591889389 0.517335828 0.482664172 0.454599203 0.545400797 0.468985241 0.5310147589999999 0.395450402 0.604549598 0.330471156 0.669528844 0.339888416 0.660111584 0.429908664 0.5700913359999999 0.356554069 0.643445931 0.381120215 0.618879785 0.394612897 0.605387103 0.33118533 0.6688146699999999 0.364880291 0.635119709 0.431997414 0.568002586 0.358107097 0.641892903 0.365673311 0.634326689 0.361238046 0.638761954 0.312968887 0.687031113 0.326662397 0.673337603 0.418940332 0.581059668 0.325988323 0.674011677 0.345654775 0.654345225 0.347847236 0.652152764 0.308539041 0.691460959 0.327150657 0.672849343 0.402934789 0.597065211 0.350327757 0.649672243 0.377649883 0.622350117 0.434958456 0.565041544 0.487441969 0.512558031 0.435233002 0.564766998 0.434876521 0.565123479 0.421533525 0.578466475 0.448601257 0.551398743 0.448949082 0.5510509179999999 0.470000918 0.529999082 0.448601257 0.551398743 0.435945067 0.564054933 0.449013268 0.550986732 0.433507159 0.566492841 0.283496463 0.716503537 0.27821845 0.72178155 0.25083882 0.74916118 0.392256199 0.607743801 0.354833525 0.645166475 0.346328023 0.653671977 0.279305155 0.720694845 0.279620896 0.720379104 0.251591606 0.748408394 0.339633051 0.660366949 0.361600811 0.638399189 0.355479797 0.644520203 0.248091712 0.751908288 0.236093858 0.763906142 0.235580731 0.764419269 0.329848312 0.670151688 0.332635607 0.6673643929999999 0.382763037 0.617236963 0.228121218 0.771878782 0.242747145 0.7572528549999999 0.236509737 0.763490263 0.385269182 0.614730818 0.316138615 0.683861385 0.394824524 0.605175476 0.256503852 0.743496148 0.229028962 0.770971038 0.212077577 0.787922423 0.404036887 0.595963113 0.406667571 0.5933324290000001 0.437094121 0.562905879 0.275235434 0.7247645660000001 0.235943026 0.7640569740000001 0.240734211 0.759265789 0.354962678 0.645037322 0.433233874 0.566766126 0.408199389 0.591800611 0.465059414 0.5349405860000001 0.439735966 0.560264034 0.452305158 0.547694842 0.401483513 0.598516487 0.359473079 0.640526921 0.448814818 0.551185182 0.466786457 0.533213543 0.460214046 0.539785954 0.434849198 0.565150802 0.336065695 0.6639343049999999 0.450607774 0.549392226 0.406007378 0.593992622 0.362609927 0.6373900729999999 0.323061571 0.676938429 0.324883662 0.675116338 0.251449613 0.748550387 0.254089943 0.745910057 0.226841122 0.773158878 0.344464953 0.655535047 0.313706712 0.686293288 0.319675185 0.680324815 0.255230491 0.7447695090000001 0.237387281 0.762612719 0.205835343 0.7941646570000001 0.343176756 0.656823244 0.297672398 0.702327602 0.313339234 0.686660766 0.228270185 0.771729815 0.220375847 0.779624153 0.206894107 0.793105893 0.334749585 0.665250415 0.299773046 0.700226954 0.315997666 0.684002334 0.220650231 0.779349769 0.201778177 0.798221823 0.195059364 0.804940636 0.327111754 0.672888246 0.268920801 0.731079199 0.311898597 0.688101403 0.260073695 0.739926305 0.258541168 0.741458832 0.219669797 0.780330203 0.333098153 0.666901847 0.264045849 0.7359541509999999 0.295123546 0.704876454 0.250126832 0.749873168 0.227059653 0.772940347 0.229118598 0.770881402</probabilities>
		</cpt>
		<cpt id="Diabetes">
			<state id="False" />
			<state id="True" />
			<parents>Age BMI PA Sex</parents>
			<probabilities>0.986650693 0.013349307 0.99633026 0.00366974 0.9910621509999999 0.008937848999999999 0.9947869580000001 0.005213042 0.99278223 0.00721777 0.994720888 0.005279112 0.9931408309999999 0.006859169 0.995934647 0.004065353 0.992488923 0.007511077 0.991948298 0.008051702000000001 0.993003147 0.006996853 0.992059187 0.007940813 0.985940308 0.014059692 0.9868037079999999 0.013196292 0.984771657 0.015228343 0.982024107 0.017975893 0.979732617 0.020267383 0.993282865 0.006717135 0.986847565 0.013152435 0.992272736 0.007727264 0.989521163 0.010478837 0.993125589 0.006874411 0.990074837 0.009925163000000001 0.993658418 0.006341582 0.984624401 0.015375599 0.987038172 0.012961828 0.986787639 0.013212361 0.986320211 0.013679789 0.956998539 0.043001461 0.974967085 0.025032915 0.957173339 0.042826661 0.966025735 0.033974265 0.982256834 0.017743166 0.994263159 0.005736841 0.956712992 0.043287008 0.992523802 0.007476198 0.971790656 0.028209344 0.9891762589999999 0.010823741 0.9757134159999999 0.024286584 0.990874035 0.009125965 0.947443145 0.052556855 0.979281983 0.020718017 0.956670061 0.043329939 0.978156594 0.021843406 0.878437324 0.121562676 0.9382233 0.0617767 0.884979471 0.115020529 0.930775022 0.06922497800000001 0.948706405 0.051293595 0.9690942259999999 0.030905774 0.9509874230000001 0.049012577 0.981813997 0.018186003 0.922690072 0.077309928 0.976164736 0.023835264 0.925331645 0.07466835500000001 0.978779266 0.021220734 0.874766205 0.125233795 0.949096195 0.050903805 0.885999053 0.114000947 0.95319783 0.04680217 0.786184334 0.213815666 0.875426033 0.124573967 0.78447323 0.21552677 0.892336478 0.107663522</probabilities>
		</cpt>
		<cpt id="Hypertension">
			<state id="False" />
			<state id="True" />
			<parents>Age Alcohol BMI Diabetes PA Smoking</parents>
			<probabilities>0.851078798 0.148921202 0.8713456429999999 0.128654357 0.850890799 0.149109201 0.855408562 0.144591438 0.847343618 0.152656382 0.850984798 0.149015202 0.846087813 0.153912187 0.846087813 0.153912187 0.846087813 0.153912187 0.846087813 0.153912187 0.846087813 0.153912187 0.846087813 0.153912187 0.928558686 0.07144131400000001 0.9521785699999999 0.04782143 0.901338418 0.098661582 0.924287673 0.075712327 0.9389993599999999 0.06100064 0.936421609 0.063578391 0.846087813 0.153912187 0.8512665 0.1487335 0.846087813 0.153912187 0.851078798 0.148921202 0.863598234 0.136401766 0.850890799 0.149109201 0.880949953 0.119050047 0.888936473 0.111063527 0.915714645 0.08428535500000001 0.87432071 0.12567929 0.9161160350000001 0.083883965 0.903424733 0.09657526700000001 0.8196847819999999 0.180315218 0.825238766 0.174761234 0.846087813 0.153912187 0.846184901 0.153815099 0.820202169 0.179797831 0.82042886 0.17957114 0.883274566 0.116725434 0.823937504 0.176062496 0.843994724 0.156005276 0.796334476 0.203665524 0.839053426 0.160946574 0.807332323 0.192667677 0.8507966810000001 0.149203319 0.851360085 0.148639915 0.846184901 0.153815099 0.846184901 0.153815099 0.846087813 0.153912187 0.846087813 0.153912187 0.987478551 0.012521449 0.98424618 0.01575382 0.964624908 0.035375092 0.986270682 0.013729318 0.980416082 0.019583918 0.942307652 0.057692348 0.859754239 0.140245761 0.851547315 0.148452685 0.8507966810000001 0.149203319 0.85577288 0.14422712 0.851453848 0.148546152 0.846281867 0.153718133 0.982679882 0.017320118 0.984041917 0.015958083 0.981728095 0.018271905 0.978964727 0.021035273 0.979562911 0.020437089 0.982462154 0.017537846 0.916089975 0.083910025 0.911115051 0.088884949 0.860237448 0.139762552 0.939916876 0.060083124 0.908957549 0.091042451 0.907100329 0.092899671 0.950062757 0.049937243 0.946986503 0.053013497 0.949113397 0.050886603 0.947782364 0.052217636 0.957212362 0.042787638 0.948824111 0.051175889 0.872888284 0.127111716 0.905056645 0.09494335499999999 0.883019266 0.116980734 0.889788314 0.110211686 0.9212328950000001 0.078767105 0.896791461 0.103208539 0.855149999 0.144850001 0.877133176 0.122866824 0.872255626 0.127744374 0.8604686070000001 0.139531393 0.873386701 0.126613299 0.864063103 0.135936897 0.799408891 0.200591109 0.757397022 0.242602978 0.768188662 0.231811338 0.804658892 0.195341108 0.79499039 0.20500961 0.783037093 0.216962907 0.850890799 0.149109201 0.886575436 0.113424564 0.851078857 0.148921143 0.858946389 0.141053611 0.86793986 0.13206014 0.860195519 0.139804481 0.846087813 0.153912187 0.846184901 0.153815099 0.846087813 0.153912187 0.846087813 0.153912187 0.846184901 0.153815099 0.846087813 0.153912187 0.913456912 0.086543088 0.921064798 0.078935202 0.919793073 0.080206927 0.920166758 0.079833242 0.915990073 0.084009927 0.9122108 0.0877892 0.825679825 0.174320175 0.848833427 0.151166573 0.796110811 0.203889189 0.851266559 0.148733441 0.811094405 0.188905595 0.81211585 0.18788415 0.857937647 0.142062353 0.829221655 0.170778345 0.841611356 0.158388644 0.871607913 0.128392087 0.8604513580000001 0.139548642 0.876497096 0.123502904 0.789980888 0.210019112 0.766137506 0.233862494 0.810311765 0.189688235 0.782287878 0.217712122 0.830596613 0.169403387 0.85361981 0.14638019 0.658083547 0.341916453 0.709518351 0.290481649 0.682075862 0.317924138 0.724793693 0.275206307 0.682033243 0.317966757 0.730341979 0.269658021 0.726847864 0.273152136 0.736779461 0.263220539 0.797132747 0.202867253 0.710414219 0.289585781 0.755601119 0.244398881 0.768020248 0.231979752 0.983184701 0.016815299 0.977223262 0.022776738 0.931291303 0.068708697 0.9788814850000001 0.021118515 0.965169121 0.034830879 0.949999 0.050001 0.855417615 0.144582385 0.860371342 0.139628658 0.846087813 0.153912187 0.860107329 0.139892671 0.851453966 0.148546034 0.850984858 0.149015142 0.968609934 0.031390066 0.963934118 0.036065882 0.97612723 0.02387277 0.967239292 0.032760708 0.96734912 0.03265088 0.970436894 0.029563106 0.8899994020000001 0.110000598 0.88513209 0.11486791 0.884829534 0.115170466 0.881114545 0.118885455 0.925142696 0.074857304 0.894014971 0.105985029 0.916774614 0.083225386 0.914089887 0.085910113 0.920641254 0.07935874599999999 0.916128061 0.08387193900000001 0.9171606329999999 0.082839367 0.912653384 0.087346616 0.807944183 0.192055817 0.800119351 0.199880649 0.783711241 0.216288759 0.819155399 0.180844601 0.821311108 0.178688892 0.8143948989999999 0.185605101 0.784277331 0.215722669 0.798652516 0.201347484 0.777499537 0.222500463 0.791249425 0.208750575 0.798090473 0.201909527 0.786276848 0.213723152 0.572593284 0.427406716 0.5820724269999999 0.417927573 0.581306286 0.418693714 0.592495562 0.407504438 0.621308853 0.378691147 0.637091379 0.362908621 0.850984858 0.149015142 0.847919472 0.152080528 0.825979273 0.174020727 0.851641019 0.148358981 0.854243487 0.145756513 0.8465725200000001 0.15342748 0.846087813 0.153912187 0.846184901 0.153815099 0.8456511249999999 0.154348875 0.846087813 0.153912187 0.846087813 0.153912187 0.846087813 0.153912187 0.858700126 0.141299874 0.799024272 0.200975728 0.859255058 0.140744942 0.840882066 0.159117934 0.834266384 0.165733616 0.835845309 0.164154691 0.86211977 0.13788023 0.746888216 0.253111784 0.814616821 0.185383179 0.793175843 0.206824157 0.821522212 0.178477788 0.8491378469999999 0.150862153 0.737310974 0.262689026 0.70699622 0.29300378 0.721038064 0.278961936 0.739641425 0.260358575 0.745061341 0.254938659 0.725371954 0.274628046 0.656081303 0.343918697 0.549198047 0.450801953 0.683028685 0.316971315 0.755577676 0.244422324 0.593922934 0.406077066 0.64019053 0.35980947 0.580999047 0.419000953 0.529365149 0.470634851 0.5093942 0.4906058 0.5766160809999999 0.423383919 0.564842998 0.435157002 0.540486163 0.459513837 0.525585236 0.474414764 0.515485662 0.484514338 0.467647491 0.532352509 0.617913594 0.382086406 0.60808854 0.39191146 0.59690499 0.40309501 0.947963922 0.052036078 0.944456673 0.055543327 0.896195728 0.103804272 0.95134948 0.04865052 0.923645749 0.076354251 0.919680524 0.080319476 0.8456511249999999 0.154348875 0.847151268 0.152848732 0.845554098 0.154445902 0.85586363 0.14413637 0.8507966810000001 0.149203319 0.846184901 0.153815099 0.919395194 0.080604806 0.895978228 0.104021772 0.903087646 0.09691235400000001 0.918161581 0.081838419 0.90636812 0.09363188 0.91075499 0.08924501 0.773289643 0.226710357 0.7239886129999999 0.276011387 0.815077243 0.184922757 0.783222883 0.216777117 0.730371155 0.269628845 0.699517147 0.300482853 0.806177473 0.193822527 0.798085588 0.201914412 0.780496853 0.219503147 0.807663497 0.192336503 0.799376607 0.200623393 0.794877351 0.205122649 0.574305806 0.425694194 0.605524676 0.394475324 0.607332384 0.392667616 0.5923912 0.4076088 0.581748225 0.418251775 0.619006173 0.380993827 0.639884835 0.360115165 0.634170197 0.365829803 0.604264607 0.395735393 0.646174977 0.353825023 0.638091259 0.361908741 0.6196060370000001 0.380393963 0.38761984 0.61238016 0.430270451 0.5697295489999999 0.408289033 0.591710967 0.454414994 0.545585006 0.451208556 0.548791444 0.43899591 0.56100409 0.855408562 0.144591438 0.793480078 0.206519922 0.850890799 0.149109201 0.849913457 0.150086543 0.830080091 0.169919909 0.8512665 0.1487335 0.846087813 0.153912187 0.850890799 0.149109201 0.846087813 0.153912187 0.846087813 0.153912187 0.845554098 0.154445902 0.846087813 0.153912187 0.766670488 0.233329512 0.659596692 0.340403308 0.738496367 0.261503633 0.766234674 0.233765326 0.688391873 0.311608127 0.703463553 0.296536447 0.74907475 0.25092525 0.736911882 0.263088118 0.78776579 0.21223421 0.773926822 0.226073178 0.749704433 0.250295567 0.789888849 0.210111151 0.607569532 0.392430468 0.590640176 0.409359824 0.547465656 0.452534344 0.619290696 0.380709304 0.60484724 0.39515276 0.570737572 0.429262428 0.64183147 0.35816853 0.574041756 0.425958244 0.564350284 0.435649716 0.632163565 0.367836435 0.543732493 0.456267507 0.59701262 0.40298738 0.472985273 0.527014727 0.461148151 0.538851849 0.440754235 0.559245765 0.465361867 0.534638133 0.578340027 0.421659973 0.46812915 0.53187085 0.531477529 0.468522471 0.447470677 0.552529323 0.451899703 0.548100297 0.570610717 0.429389283 0.6394991370000001 0.360500863 0.464915118 0.535084882 0.875912592 0.124087408 0.8663921570000001 0.133607843 0.836131513 0.163868487 0.870681247 0.129318753 0.886484952 0.113515048 0.809982209 0.190017791 0.846184901 0.153815099 0.8554997130000001 0.144500287 0.846184901 0.153815099 0.851078857 0.148921143 0.845846066 0.154153934 0.846184901 0.153815099 0.797808009 0.202191991 0.773848392 0.226151608 0.7959148660000001 0.204085134 0.816823439 0.183176561 0.796799386 0.203200614 0.795574925 0.204425075 0.61360481 0.38639519 0.746383283 0.253616717 0.731951824 0.268048176 0.647660355 0.352339645 0.706156053 0.293843947 0.698522278 0.301477722 0.661130039 0.338869961 0.659376747 0.340623253 0.647858628 0.352141372 0.666056074 0.333943926 0.672370188 0.327629812 0.629996304 0.370003696 0.460181725 0.539818275 0.547694062 0.452305938 0.489643911 0.510356089 0.459396231 0.540603769 0.489287626 0.510712374 0.48221406 0.51778594 0.483752883 0.516247117 0.494926416 0.505073584 0.462490043 0.537509957 0.500508435 0.499491565 0.509723192 0.490276808 0.489275328 0.510724672 0.341472716 0.658527284 0.390194906 0.609805094 0.353819907 0.646180093 0.400591237 0.599408763 0.45109129 0.54890871 0.360333847 0.639666153</probabilities>
		</cpt>
		<cpt id="CRC">
			<state id="False" />
			<state id="True" />
			<parents>Age Alcohol Diabetes Hyperchol_ Hypertension Sex Smoking</parents>
			<probabilities>0.999872252 0.000127748 0.999961059 3.89e-05 0.999789424 0.000210576 0.999477181 0.000522819 0.999565497 0.000434503 0.999349301 0.000650699 0.99937935 0.00062065 0.999507521 0.000492479 0.999269505 0.000730495 0.999173126 0.000826874 0.999198929 0.000801071 0.999173648 0.000826352 0.999855688 0.000144312 0.999936548 6.35e-05 0.999773643 0.000226357 0.999292985 0.000707015 0.999473236 0.000526764 0.999309577 0.000690423 0.9994789549999999 0.000521045 0.999625806 0.000374194 0.999289863 0.000710137 0.999173126 0.000826874 0.999173648 0.000826352 0.999198424 0.000801576 0.999200444 0.000799556 0.999247496 0.000752504 0.999174168 0.000825832 0.999173126 0.000826874 0.999173126 0.000826874 0.999173126 0.000826874 0.999173126 0.000826874 0.999198929 0.000801071 0.999173126 0.000826874 0.999173126 0.000826874 0.999173126 0.000826874 0.999173126 0.000826874 0.999198424 0.000801576 0.999269963 0.000730037 0.999199435 0.000800565 0.999173648 0.000826352 0.999173648 0.000826352 0.999173126 0.000826874 0.999198929 0.000801071 0.999198424 0.000801576 0.999198424 0.000801576 0.999173126 0.000826874 0.999173126 0.000826874 0.999173126 0.000826874 0.999828551 0.000171449 0.999999997 3.22e-09 0.9999998 2e-07 0.999813176 0.000186824 0.9998442239999999 0.000155776 0.99981091 0.00018909 0.9999940980000001 5.9e-06 0.999981952 1.8e-05 0.99993096 6.9e-05 0.999867458 0.000132542 0.999832389 0.000167611 0.999580584 0.000419416 0.999845095 0.000154905 0.999999963 3.74e-08 0.9999989889999999 1.01e-06 0.999982981 1.7e-05 0.999429244 0.000570756 0.999994336 5.66e-06 0.999989256 1.07e-05 0.999980083 1.99e-05 0.999927057 7.29e-05 0.999819389 0.000180611 0.999722207 0.000277793 0.999498745 0.000501255 0.999841749 0.000158251 0.999822473 0.000177527 0.999536673 0.000463327 0.999736121 0.000263879 0.999615461 0.000384539 0.999515657 0.000484343 0.999405921 0.000594079 0.999332483 0.000667517 0.999269504 0.000730496 0.999271802 0.000728198 0.999198424 0.000801576 0.99917469 0.00082531 0.999794926 0.000205074 0.999776515 0.000223485 0.999532496 0.000467504 0.999689958 0.000310042 0.999568965 0.000431035 0.999396552 0.000603448 0.999444584 0.000555416 0.999523493 0.000476507 0.999327424 0.000672576 0.999246547 0.000753453 0.999174169 0.000825831 0.999198424 0.000801576 0.999456586 0.000543414 0.999986703 1.33e-05 0.999939952 6e-05 0.9996702119999999 0.000329788 0.999711304 0.000288696 0.9995668599999999 0.00043314 0.999717487 0.000282513 0.999795153 0.000204847 0.999662411 0.000337589 0.999223691 0.000776309 0.999202456 0.000797544 0.999199434 0.000800566 0.999983039 1.7e-05 0.99999486 5.14e-06 0.999975567 2.44e-05 0.999620134 0.000379866 0.999708927 0.000291073 0.999589923 0.000410077 0.999876486 0.000123514 0.9999421550000001 5.78e-05 0.9998549370000001 0.000145063 0.999202959 0.000797041 0.999270884 0.000729116 0.9991746889999999 0.000825311 0.999313476 0.000686524 0.999386705 0.000613295 0.999269964 0.000730036 0.999173648 0.000826352 0.999244643 0.000755357 0.999173648 0.000826352 0.999176249 0.000823751 0.999295206 0.000704794 0.999247971 0.000752029 0.999173126 0.000826874 0.999173126 0.000826874 0.999173126 0.000826874 0.999334572 0.000665428 0.999510284 0.000489716 0.99939844 0.00060156 0.999173126 0.000826874 0.999173648 0.000826352 0.999198929 0.000801071 0.999500374 0.000499626 0.999473232 0.000526768 0.999381298 0.0006187020000000001 0.999173126 0.000826874 0.999173648 0.000826352 0.999173126 0.000826874 0.99976252 0.00023748 0.999757883 0.000242117 0.999577037 0.000422963 0.9997653399999999 0.00023466 0.9998050550000001 0.000194945 0.999830985 0.000169015 0.9994149369999999 0.000585063 0.999993873 6.13e-06 0.9999867690000001 1.32e-05 0.99997486 2.51e-05 0.999933652 6.63e-05 0.999854552 0.000145448 0.999758147 0.000241853 0.999823405 0.000176595 0.999452988 0.000547012 0.999796969 0.000203031 0.999574753 0.000425247 0.9996499250000001 0.000350075 0.999972235 2.78e-05 0.999998671 1.33e-06 0.999352072 0.000647928 0.99996931 3.07e-05 0.999926194 7.38e-05 0.999876751 0.000123249 0.9999158500000001 8.42e-05 0.999899801 0.000100199 0.9998142330000001 0.000185767 0.999846718 0.000153282 0.999725424 0.000274576 0.999626685 0.000373315 0.999747591 0.000252409 0.9997079800000001 0.00029202 0.999640593 0.000359407 0.999490571 0.000509429 0.999329961 0.000670039 0.999247496 0.000752504 0.999950245 4.98e-05 0.997998344 0.002001656 0.99988484 0.00011516 0.999818648 0.000181352 0.999714644 0.000285356 0.999580066 0.000419934 0.999897474 0.000102526 0.99936832 0.00063168 0.999814731 0.000185269 0.999395824 0.000604176 0.999494654 0.0005053460000000001 0.99923099 0.00076901 0.9994726390000001 0.000527361 0.999236849 0.000763151 0.99769086 0.00230914 0.999615186 0.000384814 0.9996732780000001 0.000326722 0.999094475 0.000905525 0.999839134 0.000160866 0.998979841 0.001020159 0.999859689 0.000140311 0.999346433 0.000653567 0.999348074 0.000651926 0.9992059639999999 0.000794036 0.998898412 0.001101588 0.998931324 0.001068676 0.9987796410000001 0.001220359 0.999815174 0.000184826 0.999848705 0.000151295 0.999782137 0.000217863 0.998674348 0.001325652 0.998670934 0.001329066 0.996332508 0.003667492 0.99946788 0.00053212 0.999520775 0.000479225 0.999404436 0.000595564 0.9976654190000001 0.002334581 0.999624842 0.000375158 0.999457501 0.000542499 0.999198424 0.000801576 0.999199939 0.000800061 0.999199435 0.000800565 0.999372413 0.000627587 0.999559555 0.000440445 0.998847721 0.001152279 0.999173648 0.000826352 0.999198929 0.000801071 0.999173648 0.000826352 0.999631575 0.000368425 0.999822839 0.000177161 0.999712029 0.000287971 0.999198929 0.000801071 0.99928852 0.00071148 0.999269505 0.000730495 0.9997499399999999 0.00025006 0.999865515 0.000134485 0.999791681 0.000208319 0.99917469 0.00082531 0.9992232009999999 0.000776799 0.999200948 0.000799052 0.999149184 0.000850816 0.999403307 0.000596693 0.998924457 0.001075543 0.998874109 0.001125891 0.999250017 0.000749983 0.998519147 0.001480853 0.999746693 0.000253307 0.999994508 5.49e-06 0.999692179 0.000307821 0.999257875 0.0007421249999999999 0.999946475 5.35e-05 0.999903772 9.619999999999999e-05 0.999163657 0.000836343 0.999188866 0.000811134 0.9983469190000001 0.001653081 0.999026563 0.000973437 0.999919496 8.050000000000001e-05 0.998950049 0.001049951 0.9992673520000001 0.000732648 0.999434674 0.000565326 0.99882494 0.00117506 0.999994964 5.04e-06 0.999678076 0.000321924 0.996695526 0.003304474 0.997200588 0.002799412 0.999920738 7.93e-05 0.999905131 9.49e-05 0.99971853 0.00028147 0.999597641 0.000402359 0.999605882 0.000394118 0.99269766 0.00730234 0.9998926930000001 0.000107307 0.99837824 0.00162176 0.999538552 0.000461448 0.999380582 0.0006194180000000001 0.999430024 0.000569976 0.998856453 0.001143547 0.999979026 2.1e-05 0.999976442 2.36e-05 0.999866455 0.000133545 0.999809658 0.000190342 0.9996795979999999 0.000320402 0.999107992 0.000892008 0.998196783 0.001803217 0.9973686470000001 0.002631353 0.999797497 0.000202503 0.999723307 0.000276693 0.999527875 0.000472125 0.999865157 0.000134843 0.999906211 9.38e-05 0.999871626 0.000128374 0.999465855 0.000534145 0.999373981 0.000626019 0.9992596969999999 0.000740303 0.991151082 0.008848918000000001 0.9992827439999999 0.000717256 0.9917036 0.008296400000000001 0.999350119 0.000649881 0.999227108 0.000772892 0.999201955 0.000798045 0.999047816 0.000952184 0.999085384 0.000914616 0.997935335 0.002064665 0.989387621 0.010612379 0.9996979499999999 0.00030205 0.998327344 0.001672656 0.99957259 0.00042741 0.99899459 0.00100541 0.9977737759999999 0.002226224 0.982449712 0.017550288 0.99947447 0.00052553 0.998788663 0.001211337 0.999409612 0.000590388 0.999431671 0.000568329 0.999523473 0.000476527 0.999174169 0.000825831 0.999198929 0.000801071 0.999173126 0.000826874 0.999506187 0.000493813 0.999492224 0.000507776 0.999594646 0.000405354 0.999173648 0.000826352 0.999174169 0.000825831 0.9991746889999999 0.000825311 0.999645409 0.000354591 0.999670248 0.000329752 0.9905957480000001 0.009404252 0.9992232 0.0007768 0.999224668 0.000775332 0.999225158 0.000774842 0.999758891 0.000241109 0.999825606 0.000174394 0.999862644 0.000137356 0.999247497 0.000752503 0.999174168 0.000825832 0.99922418 0.00077582 0.997338277 0.002661723 0.998362289 0.001637711 0.997538734 0.002461266 0.996059748 0.003940252 0.997323925 0.002676075 0.998715263 0.001284737 0.995068346 0.004931654 0.999699572 0.000300428 0.997256662 0.002743338 0.994616834 0.005383166 0.999717255 0.000282745 0.99969882 0.00030118 0.997988994 0.002011006 0.999003477 0.000996523 0.997077229 0.002922771 0.996408556 0.003591444 0.99999556 4.44e-06 0.9976959359999999 0.002304064 0.998167702 0.001832298 0.99683038 0.00316962 0.99732304 0.00267696 0.997946891 0.002053109 0.999452971 0.000547029 0.995082716 0.004917284 0.999313286 0.0006867140000000001 0.999813782 0.000186218 0.998282939 0.001717061 0.999538542 0.000461458 0.999389386 0.000610614 0.999374761 0.000625239 0.99223326 0.00776674 0.999827819 0.000172181 0.996915898 0.003084102 0.999599626 0.000400374 0.999274083 0.000725917 0.999324569 0.000675431 0.994059931 0.005940069 0.999490591 0.0005094089999999999 0.991892504 0.008107496 0.999786372 0.000213628 0.999605722 0.000394278 0.999625438 0.000374562 0.998503928 0.001496072 0.991269045 0.008730955 0.99554076 0.00445924 0.992665677 0.007334323 0.999643234 0.000356766 0.9995658120000001 0.000434188</probabilities>
		</cpt>
		<decision id="Screening">
			<state id="No_screening" />
			<state id="gFOBT" />
			<state id="FIT" />
			<state id="Blood_based" />
			<state id="Stool_DNA" />
			<state id="CTC" />
			<state id="Colon_capsule" />
			<parents>PA SD Smoking BMI Alcohol Sex Age</parents>
		</decision>
		<cpt id="Results_of_Screening">
			<state id="No_pred_screening" />
			<state id="Predicted_False" />
			<state id="Predicted_True" />
			<parents>CRC Screening</parents>
			<probabilities>1 0 0 0 0.843 0.157 0 0.92 0.08 0 0.606 0.394 0 0.859 0.141 0 0.89 0.11 0 0.89 0.11 1 0 0 0 0.631 0.369 0 0.35 0.65 0 0.212 0.788 0 0.17 0.83 0 0.05 0.95 0 0.17 0.83</probabilities>
		</cpt>
		<decision id="Colonoscopy">
			<state id="No_Colonoscopy" />
			<state id="Colonoscopy" />
			<parents>Screening</parents>
		</decision>
		<cpt id="Results_of_Colonoscopy">
			<state id="no_pred" />
			<state id="colon_pred_false" />
			<state id="colon_pred_true" />
			<parents>CRC Colonoscopy</parents>
			<probabilities>1 0 0 0 0.99 0.01 1 0 0 0 0.03 0.97</probabilities>
		</cpt>
		<utility id="Value_of_CRC_detection_by_screening">
			<parents>Age Alcohol Diabetes Hyperchol_ Hypertension Sex Smoking CRC Screening Results_of_Screening</parents>
			<utilities>0 0 0 0 0.02523603313275791 -0.135489169143237 0 0.06217417654935805 -0.7146495450366495 0 0.06524503377816465 -0.1003409220952762 0 0.08049226264428783 -0.4901967392641635 0 0.0947155507177789 -0.7659151845062837 0 0.08118405851451369 -0.6565444419733186 0 0 0 0 -227.5064502796689 671.1227378235068 0 -759.0865125899605 1644.886163766492 0 -824.9509653686638 544.3736990070867 0 -1272.422518981685 1391.956519209178 0 -2261.544456863628 1692.779200376639 0 -1300.270152368237 1586.816220193123 0 0 0 0 0.02254552883591751 -0.1210527942667054 0 0.05554465556143724 -0.6386673382421868 0 0.0582879935470821 -0.08964819901677899 0 0.07190893382461955 -0.4380350393707244 0 0.08461498234310451 -0.6844979005781215 0 0.07252693751703963 -0.5867249324536804 0 0 0 0 -667.5378538321255 1969.298755704436 0 -2227.228086581202 4827.427058033921 0 -2420.475571797632 1597.355144774203 0 -3733.353672971588 4084.893115319633 0 -6635.390090161487 4968.046108374531 0 -3815.057890815481 4656.935793832578 0 0 0 0 0.02656889766322217 -0.142635694589864 0 0.06545896139085415 -0.752164833353332 0 0.06869214515332951 -0.1056350465850518 0 0.08474546898394697 -0.515977202949091 0 0.09972090019099819 -0.8061046092931559 0 0.08547384371308557 -0.6910260757930097 0 0 0 0 -145.2966628109579 428.5862874649915 0 -484.7986155596352 1050.283988276332 0 -526.8646060279065 347.6469278873528 0 -812.6559015578713 888.8320517370489 0 -1444.396730649961 1080.851809617878 0 -830.4417447097933 1013.219063304193 0 0 0 0 0.02939445166254202 -0.1577652966430045 0 0.07242456592474249 -0.8312004201181692 0 0.0760021617474505 -0.1168463150476916 0 0.09376605826647594 -0.5703933620158779 0 0.1103379667716676 -0.890737256732361 0 0.09457206544961981 -0.7637061648881038 0 0 0 0 -64.72471446255007 190.8781692785835 0 -215.9765905913733 467.496600517453 0 -234.7185023317788 154.8370937443854 0 -362.052710852641 395.711319145514 0 -643.5381650985727 481.0817152016804 0 -369.9773657391195 451.0212120825345 0 0 0 0 0.02877175821796594 -0.1544341075039284 0 0.07088916789159584 -0.8138565619374249 0 0.0743908182495974 -0.1143773559940441 0 0.09177748124549007 -0.5584365745733296 0 0.1079972587581332 -0.8721706794334386 0 0.09256636654985989 -0.7477516117992234 0 0 0 0 -76.23737001711582 224.8440086909236 0 -254.3874779796982 550.7736034856456 0 -276.4620524751923 182.387387541669 0 -426.437365064994 466.1745287282329 0 -757.9688076169963 566.7856970196883 0 -435.7710313098133 531.3558199571229 0 0 0 0 0.03016663260265835 -0.1618931573998519 0 0.07432888148620552 -0.8526348405553944 0 0.0780006985313445 -0.1199062310571082 0 0.09623264622447292 -0.585185531786542 0 0.1132415185248853 -0.913677311606481 0 0.09705989885729047 -0.7834289275581086 0 0 0 0 -53.36390514203505 157.359947128566 0 -178.0724608061197 385.3148012745366 0 -193.5256923401079 127.6499285489616 0 -298.5176361158408 326.1754564629221 0 -530.6177799806534 396.5046819473578 0 -305.0518787591412 371.7432995856827 0 0 0 0 0.02999635539503689 -0.1609832145830127 0 0.07390891912446988 -0.8479157233965861 0 0.07755995451481916 -0.1192316547696593 0 0.09568866374259065 -0.5819272307828423 0 0.1126011485520929 -0.9086272665809688 0 0.09651123008993809 -0.7790861125506511 0 0 0 0 -55.63340209712249 164.0557672482737 0 -185.6443816669905 401.732205092035 0 -201.7545751366995 133.0810092556974 0 -311.2097092558451 340.0665232324297 0 -553.175270312359 413.4005974943092 0 -318.0217066794722 387.5805769408116 0 0 0 0 0.02919032593989505 -0.1566735225067596 0 0.07192122175412001 -0.8255203671148513 0 0.07547391855627625 -0.1160370941449455 0 0.09311413467082556 -0.5664764089419236 0 0.1095705885704532 -0.8846571754999611 0 0.09391452813193631 -0.7584807075432023 0 0 0 0 -68.23708617945042 201.240769062263 0 -227.6952746327194 492.9036914165167 0 -247.4539390324592 163.2423766817442 0 -381.6956548375904 417.208973113628 0 -678.4494802471251 507.2292719513275 0 -390.0501806754907 475.5305867692913 0 0 0 0 0.0305915298324942 -0.1641629385063086 0 0.07537691181218542 -0.864390776752669 0 0.07910059777879866 -0.1215890424741213 0 0.09759022888806983 -0.5933065595056423 0 0.1148397004430616 -0.9262561489931205 0 0.09842917891673275 -0.7942488896966591 0 0 0 0 -48.2003717894037 142.1256053503357 0 -160.8449461369334 347.9613651042123 0 -174.8034717002698 115.2931379068037 0 -269.6408670977467 294.5701828393846 0 -479.2954689635719 358.0624793179828 0 -275.5431688141528 335.709830705366 0 0 0 0 0.03106028633574596 -0.1666655643369168 0 0.0765332766517253 -0.8773253741502028 0 0.08031420658995496 -0.1234447199192903 0 0.09908824286010094 -0.6022491571498191 0 0.1166032917626472 -0.9400935431457047 0 0.09994010403905838 -0.8061562114930391 0 0 0 0 -43.23056613544184 127.462690677405 0 -144.2638327518667 312.0081842378415 0 -156.7837413661964 103.3998618290861 0 -241.8476523854229 264.1499293802065 0 -429.8990598600417 321.0612826392904 0 -247.1417282771103 301.0272051603208 0 0 0 0 0.03093900525120347 -0.1660182136734224 0 0.07623407496815209 -0.873982467396098 0 0.08000019200580746 -0.1229646897481958 0 0.09870063140114442 -0.5999371979110419 0 0.1161469526542352 -0.9365175855688395 0 0.09954915142315407 -0.8030785339671135 0 0 0 0 -44.44995112766438 131.0603789951441 0 -148.3321475347294 320.829733466556 0 -161.2050322686386 106.3179901626662 0 -248.6669440759867 271.613882300147 0 -442.0188592906522 330.1399818732796 0 -254.1102528638928 309.5370010260049 0 0 0 0 0.03105786119636611 -0.1666526209656845 0 0.0765272936948001 -0.8772585549301789 0 0.08030792741847442 -0.123435121843044 0 0.09908049195326482 -0.6022029394581089 0 0.1165941664709485 -0.9400220675458659 0 0.09993228631770261 -0.8060946918968482 0 0 0 0 -43.25451949326176 127.5333630566837 0 -144.3437498864785 312.1814738504988 0 -156.870592286815 103.4571850316451 0 -241.9816091016451 264.2965503369832 0 -430.1371385414638 321.2396237252093 0 -247.2786164908085 301.1943706729215 0 0 0 0 0.02554867325242888 -0.1371658761870095 0 0.06294462191854672 -0.7234589161850811 0 0.06605354911159053 -0.1015829568163697 0 0.08148982392905757 -0.4962485037941524 0 0.09588949743872205 -0.7753532208006941 0 0.08219019809630185 -0.6646407459629005 0 0 0 0 -203.8851009203294 601.4348759313641 0 -680.2752727280057 1474.04050144392 0 -739.3016983213761 487.8482800621295 0 -1140.317545745567 1247.394623201671 0 -2026.752855249693 1516.955606481059 0 -1165.274116906031 1422.005792082668 0 0 0 0 0.02358162569308767 -0.126613372665896 0 0.05809751532523231 -0.667957190367321 0 0.06096696142623401 -0.09376660657831648 0 0.07521407276333877 -0.4581363231805608 0 0.08850428167102282 -0.7158850831177528 0 0.0758604880938946 -0.6136370313441073 0 0 0 0 -427.7150265749422 1261.777011612282 0 -1427.071494661294 3092.909965719372 0 -1550.893501399354 1023.467267088368 0 -2392.113213751248 2617.213406156051 0 -4251.58477928297 3182.992909037273 0 -2444.464853064913 2983.688909594783 1.044308575255298e-13 0 0 0 0.02677337961503697 -0.1437316440407733 0 0.06596294417609749 -0.7579096526962814 0 0.06922103764087439 -0.1064469935712241 0 0.08539806581392345 -0.5199272520752948 0 0.1004889302743133 -0.8122581365692472 0 0.08613205420209777 -0.6963071110642849 1.044308575255298e-13 0 0 0 -136.2051184105609 401.7641503957848 0 -454.4652868530553 984.5260108500652 0 -493.8994253607877 325.8909105270852 0 -761.8106496441661 833.1909874988834 0 -1354.029074286693 1013.177743272418 0 -778.4837692375326 949.7841353988553 0 0 0 0 0.030470312247197 -0.1635155229983508 0 0.07507790952624419 -0.8610399236910092 0 0.07878679619101141 -0.1211090298385318 0 0.09720290318089785 -0.5909911574632064 0 0.1143837228185583 -0.922670962323477 0 0.09803851556045233 -0.7911646058772198 0 0 0 0 -49.60493210285875 146.269593470121 0 -165.5310896145568 358.1221852568794 0 -179.89619719797 118.6543833616267 0 -277.4957779298925 303.1673741397445 0 -493.2558903682644 368.5194699597655 0 -283.5699767420193 345.5115889691116 4.930994317648089e-14 0 0 0 0.02942032170024738 -0.1579036471111286 0 0.07248835938748525 -0.8319198907119794 0 0.07606911104463589 -0.1169488628130609 0 0.09384868368743451 -0.5708895907058047 0 0.1104352260370562 -0.8915073677730411 0 0.09465540240145519 -0.7643680823842948 4.930994317648089e-14 0 0 0 -64.2962684849424 189.6141167609253 0 -214.5471234153901 464.3973742459781 0 -233.1650098383943 153.8117993627459 0 -359.6566284181608 393.0889807395902 0 -639.279620529256 477.8921638165194 0 -367.5288468965088 448.0314928446685 0 0 0 0 0.03038280542872484 -0.1630480927158366 0 0.07486206670869397 -0.8586194602862799 0 0.07856027067147749 -0.1207624735186778 0 0.09692330593570217 -0.5893189584080062 0 0.114054571930337 -0.9200811182408128 0 0.0977565091399971 -0.7889368053513321 0 0 0 0 -50.6519735831723 149.3587580369644 0 -169.0244177660975 365.6965986070891 0 -183.6926158656742 121.1600480510223 0 -283.3512951228155 309.5761874529312 0 -503.6628233488985 376.3146614267817 0 -289.5536363635471 352.8183418917565 0 0 0 0 0.02938276962547628 -0.1577028210104501 0 0.07239575907657361 -0.8308755019395792 0 0.075971929848453 -0.1168000072245091 0 0.09372874766196199 -0.5701692677245173 0 0.1102940481365504 -0.8903894667485831 0 0.09453443354708765 -0.7634072402582757 0 0 0 0 -64.91938630669063 191.4525132417626 0 -216.6260938025181 468.9047861440362 0 -235.4243586042502 155.30295387617 0 -363.1414125442823 396.9028230472005 0 -645.473108964798 482.5309414844447 0 -371.0898928270722 452.3796414315743 0 0 0 0 0.0282878629105115 -0.1518441023388336 0 0.06969615078840022 -0.800346379709363 0 0.07313880320608623 -0.1124579531730142 0 0.09023243096370186 -0.5491294973727261 0 0.1061786986579193 -0.8577056312815456 0 0.09100801665942453 -0.73532599338339 0 0 0 0 -87.04095471407065 256.7176334853593 0 -290.4327047728366 628.919490540594 0 -315.6346982789578 208.2406862954469 0 -486.8567733309228 532.2965714735275 0 -865.3522236701044 647.2089125677275 0 -497.512678667187 606.7407291805088 0 0 0 0 0.03048660367539628 -0.1636025403168263 0 0.07511809428615926 -0.8614904123581504 0 0.0788289698665338 -0.1211735460563273 0 0.09725495787407099 -0.5913024105342987 0 0.1144450036344484 -0.9231529653001525 0 0.0980910188023877 -0.7915792467553541 0 0 0 0 -49.41310422367588 145.7036287572633 0 -164.8910791587974 356.7344760970058 0 -179.2006577429923 118.1953215436157 0 -276.4229925475262 301.9932157633207 0 -491.3492436460143 367.0913117380867 0 -282.4737144821458 344.1729182091127 0 0 0 0 0.03106028633574596 -0.1666655643369168 0 0.0765332766517253 -0.8773253741502028 0 0.08031420658995496 -0.1234447199192903 0 0.09908824286010094 -0.6022491571498191 0 0.1166032917626472 -0.9400935431457047 0 0.09994010403905838 -0.8061562114930391 0 0 0 0 -43.23056613544184 127.462690677405 0 -144.2638327518667 312.0081842378415 0 -156.7837413661964 103.3998618290861 0 -241.8476523854229 264.1499293802065 0 -429.8990598600417 321.0612826392904 0 -247.1417282771103 301.0272051603208 0 0 0 0 0.03105786119636611 -0.1666526209656845 0 0.0765272936948001 -0.8772585549301789 0 0.08030792741847442 -0.123435121843044 0 0.09908049195326482 -0.6022029394581089 0 0.1165941664709485 -0.9400220675458659 0 0.09993228631770261 -0.8060946918968482 0 0 0 0 -43.25451949326176 127.5333630566837 0 -144.3437498864785 312.1814738504988 0 -156.870592286815 103.4571850316451 0 -241.9816091016451 264.2965503369832 0 -430.1371385414638 321.2396237252093 0 -247.2786164908085 301.1943706729215 0 0 0 0 0.03094140688845966 -0.1660310337182592 0 0.07623999972072067 -0.8740486896627634 0 0.0800064100718038 -0.1229741960299075 0 0.09870830676110665 -0.5999829919918048 0 0.1161559888721617 -0.9365884264163759 0 0.099556892940904 -0.8031395002554642 0 0 0 0 -44.42537319617416 130.9878640684089 0 -148.250146519461 320.6519271124909 0 -161.1159166573428 106.2591724163575 0 -248.5294942876291 271.4634393618666 0 -441.7745722732049 329.9569924718605 0 -253.9697951322857 309.3654782956423 0 0 0 0 0.03093179349546115 -0.1659797167522867 0 0.07621628385349292 -0.8737836058002746 0 0.07998152011872296 -0.1229361436663626 0 0.09867758350083705 -0.5997996822501609 0 0.1161198183268529 -0.9363048541880444 0 0.09952590486197251 -0.8028954562116574 0 0 0 0 -44.52386133121298 131.2784442295462 0 -148.5787391550845 321.364428535565 0 -161.4730187441069 106.4948655521762 0 -249.0802800172267 272.066290793483 0 -442.7534737868805 330.6902632689611 0 -254.5326342254978 310.0528001421127 0 0 0 0 0.03070250881736954 -0.1647555814191553 0 0.07565066838215202 -0.8674564657585989 0 0.07938790491863684 -0.1220284595548742 0 0.09794485748923903 -0.5954253673796351 0 0.1152571910482058 -0.9295360692069004 0 0.098786863640642 -0.7970708509263124 0 0 0 0 -46.95933999658916 138.464079503665 0 -156.7043989025634 338.9834602023244 0 -170.3036801534092 112.3232256233847 0 -262.7004879921012 286.9738860953716 0 -466.9604392354291 348.8228797575662 0 -268.4509064157934 327.0491904554115 0 0 0 0 0.03105544420348965 -0.1666397210302578 0 0.07652133084051188 -0.8771919591229124 0 0.08030166934524924 -0.123425555983427 0 0.09907276709225515 -0.6021568765186552 0 0.1165850718462611 -0.9399508308489765 0 0.09992449486683461 -0.8060333780704774 0 0 0 0 -43.27840958390731 127.6038487673425 0 -144.4234559402398 312.3543057249713 0 -156.9572138129049 103.5143568257155 0 -242.1152120067962 264.4427840068813 0 -430.3745884046525 321.4174937278373 0 -247.4151431507377 301.361094625911 0 0 0 0 0.03106028633574596 -0.1666655643369168 0 0.0765332766517253 -0.8773253741502028 0 0.08031420658995496 -0.1234447199192903 0 0.09908824286010094 -0.6022491571498191 0 0.1166032917626472 -0.9400935431457047 0 0.09994010403905838 -0.8061562114930391 0 0 0 0 -43.23056613544184 127.462690677405 0 -144.2638327518667 312.0081842378415 0 -156.7837413661964 103.3998618290861 0 -241.8476523854229 264.1499293802065 0 -429.8990598600417 321.0612826392904 0 -247.1417282771103 301.0272051603208 0 0 0 0 0.03106028633574596 -0.1666655643369168 0 0.0765332766517253 -0.8773253741502028 0 0.08031420658995496 -0.1234447199192903 0 0.09908824286010094 -0.6022491571498191 0 0.1166032917626472 -0.9400935431457047 0 0.09994010403905838 -0.8061562114930391 0 0 0 0 -43.23056613544184 127.462690677405 0 -144.2638327518667 312.0081842378415 0 -156.7837413661964 103.3998618290861 0 -241.8476523854229 264.1499293802065 0 -429.8990598600417 321.0612826392904 0 -247.1417282771103 301.0272051603208 0 0 0 0 0.03106028633574596 -0.1666655643369168 0 0.0765332766517253 -0.8773253741502028 0 0.08031420658995496 -0.1234447199192903 0 0.09908824286010094 -0.6022491571498191 0 0.1166032917626472 -0.9400935431457047 0 0.09994010403905838 -0.8061562114930391 0 0 0 0 -43.23056613544184 127.462690677405 0 -144.2638327518667 312.0081842378415 0 -156.7837413661964 103.3998618290861 0 -241.8476523854229 264.1499293802065 0 -429.8990598600417 321.0612826392904 0 -247.1417282771103 301.0272051603208 0 0 0 0 0.03106028633574596 -0.1666655643369168 0 0.0765332766517253 -0.8773253741502028 0 0.08031420658995496 -0.1234447199192903 0 0.09908824286010094 -0.6022491571498191 0 0.1166032917626472 -0.9400935431457047 0 0.09994010403905838 -0.8061562114930391 0 0 0 0 -43.23056613544184 127.462690677405 0 -144.2638327518667 312.0081842378415 0 -156.7837413661964 103.3998618290861 0 -241.8476523854229 264.1499293802065 0 -429.8990598600417 321.0612826392904 0 -247.1417282771103 301.0272051603208 0 0 0 0 0.03093900525120347 -0.1660182136734224 0 0.07623407496815209 -0.873982467396098 0 0.08000019200580746 -0.1229646897481958 0 0.09870063140114442 -0.5999371979110419 0 0.1161469526542352 -0.9365175855688395 0 0.09954915142315407 -0.8030785339671135 0 0 0 0 -44.44995112766438 131.0603789951441 0 -148.3321475347294 320.829733466556 0 -161.2050322686386 106.3179901626662 0 -248.6669440759867 271.613882300147 0 -442.0188592906522 330.1399818732796 0 -254.1102528638928 309.5370010260049 0 0 0 0 0.03106028633574596 -0.1666655643369168 0 0.0765332766517253 -0.8773253741502028 0 0.08031420658995496 -0.1234447199192903 0 0.09908824286010094 -0.6022491571498191 0 0.1166032917626472 -0.9400935431457047 0 0.09994010403905838 -0.8061562114930391 0 0 0 0 -43.23056613544184 127.462690677405 0 -144.2638327518667 312.0081842378415 0 -156.7837413661964 103.3998618290861 0 -241.8476523854229 264.1499293802065 0 -429.8990598600417 321.0612826392904 0 -247.1417282771103 301.0272051603208 0 0 0 0 0.03106028633574596 -0.1666655643369168 0 0.0765332766517253 -0.8773253741502028 0 0.08031420658995496 -0.1234447199192903 0 0.09908824286010094 -0.6022491571498191 0 0.1166032917626472 -0.9400935431457047 0 0.09994010403905838 -0.8061562114930391 0 0 0 0 -43.23056613544184 127.462690677405 0 -144.2638327518667 312.0081842378415 0 -156.7837413661964 103.3998618290861 0 -241.8476523854229 264.1499293802065 0 -429.8990598600417 321.0612826392904 0 -247.1417282771103 301.0272051603208 0 0 0 0 0.03106028633574596 -0.1666655643369168 0 0.0765332766517253 -0.8773253741502028 0 0.08031420658995496 -0.1234447199192903 0 0.09908824286010094 -0.6022491571498191 0 0.1166032917626472 -0.9400935431457047 0 0.09994010403905838 -0.8061562114930391 0 0 0 0 -43.23056613544184 127.462690677405 0 -144.2638327518667 312.0081842378415 0 -156.7837413661964 103.3998618290861 0 -241.8476523854229 264.1499293802065 0 -429.8990598600417 321.0612826392904 0 -247.1417282771103 301.0272051603208 0 0 0 0 0.03106028633574596 -0.1666655643369168 0 0.0765332766517253 -0.8773253741502028 0 0.08031420658995496 -0.1234447199192903 0 0.09908824286010094 -0.6022491571498191 0 0.1166032917626472 -0.9400935431457047 0 0.09994010403905838 -0.8061562114930391 0 0 0 0 -43.23056613544184 127.462690677405 0 -144.2638327518667 312.0081842378415 0 -156.7837413661964 103.3998618290861 0 -241.8476523854229 264.1499293802065 0 -429.8990598600417 321.0612826392904 0 -247.1417282771103 301.0272051603208 0 0 0 0 0.03094140688845966 -0.1660310337182592 0 0.07623999972072067 -0.8740486896627634 0 0.0800064100718038 -0.1229741960299075 0 0.09870830676110665 -0.5999829919918048 0 0.1161559888721617 -0.9365884264163759 0 0.099556892940904 -0.8031395002554642 0 0 0 0 -44.42537319617416 130.9878640684089 0 -148.250146519461 320.6519271124909 0 -161.1159166573428 106.2591724163575 0 -248.5294942876291 271.4634393618666 0 -441.7745722732049 329.9569924718605 0 -253.9697951322857 309.3654782956423 3.699263164007935e-14 0 0 0 0.03058919373066887 -0.1641504624847728 0 0.07537114934792395 -0.8643262220778175 0 0.07909455008902881 -0.1215797922352882 0 0.0975827641629417 -0.5932619481156398 0 0.1148309125664892 -0.9261870815625527 0 0.0984216498643979 -0.7941894688473531 3.699263164007935e-14 0 0 0 -48.22694990952834 142.2040210323159 0 -160.9336207431427 348.1536364346161 0 -174.8998399425105 115.356741923669 0 -269.7895033787183 294.7328657355165 0 -479.5596380324083 358.2603550731474 0 -275.6950578539991 335.895307524639 0 0 0 0 0.03093659771500104 -0.1660053620976765 0 0.07622813566764457 -0.8739160814582909 0 0.07999395867205812 -0.1229551600926968 0 0.09869293719764161 -0.599891290863235 0 0.1161378942543459 -0.9364465695588815 0 0.09954139089952718 -0.8030174170722989 0 0 0 0 -44.47460718130316 131.1331244099945 0 -148.4144091957102 321.0081049524779 0 -161.2944311400255 106.3769948613462 0 -248.8048307593197 271.7648034066365 0 -442.2639227969493 330.3235528782996 0 -254.2511570515332 309.7090689186199 0 0 0 0 0.03105786119636611 -0.1666526209656845 0 0.0765272936948001 -0.8772585549301789 0 0.08030792741847442 -0.123435121843044 0 0.09908049195326482 -0.6022029394581089 0 0.1165941664709485 -0.9400220675458659 0 0.09993228631770261 -0.8060946918968482 0 0 0 0 -43.25451949326176 127.5333630566837 0 -144.3437498864785 312.1814738504988 0 -156.870592286815 103.4571850316451 0 -241.9816091016451 264.2965503369832 0 -430.1371385414638 321.2396237252093 0 -247.2786164908085 301.1943706729215 0 0 0 0 0.03105786119636611 -0.1666526209656845 0 0.0765272936948001 -0.8772585549301789 0 0.08030792741847442 -0.123435121843044 0 0.09908049195326482 -0.6022029394581089 0 0.1165941664709485 -0.9400220675458659 0 0.09993228631770261 -0.8060946918968482 0 0 0 0 -43.25451949326176 127.5333630566837 0 -144.3437498864785 312.1814738504988 0 -156.870592286815 103.4571850316451 0 -241.9816091016451 264.2965503369832 0 -430.1371385414638 321.2396237252093 0 -247.2786164908085 301.1943706729215 0 0 0 0 0.03106028633574596 -0.1666655643369168 0 0.0765332766517253 -0.8773253741502028 0 0.08031420658995496 -0.1234447199192903 0 0.09908824286010094 -0.6022491571498191 0 0.1166032917626472 -0.9400935431457047 0 0.09994010403905838 -0.8061562114930391 0 0 0 0 -43.23056613544184 127.462690677405 0 -144.2638327518667 312.0081842378415 0 -156.7837413661964 103.3998618290861 0 -241.8476523854229 264.1499293802065 0 -429.8990598600417 321.0612826392904 0 -247.1417282771103 301.0272051603208 0 0 0 0 0.03093900525120347 -0.1660182136734224 0 0.07623407496815209 -0.873982467396098 0 0.08000019200580746 -0.1229646897481958 0 0.09870063140114442 -0.5999371979110419 0 0.1161469526542352 -0.9365175855688395 0 0.09954915142315407 -0.8030785339671135 0 0 0 0 -44.44995112766438 131.0603789951441 0 -148.3321475347294 320.829733466556 0 -161.2050322686386 106.3179901626662 0 -248.6669440759867 271.613882300147 0 -442.0188592906522 330.1399818732796 0 -254.1102528638928 309.5370010260049 0 0 0 0 0.03094140688845966 -0.1660310337182592 0 0.07623999972072067 -0.8740486896627634 0 0.0800064100718038 -0.1229741960299075 0 0.09870830676110665 -0.5999829919918048 0 0.1161559888721617 -0.9365884264163759 0 0.099556892940904 -0.8031395002554642 0 0 0 0 -44.42537319617416 130.9878640684089 0 -148.250146519461 320.6519271124909 0 -161.1159166573428 106.2591724163575 0 -248.5294942876291 271.4634393618666 0 -441.7745722732049 329.9569924718605 0 -253.9697951322857 309.3654782956423 0 0 0 0 0.03094140688845966 -0.1660310337182592 0 0.07623999972072067 -0.8740486896627634 0 0.0800064100718038 -0.1229741960299075 0 0.09870830676110665 -0.5999829919918048 0 0.1161559888721617 -0.9365884264163759 0 0.099556892940904 -0.8031395002554642 0 0 0 0 -44.42537319617416 130.9878640684089 0 -148.250146519461 320.6519271124909 0 -161.1159166573428 106.2591724163575 0 -248.5294942876291 271.4634393618666 0 -441.7745722732049 329.9569924718605 0 -253.9697951322857 309.3654782956423 0 0 0 0 0.03106028633574596 -0.1666655643369168 0 0.0765332766517253 -0.8773253741502028 0 0.08031420658995496 -0.1234447199192903 0 0.09908824286010094 -0.6022491571498191 0 0.1166032917626472 -0.9400935431457047 0 0.09994010403905838 -0.8061562114930391 0 0 0 0 -43.23056613544184 127.462690677405 0 -144.2638327518667 312.0081842378415 0 -156.7837413661964 103.3998618290861 0 -241.8476523854229 264.1499293802065 0 -429.8990598600417 321.0612826392904 0 -247.1417282771103 301.0272051603208 0 0 0 0 0.03106028633574596 -0.1666655643369168 0 0.0765332766517253 -0.8773253741502028 0 0.08031420658995496 -0.1234447199192903 0 0.09908824286010094 -0.6022491571498191 0 0.1166032917626472 -0.9400935431457047 0 0.09994010403905838 -0.8061562114930391 0 0 0 0 -43.23056613544184 127.462690677405 0 -144.2638327518667 312.0081842378415 0 -156.7837413661964 103.3998618290861 0 -241.8476523854229 264.1499293802065 0 -429.8990598600417 321.0612826392904 0 -247.1417282771103 301.0272051603208 0 0 0 0 0.03106028633574596 -0.1666655643369168 0 0.0765332766517253 -0.8773253741502028 0 0.08031420658995496 -0.1234447199192903 0 0.09908824286010094 -0.6022491571498191 0 0.1166032917626472 -0.9400935431457047 0 0.09994010403905838 -0.8061562114930391 0 0 0 0 -43.23056613544184 127.462690677405 0 -144.2638327518667 312.0081842378415 0 -156.7837413661964 103.3998618290861 0 -241.8476523854229 264.1499293802065 0 -429.8990598600417 321.0612826392904 0 -247.1417282771103 301.0272051603208 1.339145124809677e-13 0 0 0 0.02600399204981474 -0.1396073607575501 0 0.06406671718353764 -0.7362784979165596 0 0.06723109422575135 -0.1033915743666327 0 0.08294272451601131 -0.5050572671828358 0 0.09759932080210815 -0.7890868972678979 0 0.08365559363946701 -0.6764233882063337 1.339145124809677e-13 0 0 0 -174.6678346464143 515.2377376204805 0 -582.7936457082932 1262.719935458845 0 -633.362121404941 417.9318351476783 0 -976.9169614016707 1068.584992784763 0 -1736.339356106238 1299.477710836005 0 -998.2975818519051 1218.150349630429 0 0 0 0 0.01223529083666797 -0.06569651011090279 0 0.03014346021128595 -0.3466497984295701 0 0.0316322209008325 -0.04865260295573365 0 0.03902403216075995 -0.237742157052984 0 0.04591930915407079 -0.3715289724527184 0 0.03935940977202414 -0.3184534058380032 0 0 0 0 -4376635.55861933 12911839.51626833 0 -14602437.10690749 31653591.16704047 0 -15869417.32949536 10473110.26480489 0 -24476950.98825013 26784101.46825735 0 -43503261.4594648 32575813.1941572 0 -25012621.30512305 30535481.93483303 0 0 0 0 0.01531102566353885 -0.08221141757187417 0 0.03772098652915238 -0.4337910087840464 0 0.03958399410496986 -0.06088298587348356 0 0.04883397538866717 -0.297506106224455 0 0.05746260453579213 -0.4649243110253817 0 0.04925366041049323 -0.3985065957500005 0 0 0 0 -88177.15545415103 260137.9770990955 0 -294198.9130886351 637732.3860994062 0 -319725.0784757584 211004.3103061706 0 -493143.2014095832 539625.6941230305 0 -876471.0255189149 656312.593152665 0 -503935.4847589323 615205.594648391 0 0 0 0 0.02623705210319037 -0.1408568536177766 0 0.06464109628316426 -0.7428352916487295 0 0.06783385896185333 -0.1043172149626301 0 0.08368645065643091 -0.5095637154004714 0 0.09847457619991844 -0.7961108438390848 0 0.08440571636848514 -0.6824501874764139 0 0 0 0 -161.7273988312444 477.060629199631 0 -539.6186981804174 1169.124619563835 0 -586.4411216973861 386.9655323951882 0 -904.5463107019551 989.3891300816714 0 -1607.714332169754 1203.155235070688 0 -924.3431322733725 1127.86142740022 0 0 0 0 0.02574868185711161 -0.1382384145597667 0 0.06343751976010378 -0.729091735784108 0 0.06657080357859571 -0.1023774679003814 0 0.0821280288580116 -0.5001186803480512 0 0.09664055500524792 -0.7813878010578231 0 0.08283389142842802 -0.6698178311538877 0 0 0 0 -190.3571035755057 561.5244377913034 0 -635.1399252125273 1376.19638880841 0 -690.2502015120161 455.4760185859192 0 -1064.660795089662 1164.603439837722 0 -1892.287331975679 1416.260584470898 0 -1087.961650713923 1327.618113005083 0 0 0 0 0.02627010458467054 -0.141034044035485 0 0.06472255577462044 -0.7437648790657848 0 0.06791934426790626 -0.1044484819030074 0 0.08379192807725479 -0.5102026772599298 0 0.09859870823725325 -0.7971066397630703 0 0.08451210100360773 -0.6833046564187371 0 0 0 0 -159.9902406790453 471.9356294695615 0 -533.8227811625027 1156.56010147917 0 -580.1423250743543 382.8085316555479 0 -894.8310883714915 978.7576458978062 0 -1590.447381440632 1190.224612744853 0 -914.4152967817997 1115.74077182026 0 0 0 0 0.01928468390842533 -0.1035472083867201 0 0.04751073383507942 -0.5463609567414929 0 0.04985725307035543 -0.07668362508058074 0 0.06150791450599022 -0.3747121413170351 0 0.07237597127650476 -0.5855725822803434 0 0.06203652213379196 -0.5019209714550211 0 0 0 0 -3764.782126538359 11106.71836946416 0 -12561.03395260557 27228.0140416002 0 -13650.89363786226 9008.939454378833 0 -21055.12078406369 23039.42886953487 0 -37421.62693089152 28021.27434660233 0 -21515.90624814996 26266.25591581987 0 0 0 0 0.0210885226365018 -0.1132316452278216 0 0.05195487890250255 -0.5974394657812577 0 0.05452090119549943 -0.0838557752332902 0 0.06726142748822841 -0.4097489950863271 0 0.07914616122548938 -0.6403149497552781 0 0.0678394844416484 -0.5488467735828069 0 0 0 0 -1349.421864582976 3980.9792430271 0 -4502.300496849967 9759.117601257174 0 -4892.94446911611 3229.078061133743 0 -7546.882568534366 8257.901165241556 0 -13413.23085535849 10043.42237800906 0 -7712.044596100397 9414.420866670625 0 0 0 0 0.02376677056370002 -0.1276068818614823 0 0.05855371180837848 -0.6731878280232158 0 0.06144569470112379 -0.09450246495955698 0 0.07580471086711635 -0.4617267364756111 0 0.08919931937141969 -0.7214900206371254 0 0.07645620379227831 -0.6184432837225124 0 0 0 0 -396.7100130890474 1170.306357601403 0 -1323.624898281278 2868.665326666171 0 -1438.471379788065 949.2732422964157 0 -2218.713752536377 2427.466698633992 0 -3943.399604771749 2952.214718326503 0 -2267.270607434862 2767.365570477063 0 0 0 0 0.02532969314621223 -0.1359914961973924 0 0.06240498238962257 -0.7172891936830539 0 0.06548724420021824 -0.1007130213231895 0 0.08079110508066049 -0.4920099795310478 0 0.09506723204796008 -0.7687432485154362 0 0.08148547071794028 -0.6589703861251276 0 0 0 0 -220.0903871453638 649.2438298931954 0 -734.3432511375257 1591.248245462149 0 -798.0608638542984 526.6272145966793 0 -1230.947366063942 1346.5705113216 0 -2187.830209169463 1637.578438856141 0 -1257.887332841446 1535.073090549274 0 0 0 0 0.02594324151390804 -0.1392816380548973 0 0.06391699934183079 -0.7345687918267554 0 0.06707397759573344 -0.1031502786315421 0 0.08274886624472945 -0.5038823171320284 0 0.09737117984422552 -0.7872553361698785 0 0.08346006810726685 -0.6748519220739322 0 0 0 0 -178.2507010625091 525.8079660134248 0 -594.747656710358 1288.633939020461 0 -646.3533163884646 426.5055841891705 0 -996.9545007040358 1090.512195110316 0 -1771.952266470436 1326.14678656533 0 -1018.773633777332 1243.148907262417 0 0 0 0 0.0286558255127363 -0.1538136896999737 0 0.07060333151358424 -0.8106222098602434 0 0.07409084555134063 -0.1139175598939979 0 0.09140729394815605 -0.5562079363752614 0 0.1075615334230315 -0.8687079143685948 0 0.09219299246260239 -0.744776727539353 0 0 0 0 -78.66267818202573 231.9993699023594 0 -262.4793027488272 568.3168050151571 0 -285.2559536264106 188.1912333789468 0 -440.0009644813148 481.0184306911501 0 -782.075379247502 584.8401509486857 0 -449.6314608868141 548.2791925232106 0 0 0 0 0.0257339045564598 -0.1381591751879233 0 0.06340110247761577 -0.7286756450495652 0 0.06653258669951752 -0.1023187687064413 0 0.08208087547568384 -0.4998327774250365 0 0.09658506336850831 -0.7809420386796696 0 0.08278633253024673 -0.6694353992193021 0 0 0 0 -191.317748162226 564.3585428014014 0 -638.345057456714 1383.144466656896 0 -693.7334256438337 457.7748252163883 0 -1070.03329978945 1170.482580879659 0 -1901.835938890546 1423.411110944973 0 -1093.451730350256 1334.320742864894 0 0 0 0 0.01389285281781278 -0.07459665463600819 0 0.03422710651670626 -0.3936116683000538 0 0.03591755455737296 -0.05524374917890703 0 0.04431076166905266 -0.2699499325172131 0 0.05214016966485804 -0.42186130543538 0 0.04469157392371373 -0.3615954119478956 0 0 0 0 -427860.0189641561 1262261.774338862 0 -1427534.685560181 3094455.721327158 0 -1551394.710944538 1023851.54269864 0 -2392867.468010793 2618414.366235247 0 -4252880.178745972 3184612.150264879 0 -2445234.614908023 2985149.356420653 0 0 0 0 0.01698570240675002 -0.0912034111438102 0 0.04184680774278435 -0.4812364069789 0 0.04391358666365153 -0.06754216077103857 0 0.05417530979831551 -0.3300457974195384 0 0.06374771993163779 -0.5157747719052957 0 0.05464089907126713 -0.4420929051753112 0 0 0 0 -19370.62275634348 57146.68030639734 0 -64629.17951704741 140095.7885642441 0 -70236.73080570876 46353.08285758248 0 -108332.9775923876 118543.9664947352 0 -192541.8997268077 144177.4352264673 0 -110703.8111994929 135147.1653562906 0 0 0 0 0.02098792171503874 -0.1126915739884531 0 0.0517070232581996 -0.594591626729888 0 0.05426080326976793 -0.08345580093746378 0 0.06694054440248216 -0.4077953715119267 0 0.07876857423523224 -0.6372628972879298 0 0.06751584339522441 -0.5462304050463291 0 0 0 0 -1421.985114456011 4195.053751057421 0 -4744.404252881776 10283.92637566277 0 -5156.05434439548 3402.719116062169 0 -7952.702524697597 8701.97453828021 0 -14134.5007120542 10583.52148881697 0 -8126.745789147425 9920.69153322744 0 0 0 0 0.02969922401425867 -0.1593949478733624 0 0.07317613597213812 -0.8396706018041545 0 0.07679091386418767 -0.1180542800620083 0 0.0947395097204571 -0.5762365890076527 0 0.1114838418766364 -0.8998031818125366 0 0.09555390043075881 -0.7714992101368574 0 0 0 0 -59.90044582600888 176.6450034267169 0 -199.8809122361658 432.5992804048507 0 -217.226310730036 143.2923371151345 0 -335.0730398721054 366.1838178611465 0 -595.5873651846738 445.1673185851626 0 -342.407266128386 417.3569583654437 0 0 0 0 0.01922346483419264 -0.1032185184436324 0 0.0473599092989003 -0.5446270203426405 0 0.04969897924343606 -0.07644020500751131 0 0.06131265407305461 -0.3735228509234649 0 0.07214620834592474 -0.5837142393044653 0 0.06183958355475196 -0.5003280354256036 0 0 0 0 -3911.962418225659 11540.92609209329 0 -13052.09396629395 28292.48249174123 0 -14184.56046012821 9361.135982981688 0 -21878.24715353519 23940.14253491648 0 -38884.5819693939 29116.75597945882 0 -22357.04647479783 27293.12374944212 1.667448406139447e-12 0 0 0 0.02020713983811119 -0.108499827412735 0 0.0497833874301994 -0.572485235610924 0 0.05224215514582026 -0.08035143787589734 0 0.06445014488604611 -0.3926311319048083 0 0.07583810082361908 -0.6135710142156372 0 0.0650040395297085 -0.5259210814484233 1.667448406139447e-12 0 0 0 -2175.195588396051 6417.158131908867 0 -7257.454616877421 15731.46440276485 0 -7887.149411039758 5205.122278164225 0 -12165.13633916564 13311.47676190355 0 -21621.32262011301 16189.77355931663 0 -12431.36734975186 15175.80353252314 0 0 0 0 0.0212674917018625 -0.1141924188967382 0 0.05239581555152088 -0.6025054514437141 0 0.05498361705682357 -0.08456732196946913 0 0.06783228127942913 -0.4132243386959789 0 0.07981789256787153 -0.6457441842925756 0 0.06841524470056476 -0.5535010223705812 0 0 0 0 -1230.938855039069 3631.43323176143 0 -4106.987707585643 8902.196975434425 0 -4463.332388507931 2945.552771227219 0 -6884.250075373435 7532.807347520737 0 -12235.5242771267 9161.53529857646 0 -7034.910608381811 8587.769736660837 2.893566120073587e-13 0 0 0 0.02389092690689105 -0.1282730927757477 0 0.05885963552823503 -0.6766947955780281 0 0.06176673175824035 -0.09499590898386702 0 0.07620079245909205 -0.4641341233825029 0 0.08966541292524807 -0.7252478955888531 0 0.07685569048492867 -0.6216657619194416 2.893566120073587e-13 0 0 0 -377.4469025703277 1113.476516158974 0 -1259.354551392383 2729.344142506366 0 -1368.624628711926 903.1772085969345 0 -2110.982391379513 2309.578811056095 0 -3751.927237595633 2808.834286223089 0 -2157.181584838989 2632.965830698985 0 0 0 0 0.02614477159105627 -0.1403621326172096 0 0.06441366805830935 -0.740239548631089 0 0.06759519114150457 -0.1039507163190155 0 0.08339196743650754 -0.5077795855636689 0 0.09812801201280358 -0.7933301936127608 0 0.08410870033165925 -0.6800642306881453 0 0 0 0 -166.7034421464162 491.7410488280397 0 -556.2209503841416 1205.115297680475 0 -604.4838595541734 398.8731466545077 0 -932.3753123776486 1019.842702220527 0 -1657.175068020252 1240.194604806946 0 -952.7811589206939 1162.580677955904 0 0 0 0 0.02737026823726347 -0.146929961340358 0 0.06743416766024003 -0.7746598109920828 0 0.07076498465353798 -0.1088166325264785 0 0.0873031760693133 -0.5314484049529421 0 0.1027310709844884 -0.8301985373630885 0 0.08805355431762668 -0.7117064016745462 0 0 0 0 -113.4539729957465 334.642859146992 0 -378.5576888093578 819.9681290160852 0 -411.4057607170023 271.4474066997627 0 -634.5730967163131 693.9508292507268 0 -1127.888958452148 843.8247930659958 0 -648.4616880845541 791.0397399358682 0 0 0 0 0.02925033868881787 -0.1569945265522004 0 0.07206920191975026 -0.827190865566289 0 0.07562921866707072 -0.1162750179003886 0 0.09330579469496667 -0.5676282615919211 0 0.1097961898096106 -0.8864453644697334 0 0.09410783848190125 -0.7600174684007447 0 0 0 0 -67.17963451311429 198.1209579418037 0 -224.1671895189315 485.2545385241634 0 -243.6197451898906 160.7118436824073 0 -375.7818513854725 410.7368037101096 0 -667.938901459081 499.3571932582653 0 -384.0069580528262 468.1517019176077 0 0 0 0 0.02579031697352428 -0.1384616689562491 0 0.06354012593815693 -0.7302640027188857 0 0.06667848017051793 -0.1025428514754952 0 0.08226088433767698 -0.5009241794012497 0 0.09679690384306001 -0.7826436576790272 0 0.08296788946372312 -0.6708952751006111 0 0 0 0 -187.6825013654947 553.6337935648577 0 -626.2162780178496 1356.851717055223 0 -680.5522980437738 449.0757388936659 0 -1049.702805416693 1148.23487849126 0 -1865.702346659938 1396.352259531782 0 -1072.676311941651 1308.95681228052 1.297972648186528e-13 0 0 0 0.02609802906175781 -0.1401115343441809 0 0.06429847056935829 -0.7389245189613363 0 0.0674743006282531 -0.1037650698454936 0 0.08324280569723462 -0.5068757726998155 0 0.09795247075884803 -0.7919214719093521 0 0.08395825569241559 -0.6788554965618544 1.297972648186528e-13 0 0 0 -169.2967185638475 499.3917800339519 0 -564.8732534772516 1223.871894364656 0 -613.8868752843514 405.0788250850372 0 -946.8784638404585 1035.713633645955 0 -1682.951652600918 1259.497727152048 0 -967.6017052761894 1180.674669932937 0 0 0 0 0.02898489358607128 -0.1555745341217414 0 0.07141467947911184 -0.8197985129856583 0 0.07494232113993249 -0.1152225626898911 0 0.09245808425301329 -0.5625317754710276 0 0.1087983666840629 -0.8785319417177897 0 0.09325282903917187 -0.7532171909941207 0 0 0 0 -72.02212591433536 212.4077904966554 0 -240.3237014306607 520.2828596131134 0 -261.1780521840624 172.3001452425763 0 -402.863529946942 440.3753184675122 0 -716.0710764448602 535.4063642716364 0 -411.681299315355 501.9423762132439 0 0 0 0 0.02721798638683514 -0.1461141048164813 0 0.06705880777233221 -0.7703892554787642 0 0.07037106940059801 -0.1082121439101619 0 0.0868171087203114 -0.528510420372052 0 0.1021590068420279 -0.8256247346195786 0 0.08756330497749912 -0.7077800516827883 0 0 0 0 -118.7733822467196 350.3364123970356 0 -396.3055129229616 858.44340875916 0 -430.693460492544 284.176776040137 0 -664.3222767808816 726.5065163401424 0 -1180.762341879219 883.4212224228169 0 -678.8619130727595 828.1557525337893 0 0 0 0 0.02837495344187205 -0.1523103269622078 0 0.0699108591626129 -0.8027798614323258 0 0.07336412875114602 -0.1128034501681739 0 0.09051048960622496 -0.550805498531421 0 0.1065059751527696 -0.8603112508838068 0 0.09128846858952425 -0.7375639797712116 0 0 0 0 -84.95924114473544 250.5760054644758 0 -283.4872419834991 613.8618958105994 0 -308.0866205340573 203.2590935844715 0 -475.2147059220171 519.5557732814626 0 -844.6607651358494 631.7125161151662 0 -485.6158319940027 592.215127900002 5.31070121182785e-14 0 0 0 0.02913395244822488 -0.1563719669931962 0 0.07178221717408385 -0.8239507455112284 0 0.07532803817722192 -0.1158135882295722 0 0.09293410078392847 -0.5653942028595884 0 0.1093586734410173 -0.8829769386126451 0 0.09373294407386971 -0.757036778395732 5.31070121182785e-14 0 0 0 -69.24989812318323 204.2288764898888 0 -231.074424594512 500.2299172962531 0 -251.1262757015781 165.6660829373629 0 -387.3598130789547 423.4079093008128 0 -688.5163677398674 514.7690110715006 0 -395.8382948353494 482.5979559374406 0 0 0 0 0.02984048229197636 -0.1601500873628216 0 0.07352449900804543 -0.8435919946678285 0 0.07715651299696537 -0.1186140506147649 0 0.09519073032689827 -0.5789427287131383 0 0.1120149968388125 -0.9040000508064856 0 0.09600900750044358 -0.7751074358273677 0 0 0 0 -57.82118686283461 170.5104878123051 0 -192.9436861973967 417.5583422272366 0 -209.6871893748533 138.3165335241802 0 -323.4448299727579 353.4573427063709 0 -574.9206397002332 429.6880039826165 0 -330.5245825283847 402.8474903868551 0 0 0 0 0.03025934247161779 -0.1623885109744524 0 0.07455754425599463 -0.8552023586586069 0 0.07824067729699988 -0.1202734687255798 0 0.09652884124696803 -0.5869586623526665 0 0.1135902007570874 -0.9164247364402963 0 0.09735864573399894 -0.7857918485027112 0 0 0 0 -52.17840511572323 153.862293087363 0 -174.1171768183353 376.7388905194741 0 -189.2272367244638 124.8129299787325 0 -291.887782498865 318.9192364832568 0 -518.8346169327418 387.6788083758107 0 -298.2769368268429 363.4704321897473 0 0 0 0 0.03059153493197695 -0.1641629657400333 0 0.07537692439100063 -0.8643909176673222 0 0.07910061098022401 -0.1215890626663476 0 0.09759024518271367 -0.5933066568868275 0 0.1148397196260001 -0.9262562997584863 0 0.0984291953518014 -0.794249019404886 0 0 0 0 -48.20031379312628 142.1254342389954 0 -160.844752639538 347.9609455477378 0 -174.8032614145448 115.2929991160892 0 -269.6405427576193 294.5698278480253 0 -479.2948925186531 358.0620475320559 0 -275.5428373761607 335.709425975239 0 0 0 0 0.03057980245388228 -0.1641003077117006 0 0.07534798391838536 -0.8640666990891517 0 0.07907023804052044 -0.1215426054720715 0 0.09755275557502831 -0.593082603136472 0 0.1147955848636859 -0.9259094156886815 0 0.09839138267867148 -0.7939505855531181 0 0 0 0 -48.3339875544991 142.5198232345378 0 -161.2907386040644 348.9279674031263 0 -175.2879422655803 115.6128933537698 0 -270.3881039746421 295.3880357887567 0 -480.6235220707324 359.0572566256006 0 -276.3067582361552 336.6422750967544 0 0 0 0 0.03094140688845966 -0.1660310337182592 0 0.07623999972072067 -0.8740486896627634 0 0.0800064100718038 -0.1229741960299075 0 0.09870830676110665 -0.5999829919918048 0 0.1161559888721617 -0.9365884264163759 0 0.099556892940904 -0.8031395002554642 0 0 0 0 -44.42537319617416 130.9878640684089 0 -148.250146519461 320.6519271124909 0 -161.1159166573428 106.2591724163575 0 -248.5294942876291 271.4634393618666 0 -441.7745722732049 329.9569924718605 0 -253.9697951322857 309.3654782956423 0 0 0 0 0.03105301676364083 -0.1666267652934011 0 0.07651534221746512 -0.877125074416052 0 0.08029538422796879 -0.1234159487517964 0 0.09906500885094303 -0.6021106139758546 0 0.1165759379250128 -0.9398792850408916 0 0.09991666974801915 -0.8059717983351962 0 0 0 0 -43.30242022972511 127.6746901618026 0 -144.503564211532 312.5280097163561 0 -157.0442724539629 103.5718171197661 0 -242.2494891086864 264.5897555850928 0 -430.6132365080437 321.5962612681513 0 -247.5523587615452 301.5286598769811 0 0 0 0 0.02649476411256256 -0.1422383336998681 0 0.06527624919399425 -0.7500813173016622 0 0.06850040257100828 -0.1053406622749341 0 0.08450888091505847 -0.5145447707260252 0 0.09944246569570023 -0.8038728066377919 0 0.08523522058803648 -0.6891108196074274 0 0 0 0 -148.7794008884396 438.8611519214248 0 -496.4185414483917 1075.474100376433 0 -539.4927277774644 355.981094964282 0 -832.1334269034794 910.1466649840619 0 -1479.01429394526 1106.775918970709 0 -850.3455263831382 1037.519282893106 0 0 0 0 0.02673701992015555 -0.143536778801668 0 0.06587332811267335 -0.7568883775529237 0 0.06912699215227074 -0.106302623819979 0 0.08528202318610849 -0.5192249903940566 0 0.1003523610897158 -0.8111642214337283 0 0.08601501334707715 -0.6953682674613384 0 0 0 0 -137.7685292541439 406.3765731277728 0 -459.6815013333116 995.8339861758191 0 -499.5682212606812 329.632146236504 0 -770.5541577421546 842.7592172604261 0 -1369.568976025348 1024.815217438091 0 -787.418624698357 960.692629380453 0 0 0 0 0.02901492719006267 -0.1557352167710748 0 0.07148873300748897 -0.8206353638282387 0 0.07502003745683326 -0.1153416527678323 0 0.09255399406486431 -0.5631086286050078 0 0.1089112590670987 -0.8794278138195696 0 0.09334956461071146 -0.7539869833736328 0 0 0 0 -71.45229547115684 210.7266190551579 0 -238.4225153181602 516.1609966642527 0 -259.111912451457 170.9365170255637 0 -399.6767449709091 436.887681319983 0 -710.4072120652232 531.1643769009506 0 -408.4247738331159 497.9661485576727 0 0 0 0 0.02770154885178689 -0.148704512883056 0 0.06825077353861532 -0.7839429427807226 0 0.07162196099403077 -0.1101314908016195 0 0.08836064934319736 -0.537836369631104 0 0.1039756547415765 -0.8401403147701245 0 0.08912012657429887 -0.7202418396799953 0 0 0 0 -102.8801409692841 303.4474100845248 0 -343.2788881309661 743.4870291062291 0 -373.0660259457055 246.1441360542329 0 -575.4382466863909 629.2368103260529 0 -1022.788314906057 765.1150410217437 0 -588.0327046433013 717.2606245277093 0 0 0 0 0.02874538710254081 -0.1542929873701202 0 0.07082414831858781 -0.8131209862188997 0 0.0743225830161416 -0.1142727699084176 0 0.09169327386669687 -0.5579296949856875 0 0.107898142928611 -0.8713831671078199 0 0.09248143424949416 -0.7470750356489094 0 0 0 0 -76.78058311486001 226.4466455555029 0 -256.1998597665382 554.7028842833754 0 -278.4316831129479 183.6873157974869 0 -429.4752975672815 469.499225683928 0 -763.3681212281213 570.8294872567207 0 -438.875446884352 535.1462725798893 0 0 0 0 0.02989603823330143 -0.1604470457786775 0 0.07366151135561781 -0.8451334596077232 0 0.07730030466270686 -0.1188341855905362 0 0.09536819913619353 -0.5800066554082306 0 0.1122239065357733 -0.9056497436014073 0 0.09618800497310365 -0.7765258552973384 0 0 0 0 -57.02891460844278 168.173013184205 0 -190.3003557203973 411.8271704658952 0 -206.8145154799533 136.4205711596509 0 -319.0140690073255 348.6080769403926 0 -567.0458866015863 423.7897921807429 0 -325.9968581183865 397.3188311120151 0 0 0 0 0.0296038971267561 -0.1588852820131996 0 0.07294105334351737 -0.8370226778861812 0 0.07654420057393363 -0.1176764852785583 0 0.09443502119095105 -0.5744096045105245 0 0.1111254169198662 -0.8969691219963798 0 0.09524678944636783 -0.7690628697797646 0 0 0 0 -61.35819335363306 180.9458417531456 0 -204.7445347963096 443.1442562389128 0 -222.5119166573537 146.7808171404604 0 -343.2254696529089 375.1061739060244 0 -610.0766212676467 456.0196295013619 0 -350.7381052104978 427.5293328207001 0 0 0 0 0.0290789663071462 -0.156077816505789 0 0.07164663521206073 -0.8224193603402767 0 0.07518574986414753 -0.1155955733844234 0 0.09275850085522097 -0.5643384420828106 0 0.1091519784630799 -0.8813376034455405 0 0.09355583219419381 -0.7556280523109301 0 0 0 0 -70.25638872718871 207.1983315488098 0 -234.4324849121368 507.5103964980658 0 -254.7756930114063 168.0746603137869 0 -392.9886216623149 429.5681422452994 0 -698.5204304021674 522.2616691407259 0 -401.5902857799551 489.6211960339572 0 0 0 0 0.03028688351270989 -0.1625356534114236 0 0.07462547355307263 -0.8559648248311035 0 0.07831196835845244 -0.1203825566851074 0 0.09661683321316583 -0.5874852768362389 0 0.1136937859983232 -0.9172406094439631 0 0.09744739581862233 -0.7864935751026469 0 0 0 0 -51.8328012142584 152.8426353055608 0 -172.964109742218 374.2387806042051 0 -187.9741263340942 123.9858707630212 0 -289.9550100251009 316.8038542371056 0 -515.3995234941743 385.1058269871679 0 -296.3018674074869 361.0586682099532 3.598117893798991e-14 0 0 0 0.03070723868599438 -0.1647808376500024 0 0.07566233595227446 -0.8675870779370435 0 0.07940015003493499 -0.1220471861828791 0 0.09795997197453467 -0.5955156478604506 0 0.1152749848688289 -0.9296758051535223 0 0.09880210838468154 -0.7971910825583733 3.598117893798991e-14 0 0 0 -46.90737401153142 138.3107594664048 0 -156.5310209699301 338.607524860767 0 -170.1152595220212 112.1988657335935 0 -262.4098722374691 286.6558037131438 0 -466.443932454567 348.4359862848106 0 -268.1539308279757 326.6865401570195 3.319963712327356e-14 0 0 0 0.03105543955433821 -0.1666396962167311 0 0.07652131937077607 -0.8771918310226173 0 0.08030165730770367 -0.1234255375831532 0 0.09907275223324361 -0.6021567879145735 0 0.1165850543524732 -0.9399506938216556 0 0.0999244798797492 -0.8060332601304304 3.319963712327356e-14 0 0 0 -43.27845555383404 127.6039843977555 0 -144.4236093126795 312.3546382924756 0 -156.9573804922746 103.5144668371492 0 -242.1154690889459 264.4430653934482 0 -430.3750453117956 321.4178359898346 0 -247.4154058588517 301.3614154403988 0 0 0 0 0.03094140688845966 -0.1660310337182592 0 0.07623999972072067 -0.8740486896627634 0 0.0800064100718038 -0.1229741960299075 0 0.09870830676110665 -0.5999829919918048 0 0.1161559888721617 -0.9365884264163759 0 0.099556892940904 -0.8031395002554642 0 0 0 0 -44.42537319617416 130.9878640684089 0 -148.250146519461 320.6519271124909 0 -161.1159166573428 106.2591724163575 0 -248.5294942876291 271.4634393618666 0 -441.7745722732049 329.9569924718605 0 -253.9697951322857 309.3654782956423 0 0 0 0 0.02952790160853939 -0.1584789336646122 0 0.07275364719030314 -0.8349108169155008 0 0.07634752289070504 -0.1173752817420174 0 0.09419228772571038 -0.5729526784363148 0 0.1108396885267857 -0.8947087394967265 0 0.09500196549909058 -0.7671198243683163 0 0 0 0 -62.55312479702017 184.4712804275253 0 -208.731300770155 451.7880440293611 0 -226.8445873282385 149.6403586694881 0 -349.9081098144167 382.4198982853924 0 -621.9536347171975 464.9153395845687 0 -357.5669896127459 435.867699297528 1.36534496945881e-12 0 0 0 0.02056661514308531 -0.110429757245581 0 0.0506690342122056 -0.5826638857492418 0 0.05317154553382047 -0.08178071828577213 0 0.06559672894246869 -0.3996131819691943 0 0.077187293659408 -0.6244797445646298 0 0.06616047810032481 -0.5352722353205978 1.36534496945881e-12 0 0 0 -1781.095978272962 5254.494558952834 0 -5942.560261080596 12881.169686163 0 -6458.168300643328 4262.05742501295 0 -9961.079611114101 10899.66412669346 0 -17704.01938858441 13256.43555317571 0 -10179.07555384557 12426.19109485067 0 0 0 0 0.02345690774668515 -0.1259440958632253 0 0.05779021332850711 -0.6644330880798559 0 0.06064447848375749 -0.09327090022270888 0 0.0748162102527912 -0.4557174391773594 0 0.08803609564157931 -0.7121087528986892 0 0.07545920530771827 -0.6103989003417332 0 0 0 0 -450.2725487036828 1328.32594428446 0 -1502.333489242015 3256.057674822612 0 -1632.685590251095 1077.446694246313 0 -2518.269034606621 2755.262417380707 0 -4475.803220968456 3350.894048692545 0 -2573.38154879783 3141.073541987757 0 0 0 0 0.0278913319099402 -0.1497209190428346 0 0.06871860875087639 -0.7892563517741507 0 0.07211292631237451 -0.1108846308254582 0 0.08896649111873707 -0.5414936462398398 0 0.1046887068221703 -0.8458303647514197 0 0.08973118178898778 -0.7251276292796816 0 0 0 0 -97.38092756994386 287.2233132684497 0 -324.9311886444245 703.7105617009846 0 -353.1264060689899 232.984443811956 0 -544.6835765469391 595.5802693588262 0 -968.127930393899 724.1794711091968 0 -556.6049863383111 678.8894330846107 0 0 0 0 0.0274854808642925 -0.1475471614139482 0 0.06771816149846542 -0.7778894390674562 0 0.07106301783049311 -0.1092739407457587 0 0.08767093398381753 -0.5336705562305472 0 0.1031638974583474 -0.8336573955877096 0 0.08842447646692474 -0.7146758218610922 0 0 0 0 -109.6275777132582 323.354047246241 0 -365.7912027216155 792.2917005603744 0 -397.5316012699229 262.2908173323197 0 -613.1737186066318 670.5325668814169 0 -1089.855735420227 815.3418813979587 0 -626.5939962498047 764.3410803496079 0 0 0 0 0.02876141320476439 -0.1543787484931929 0 0.07086366159544888 -0.8135680159239211 0 0.07436405048967457 -0.114336328598085 0 0.09174444780566558 -0.5582377376536143 0 0.1079583769051853 -0.8718617608634097 0 0.09253304873188935 -0.7474862089668525 0 0 0 0 -76.44987877361643 225.4709714897082 0 -255.0964943638577 552.3107661454929 0 -277.2325857029661 182.895928595835 0 -427.6258254022715 467.4751737580102 0 -760.0810566234429 568.3676566202837 0 -436.985500286436 532.838672010769 0 0 0 0 0.02742057081036406 -0.1471994409347758 0 0.06755816055270922 -0.7760700343893512 0 0.07089510712379091 -0.1090162997501128 0 0.08746374029444223 -0.5324186808328339 0 0.1029200439643331 -0.8317088655280297 0 0.08821550004153807 -0.7130029941186152 0 0 0 0 -111.7629790408216 329.654010465898 0 -372.9158114682557 807.7371331263264 0 -405.2743706075187 267.4008478787512 0 -625.1160955496584 683.6016346298026 0 -1111.080981234472 831.2373901549724 0 -638.7977255764102 779.2408469816111 0 0 0 0 0.02649167199199066 -0.1422217593632859 0 0.06526862828121548 -0.7499944048537448 0 0.06849240500485311 -0.1053283832570392 0 0.08449901286779471 -0.5144850196167816 0 0.09943085226352508 -0.8037797078660908 0 0.08522526765982348 -0.6890309266361165 0 0 0 0 -148.926920699173 439.2963685885157 0 -496.9107316089141 1076.541087622897 0 -540.0276225247983 356.334108730881 0 -832.9584448030926 911.049496448899 0 -1480.480605021451 1107.87399636485 0 -851.1885994069823 1038.548576681167 0 0 0 0 0.02796387656965843 -0.1501094018509601 0 0.06889744308131378 -0.7912864641152191 0 0.0723006026978037 -0.1111724964221548 0 0.0891980823701973 -0.5428911916496025 0 0.104961283079394 -0.8480043113586397 0 0.08996476604885356 -0.7269944279180475 0 0 0 0 -95.3773436780066 281.3122162749846 0 -318.2463891629434 689.2183304391372 0 -345.8616067421776 228.1898350542946 0 -533.4784254836453 583.3177980214925 0 -948.2129821133079 709.264926445622 0 -545.1546171698717 664.9092068364313 0 0 0 0 0.03081982014208551 -0.1653819456994381 0 0.07594005517405511 -0.8706948172222113 0 0.07969161682408651 -0.1224928947576963 0 0.09831974012774208 -0.5976639864962234 0 0.1156985317995313 -0.9330005478603141 0 0.09916497719110345 -0.8000519128657468 0 0 0 0 -45.69220616001324 134.725533027716 0 -152.4767689337058 329.8166479406926 0 -165.7092507216118 109.2908423493606 0 -255.614144689829 279.2177692000969 0 -454.3659972434233 339.3888621878389 0 -261.20948570908 318.2063231395031 3.422978056576864e-14 0 0 0 0.03092219998511599 -0.1659285052486104 0 0.0761926171073482 -0.8735190540402976 0 0.07995668172475594 -0.1228981696141442 0 0.09864692392136044 -0.5996167438825194 0 0.11608372279479 -0.9360218499613031 0 0.09949498101443792 -0.8026519032178965 3.422978056576864e-14 0 0 0 -44.62242904629061 131.5692591188967 0 -148.9075973229521 322.0775051252343 0 -161.8304094038399 106.7307490890474 0 -249.631510856919 272.6696289887311 0 -443.7331664397403 331.4241259696426 0 -255.0959281707407 310.7406768606542 0 0 0 0 0.03093660247414059 -0.1660053875021163 0 0.07622814740815041 -0.8739162126879182 0 0.07999397099380383 -0.1229551789305058 0 0.09869295240719766 -0.599891381610668 0 0.1161379121605555 -0.9364467099411705 0 0.09954140624015159 -0.8030175378861775 0 0 0 0 -44.47455842481423 131.1329805584697 0 -148.414246526134 321.0077522290993 0 -161.2942543568634 106.3768781816085 0 -248.8045580931928 271.7645049654167 0 -442.2634381923745 330.3231898730556 0 -254.2508784183963 309.7087286603748 0 0 0 0 0.02098792161422483 -0.1126915734444611 0 0.0517070230081474 -0.5945916238531177 0 0.05426080300831611 -0.08345580053390593 0 0.06694054407820482 -0.4077953695378381 0 0.07876857385408864 -0.6372628942049912 0 0.0675158430677382 -0.5462304024035767 0 0 0 0 -1421.985190048136 4195.05397406764 0 -4744.404505091229 10283.92692237761 0 -5156.054618487872 3402.719296951198 0 -7952.70294745696 8701.975000889683 0 -14134.50146343072 10583.52205146037 0 -8126.746221158739 9920.692060630374 3.278027642806695e-12 0 0 0 0.0190828867121911 -0.1024637406041008 0 0.04701356936269457 -0.5406452869454744 0 0.04933553344404911 -0.07588123470693427 0 0.06086427573097137 -0.3707918334002185 0 0.07161860177311584 -0.579446818778795 0 0.06138735167482752 -0.4966700942480789 3.278027642806695e-12 0 0 0 -4276.22567562133 12615.56668238668 0 -14267.44093644152 30926.98407250475 0 -15505.35697771075 10232.80331515995 0 -23915.44040150603 26169.35996993105 0 -42505.31659083452 31828.01348928426 0 -24438.82304551499 29834.56586142784 7.830870697645248e-13 0 0 0 0.02164059946574248 -0.1161953430053432 0 0.05331506944828638 -0.613065375064619 0 0.05594827626804556 -0.086050692534043 0 0.06902238727394412 -0.4204689090097109 0 0.08121831000165163 -0.6570611838020993 0 0.06961557977062345 -0.5632027949886547 7.830870697645248e-13 0 0 0 -1021.52922547828 3013.637336125342 0 -3408.302729819932 7387.654315307792 0 -3704.026054202067 2444.443483017563 0 -5713.098116171603 6251.258898019732 0 -10154.0186030178 7602.866243982719 0 -5838.128375472365 7126.726204089594 0 0 0 0 0.02833584073867589 -0.1521009478795602 0 0.06981443233135902 -0.8016870776959519 0 0.07326293364495805 -0.1126482885541724 0 0.09038561149786477 -0.5500528488660837 0 0.1063589926948404 -0.8591411742631387 0 0.09116251562776945 -0.7365589780717537 0 0 0 0 -85.88623338352836 253.3108885147624 0 -286.5800735795221 620.5670870120736 0 -311.4477980157246 205.4774097484752 0 -480.3989467505073 525.2292867548107 0 -853.8747211263164 638.6131073866229 0 -490.913526632227 598.6834204501168 8.344628741467802e-14 0 0 0 0.02751014616648931 -0.1476792882641408 0 0.06777896101905882 -0.7785806977903988 0 0.07112682305722806 -0.1093718398617764 0 0.08774966678122693 -0.5341462107809891 0 0.1032565610964584 -0.8343977062858289 0 0.08850388670779855 -0.7153113979136416 8.344628741467802e-14 0 0 0 -108.8296405728078 320.9999339133316 0 -363.1289447684615 786.5201848537099 0 -394.6383548177105 260.3813474424535 0 -608.7112019435865 665.6490324158534 0 -1081.924483192851 809.4021846419819 0 -622.0338198692274 758.7734648799551 0 0 0 0 0.02858244067789284 -0.1534209346062321 0 0.07042240204255405 -0.8085740681816846 0 0.07390096834499398 -0.1136264917296071 0 0.0911729740909528 -0.5547968301236584 0 0.1072857316145205 -0.8665150702181786 0 0.09195665552928194 -0.7428929520259371 0 0 0 0 -80.24883393342645 236.6789827454265 0 -267.7713723167303 579.7900397625186 0 -291.0071827749182 191.9869548233329 0 -448.871587889582 490.7263368282177 0 -797.8411339987769 596.6477414862482 0 -458.6962119665927 559.3470627562315 0 0 0 0 0.02515094848456339 -0.1350328179396443 0 0.06196450466744145 -0.7122511799555664 0 0.06502500173755295 -0.1000028821850017 0 0.08022078511585058 -0.4885493259185796 0 0.09439607375352625 -0.7633455969416459 0 0.08091024657418686 -0.6543402760550128 0 0 0 0 -234.5129036662397 691.7932047575027 0 -782.4631380112295 1695.561440106704 0 -850.3558554877951 561.1399904682504 0 -1311.606892271858 1434.83568707181 0 -2331.187283126247 1744.930993695757 0 -1340.312059644707 1635.701369141574 0 0 0 0 0.02337545147827626 -0.1255069645408903 0 0.05758950818165828 -0.6621311538850343 0 0.06043385845264915 -0.09294713639601089 0 0.07455635892557008 -0.4541374845818956 0 0.08773031538925373 -0.7096420448340846 0 0.07519712016238198 -0.6082837805377587 0 0 0 0 -465.7888426971357 1374.101919259039 0 -1554.102797635311 3368.279476310828 0 -1688.946654357828 1114.576681405269 0 -2605.045899055913 2850.219999031075 0 -4630.032920686217 3466.385511154072 0 -2662.05749397562 3249.33119378568 1.555839661775388e-13 0 0 0 0.02556215569888537 -0.1372381782949966 0 0.06297784751505364 -0.7238386938285766 0 0.06608841652838056 -0.101636516021225 0 0.08153284428158245 -0.4965094247313619 0 0.09594012481662682 -0.7757600915133049 0 0.08223358840525458 -0.6649897916562202 1.555839661775388e-13 0 0 0 -202.9364602465712 598.6361876789418 0 -677.1101898419182 1467.179267677765 0 -735.8619983104206 485.5782003469628 0 -1135.012171511553 1241.588960674448 0 -2017.323557862642 1509.894455797611 0 -1159.852636809553 1415.386937041597 3.42487248595624e-14 0 0 0 0.03091979876134654 -0.1659156870740922 0 0.07618669341047891 -0.8734528350910135 0 0.07995046476982455 -0.1228886647740528 0 0.09863924995189953 -0.5995709538058009 0 0.116074688234818 -0.9359510120555866 0 0.09948724090000113 -0.8025909405745799 3.42487248595624e-14 0 0 0 -44.64714461221784 131.642180090617 0 -148.9900575493199 322.2563069066653 0 -161.9200240697151 106.7898961884949 0 -249.7697303861783 272.8209142197387 0 