<?xml version="1.0" encoding="UTF-8"?>
<!-- This file was created by ACADEMIC version of SMILE -->
<smile version="1.0" id="unknown" numsamples="10000" discsamples="10000">
	<nodes>
		<cpt id="Sex">
			<state id="M" />
			<state id="W" />
			<probabilities>0.695118 0.304882</probabilities>
		</cpt>
		<cpt id="Age">
			<state id="age_2_young" />
			<state id="age_3_young_adult" />
			<state id="age_4_adult" />
			<state id="age_5_old_adult" />
			<probabilities>0.19078 0.380053 0.298359 0.130808</probabilities>
		</cpt>
		<cpt id="SD">
			<state id="SD_1_short" />
			<state id="SD_2_normal" />
			<state id="SD_3_excessive" />
			<parents>Age Sex</parents>
			<probabilities>0.060844313 0.937824307 0.00133138 0.078497363 0.919507767 0.00199487 0.091220196 0.90787856 0.000901244 0.11412849 0.885107393 0.000764117 0.121549326 0.877796408 0.000654266 0.159430754 0.839586651 0.000982595 0.149294451 0.8500227970000001 0.000682752 0.225208895 0.774069936 0.000721169</probabilities>
		</cpt>
		<cpt id="SES">
			<state id="ses_0" />
			<state id="ses_1" />
			<state id="ses_2" />
			<parents>Age Sex</parents>
			<probabilities>0.265038 0.608924 0.126038 0.227351 0.606203 0.166446 0.2481707518292481 0.6176143823856175 0.1342148657851343 0.194898 0.6426539999999999 0.162448 0.252783 0.615168 0.132049 0.188273 0.641218 0.170509 0.2429122429122429 0.6313856313856314 0.1257021257021257 0.162707 0.664855 0.172438</probabilities>
		</cpt>
		<cpt id="Depression">
			<state id="False" />
			<state id="True" />
			<parents>Age SES Sex</parents>
			<probabilities>0.997863655 0.002136345 0.994321309 0.005678691 0.99885487 0.00114513 0.997887385 0.002112615 0.998969781 0.001030219 0.998266781 0.001733219 0.996706037 0.003293963 0.988462896 0.011537104 0.997612648 0.002387352 0.994959954 0.005040046 0.997874826 0.002125174 0.99539649 0.00460351 0.9932493100000001 0.00675069 0.9801555749999999 0.019844425 0.996694208 0.003305792 0.992654556 0.007345444 0.997027521 0.002972479 0.993538526 0.006461474 0.993046405 0.006953595 0.965170613 0.034829387 0.994559063 0.005440937 0.98925555 0.01074445 0.9972002679999999 0.002799732 0.993063387 0.006936613</probabilities>
		</cpt>
		<cpt id="PA">
			<state id="PA_1" />
			<state id="PA_2" />
			<parents>Age SD SES Sex</parents>
			<probabilities>0.482960174 0.517039826 0.620871248 0.379128752 0.471864678 0.528135322 0.554851444 0.445148556 0.424304227 0.575695773 0.490459825 0.509540175 0.394941489 0.605058511 0.514621382 0.485378618 0.389521957 0.610478043 0.461170736 0.538829264 0.336538844 0.663461156 0.362231129 0.637768871 0.524754729 0.475245271 0.542883361 0.457116639 0.42757625 0.57242375 0.5888450200000001 0.41115498 0.489527729 0.510472271 0.514850294 0.485149706 0.540085956 0.459914044 0.59533725 0.40466275 0.517562867 0.482437133 0.5801786209999999 0.419821379 0.471672205 0.528327795 0.541112446 0.458887554 0.468980888 0.531019112 0.525066668 0.474933332 0.467361722 0.532638278 0.496116563 0.503883437 0.393204847 0.606795153 0.427089822 0.572910178 0.486764295 0.513235705 0.50487751 0.49512249 0.550936659 0.449063341 0.58643991 0.41356009 0.512318406 0.487681594 0.533888241 0.466111759 0.56087748 0.43912252 0.538736484 0.461263516 0.518199623 0.481800377 0.512441111 0.487558889 0.448944356 0.551055644 0.447486087 0.552513913 0.484326733 0.515673267 0.479155827 0.520844173 0.484082075 0.515917925 0.452198731 0.547801269 0.39545848 0.6045415200000001 0.37222709 0.62777291 0.531613695 0.468386305 0.488367237 0.511632763 0.581409954 0.418590046 0.490921527 0.509078473 0.48954251 0.51045749 0.464206372 0.535793628 0.537268254 0.462731746 0.579118873 0.420881127 0.514437807 0.485562193 0.5156834259999999 0.484316574 0.464639523 0.535360477 0.473053893 0.526946107 0.483202866 0.516797134 0.500088604 0.499911396 0.473048548 0.526951452 0.436542761 0.563457239 0.393267294 0.606732706 0.378980607 0.621019393 0.492440477 0.507559523 0.533342164 0.466657836 0.6309098869999999 0.369090113 0.492169558 0.507830442 0.488970119 0.511029881 0.503256046 0.496743954</probabilities>
		</cpt>
		<cpt id="Smoking">
			<state id="sm_1_not_smoker" />
			<state id="sm_2_smoker" />
			<state id="sm_3_ex_smoker" />
			<parents>Age PA Sex</parents>
			<probabilities>0.446330401 0.440945892 0.112723707 0.529641379 0.337748088 0.132610534 0.557463069 0.325515129 0.117021802 0.5886502850000001 0.271293166 0.140056549 0.471714462 0.360802735 0.167482803 0.554434337 0.28323897 0.162326693 0.551256389 0.255864566 0.192879044 0.579066261 0.225941944 0.194991794 0.398959148 0.359016238 0.242024614 0.496183584 0.327477342 0.176339073 0.483745206 0.24334485 0.272909944 0.542385494 0.242025861 0.215588646 0.37681277 0.303406481 0.319780749 0.543890929 0.26998268 0.18612639 0.4486828 0.20376842 0.347548781 0.5693515179999999 0.188244006 0.242404476</probabilities>
		</cpt>
		<cpt id="Anxiety">
			<state id="False" />
			<state id="True" />
			<parents>Depression SD Sex Smoking</parents>
			<probabilities>0.971336721 0.028663279 0.9615512980000001 0.038448702 0.968828833 0.031171167 0.943572812 0.056427188 0.924390764 0.075609236 0.925219217 0.074780783 0.984691033 0.015308967 0.980021819 0.019978181 0.979219465 0.020780535 0.969387083 0.030612917 0.951017224 0.048982776 0.957426591 0.042573409 0.979844732 0.020155268 0.970985053 0.029014947 0.987399873 0.012600127 0.984583757 0.015416243 0.953909558 0.046090442 0.9500612859999999 0.049938714 0.87238812 0.12761188 0.88629607 0.11370393 0.926218112 0.073781888 0.910199251 0.089800749 0.850381421 0.149618579 0.912162308 0.08783769199999999 0.887635786 0.112364214 0.916113641 0.08388635899999999 0.875464154 0.124535846 0.900114221 0.09988577899999999 0.887995922 0.112004078 0.858307872 0.141692128 0.915760002 0.084239998 0.972142923 0.027857077 0.972142923 0.027857077 0.973071964 0.026928036 0.971281878 0.028718122 0.971245613 0.028754387</probabilities>
		</cpt>
		<cpt id="Alcohol">
			<state id="high" />
			<state id="low" />
			<parents>Age Sex Smoking</parents>
			<probabilities>0.006440306 0.993559694 0.025006952 0.974993048 0.019256092 0.980743908 0.001413651 0.998586349 0.004426413 0.995573587 0.002911964 0.997088036 0.019231995 0.9807680050000001 0.061380648 0.938619352 0.044717488 0.955282512 0.00302048 0.99697952 0.008328991000000001 0.991671009 0.00690617 0.99309383 0.052038441 0.947961559 0.134326352 0.865673648 0.09703972900000001 0.902960271 0.009248324 0.990751676 0.020016907 0.979983093 0.021599909 0.978400091 0.103943403 0.896056597 0.21175689 0.78824311 0.1629616 0.8370384 0.019931973 0.980068027 0.039153935 0.960846065 0.030181896 0.969818104</probabilities>
		</cpt>
		<cpt id="BMI">
			<state id="bmi_1_underweight" />
			<state id="bmi_2_normal" />
			<state id="bmi_3_overweight" />
			<state id="bmi_4_obese" />
			<parents>Age PA Sex Smoking</parents>
			<probabilities>0.006932337 0.405827629 0.419231818 0.168008215 0.013099617 0.446791412 0.391008827 0.149100144 0.005357608 0.335709669 0.45172678 0.207205942 0.049956089 0.654860039 0.204120659 0.091063214 0.067968655 0.6401471 0.192224039 0.099660206 0.040770745 0.633626296 0.215411425 0.110191534 0.002990791 0.535477987 0.377235618 0.084295604 0.008436353000000001 0.531863616 0.369361733 0.090338298 0.001517427 0.464137135 0.43166399 0.102681447 0.058817872 0.7117822069999999 0.164448222 0.064951698 0.054191728 0.70086799 0.170365884 0.074574398 0.036164178 0.702517794 0.185604945 0.075713083 0.001641685 0.304311832 0.481547262 0.212499221 0.005710138 0.344742465 0.449492701 0.200054696 0.001256896 0.22830507 0.494927316 0.275510718 0.030358861 0.60786677 0.239963269 0.1218111 0.039411622 0.59800915 0.249830043 0.112749185 0.022061478 0.571115555 0.274545154 0.132277812 0.001652834 0.426926902 0.44926847 0.122151794 0.004118361 0.402353375 0.461015239 0.132513025 0.000486406 0.328585612 0.499500428 0.171427554 0.034010075 0.676452006 0.203350167 0.08618775200000001 0.036077128 0.67214929 0.206867442 0.08490614 0.020230869 0.647274652 0.239095822 0.093398657 0.001241755 0.220345696 0.510119266 0.268293283 0.004605307 0.285101739 0.465571839 0.244721115 0.000543301 0.147949379 0.495925175 0.355582145 0.012451221 0.493821986 0.319496163 0.17423063 0.023428805 0.532743674 0.312302796 0.131524726 0.007733406 0.456598716 0.350007018 0.18566086 0.000822645 0.321627775 0.512940933 0.164608647 0.002545302 0.316431751 0.493400531 0.187622417 0.000440481 0.205498496 0.548690936 0.245370087 0.017710449 0.596761693 0.282985983 0.102541876 0.020386634 0.6101968639999999 0.274267264 0.095149238 0.010340505 0.57178982 0.310156253 0.107713421 0.0008818539999999999 0.17016489 0.519801186 0.309152069 0.007458112 0.275716949 0.459284453 0.257540485 0.000603617 0.119128558 0.482802397 0.397465428 0.006456409 0.365499465 0.385650355 0.242393771 0.020055464 0.467361196 0.36587761 0.14670573 0.003204784 0.363890078 0.402922768 0.229982369 0.0006687419999999999 0.249137387 0.546656377 0.203537495 0.005186149 0.29683172 0.499814007 0.198168124 0.000319515 0.163586929 0.551184751 0.284908806 0.01123616 0.477033685 0.371178884 0.140551272 0.014591224 0.5470441660000001 0.335189882 0.103174728 0.008640798999999999 0.474752803 0.375526209 0.141080189</probabilities>
		</cpt>
		<cpt id="Hyperchol_">
			<state id="False" />
			<state id="True" />
			<parents>Age Alcohol BMI PA Sex Smoking</parents>
			<probabilities>0.466145186 0.533854814 0.498714283 0.501285717 0.448949082 0.5510509179999999 0.448949082 0.5510509179999999 0.436380985 0.563619015 0.465471033 0.534528967 0.465471033 0.534528967 0.450401296 0.549598704 0.465471033 0.534528967 0.466145186 0.533854814 0.44942442 0.55057558 0.449296467 0.550703533 0.524512014 0.475487986 0.656359165 0.343640835 0.476129293 0.523870707 0.487493212 0.512506788 0.431150689 0.568849311 0.429230214 0.5707697859999999 0.542360475 0.457639525 0.583678742 0.416321258 0.529807363 0.470192637 0.536611961 0.463388039 0.537376217 0.462623783 0.485252543 0.514747457 0.467411585 0.532588415 0.470948698 0.5290513019999999 0.490112596 0.509887404 0.449013666 0.550986334 0.485440808 0.514559192 0.465471033 0.534528967 0.465224428 0.534775572 0.532650249 0.467349751 0.475227164 0.524772836 0.482320107 0.5176798929999999 0.522541941 0.477458059 0.448666281 0.5513337190000001 0.447915944 0.552084056 0.486344067 0.513655933 0.437771357 0.562228643 0.448318278 0.551681722 0.449360971 0.5506390289999999 0.448601257 0.551398743 0.425710251 0.574289749 0.423702477 0.576297523 0.409233794 0.590766206 0.465177412 0.534822588 0.448949082 0.5510509179999999 0.435233002 0.564766998 0.643548714 0.356451286 0.736291679 0.263708321 0.495230901 0.504769099 0.743362269 0.256637731 0.77084625 0.22915375 0.721697283 0.278302717 0.723345616 0.276654384 0.709917181 0.290082819 0.534927434 0.465072566 0.712944994 0.287055006 0.722246668 0.277753332 0.603084536 0.396915464 0.748597117 0.251402883 0.765892152 0.234107848 0.686176261 0.313823739 0.790214305 0.209785695 0.802753242 0.197246758 0.7598304259999999 0.240169574 0.795649456 0.204350544 0.796386595 0.203613405 0.742621984 0.257378016 0.780033381 0.219966619 0.787289477 0.212710523 0.751590946 0.248409054 0.63798352 0.36201648 0.61888669 0.38111331 0.58603984 0.41396016 0.704826305 0.295173695 0.700674756 0.299325244 0.668683292 0.331316708 0.701416087 0.298583913 0.665528514 0.334471486 0.643780393 0.356219607 0.703453486 0.296546514 0.702071306 0.297928694 0.655293546 0.344706454 0.553849142 0.446150858 0.5346477509999999 0.465352249 0.5177457009999999 0.482254299 0.681940374 0.318059626 0.67723163 0.32276837 0.65305908 0.34694092 0.595807106 0.404192894 0.5412975880000001 0.458702412 0.534255878 0.465744122 0.63795317 0.36204683 0.6188731 0.3811269 0.555621093 0.444378907 0.434876521 0.565123479 0.498616693 0.501383307 0.435233002 0.564766998 0.448949082 0.5510509179999999 0.456819886 0.543180114 0.449296686 0.5507033140000001 0.465808216 0.534191784 0.482519389 0.517480611 0.448949082 0.5510509179999999 0.48166638 0.5183336200000001 0.465937725 0.534062275 0.439570813 0.560429187 0.454525291 0.5454747089999999 0.438865516 0.561134484 0.377095308 0.622904692 0.512489047 0.487510953 0.496578212 0.503421788 0.442390213 0.557609787 0.433861485 0.566138515 0.434553637 0.565446363 0.416478109 0.583521891 0.515501774 0.484498226 0.496583148 0.503416852 0.531147626 0.468852374 0.366031715 0.633968285 0.317932366 0.682067634 0.318047629 0.6819523709999999 0.512211409 0.487788591 0.487506342 0.512493658 0.437561297 0.562438703 0.354939693 0.6450603070000001 0.347170226 0.652829774 0.361571798 0.6384282019999999 0.409223529 0.590776471 0.371908287 0.628091713 0.416264881 0.583735119 0.292855081 0.707144919 0.30864661 0.69135339 0.284297876 0.715702124 0.469205784 0.530794216 0.441679768 0.558320232 0.434602199 0.565397801 0.261164078 0.738835922 0.278248543 0.721751457 0.31661404 0.68338596 0.421995183 0.5780048169999999 0.448164938 0.551835062 0.434958629 0.565041371 0.635238544 0.364761456 0.599297108 0.400702892 0.447221307 0.552778693 0.648568457 0.351431543 0.648015347 0.351984653 0.552661538 0.447338462 0.573275644 0.426724356 0.549471852 0.450528148 0.483167524 0.516832476 0.659064249 0.340935751 0.622653419 0.377346581 0.5570795160000001 0.442920484 0.60458073 0.39541927 0.578169169 0.421830831 0.5274716149999999 0.472528385 0.740296881 0.259703119 0.720583835 0.279416165 0.702353351 0.297646649 0.649203534 0.350796466 0.600270156 0.399729844 0.588626279 0.411373721 0.734614816 0.265385184 0.7156833460000001 0.284316654 0.696509537 0.303490463 0.51241969 0.48758031 0.45427519 0.5457248099999999 0.454171836 0.545828164 0.64450909 0.35549091 0.615591668 0.384408332 0.614144347 0.385855653 0.544570483 0.455429517 0.485984242 0.514015758 0.492218948 0.507781052 0.633296651 0.366703349 0.6017463790000001 0.398253621 0.601701038 0.398298962 0.439863791 0.5601362090000001 0.397872006 0.6021279940000001 0.400644497 0.599355503 0.607723983 0.392276017 0.548483658 0.451516342 0.550029756 0.449970244 0.462234098 0.537765902 0.389736595 0.610263405 0.4078816 0.5921184 0.6000506799999999 0.39994932 0.527168353 0.472831647 0.570429178 0.429570822 0.448601257 0.551398743 0.42552229 0.57447771 0.434684256 0.565315744 0.464883977 0.5351160230000001 0.422164328 0.577835672 0.435315059 0.564684941 0.448601257 0.551398743 0.426719674 0.573280326 0.448949082 0.5510509179999999 0.434298455 0.565701545 0.444297582 0.555702418 0.4481002 0.5518998000000001 0.340436412 0.659563588 0.334737936 0.665262064 0.286679206 0.713320794 0.408594063 0.591405937 0.327595453 0.672404547 0.432553918 0.567446082 0.305175287 0.694824713 0.33055336 0.66944664 0.230811999 0.769188001 0.314459932 0.685540068 0.34235908 0.65764092 0.387908383 0.612091617 0.279728149 0.720271851 0.245380007 0.754619993 0.228378163 0.771621837 0.404883012 0.595116988 0.378475974 0.621524026 0.393080074 0.606919926 0.257984365 0.742015635 0.240341631 0.7596583690000001 0.227273047 0.772726953 0.368526926 0.631473074 0.346542279 0.653457721 0.405535715 0.594464285 0.234474859 0.765525141 0.23569893 0.76430107 0.238747347 0.761252653 0.357171852 0.642828148 0.384541844 0.615458156 0.407061796 0.592938204 0.264679813 0.735320187 0.234549805 0.765450195 0.226783972 0.773216028 0.435682188 0.564317812 0.425933353 0.574066647 0.429431096 0.570568904 0.457594463 0.542405537 0.462484951 0.537515049 0.496004017 0.503995983 0.475692628 0.524307372 0.43971282 0.56028718 0.464708944 0.535291056 0.426951225 0.573048775 0.459887756 0.540112244 0.482411396 0.517588604 0.446450263 0.553549737 0.512096232 0.487903768 0.446091978 0.553908022 0.435798393 0.564201607 0.426198592 0.573801408 0.362622319 0.637377681 0.515705797 0.484294203 0.474254583 0.525745417 0.4643778 0.5356222 0.46995358 0.53004642 0.428070309 0.571929691 0.408110611 0.591889389 0.517335828 0.482664172 0.454599203 0.545400797 0.468985241 0.5310147589999999 0.395450402 0.604549598 0.330471156 0.669528844 0.339888416 0.660111584 0.429908664 0.5700913359999999 0.356554069 0.643445931 0.381120215 0.618879785 0.394612897 0.605387103 0.33118533 0.6688146699999999 0.364880291 0.635119709 0.431997414 0.568002586 0.358107097 0.641892903 0.365673311 0.634326689 0.361238046 0.638761954 0.312968887 0.687031113 0.326662397 0.673337603 0.418940332 0.581059668 0.325988323 0.674011677 0.345654775 0.654345225 0.347847236 0.652152764 0.308539041 0.691460959 0.327150657 0.672849343 0.402934789 0.597065211 0.350327757 0.649672243 0.377649883 0.622350117 0.434958456 0.565041544 0.487441969 0.512558031 0.435233002 0.564766998 0.434876521 0.565123479 0.421533525 0.578466475 0.448601257 0.551398743 0.448949082 0.5510509179999999 0.470000918 0.529999082 0.448601257 0.551398743 0.435945067 0.564054933 0.449013268 0.550986732 0.433507159 0.566492841 0.283496463 0.716503537 0.27821845 0.72178155 0.25083882 0.74916118 0.392256199 0.607743801 0.354833525 0.645166475 0.346328023 0.653671977 0.279305155 0.720694845 0.279620896 0.720379104 0.251591606 0.748408394 0.339633051 0.660366949 0.361600811 0.638399189 0.355479797 0.644520203 0.248091712 0.751908288 0.236093858 0.763906142 0.235580731 0.764419269 0.329848312 0.670151688 0.332635607 0.6673643929999999 0.382763037 0.617236963 0.228121218 0.771878782 0.242747145 0.7572528549999999 0.236509737 0.763490263 0.385269182 0.614730818 0.316138615 0.683861385 0.394824524 0.605175476 0.256503852 0.743496148 0.229028962 0.770971038 0.212077577 0.787922423 0.404036887 0.595963113 0.406667571 0.5933324290000001 0.437094121 0.562905879 0.275235434 0.7247645660000001 0.235943026 0.7640569740000001 0.240734211 0.759265789 0.354962678 0.645037322 0.433233874 0.566766126 0.408199389 0.591800611 0.465059414 0.5349405860000001 0.439735966 0.560264034 0.452305158 0.547694842 0.401483513 0.598516487 0.359473079 0.640526921 0.448814818 0.551185182 0.466786457 0.533213543 0.460214046 0.539785954 0.434849198 0.565150802 0.336065695 0.6639343049999999 0.450607774 0.549392226 0.406007378 0.593992622 0.362609927 0.6373900729999999 0.323061571 0.676938429 0.324883662 0.675116338 0.251449613 0.748550387 0.254089943 0.745910057 0.226841122 0.773158878 0.344464953 0.655535047 0.313706712 0.686293288 0.319675185 0.680324815 0.255230491 0.7447695090000001 0.237387281 0.762612719 0.205835343 0.7941646570000001 0.343176756 0.656823244 0.297672398 0.702327602 0.313339234 0.686660766 0.228270185 0.771729815 0.220375847 0.779624153 0.206894107 0.793105893 0.334749585 0.665250415 0.299773046 0.700226954 0.315997666 0.684002334 0.220650231 0.779349769 0.201778177 0.798221823 0.195059364 0.804940636 0.327111754 0.672888246 0.268920801 0.731079199 0.311898597 0.688101403 0.260073695 0.739926305 0.258541168 0.741458832 0.219669797 0.780330203 0.333098153 0.666901847 0.264045849 0.7359541509999999 0.295123546 0.704876454 0.250126832 0.749873168 0.227059653 0.772940347 0.229118598 0.770881402</probabilities>
		</cpt>
		<cpt id="Diabetes">
			<state id="False" />
			<state id="True" />
			<parents>Age BMI PA Sex</parents>
			<probabilities>0.986650693 0.013349307 0.99633026 0.00366974 0.9910621509999999 0.008937848999999999 0.9947869580000001 0.005213042 0.99278223 0.00721777 0.994720888 0.005279112 0.9931408309999999 0.006859169 0.995934647 0.004065353 0.992488923 0.007511077 0.991948298 0.008051702000000001 0.993003147 0.006996853 0.992059187 0.007940813 0.985940308 0.014059692 0.9868037079999999 0.013196292 0.984771657 0.015228343 0.982024107 0.017975893 0.979732617 0.020267383 0.993282865 0.006717135 0.986847565 0.013152435 0.992272736 0.007727264 0.989521163 0.010478837 0.993125589 0.006874411 0.990074837 0.009925163000000001 0.993658418 0.006341582 0.984624401 0.015375599 0.987038172 0.012961828 0.986787639 0.013212361 0.986320211 0.013679789 0.956998539 0.043001461 0.974967085 0.025032915 0.957173339 0.042826661 0.966025735 0.033974265 0.982256834 0.017743166 0.994263159 0.005736841 0.956712992 0.043287008 0.992523802 0.007476198 0.971790656 0.028209344 0.9891762589999999 0.010823741 0.9757134159999999 0.024286584 0.990874035 0.009125965 0.947443145 0.052556855 0.979281983 0.020718017 0.956670061 0.043329939 0.978156594 0.021843406 0.878437324 0.121562676 0.9382233 0.0617767 0.884979471 0.115020529 0.930775022 0.06922497800000001 0.948706405 0.051293595 0.9690942259999999 0.030905774 0.9509874230000001 0.049012577 0.981813997 0.018186003 0.922690072 0.077309928 0.976164736 0.023835264 0.925331645 0.07466835500000001 0.978779266 0.021220734 0.874766205 0.125233795 0.949096195 0.050903805 0.885999053 0.114000947 0.95319783 0.04680217 0.786184334 0.213815666 0.875426033 0.124573967 0.78447323 0.21552677 0.892336478 0.107663522</probabilities>
		</cpt>
		<cpt id="Hypertension">
			<state id="False" />
			<state id="True" />
			<parents>Age Alcohol BMI Diabetes PA Smoking</parents>
			<probabilities>0.851078798 0.148921202 0.8713456429999999 0.128654357 0.850890799 0.149109201 0.855408562 0.144591438 0.847343618 0.152656382 0.850984798 0.149015202 0.846087813 0.153912187 0.846087813 0.153912187 0.846087813 0.153912187 0.846087813 0.153912187 0.846087813 0.153912187 0.846087813 0.153912187 0.928558686 0.07144131400000001 0.9521785699999999 0.04782143 0.901338418 0.098661582 0.924287673 0.075712327 0.9389993599999999 0.06100064 0.936421609 0.063578391 0.846087813 0.153912187 0.8512665 0.1487335 0.846087813 0.153912187 0.851078798 0.148921202 0.863598234 0.136401766 0.850890799 0.149109201 0.880949953 0.119050047 0.888936473 0.111063527 0.915714645 0.08428535500000001 0.87432071 0.12567929 0.9161160350000001 0.083883965 0.903424733 0.09657526700000001 0.8196847819999999 0.180315218 0.825238766 0.174761234 0.846087813 0.153912187 0.846184901 0.153815099 0.820202169 0.179797831 0.82042886 0.17957114 0.883274566 0.116725434 0.823937504 0.176062496 0.843994724 0.156005276 0.796334476 0.203665524 0.839053426 0.160946574 0.807332323 0.192667677 0.8507966810000001 0.149203319 0.851360085 0.148639915 0.846184901 0.153815099 0.846184901 0.153815099 0.846087813 0.153912187 0.846087813 0.153912187 0.987478551 0.012521449 0.98424618 0.01575382 0.964624908 0.035375092 0.986270682 0.013729318 0.980416082 0.019583918 0.942307652 0.057692348 0.859754239 0.140245761 0.851547315 0.148452685 0.8507966810000001 0.149203319 0.85577288 0.14422712 0.851453848 0.148546152 0.846281867 0.153718133 0.982679882 0.017320118 0.984041917 0.015958083 0.981728095 0.018271905 0.978964727 0.021035273 0.979562911 0.020437089 0.982462154 0.017537846 0.916089975 0.083910025 0.911115051 0.088884949 0.860237448 0.139762552 0.939916876 0.060083124 0.908957549 0.091042451 0.907100329 0.092899671 0.950062757 0.049937243 0.946986503 0.053013497 0.949113397 0.050886603 0.947782364 0.052217636 0.957212362 0.042787638 0.948824111 0.051175889 0.872888284 0.127111716 0.905056645 0.09494335499999999 0.883019266 0.116980734 0.889788314 0.110211686 0.9212328950000001 0.078767105 0.896791461 0.103208539 0.855149999 0.144850001 0.877133176 0.122866824 0.872255626 0.127744374 0.8604686070000001 0.139531393 0.873386701 0.126613299 0.864063103 0.135936897 0.799408891 0.200591109 0.757397022 0.242602978 0.768188662 0.231811338 0.804658892 0.195341108 0.79499039 0.20500961 0.783037093 0.216962907 0.850890799 0.149109201 0.886575436 0.113424564 0.851078857 0.148921143 0.858946389 0.141053611 0.86793986 0.13206014 0.860195519 0.139804481 0.846087813 0.153912187 0.846184901 0.153815099 0.846087813 0.153912187 0.846087813 0.153912187 0.846184901 0.153815099 0.846087813 0.153912187 0.913456912 0.086543088 0.921064798 0.078935202 0.919793073 0.080206927 0.920166758 0.079833242 0.915990073 0.084009927 0.9122108 0.0877892 0.825679825 0.174320175 0.848833427 0.151166573 0.796110811 0.203889189 0.851266559 0.148733441 0.811094405 0.188905595 0.81211585 0.18788415 0.857937647 0.142062353 0.829221655 0.170778345 0.841611356 0.158388644 0.871607913 0.128392087 0.8604513580000001 0.139548642 0.876497096 0.123502904 0.789980888 0.210019112 0.766137506 0.233862494 0.810311765 0.189688235 0.782287878 0.217712122 0.830596613 0.169403387 0.85361981 0.14638019 0.658083547 0.341916453 0.709518351 0.290481649 0.682075862 0.317924138 0.724793693 0.275206307 0.682033243 0.317966757 0.730341979 0.269658021 0.726847864 0.273152136 0.736779461 0.263220539 0.797132747 0.202867253 0.710414219 0.289585781 0.755601119 0.244398881 0.768020248 0.231979752 0.983184701 0.016815299 0.977223262 0.022776738 0.931291303 0.068708697 0.9788814850000001 0.021118515 0.965169121 0.034830879 0.949999 0.050001 0.855417615 0.144582385 0.860371342 0.139628658 0.846087813 0.153912187 0.860107329 0.139892671 0.851453966 0.148546034 0.850984858 0.149015142 0.968609934 0.031390066 0.963934118 0.036065882 0.97612723 0.02387277 0.967239292 0.032760708 0.96734912 0.03265088 0.970436894 0.029563106 0.8899994020000001 0.110000598 0.88513209 0.11486791 0.884829534 0.115170466 0.881114545 0.118885455 0.925142696 0.074857304 0.894014971 0.105985029 0.916774614 0.083225386 0.914089887 0.085910113 0.920641254 0.07935874599999999 0.916128061 0.08387193900000001 0.9171606329999999 0.082839367 0.912653384 0.087346616 0.807944183 0.192055817 0.800119351 0.199880649 0.783711241 0.216288759 0.819155399 0.180844601 0.821311108 0.178688892 0.8143948989999999 0.185605101 0.784277331 0.215722669 0.798652516 0.201347484 0.777499537 0.222500463 0.791249425 0.208750575 0.798090473 0.201909527 0.786276848 0.213723152 0.572593284 0.427406716 0.5820724269999999 0.417927573 0.581306286 0.418693714 0.592495562 0.407504438 0.621308853 0.378691147 0.637091379 0.362908621 0.850984858 0.149015142 0.847919472 0.152080528 0.825979273 0.174020727 0.851641019 0.148358981 0.854243487 0.145756513 0.8465725200000001 0.15342748 0.846087813 0.153912187 0.846184901 0.153815099 0.8456511249999999 0.154348875 0.846087813 0.153912187 0.846087813 0.153912187 0.846087813 0.153912187 0.858700126 0.141299874 0.799024272 0.200975728 0.859255058 0.140744942 0.840882066 0.159117934 0.834266384 0.165733616 0.835845309 0.164154691 0.86211977 0.13788023 0.746888216 0.253111784 0.814616821 0.185383179 0.793175843 0.206824157 0.821522212 0.178477788 0.8491378469999999 0.150862153 0.737310974 0.262689026 0.70699622 0.29300378 0.721038064 0.278961936 0.739641425 0.260358575 0.745061341 0.254938659 0.725371954 0.274628046 0.656081303 0.343918697 0.549198047 0.450801953 0.683028685 0.316971315 0.755577676 0.244422324 0.593922934 0.406077066 0.64019053 0.35980947 0.580999047 0.419000953 0.529365149 0.470634851 0.5093942 0.4906058 0.5766160809999999 0.423383919 0.564842998 0.435157002 0.540486163 0.459513837 0.525585236 0.474414764 0.515485662 0.484514338 0.467647491 0.532352509 0.617913594 0.382086406 0.60808854 0.39191146 0.59690499 0.40309501 0.947963922 0.052036078 0.944456673 0.055543327 0.896195728 0.103804272 0.95134948 0.04865052 0.923645749 0.076354251 0.919680524 0.080319476 0.8456511249999999 0.154348875 0.847151268 0.152848732 0.845554098 0.154445902 0.85586363 0.14413637 0.8507966810000001 0.149203319 0.846184901 0.153815099 0.919395194 0.080604806 0.895978228 0.104021772 0.903087646 0.09691235400000001 0.918161581 0.081838419 0.90636812 0.09363188 0.91075499 0.08924501 0.773289643 0.226710357 0.7239886129999999 0.276011387 0.815077243 0.184922757 0.783222883 0.216777117 0.730371155 0.269628845 0.699517147 0.300482853 0.806177473 0.193822527 0.798085588 0.201914412 0.780496853 0.219503147 0.807663497 0.192336503 0.799376607 0.200623393 0.794877351 0.205122649 0.574305806 0.425694194 0.605524676 0.394475324 0.607332384 0.392667616 0.5923912 0.4076088 0.581748225 0.418251775 0.619006173 0.380993827 0.639884835 0.360115165 0.634170197 0.365829803 0.604264607 0.395735393 0.646174977 0.353825023 0.638091259 0.361908741 0.6196060370000001 0.380393963 0.38761984 0.61238016 0.430270451 0.5697295489999999 0.408289033 0.591710967 0.454414994 0.545585006 0.451208556 0.548791444 0.43899591 0.56100409 0.855408562 0.144591438 0.793480078 0.206519922 0.850890799 0.149109201 0.849913457 0.150086543 0.830080091 0.169919909 0.8512665 0.1487335 0.846087813 0.153912187 0.850890799 0.149109201 0.846087813 0.153912187 0.846087813 0.153912187 0.845554098 0.154445902 0.846087813 0.153912187 0.766670488 0.233329512 0.659596692 0.340403308 0.738496367 0.261503633 0.766234674 0.233765326 0.688391873 0.311608127 0.703463553 0.296536447 0.74907475 0.25092525 0.736911882 0.263088118 0.78776579 0.21223421 0.773926822 0.226073178 0.749704433 0.250295567 0.789888849 0.210111151 0.607569532 0.392430468 0.590640176 0.409359824 0.547465656 0.452534344 0.619290696 0.380709304 0.60484724 0.39515276 0.570737572 0.429262428 0.64183147 0.35816853 0.574041756 0.425958244 0.564350284 0.435649716 0.632163565 0.367836435 0.543732493 0.456267507 0.59701262 0.40298738 0.472985273 0.527014727 0.461148151 0.538851849 0.440754235 0.559245765 0.465361867 0.534638133 0.578340027 0.421659973 0.46812915 0.53187085 0.531477529 0.468522471 0.447470677 0.552529323 0.451899703 0.548100297 0.570610717 0.429389283 0.6394991370000001 0.360500863 0.464915118 0.535084882 0.875912592 0.124087408 0.8663921570000001 0.133607843 0.836131513 0.163868487 0.870681247 0.129318753 0.886484952 0.113515048 0.809982209 0.190017791 0.846184901 0.153815099 0.8554997130000001 0.144500287 0.846184901 0.153815099 0.851078857 0.148921143 0.845846066 0.154153934 0.846184901 0.153815099 0.797808009 0.202191991 0.773848392 0.226151608 0.7959148660000001 0.204085134 0.816823439 0.183176561 0.796799386 0.203200614 0.795574925 0.204425075 0.61360481 0.38639519 0.746383283 0.253616717 0.731951824 0.268048176 0.647660355 0.352339645 0.706156053 0.293843947 0.698522278 0.301477722 0.661130039 0.338869961 0.659376747 0.340623253 0.647858628 0.352141372 0.666056074 0.333943926 0.672370188 0.327629812 0.629996304 0.370003696 0.460181725 0.539818275 0.547694062 0.452305938 0.489643911 0.510356089 0.459396231 0.540603769 0.489287626 0.510712374 0.48221406 0.51778594 0.483752883 0.516247117 0.494926416 0.505073584 0.462490043 0.537509957 0.500508435 0.499491565 0.509723192 0.490276808 0.489275328 0.510724672 0.341472716 0.658527284 0.390194906 0.609805094 0.353819907 0.646180093 0.400591237 0.599408763 0.45109129 0.54890871 0.360333847 0.639666153</probabilities>
		</cpt>
		<cpt id="CRC">
			<state id="False" />
			<state id="True" />
			<parents>Age Alcohol Diabetes Hyperchol_ Hypertension Sex Smoking</parents>
			<probabilities>0.999872252 0.000127748 0.999961059 3.89e-05 0.999789424 0.000210576 0.999477181 0.000522819 0.999565497 0.000434503 0.999349301 0.000650699 0.99937935 0.00062065 0.999507521 0.000492479 0.999269505 0.000730495 0.999173126 0.000826874 0.999198929 0.000801071 0.999173648 0.000826352 0.999855688 0.000144312 0.999936548 6.35e-05 0.999773643 0.000226357 0.999292985 0.000707015 0.999473236 0.000526764 0.999309577 0.000690423 0.9994789549999999 0.000521045 0.999625806 0.000374194 0.999289863 0.000710137 0.999173126 0.000826874 0.999173648 0.000826352 0.999198424 0.000801576 0.999200444 0.000799556 0.999247496 0.000752504 0.999174168 0.000825832 0.999173126 0.000826874 0.999173126 0.000826874 0.999173126 0.000826874 0.999173126 0.000826874 0.999198929 0.000801071 0.999173126 0.000826874 0.999173126 0.000826874 0.999173126 0.000826874 0.999173126 0.000826874 0.999198424 0.000801576 0.999269963 0.000730037 0.999199435 0.000800565 0.999173648 0.000826352 0.999173648 0.000826352 0.999173126 0.000826874 0.999198929 0.000801071 0.999198424 0.000801576 0.999198424 0.000801576 0.999173126 0.000826874 0.999173126 0.000826874 0.999173126 0.000826874 0.999828551 0.000171449 0.999999997 3.22e-09 0.9999998 2e-07 0.999813176 0.000186824 0.9998442239999999 0.000155776 0.99981091 0.00018909 0.9999940980000001 5.9e-06 0.999981952 1.8e-05 0.99993096 6.9e-05 0.999867458 0.000132542 0.999832389 0.000167611 0.999580584 0.000419416 0.999845095 0.000154905 0.999999963 3.74e-08 0.9999989889999999 1.01e-06 0.999982981 1.7e-05 0.999429244 0.000570756 0.999994336 5.66e-06 0.999989256 1.07e-05 0.999980083 1.99e-05 0.999927057 7.29e-05 0.999819389 0.000180611 0.999722207 0.000277793 0.999498745 0.000501255 0.999841749 0.000158251 0.999822473 0.000177527 0.999536673 0.000463327 0.999736121 0.000263879 0.999615461 0.000384539 0.999515657 0.000484343 0.999405921 0.000594079 0.999332483 0.000667517 0.999269504 0.000730496 0.999271802 0.000728198 0.999198424 0.000801576 0.99917469 0.00082531 0.999794926 0.000205074 0.999776515 0.000223485 0.999532496 0.000467504 0.999689958 0.000310042 0.999568965 0.000431035 0.999396552 0.000603448 0.999444584 0.000555416 0.999523493 0.000476507 0.999327424 0.000672576 0.999246547 0.000753453 0.999174169 0.000825831 0.999198424 0.000801576 0.999456586 0.000543414 0.999986703 1.33e-05 0.999939952 6e-05 0.9996702119999999 0.000329788 0.999711304 0.000288696 0.9995668599999999 0.00043314 0.999717487 0.000282513 0.999795153 0.000204847 0.999662411 0.000337589 0.999223691 0.000776309 0.999202456 0.000797544 0.999199434 0.000800566 0.999983039 1.7e-05 0.99999486 5.14e-06 0.999975567 2.44e-05 0.999620134 0.000379866 0.999708927 0.000291073 0.999589923 0.000410077 0.999876486 0.000123514 0.9999421550000001 5.78e-05 0.9998549370000001 0.000145063 0.999202959 0.000797041 0.999270884 0.000729116 0.9991746889999999 0.000825311 0.999313476 0.000686524 0.999386705 0.000613295 0.999269964 0.000730036 0.999173648 0.000826352 0.999244643 0.000755357 0.999173648 0.000826352 0.999176249 0.000823751 0.999295206 0.000704794 0.999247971 0.000752029 0.999173126 0.000826874 0.999173126 0.000826874 0.999173126 0.000826874 0.999334572 0.000665428 0.999510284 0.000489716 0.99939844 0.00060156 0.999173126 0.000826874 0.999173648 0.000826352 0.999198929 0.000801071 0.999500374 0.000499626 0.999473232 0.000526768 0.999381298 0.0006187020000000001 0.999173126 0.000826874 0.999173648 0.000826352 0.999173126 0.000826874 0.99976252 0.00023748 0.999757883 0.000242117 0.999577037 0.000422963 0.9997653399999999 0.00023466 0.9998050550000001 0.000194945 0.999830985 0.000169015 0.9994149369999999 0.000585063 0.999993873 6.13e-06 0.9999867690000001 1.32e-05 0.99997486 2.51e-05 0.999933652 6.63e-05 0.999854552 0.000145448 0.999758147 0.000241853 0.999823405 0.000176595 0.999452988 0.000547012 0.999796969 0.000203031 0.999574753 0.000425247 0.9996499250000001 0.000350075 0.999972235 2.78e-05 0.999998671 1.33e-06 0.999352072 0.000647928 0.99996931 3.07e-05 0.999926194 7.38e-05 0.999876751 0.000123249 0.9999158500000001 8.42e-05 0.999899801 0.000100199 0.9998142330000001 0.000185767 0.999846718 0.000153282 0.999725424 0.000274576 0.999626685 0.000373315 0.999747591 0.000252409 0.9997079800000001 0.00029202 0.999640593 0.000359407 0.999490571 0.000509429 0.999329961 0.000670039 0.999247496 0.000752504 0.999950245 4.98e-05 0.997998344 0.002001656 0.99988484 0.00011516 0.999818648 0.000181352 0.999714644 0.000285356 0.999580066 0.000419934 0.999897474 0.000102526 0.99936832 0.00063168 0.999814731 0.000185269 0.999395824 0.000604176 0.999494654 0.0005053460000000001 0.99923099 0.00076901 0.9994726390000001 0.000527361 0.999236849 0.000763151 0.99769086 0.00230914 0.999615186 0.000384814 0.9996732780000001 0.000326722 0.999094475 0.000905525 0.999839134 0.000160866 0.998979841 0.001020159 0.999859689 0.000140311 0.999346433 0.000653567 0.999348074 0.000651926 0.9992059639999999 0.000794036 0.998898412 0.001101588 0.998931324 0.001068676 0.9987796410000001 0.001220359 0.999815174 0.000184826 0.999848705 0.000151295 0.999782137 0.000217863 0.998674348 0.001325652 0.998670934 0.001329066 0.996332508 0.003667492 0.99946788 0.00053212 0.999520775 0.000479225 0.999404436 0.000595564 0.9976654190000001 0.002334581 0.999624842 0.000375158 0.999457501 0.000542499 0.999198424 0.000801576 0.999199939 0.000800061 0.999199435 0.000800565 0.999372413 0.000627587 0.999559555 0.000440445 0.998847721 0.001152279 0.999173648 0.000826352 0.999198929 0.000801071 0.999173648 0.000826352 0.999631575 0.000368425 0.999822839 0.000177161 0.999712029 0.000287971 0.999198929 0.000801071 0.99928852 0.00071148 0.999269505 0.000730495 0.9997499399999999 0.00025006 0.999865515 0.000134485 0.999791681 0.000208319 0.99917469 0.00082531 0.9992232009999999 0.000776799 0.999200948 0.000799052 0.999149184 0.000850816 0.999403307 0.000596693 0.998924457 0.001075543 0.998874109 0.001125891 0.999250017 0.000749983 0.998519147 0.001480853 0.999746693 0.000253307 0.999994508 5.49e-06 0.999692179 0.000307821 0.999257875 0.0007421249999999999 0.999946475 5.35e-05 0.999903772 9.619999999999999e-05 0.999163657 0.000836343 0.999188866 0.000811134 0.9983469190000001 0.001653081 0.999026563 0.000973437 0.999919496 8.050000000000001e-05 0.998950049 0.001049951 0.9992673520000001 0.000732648 0.999434674 0.000565326 0.99882494 0.00117506 0.999994964 5.04e-06 0.999678076 0.000321924 0.996695526 0.003304474 0.997200588 0.002799412 0.999920738 7.93e-05 0.999905131 9.49e-05 0.99971853 0.00028147 0.999597641 0.000402359 0.999605882 0.000394118 0.99269766 0.00730234 0.9998926930000001 0.000107307 0.99837824 0.00162176 0.999538552 0.000461448 0.999380582 0.0006194180000000001 0.999430024 0.000569976 0.998856453 0.001143547 0.999979026 2.1e-05 0.999976442 2.36e-05 0.999866455 0.000133545 0.999809658 0.000190342 0.9996795979999999 0.000320402 0.999107992 0.000892008 0.998196783 0.001803217 0.9973686470000001 0.002631353 0.999797497 0.000202503 0.999723307 0.000276693 0.999527875 0.000472125 0.999865157 0.000134843 0.999906211 9.38e-05 0.999871626 0.000128374 0.999465855 0.000534145 0.999373981 0.000626019 0.9992596969999999 0.000740303 0.991151082 0.008848918000000001 0.9992827439999999 0.000717256 0.9917036 0.008296400000000001 0.999350119 0.000649881 0.999227108 0.000772892 0.999201955 0.000798045 0.999047816 0.000952184 0.999085384 0.000914616 0.997935335 0.002064665 0.989387621 0.010612379 0.9996979499999999 0.00030205 0.998327344 0.001672656 0.99957259 0.00042741 0.99899459 0.00100541 0.9977737759999999 0.002226224 0.982449712 0.017550288 0.99947447 0.00052553 0.998788663 0.001211337 0.999409612 0.000590388 0.999431671 0.000568329 0.999523473 0.000476527 0.999174169 0.000825831 0.999198929 0.000801071 0.999173126 0.000826874 0.999506187 0.000493813 0.999492224 0.000507776 0.999594646 0.000405354 0.999173648 0.000826352 0.999174169 0.000825831 0.9991746889999999 0.000825311 0.999645409 0.000354591 0.999670248 0.000329752 0.9905957480000001 0.009404252 0.9992232 0.0007768 0.999224668 0.000775332 0.999225158 0.000774842 0.999758891 0.000241109 0.999825606 0.000174394 0.999862644 0.000137356 0.999247497 0.000752503 0.999174168 0.000825832 0.99922418 0.00077582 0.997338277 0.002661723 0.998362289 0.001637711 0.997538734 0.002461266 0.996059748 0.003940252 0.997323925 0.002676075 0.998715263 0.001284737 0.995068346 0.004931654 0.999699572 0.000300428 0.997256662 0.002743338 0.994616834 0.005383166 0.999717255 0.000282745 0.99969882 0.00030118 0.997988994 0.002011006 0.999003477 0.000996523 0.997077229 0.002922771 0.996408556 0.003591444 0.99999556 4.44e-06 0.9976959359999999 0.002304064 0.998167702 0.001832298 0.99683038 0.00316962 0.99732304 0.00267696 0.997946891 0.002053109 0.999452971 0.000547029 0.995082716 0.004917284 0.999313286 0.0006867140000000001 0.999813782 0.000186218 0.998282939 0.001717061 0.999538542 0.000461458 0.999389386 0.000610614 0.999374761 0.000625239 0.99223326 0.00776674 0.999827819 0.000172181 0.996915898 0.003084102 0.999599626 0.000400374 0.999274083 0.000725917 0.999324569 0.000675431 0.994059931 0.005940069 0.999490591 0.0005094089999999999 0.991892504 0.008107496 0.999786372 0.000213628 0.999605722 0.000394278 0.999625438 0.000374562 0.998503928 0.001496072 0.991269045 0.008730955 0.99554076 0.00445924 0.992665677 0.007334323 0.999643234 0.000356766 0.9995658120000001 0.000434188</probabilities>
		</cpt>
		<decision id="Screening">
			<state id="No_screening" />
			<state id="gFOBT" />
			<state id="FIT" />
			<state id="Blood_based" />
			<state id="Stool_DNA" />
			<state id="CTC" />
			<state id="Colon_capsule" />
			<parents>PA SD Smoking BMI Alcohol Sex Age</parents>
		</decision>
		<cpt id="Results_of_Screening">
			<state id="No_pred_screening" />
			<state id="Predicted_False" />
			<state id="Predicted_True" />
			<parents>CRC Screening</parents>
			<probabilities>1 0 0 0 0.978 0.02200000000000002 0 0.966 0.03400000000000003 0 0.91 0.08999999999999997 0 0.866 0.134 0 0.89 0.11 0 0.92 0.07999999999999996 1 0 0 0 0.55 0.45 0 0.25 0.75 0 0.34 0.66 0 0.07699999999999996 0.923 0 0.2 0.8 0 0.13 0.87</probabilities>
		</cpt>
		<decision id="Colonoscopy">
			<state id="No_Colonoscopy" />
			<state id="Colonoscopy" />
			<parents>Screening</parents>
		</decision>
		<cpt id="Results_of_Colonoscopy">
			<state id="no_pred" />
			<state id="colon_pred_false" />
			<state id="colon_pred_true" />
			<parents>Colonoscopy CRC</parents>
			<probabilities>1 0 0 1 0 0 0 0.99 0.01000000000000001 0 0.03000000000000003 0.97</probabilities>
		</cpt>
		<utility id="Value_of_CRC_detection_by_screening">
			<parents>Age Alcohol Diabetes Hyperchol_ Hypertension Sex Smoking CRC Screening Results_of_Screening</parents>
			<utilities>0 0 0 0 5.590049842331922e-05 -0.002481878977962478 0 9.467930984723868e-05 -0.002686267207254849 0 8.001095708553913e-05 -0.0008086402300553438 0 0.000116381248504741 -0.000751809044871656 0 9.903283624905581e-05 -0.0008009051443759529 0 0.0001096886549950965 -0.001260555408923092 0 0 0 0 -7.35235070314666e-05 0.0003852525732873604 0 -0.0001726652475201188 0.0003948723985817049 0 -0.0001257575533941936 0.0002544256533084034 0 -0.0003091454448968031 0.000246430686312523 0 -0.000190702859615423 0.0002533664861144063 0 -0.0002499682823272677 0.0003047052782686637 0 0 0 0 1.702320525623771e-05 -0.0007564662065372435 0 2.883200745927032e-05 -0.0008188210639226689 0 2.436528407251868e-05 -0.0002463267509978023 0 3.544047483841219e-05 -0.0002290103960045858 0 3.015770979668087e-05 -0.0002439698447381346 0 3.340252073185586e-05 -0.0003840488137427069 0 0 0 0 -2.238984383088133e-05 0.0001173787566662532 0 -5.258012399308989e-05 0.0001203135748808356 0 -3.829606411965375e-05 7.749595410041071e-05 0 -9.413971720459664e-05 7.505990323056762e-05 0 -5.807279854176689e-05 7.717322234490719e-05 0 -7.611974935426013e-05 9.281861356985712e-05 0 0 0 0 9.213875424642637e-05 -0.00408743100180315 0 0.0001560584181221466 -0.004423747744434857 0 0.0001318801755695183 -0.00133247883423839 0 0.0001918307324248868 -0.001238855110134619 0 0.0001632344976925733 -0.001319736252636326 0 0.0001807989657433052 -0.00207684153624757 0 0 0 0 -0.0001211863266246102 0.0006347006671751039 0 -0.0002846033242344811 0.00065052991040148 0 -0.0002072840809637731 0.00041927732719925 0 -0.0005095702545368729 0.0004061064118713425 0 -0.0003143353924495142 0.0004175324823447599 0 -0.000412025295562126 0.0005020951608184711 0 0 0 0 0.0002287066789688313 -0.0101145365408792 0 0.0003873863397988998 -0.01094406000075174 0 0.0003273624254386537 -0.003303988799888581 0 0.0004761971714028591 -0.003072053977526552 0 0.0004052017953075984 -0.003272423384829892 0 0.0004488084386653269 -0.005146863587913355 0 0 0 0 -0.0003008104811293147 0.001572684149520527 0 -0.0007064933281410877 0.00161172701512921 0 -0.0005145435323944745 0.00103995205456906 0 -0.001265014442000945 0.001007323614040953 0 -0.0007803066686466664 0.001035629794411614 0 -0.001022837955625086 0.001244997783655099 0 0 0 0 0.0001900860491928104 -0.008413873890811255 0 0.0003219658979981921 -0.009104555581469173 0 0.000272079991404742 -0.002746878873777697 0 0.0003957756979128857 -0.002554002318425158 0 0.0003367722349572811 -0.002720628691611239 0 0.0003730133124010802 -0.004279677903683312 0 0 0 0 -0.0002500135576537616 0.001307761740725348 0 -0.0005871790163030799 0.001340269765093707 0 -0.000427649490171202 0.0008645228379205582 0 -0.001051359756733238 0.0008373890946247663 0 -0.0006485249163474586 0.0008609283939420676 0 -0.0008500903655722901 0.001035066545883238 0 0 0 0 0.0002846192104866047 -0.0125714117819539 0 0.0004821010741330627 -0.01360106291119514 0 0.0004073985094831013 -0.004109949137251398 0 0.0005926323156458703 -0.003821545319438602 0 0.0005042734518090266 -0.004070699472990906 0 0.0005585448812273491 -0.006400928341789442 0 0 0 0 -0.000374351421033769 0.00195575752810719 0 -0.0008792378290204325 0.002004219787808926 0 -0.0006403472366124857 0.001293796234616786 0 -0.001574357425577388 0.00125322376042473 0 -0.0009711028585951698 0.00128842176827084 0 -0.001272949642103679 0.001548703625523262 0 0 0 0 0.0002714819951717607 -0.01199469969302347 0 0.0004598465575417028 -0.01297742189280486 0 0.0003885930474417836 -0.003920643131595162 0 0.0005652740652590344 -0.003645499084866878 0 0.0004809951781594673 -0.003883197811105555 0 0.0005327606613076526 -0.006106421014055653 0 0 0 0 -0.0003570721973839646 0.001865799879896578 0 -0.0008386488340210029 0.001912053337041467 0 -0.0006107879630602683 0.001234166923360515 0 -0.001501671278194755 0.001195459828405878 0 -0.0009262722122381449 0.001229039526264872 0 -0.001214181398382265 0.001477368177103592 0 0 0 0 0.0002154395837222856 -0.009530652851387763 0 0.000364912680420168 -0.0103125369895108 0 0.0003083715042890261 -0.003112645903889032 0 0.0004485701229691242 -0.002894123603534844 0 0.0003816944005303894 -0.003082905707733024 0 0.0004227707108167065 -0.00484905358846222 0 0 0 0 -0.0002833605212981012 0.001481706684877947 0 -0.0006655055001614133 0.001518507317582998 0 -0.0004846931327895001 0.0009796963470350632 0 -0.001191617305321436 0.0009489547735668 0 -0.0007350358472849589 0.000975624014562357 0 -0.0009634939137388861 0.001172895439652326 0 0 0 0 0.0003195024729676883 -0.0141011038927396 0 0.0005411945035439496 -0.01525508906759303 0 0.0004573331921680262 -0.004612427305052525 0 0.0006652786003943946 -0.004288839192126091 0 0.0005660854257591282 -0.004568389984039112 0 0.0006270113349008521 -0.007182493677508884 0 0 0 0 -0.0004202330681815275 0.002194475439944004 0 -0.0009870165929955039 0.002248789732870007 0 -0.000718837259951443 0.001452088454974846 0 -0.001767369626684668 0.001406566267111318 0 -0.001090145152867568 0.001446058413572043 0 -0.001429002902235257 0.001738051290882941 0 0 0 0 0.0003616292782348355 -0.01594524619292912 0 0.0006125606514703277 -0.0172488503202361 0 0.0005176378635736063 -0.005218885024504394 0 0.0007530136208818206 -0.004852853748170234 0 0.0006407349390445388 -0.005169072499856941 0 0.0007096979851390286 -0.00812550007091086 0 0 0 0 -0.0004756422872042778 0.002482479727556364 0 -0.001117181067611149 0.002543836151131206 0 -0.0008136282356567796 0.001643169768450093 0 -0.002000477642831057 0.001591676689573568 0 -0.001233913336114999 0.001636348926939035 0 -0.001617472156408733 0.001966582839454344 0 0 0 0 0.000350351531777959 -0.01545189343909368 0 0.0005934550498507404 -0.0167155001630258 0 0.0005014936217479986 -0.005056569167559178 0 0.0007295257282563198 -0.004701895273746118 0 0.000620750315774074 -0.005008302011086423 0 0.000687561652883222 -0.007873139552002376 0 0 0 0 -0.0004608086903693639 0.002405408613831841 0 -0.001082334226139217 0.002464882474199988 0 -0.0007882515298592426 0.001592024106062459 0 -0.001938070624069868 0.001542128780482597 0 -0.001195424513489328 0.001585414872210769 0 -0.001567015923201162 0.001905417167149417 0 0 0 0 0.0003614011316168724 -0.01593526823562604 0 0.0006121741473788842 -0.01723806363559809 0 0.0005173112679200967 -0.005215601686194571 0 0.000752538462531914 -0.004849800130883208 0 0.0006403306522730246 -0.00516582041891179 0 0.0007092501690537503 -0.008120395527604579 0 0 0 0 -0.0004753422062660393 0.002480920813799031 0 -0.001116476118627335 0.002542239172885357 0 -0.0008131148679486341 0.001642135164108598 0 -0.001999215148035536 0.001590674402321184 0 -0.001233134709553543 0.001635318602676482 0 -0.001616451427771439 0.001965345574071209 0 0 0 0 6.314782483854764e-05 -0.002803186036325144 0 0.0001069544579486182 -0.003033994485935987 0 9.038427106602666e-05 -0.0009134267407931796 0 0.0001314702323669664 -0.0008492342935671282 0 0.0001118724495071359 -0.0009046897683294292 0 0.0001239098814210175 -0.001423861025863246 0 0 0 0 -8.305563063043791e-05 0.0004351586268641239 0 -0.0001950515142248548 0.0004460219595451993 0 -0.0001420619716585158 0.0002873997444612274 0 -0.0003492275354153519 0.0002783692004910199 0 -0.000215427829060541 0.0002862033886613853 0 -0.0002823774971933903 0.0003441902547664722 0 0 0 0 2.778798620181646e-05 -0.001234522746170914 0 4.706436920226313e-05 -0.001336257069473785 0 3.977298865562458e-05 -0.0004020602675848333 0 5.785192309249212e-05 -0.0003737981552977651 0 4.922842036538185e-05 -0.0003982135669126086 0 5.452519538625586e-05 -0.00062682614239455 0 0 0 0 -3.654828697633028e-05 0.0001915776193489562 0 -8.58301422911637e-05 0.0001963658881636126 0 -6.251315660489775e-05 0.0001264937769378248 0 -0.0001536713661993755 0.000122517885522985 0 -9.479627935388393e-05 0.0001259670472653792 0 -0.0001242558219097468 0.0001515008143781352 2.219943435743943e-16 0 0 0 9.904260132514166e-05 -0.004393010137917974 0 0.0001677520913688312 -0.004754410407067079 0 0.0001417620111655826 -0.001432243446295617 0 0.0002062051511849031 -0.001331614647079318 0 0.0001754659317098037 -0.001418547486043551 0 0.0001943466626925599 -0.002232275458009332 5.026135063701529e-20 0 0 0 -0.0001302667166136 0.0006821972447433952 0 -0.00030592943657901 0.000699207083804322 0 -0.0002228161399573583 0.0004506762430578316 0 -0.0005477552458256993 0.0004365198584961631 0 -0.0003378895655642235 0.0004488008518274859 0 -0.0004429002535405513 0.0005396880093863339 0 0 0 0 0.0003092385134197794 -0.01365126027275198 0 0.0005238068591965899 -0.01476870334947603 0 0.0004426404640632083 -0.004464607540841144 0 0.0006439030628995901 -0.00415136828497613 0 0.0005478978596733046 -0.00442197841182314 0 0.0006068657061251623 -0.006952594332495885 0 0 0 0 -0.0004067329569232925 0.002124257825098952 0 -0.0009553036360761348 0.002176852189346901 0 -0.0006957423728214872 0.00140551923508467 0 -0.001710576927075686 0.001361452920808204 0 -0.001055117943482546 0.001399682017770399 0 -0.001383085314110727 0.001682348600584127 0 0 0 0 0.0002304317049221048 -0.01019042913274662 0 0.0003903084449732784 -0.01102614248939437 0 0.0003298316877271106 -0.003328864874194986 0 0.0004797893490381855 -0.003095186494544061 0 0.0004082583122254314 -0.003297062191838387 0 0.0004521939635341873 -0.005185578886647935 0 0 0 0 -0.0003030793768139356 0.001584511026441028 0 -0.0007118227262306376 0.001623845231103607 0 -0.0005184247866727451 0.001047786032914993 0 -0.001274557881777728 0.001014912309577742 0 -0.0007861929641942563 0.001043431283686551 0 -0.001030554129624732 0.001254371664022476 0 0 0 0 0.0003019853210824823 -0.01333324590850812 0 0.0005115196751055141 -0.01442484500962053 0 0.0004322576504131212 -0.004360134200336247 0 0.0006287978385617305 -0.004054209979708774 0 0.0005350454102365114 -0.004318500452042216 0 0.0005926295933629262 -0.006790098884989787 0 0 0 0 -0.0003971928938441222 0.002074626300284928 0 -0.0009328933736649905 0.002126004265376825 0 -0.0006794220937644173 0.00137260719481908 0 -0.001670444103016917 0.001329569957042916 0 -0.001030365661914579 0.001366906275240598 0 -0.001350637356711351 0.001642980134064962 0 0 0 0 0.0002279309604066068 -0.01008040684580821 0 0.0003860723136241564 -0.01090714647824782 0 0.0003262520354450578 -0.00329280218253579 0 0.000474581824637666 -0.003061651440312151 0 0.0004038273263540233 -0.003261343467027695 0 0.0004472860202265885 -0.005129453381675407 0 0 0 0 -0.0002997901925447357 0.001567365607931303 0 -0.000704096780132475 0.001606277447509316 0 -0.0005127981914129836 0.001036429182625852 0 -0.001260722908754956 0.001003911046116784 0 -0.0007776596928924997 0.001032121532864803 0 -0.001019368113529518 0.001240782408252089 0 0 0 0 0.0001637098290205603 -0.007250690344723201 0 0.0002772875739338215 -0.007846262563949801 0 0.0002343250094279537 -0.002366205808820768 0 0.0003408532433823812 -0.002200029411389287 0 0.0002900389779313796 -0.002343589213217509 0 0.0003212501399300384 -0.003686975236347414 0 0 0 0 -0.0002153215630991354 0.001126680069740073 0 -0.0005056953228936741 0.001154711599868381 0 -0.0003683058961980291 0.0007446696615867797 0 -0.0009054516304664118 0.0007212920817012022 0 -0.0005585271838931847 0.0007415727655286999 0 -0.0007321172400608131 0.0008916213138451362 0 0 0 0 0.0003106032745826547 -0.01371108629160694 0 0.0005261188235188896 -0.01483339023583984 0 0.0004445940986249416 -0.004484263944225299 0 0.0006467452762233663 -0.004169648461985013 0 0.0005503161854939657 -0.004441447548296469 0 0.0006095443852057352 -0.006983166397321682 0 0 0 0 -0.0004085280165801158 0.002133595466955269 0 -0.0009595203719578488 0.002186418617840724 0 -0.0006988132064248788 0.001411711675121104 0 -0.001718128382320772 0.001367451753809243 0 -0.001059775358543968 0.00140584881530106 0 -0.001389190765250773 0.001689755686661828 0 0 0 0 0.0003616292782348355 -0.01594524619292912 0 0.0006125606514703277 -0.0172488503202361 0 0.0005176378635736063 -0.005218885024504394 0 0.0007530136208818206 -0.004852853748170234 0 0.0006407349390445388 -0.005169072499856941 0 0.0007096979851390286 -0.00812550007091086 0 0 0 0 -0.0004756422872042778 0.002482479727556364 0 -0.001117181067611149 0.002543836151131206 0 -0.0008136282356567796 0.001643169768450093 0 -0.002000477642831057 0.001591676689573568 0 -0.001233913336114999 0.001636348926939035 0 -0.001617472156408733 0.001966582839454344 0 0 0 0 0.0003614011316168724 -0.01593526823562604 0 0.0006121741473788842 -0.01723806363559809 0 0.0005173112679200967 -0.005215601686194571 0 0.000752538462531914 -0.004849800130883208 0 0.0006403306522730246 -0.00516582041891179 0 0.0007092501690537503 -0.008120395527604579 0 0 0 0 -0.0004753422062660393 0.002480920813799031 0 -0.001116476118627335 0.002542239172885357 0 -0.0008131148679486341 0.001642135164108598 0 -0.001999215148035536 0.001590674402321184 0 -0.001233134709553543 0.001635318602676482 0 -0.001616451427771439 0.001965345574071209 0 0 0 0 0.000350572257069862 -0.01546155161323186 0 0.000593828978568816 -0.01672594155595067 0 0.0005018095921400449 -0.005059746244778552 0 0.000729985424781071 -0.004704850031601569 0 0.0006211414482534769 -0.005011448837768355 0 0.0006879948974459205 -0.007878079330224037 0 0 0 0 -0.0004610990097407784 0.002406917243723991 0 -0.001083016235963553 0.002466427967947822 0 -0.0007887481947069935 0.001593025176918971 0 -0.001939292026431717 0.001543098575516928 0 -0.001196177802302066 0.001586411800853443 0 -0.001568003431674243 0.001906614387671487 0 0 0 0 0.0003496893548552308 -0.01542291829700532 0 0.000592333262267996 -0.01668417526513672 0 0.0005005457092543459 -0.005047037855906825 0 0.0007281466371631472 -0.004693030929734402 0 0.0006195769168818106 -0.00499886145238098 0 0.0006862619176949169 -0.007858320040589287 0 0 0 0 -0.0004599377309151441 0.00240088266598149 0 -0.001080288194395888 0.002460245930104365 0 -0.0007867615333976557 0.00158902087425747 0 -0.001934406414193074 0.001539219377487012 0 -0.001193164644676311 0.001582424067229989 0 -0.001564053395151337 0.001901825475717445 0 0 0 0 0.0003291230626504211 -0.01452256196965955 0 0.0005574923609033801 -0.01571076724455574 0 0.0004711050036694128 -0.004750960107931285 0 0.0006853144835097546 -0.004417674611982477 0 0.0005831330822474397 -0.004705603253895449 0 0.0006458943679749137 -0.007397932144842993 0 0 0 0 -0.0004328869717698542 0.002260274916954308 0 -0.00101674202020907 0.002316199849682207 0 -0.0007404846465066295 0.001495733859849546 0 -0.001820603403816205 0.00144884744739555 0 -0.001122977163558586 0.001489523134453583 0 -0.001472042935979952 0.001790254479184491 2.218612333848568e-16 0 0 0 0.0003611738589385111 -0.01592532839843327 0 0.0006117891238928659 -0.01722731815206302 0 0.0005169859233577056 -0.005212330913566142 0 0.00075206512444332 -0.00484675820081035 0 0.0006399279142355277 -0.005162580784124024 0 0.0007088040684732679 -0.008115310510656618 1.833715401744483e-19 0 0 0 -0.0004750432748259431 0.002479367862598948 0 -0.0011157738701955 0.002540648302210678 0 -0.000812603466826915 0.00164110452036351 0 -0.001997957489890605 0.001589675952082592 0 -0.001232359065815135 0.001634292222643898 0 -0.001615434609506065 0.001964113043882589 0 0 0 0 0.0003616292782348355 -0.01594524619292912 0 0.0006125606514703277 -0.0172488503202361 0 0.0005176378635736063 -0.005218885024504394 0 0.0007530136208818206 -0.004852853748170234 0 0.0006407349390445388 -0.005169072499856941 0 0.0007096979851390286 -0.00812550007091086 0 0 0 0 -0.0004756422872042778 0.002482479727556364 0 -0.001117181067611149 0.002543836151131206 0 -0.0008136282356567796 0.001643169768450093 0 -0.002000477642831057 0.001591676689573568 0 -0.001233913336114999 0.001636348926939035 0 -0.001617472156408733 0.001966582839454344 0 0 0 0 0.0003616292782348355 -0.01594524619292912 0 0.0006125606514703277 -0.0172488503202361 0 0.0005176378635736063 -0.005218885024504394 0 0.0007530136208818206 -0.004852853748170234 0 0.0006407349390445388 -0.005169072499856941 0 0.0007096979851390286 -0.00812550007091086 0 0 0 0 -0.0004756422872042778 0.002482479727556364 0 -0.001117181067611149 0.002543836151131206 0 -0.0008136282356567796 0.001643169768450093 0 -0.002000477642831057 0.001591676689573568 0 -0.001233913336114999 0.001636348926939035 0 -0.001617472156408733 0.001966582839454344 0 0 0 0 0.0003616292782348355 -0.01594524619292912 0 0.0006125606514703277 -0.0172488503202361 0 0.0005176378635736063 -0.005218885024504394 0 0.0007530136208818206 -0.004852853748170234 0 0.0006407349390445388 -0.005169072499856941 0 0.0007096979851390286 -0.00812550007091086 0 0 0 0 -0.0004756422872042778 0.002482479727556364 0 -0.001117181067611149 0.002543836151131206 0 -0.0008136282356567796 0.001643169768450093 0 -0.002000477642831057 0.001591676689573568 0 -0.001233913336114999 0.001636348926939035 0 -0.001617472156408733 0.001966582839454344 0 0 0 0 0.0003616292782348355 -0.01594524619292912 0 0.0006125606514703277 -0.0172488503202361 0 0.0005176378635736063 -0.005218885024504394 0 0.0007530136208818206 -0.004852853748170234 0 0.0006407349390445388 -0.005169072499856941 0 0.0007096979851390286 -0.00812550007091086 0 0 0 0 -0.0004756422872042778 0.002482479727556364 0 -0.001117181067611149 0.002543836151131206 0 -0.0008136282356567796 0.001643169768450093 0 -0.002000477642831057 0.001591676689573568 0 -0.001233913336114999 0.001636348926939035 0 -0.001617472156408733 0.001966582839454344 0 0 0 0 0.000350351531777959 -0.01545189343909368 0 0.0005934550498507404 -0.0167155001630258 0 0.0005014936217479986 -0.005056569167559178 0 0.0007295257282563198 -0.004701895273746118 0 0.000620750315774074 -0.005008302011086423 0 0.000687561652883222 -0.007873139552002376 0 0 0 0 -0.0004608086903693639 0.002405408613831841 0 -0.001082334226139217 0.002464882474199988 0 -0.0007882515298592426 0.001592024106062459 0 -0.001938070624069868 0.001542128780482597 0 -0.001195424513489328 0.001585414872210769 0 -0.001567015923201162 0.001905417167149417 0 0 0 0 0.0003616292782348355 -0.01594524619292912 0 0.0006125606514703277 -0.0172488503202361 0 0.0005176378635736063 -0.005218885024504394 0 0.0007530136208818206 -0.004852853748170234 0 0.0006407349390445388 -0.005169072499856941 0 0.0007096979851390286 -0.00812550007091086 0 0 0 0 -0.0004756422872042778 0.002482479727556364 0 -0.001117181067611149 0.002543836151131206 0 -0.0008136282356567796 0.001643169768450093 0 -0.002000477642831057 0.001591676689573568 0 -0.001233913336114999 0.001636348926939035 0 -0.001617472156408733 0.001966582839454344 0 0 0 0 0.0003616292782348355 -0.01594524619292912 0 0.0006125606514703277 -0.0172488503202361 0 0.0005176378635736063 -0.005218885024504394 0 0.0007530136208818206 -0.004852853748170234 0 0.0006407349390445388 -0.005169072499856941 0 0.0007096979851390286 -0.00812550007091086 0 0 0 0 -0.0004756422872042778 0.002482479727556364 0 -0.001117181067611149 0.002543836151131206 0 -0.0008136282356567796 0.001643169768450093 0 -0.002000477642831057 0.001591676689573568 0 -0.001233913336114999 0.001636348926939035 0 -0.001617472156408733 0.001966582839454344 0 0 0 0 0.0003616292782348355 -0.01594524619292912 0 0.0006125606514703277 -0.0172488503202361 0 0.0005176378635736063 -0.005218885024504394 0 0.0007530136208818206 -0.004852853748170234 0 0.0006407349390445388 -0.005169072499856941 0 0.0007096979851390286 -0.00812550007091086 0 0 0 0 -0.0004756422872042778 0.002482479727556364 0 -0.001117181067611149 0.002543836151131206 0 -0.0008136282356567796 0.001643169768450093 0 -0.002000477642831057 0.001591676689573568 0 -0.001233913336114999 0.001636348926939035 0 -0.001617472156408733 0.001966582839454344 0 0 0 0 0.0003616292782348355 -0.01594524619292912 0 0.0006125606514703277 -0.0172488503202361 0 0.0005176378635736063 -0.005218885024504394 0 0.0007530136208818206 -0.004852853748170234 0 0.0006407349390445388 -0.005169072499856941 0 0.0007096979851390286 -0.00812550007091086 0 0 0 0 -0.0004756422872042778 0.002482479727556364 0 -0.001117181067611149 0.002543836151131206 0 -0.0008136282356567796 0.001643169768450093 0 -0.002000477642831057 0.001591676689573568 0 -0.001233913336114999 0.001636348926939035 0 -0.001617472156408733 0.001966582839454344 0 0 0 0 0.000350572257069862 -0.01546155161323186 0 0.000593828978568816 -0.01672594155595067 0 0.0005018095921400449 -0.005059746244778552 0 0.000729985424781071 -0.004704850031601569 0 0.0006211414482534769 -0.005011448837768355 0 0.0006879948974459205 -0.007878079330224037 0 0 0 0 -0.0004610990097407784 0.002406917243723991 0 -0.001083016235963553 0.002466427967947822 0 -0.0007887481947069935 0.001593025176918971 0 -0.001939292026431717 0.001543098575516928 0 -0.001196177802302066 0.001586411800853443 0 -0.001568003431674243 0.001906614387671487 2.218825041477856e-16 0 0 0 0.000319302268163798 -0.01409233140125654 0 0.0005408553457272117 -0.01524560413153967 0 0.0004570466009031146 -0.004609544214140625 0 0.0006648616551951638 -0.004286157932685841 0 0.000565730664785758 -0.004565534356663728 0 0.0006266183801914127 -0.007178009879367982 1.62100777245655e-19 0 0 0 -0.0004199697401338612 0.002193105978665337 0 -0.0009863980090679548 0.00224738673892115 0 -0.0007183867785576694 0.001451180143840585 0 -0.001766261840030659 0.001405686349559324 0 -0.001089461921615572 0.001445153863026843 0 -0.001428107244544816 0.001736964859312546 0 0 0 0 0.0003501303692310303 -0.01544221603627367 0 0.0005930803804408433 -0.01670503797386862 0 0.0005011770254517234 -0.005053385785725866 0 0.0007290651211875241 -0.004698934653109156 0 0.000620358408531802 -0.005005148939915651 0 0.0006871275501597692 -0.007868189962496162 0 0 0 0 -0.0004605177958841117 0.00240389698682939 0 -0.001081650865420865 0.002463333909562114 0 -0.0007877538811960706 0.001591021049671991 0 -0.00193684680262289 0.001541157062071105 0 -0.001194669732618597 0.001584415966267083 0 -0.001566026458826023 0.001904217570901242 0 0 0 0 0.0003614011316168724 -0.01593526823562604 0 0.0006121741473788842 -0.01723806363559809 0 0.0005173112679200967 -0.005215601686194571 0 0.000752538462531914 -0.004849800130883208 0 0.0006403306522730246 -0.00516582041891179 0 0.0007092501690537503 -0.008120395527604579 0 0 0 0 -0.0004753422062660393 0.002480920813799031 0 -0.001116476118627335 0.002542239172885357 0 -0.0008131148679486341 0.001642135164108598 0 -0.001999215148035536 0.001590674402321184 0 -0.001233134709553543 0.001635318602676482 0 -0.001616451427771439 0.001965345574071209 0 0 0 0 0.0003614011316168724 -0.01593526823562604 0 0.0006121741473788842 -0.01723806363559809 0 0.0005173112679200967 -0.005215601686194571 0 0.000752538462531914 -0.004849800130883208 0 0.0006403306522730246 -0.00516582041891179 0 0.0007092501690537503 -0.008120395527604579 0 0 0 0 -0.0004753422062660393 0.002480920813799031 0 -0.001116476118627335 0.002542239172885357 0 -0.0008131148679486341 0.001642135164108598 0 -0.001999215148035536 0.001590674402321184 0 -0.001233134709553543 0.001635318602676482 0 -0.001616451427771439 0.001965345574071209 0 0 0 0 0.0003616292782348355 -0.01594524619292912 0 0.0006125606514703277 -0.0172488503202361 0 0.0005176378635736063 -0.005218885024504394 0 0.0007530136208818206 -0.004852853748170234 0 0.0006407349390445388 -0.005169072499856941 0 0.0007096979851390286 -0.00812550007091086 0 0 0 0 -0.0004756422872042778 0.002482479727556364 0 -0.001117181067611149 0.002543836151131206 0 -0.0008136282356567796 0.001643169768450093 0 -0.002000477642831057 0.001591676689573568 0 -0.001233913336114999 0.001636348926939035 0 -0.001617472156408733 0.001966582839454344 0 0 0 0 0.000350351531777959 -0.01545189343909368 0 0.0005934550498507404 -0.0167155001630258 0 0.0005014936217479986 -0.005056569167559178 0 0.0007295257282563198 -0.004701895273746118 0 0.000620750315774074 -0.005008302011086423 0 0.000687561652883222 -0.007873139552002376 0 0 0 0 -0.0004608086903693639 0.002405408613831841 0 -0.001082334226139217 0.002464882474199988 0 -0.0007882515298592426 0.001592024106062459 0 -0.001938070624069868 0.001542128780482597 0 -0.001195424513489328 0.001585414872210769 0 -0.001567015923201162 0.001905417167149417 0 0 0 0 0.000350572257069862 -0.01546155161323186 0 0.000593828978568816 -0.01672594155595067 0 0.0005018095921400449 -0.005059746244778552 0 0.000729985424781071 -0.004704850031601569 0 0.0006211414482534769 -0.005011448837768355 0 0.0006879948974459205 -0.007878079330224037 0 0 0 0 -0.0004610990097407784 0.002406917243723991 0 -0.001083016235963553 0.002466427967947822 0 -0.0007887481947069935 0.001593025176918971 0 -0.001939292026431717 0.001543098575516928 0 -0.001196177802302066 0.001586411800853443 0 -0.001568003431674243 0.001906614387671487 0 0 0 0 0.000350572257069862 -0.01546155161323186 0 0.000593828978568816 -0.01672594155595067 0 0.0005018095921400449 -0.005059746244778552 0 0.000729985424781071 -0.004704850031601569 0 0.0006211414482534769 -0.005011448837768355 0 0.0006879948974459205 -0.007878079330224037 0 0 0 0 -0.0004610990097407784 0.002406917243723991 0 -0.001083016235963553 0.002466427967947822 0 -0.0007887481947069935 0.001593025176918971 0 -0.001939292026431717 0.001543098575516928 0 -0.001196177802302066 0.001586411800853443 0 -0.001568003431674243 0.001906614387671487 0 0 0 0 0.0003616292782348355 -0.01594524619292912 0 0.0006125606514703277 -0.0172488503202361 0 0.0005176378635736063 -0.005218885024504394 0 0.0007530136208818206 -0.004852853748170234 0 0.0006407349390445388 -0.005169072499856941 0 0.0007096979851390286 -0.00812550007091086 0 0 0 0 -0.0004756422872042778 0.002482479727556364 0 -0.001117181067611149 0.002543836151131206 0 -0.0008136282356567796 0.001643169768450093 0 -0.002000477642831057 0.001591676689573568 0 -0.001233913336114999 0.001636348926939035 0 -0.001617472156408733 0.001966582839454344 0 0 0 0 0.0003616292782348355 -0.01594524619292912 0 0.0006125606514703277 -0.0172488503202361 0 0.0005176378635736063 -0.005218885024504394 0 0.0007530136208818206 -0.004852853748170234 0 0.0006407349390445388 -0.005169072499856941 0 0.0007096979851390286 -0.00812550007091086 0 0 0 0 -0.0004756422872042778 0.002482479727556364 0 -0.001117181067611149 0.002543836151131206 0 -0.0008136282356567796 0.001643169768450093 0 -0.002000477642831057 0.001591676689573568 0 -0.001233913336114999 0.001636348926939035 0 -0.001617472156408733 0.001966582839454344 0 0 0 0 0.0003616292782348355 -0.01594524619292912 0 0.0006125606514703277 -0.0172488503202361 0 0.0005176378635736063 -0.005218885024504394 0 0.0007530136208818206 -0.004852853748170234 0 0.0006407349390445388 -0.005169072499856941 0 0.0007096979851390286 -0.00812550007091086 0 0 0 0 -0.0004756422872042778 0.002482479727556364 0 -0.001117181067611149 0.002543836151131206 0 -0.0008136282356567796 0.001643169768450093 0 -0.002000477642831057 0.001591676689573568 0 -0.001233913336114999 0.001636348926939035 0 -0.001617472156408733 0.001966582839454344 0 0 0 0 7.502080122383089e-05 -0.003329341137445402 0 0.0001270644270930175 -0.003603394070825456 0 0.0001073784856177138 -0.001085068499032274 0 0.0001561901073698953 -0.001008819752539472 0 0.0001329071789179847 -0.001074690646855631 0 0.0001472081061568498 -0.001691337238656956 0 0 0 0 -9.867170408719572e-05 0.0005168973411408996 0 -0.0002317263245007082 0.000529796041352392 0 -0.0001687729528570045 0.0003414140934960836 0 -0.0004148934246870523 0.0003306874779676434 0 -0.0002559341236752846 0.0003399930516297914 0 -0.0003354728843485765 0.0004088672803525363 0 0 0 0 1.409161670705357e-09 -6.264363415290051e-08 0 2.386666853607195e-09 -6.780940917010363e-08 0 2.016923064472017e-09 -2.039333305353904e-08 0 2.933695272950062e-09 -1.89595517140481e-08 0 2.496404627408936e-09 -2.019818148862944e-08 0 2.764999994006608e-09 -3.17974994813758e-08 0 0 0 0 -1.853404276677478e-09 9.718620312836874e-09 0 -4.352483382005259e-09 9.961754615225816e-09 0 -3.170086714528305e-09 6.415625063224493e-09 0 -7.792655936041295e-09 6.213921916840427e-09 0 -4.807151180597641e-09 6.388902918795441e-09 0 -6.301022276782235e-09 7.684422273780165e-09 0 0 0 0 8.752554856740416e-08 -3.890900743175063e-06 0 1.482401470450596e-07 -4.211754993933439e-06 0 1.252747081233678e-07 -1.266665611059462e-06 0 1.822170701230566e-07 -1.177611011488132e-06 0 1.550561608441187e-07 -1.254544416700711e-06 0 1.717391109092393e-07 -1.974997654637583e-06 0 0 0 0 -1.151182608565469e-07 6.036402477009057e-07 0 -2.70340553622019e-07 6.187416940316717e-07 0 -1.968997713251911e-07 3.984857796048686e-07 0 -4.840158608983291e-07 3.859576513881389e-07 0 -2.985807882243915e-07 3.968260214661688e-07 0 -3.913678095696718e-07 4.772929203953398e-07 0 0 0 0 8.174744556486223e-05 -0.003627309094549339 0 0.0001384578198663251 -0.003925840974940909 0 0.0001170066102108303 -0.001182298292171916 0 0.0001701953134781607 -0.001099220875842817 0 0.0001448245073841473 -0.001170991055770059 0 0.0001604078523450865 -0.001842842934555707 0 0 0 0 -0.0001075190109446426 0.0005631953600734983 0 -0.0002525046735669595 0.0005772461997215907 0 -0.0001839061740669992 0.0003720128501182335 0 -0.0004520971275141583 0.0003603255821063205 0 -0.0002788832531148347 0.000370464547439047 0 -0.0003655545567238146 0.0004455048801551776 0 0 0 0 6.816361392126352e-05 -0.003025497035698649 0 0.0001154499792381234 -0.003274580145639767 0 9.756353824661044e-05 -0.0009859413718950826 0 0.0001419132093376757 -0.0009166551851873077 0 0.0001207586363778739 -0.0009765111320578835 0 0.0001337522824962409 -0.001536866602750381 0 0 0 0 -8.965270474088063e-05 0.0004696925489834835 0 -0.0002105448863594497 0.0004814160062672253 0 -0.0001533461129789663 0.0003102191914028925 0 -0.0003769681920052192 0.0003004720638314664 0 -0.0002325398142581017 0.0003089279063295428 0 -0.0003048077476287445 0.0003715147732632437 0 0 0 0 8.273881895903926e-05 -0.003671215957009873 0 0.000140136983525127 -0.003973354248171208 0 0.0001184256063658014 -0.001196627172016209 0 0.0001722594105261468 -0.001112543458037114 0 0.0001465808894635252 -0.001185182978634811 0 0.0001623532392487029 -0.001865169828524482 0 0 0 0 -0.0001088229282348663 0.0005700180864048237 0 -0.0002555670009389087 0.0005842386673741069 0 -0.0001861365151545818 0.0003765223068157846 0 -0.0004575802514495167 0.0003646934735504005 0 -0.0002822655133239425 0.0003749552505833453 0 -0.0003699880228517491 0.0004509042133754672 0 0 0 0 2.581992194636687e-06 -0.0001147745543086866 0 4.373068655657709e-06 -0.000124238608033258 0 3.695589427576014e-06 -3.736574816578613e-05 0 5.375386900334583e-06 -3.473874394431785e-05 0 4.574140786405585e-06 -3.700818781396751e-05 0 5.066287300426832e-06 -5.826045918414823e-05 0 0 0 0 -3.395973984617094e-06 1.780673312524341e-05 0 -7.97502142115935e-06 1.825217184768592e-05 0 -5.80852220072484e-06 1.175511753596757e-05 0 -1.427843728516868e-05 1.138555272682902e-05 0 -8.808107197477426e-06 1.170615670888146e-05 0 -1.154532152738548e-05 1.407980909357339e-05 0 0 0 0 7.877190225617768e-06 -0.0003501142334721459 0 1.334146439676441e-05 -0.0003789801953048236 0 1.127458642972067e-05 -0.0001139914560820337 0 1.639937817311323e-05 -0.0001059775560619732 0 1.39549030294595e-05 -0.0001129006903274268 0 1.545636371473657e-05 -0.0001777310136550551 0 0 0 0 -1.036050375787728e-05 5.432139276709419e-05 0 -2.433041351148289e-05 5.568000918078867e-05 0 -1.772077957860105e-05 3.586169280264161e-05 0 -4.356113765757154e-05 3.473430385883507e-05 0 -2.687202382828783e-05 3.571233397894487e-05 0 -3.522282942371607e-05 4.295320123146746e-05 0 0 0 0 3.019469256666702e-05 -0.001341370964408494 0 5.114063808148675e-05 -0.001451904024840206 0 4.321773372071082e-05 -0.0004368744143650353 0 6.286253685449572e-05 -0.0004061656004898973 0 5.349212382646984e-05 -0.0004326947023563294 0 5.924766934922031e-05 -0.0006810959978164258 0 0 0 0 -3.971372404576776e-05 0.0002081636012723092 0 -9.326397601120278e-05 0.000213365995296013 0 -6.792745023884497e-05 0.000137447540446832 0 -0.0001669811534477979 0.0001331274489488602 0 -0.0001030066955453225 0.0001368752114497545 0 -0.000135017823180968 0.0001646192015292545 0 0 0 0 5.799805954269021e-05 -0.002574884296355287 0 9.823204445672115e-05 -0.002786921049475886 0 8.301325540384758e-05 -0.0008389693266967568 0 0.0001207483731316409 -0.0007800074458987901 0 0.0001027489404346431 -0.0008309442471834152 0 0.000113804630455788 -0.001307823085091175 0 0 0 0 -7.628234605523873e-05 0.0003996976187073572 0 -0.0001791443863413527 0.0004096774332311353 0 -0.0001304764598576644 0.000263969465475422 0 -0.0003207461689749657 0.0002556747537829839 0 -0.0001978588743603119 0.0002628705893538438 0 -0.0002593482979497225 0.0003161336885799698 2.220073878067552e-16 0 0 0 7.334163058251073e-05 -0.003254945296331645 0 0.0001242203054377895 -0.003522885159661397 0 0.0001049750235043024 -0.001060795471260486 0 0.0001526940069776999 -0.0009862515711406541 0 0.0001299322686750574 -0.001050649650095246 0 0.0001439130699603875 -0.00165351316609647 3.721711827608941e-20 0 0 0 -9.646315384757288e-05 0.0005053387238508502 0 -0.000226539453332409 0.0005179497030372441 0 -0.000164995260937087 0.0003337753815377592 0 -0.0004056063453611169 0.0003232886025907436 0 -0.0002502053667361735 0.0003323861117354955 0 -0.0003279636529770199 0.0003997208559773596 0 0 0 0 0.0001834879632761323 -0.008123030150947681 0 0.0003107894123536136 -0.008789941794367971 0 0.000262635435767299 -0.002651666981882521 0 0.0003820365436807824 -0.002465467638503097 0 0.0003250816894831093 -0.002626325484139313 0 0.0003600644853181975 -0.004131446111251137 0 0 0 0 -0.0002413352491081941 0.001262475164221158 0 -0.0005667954256179567 0.001293864409084572 0 -0.0004128044252694042 0.0008345444717449557 0 -0.00101485975852627 0.0008083500750251168 0 -0.000626011462731735 0.0008310744541529327 0 -0.000820578597950897 0.0009991887441795203 0 0 0 0 6.778253261216922e-05 -0.003008608433728228 0 0.0001148045195649728 -0.003256303402079787 0 9.7018083239201e-05 -0.0009804321728807109 0 0.0001411197881526047 -0.0009115329639400152 0 0.0001200834951931318 -0.0009710546013268673 0 0.0001330044911933164 -0.001528281320695695 0 0 0 0 -8.915148306811878e-05 0.0004670689448767911 0 -0.0002093677537079101 0.0004787270671644927 0 -0.0001524887838767782 0.0003084854972859334 0 -0.0003748605493410625 0.0002987928094693575 0 -0.0002312397046027362 0.0003072014240936995 0 -0.0003031035730574823 0.0003694388300106447 0 0 0 0 1.636727967379091e-08 -7.275997079398162e-07 0 2.77209103672783e-08 -7.875996600818796e-07 0 2.342637302330775e-08 -2.368666298530023e-07 0 3.407459506691137e-08 -2.202134002054125e-07 0 2.899550493550862e-08 -2.345999636594585e-07 0 3.211521676776023e-08 -3.69324917857214e-07 0 0 0 0 -2.152711743288332e-08 1.128808445824038e-07 0 -5.05536880145166e-08 1.157048248010805e-07 0 -3.682026103221127e-08 7.451687927079468e-08 0 -9.051097149231302e-08 7.217411658739145e-08 0 -5.583461209029699e-08 7.420650413042254e-08 0 -7.318578558218918e-08 8.92538361304016e-08 0 0 0 0 4.420037415087081e-07 -1.964887804254923e-05 0 7.486123611842055e-07 -2.126916411355205e-05 0 6.326369244299555e-07 -6.396639753962782e-06 0 9.201957996965391e-07 -5.946916615231398e-06 0 7.830332243917877e-07 -6.335428084227436e-06 0 8.672821097481664e-07 -9.973690198979169e-06 0 0 0 0 -5.813468598835007e-07 3.04836733836161e-06 0 -1.365219190779746e-06 3.124628329980514e-06 0 -9.943433337501001e-07 2.012348007736781e-06 0 -2.444279354621423e-06 1.949081324454694e-06 0 -1.507832347783408e-06 2.003966278709405e-06 0 -1.97640673780397e-06 2.410321171717542e-06 0 0 0 0 7.439574142537106e-06 -0.0003306669793656151 0 1.260027949554196e-05 -0.0003579298551784956 0 1.064822752167479e-05 -0.0001076590428376553 0 1.548830959175751e-05 -0.0001000903058909332 0 1.317963832778362e-05 -0.0001066288676878063 0 1.459768474870353e-05 -0.0001678580601224132 0 0 0 0 -9.784927371744235e-06 5.130386674046271e-05 0 -2.297873580615763e-05 5.258703168071339e-05 0 -1.673630198735619e-05 3.386948320841147e-05 0 -4.114108874999022e-05 3.280471944654593e-05 0 -2.537914605957175e-05 3.372842107115674e-05 0 -3.32660192001824e-05 4.056707894381134e-05 0 0 0 0 0.0002496673187826044 -0.01103630132017857 0 0.00042289282212364 -0.01194097065913283 0 0.000357366340714143 -0.003606210913781689 0 0.0005198458634924115 -0.003353096161370476 0 0.000442341541794217 -0.003571763309221761 0 0.0004899460373671822 -0.005617183595859162 0 0 0 0 -0.000328379659924064 0.001716356054377685 0 -0.000771251043267572 0.001758935802688232 0 -0.0005617046154475442 0.001135132029122764 0 -0.001380978012927323 0.001099524005817956 0 -0.0008518313570486874 0.001130415110028591 0 -0.00111659792627723 0.001358882245455082 0 0 0 0 2.476962473176989e-06 -0.000110106042548048 0 4.195181759197927e-06 -0.0001191851641471726 0 3.545260957586115e-06 -3.584582144517857e-05 0 5.156727778355323e-06 -3.332567410662039e-05 0 4.38807469633602e-06 -3.550280531935933e-05 0 4.860201712692011e-06 -5.58906219533248e-05 0 0 0 0 -3.257833270979365e-06 1.708241789703975e-05 0 -7.650614792281843e-06 1.750973925782603e-05 0 -5.572244193556278e-06 1.127695188875665e-05 0 -1.369762076231759e-05 1.092241961887061e-05 0 -8.449812381524215e-06 1.122998260611986e-05 0 -1.107568251827061e-05 1.350708453699466e-05 2.22042229047654e-16 0 0 0 4.682578652324242e-06 -0.0002081397553580874 0 7.930795799100335e-06 -0.000225301628064664 0 6.70214884310496e-06 -6.776364851250709e-05 0 9.748557955043244e-06 -6.299958291737168e-05 0 8.295451628712287e-06 -6.711521430612837e-05 0 9.18798778040995e-06 -0.0001056557922307989 2.37587737723644e-21 0 0 0 -6.158778059207358e-06 3.229256918630527e-05 0 -1.446313698090288e-05 3.310031639968045e-05 0 -1.05340678560764e-05 2.131827862139205e-05 0 -2.589474733646629e-05 2.06480737554709e-05 0 -1.597398576967939e-05 2.122948836568828e-05 0 -2.093808225834072e-05 2.553406296805506e-05 0 0 0 0 8.708658220081791e-06 -0.0003870628369554422 0 1.474971198676813e-05 -0.0004189744720442058 0 1.246466501156771e-05 -0.0001260228860369339 0 1.813040432910529e-05 -0.0001171631943092797 0 1.542790214266895e-05 -0.0001248170006655804 0 1.708784971614415e-05 -0.0001964892870734441 0 0 0 0 -1.145409558595745e-05 6.005458039236902e-05 0 -2.689859496753683e-05 6.155654565863867e-05 0 -1.959128202110553e-05 3.964685304599215e-05 0 -4.815922180198482e-05 3.840047880642628e-05 0 -2.970848499762704e-05 3.948173086476908e-05 0 -3.894076107680781e-05 4.748677547444664e-05 2.220284178726362e-16 0 0 0 3.190125199926511e-05 -0.001417128361016059 0 5.403106340879998e-05 -0.001533899274991229 0 4.566035301361729e-05 -0.000461559819028636 0 6.641549592525637e-05 -0.000429116188892703 0 5.651545688226393e-05 -0.000457143988140146 0 6.259631152524319e-05 -0.0007195760752944477 1.618705239507803e-20 0 0 0 -4.195828849621208e-05 0.0002199238472011578 0 -9.853520768726206e-05 0.0002254198347950865 0 -7.176664998411592e-05 0.000145214515086236 0 -0.0001764189601244454 0.0001406503709759664 0 -0.0001088285930138416 0.0001446098542725853 0 -0.00014264902163804 0.0001739209600197702 0 0 0 0 7.902924445543755e-05 -0.003506912768767705 0 0.0001338538041951425 -0.003795554686514019 0 0.000113115933038152 -0.001143009468850746 0 0.0001645358720907308 -0.001062691321707924 0 0.0001400087710465813 -0.001132077769238141 0 0.000155073895003028 -0.00178162317864202 0 0 0 0 -0.0001039438607365927 0.0005444875451877477 0 -0.000244108235588365 0.0005580728984310938 0 -0.0001777909119477374 0.0003596483270995992 0 -0.0004370632538173758 0.0003483492311499485 0 -0.0002696096100227264 0.0003581514467662931 0 -0.0003533986751781924 0.0004307002760624282 0 0 0 0 0.0001215435596325755 -0.005388288276230142 0 0.0002058643984746028 -0.0058313286410142 0 0.0001739690081304534 -0.001757321506095994 0 0.0002530548775799597 -0.00163387152664407 0 0.0002153309676180685 -0.001740519662588864 0 0.0002385018238625329 -0.002738689152599305 0 0 0 0 -0.0001598614861725471 0.0008369390128238819 0 -0.0003754364046620916 0.0008577913746472625 0 -0.0002734385848777263 0.0005529948454783048 0 -0.0006722108244442712 0.0005356279922002999 0 -0.0004146584735326469 0.0005506941648794563 0 -0.0005435299647796656 0.0006621827097412843 0 0 0 0 0.000219277223517581 -0.009699582938214402 0 0.0003714133895331318 -0.01049525325276126 0 0.0003138648066982488 -0.003167997778147989 0 0.0004565614817902132 -0.002945595243611725 0 0.0003884941244495383 -0.003137729545133502 0 0.0004303023493961835 -0.004935207642911383 0 0 0 0 -0.0002884080941737208 0.001508026009388533 0 -0.000677361579149728 0.001545475513879827 0 -0.0004933276319688026 0.0009971268110960433 0 -0.001212847974613037 0.0009658393682011591 0 -0.0007481308104467708 0.0009929821744032092 0 -0.0009806596436396718 0.001193753265909191 2.220094661442573e-16 0 0 0 6.924647703713518e-05 -0.003073485317506945 0 0.0001172840886818604 -0.003326512637299929 0 9.91134785910658e-05 -0.001001595881159981 0 0.0001441677602614497 -0.0009312100995031162 0 0.0001226770875919754 -0.0009920159848150474 0 0.0001358771733576671 -0.001561261724922506 3.51387807739911e-20 0 0 0 -9.107695328637746e-05 0.0004771475208260152 0 -0.0002138897749533739 0.0004890566183539351 0 -0.000155782261095136 0.0003151455373552849 0 -0.0003829571805478979 0.0003052437195534839 0 -0.0002362341492797645 0.0003138337597791839 0 -0.0003096502572370187 0.0003774136119381424 0 0 0 0 7.767997789707256e-05 -0.00344714467123735 0 0.0001315684561432029 -0.003730876456516727 0 0.0001111846719647843 -0.001123506584276875 0 0.0001617266324929536 -0.001044558169682288 0 0.0001376183291585002 -0.001112761305722326 0 0.0001524262188806104 -0.001751233328937125 0 0 0 0 -0.000102169220271532 0.0005352008320970821 0 -0.000239940402530375 0.0005485550823749181 0 -0.0001747554089739237 0.0003535106616790355 0 -0.0004296007350952032 0.0003424042587435444 0 -0.0002650063501751711 0.0003520393080275236 0 -0.000347364731561659 0.0004233513056100285 2.219417256643652e-16 0 0 0 0.0002026913848200784 -0.008969276588676408 0 0.0003433181953708871 -0.009705329375897031 0 0.0002901234496079418 -0.002928749775039289 0 0.0004220239848635369 -0.002723120254752746 0 0.0003591066429577862 -0.002900764089605391 0 0.0003977516719675112 -0.004562803959544015 1.028792606660999e-19 0 0 0 -0.0002665930768687937 0.00139425829363406 0 -0.0006261213147993797 0.001428901790202156 0 -0.000456010475449339 0.0009217890930566564 0 -0.001121092542592781 0.0008928612693559736 0 -0.0006915363152405283 0.0009179570061791322 0 -0.0009064720705792106 0.001103599349479937 0 0 0 0 0.0001154569830709129 -0.005119162568312802 0 0.000195554846592306 -0.005540135924762829 0 0.0001652568881973187 -0.001669398074296745 0 0.0002403817737430169 -0.001552119828167893 0 0.0002045472877480629 -0.001653436176183387 0 0.0002265576262097384 -0.002601729178413842 0 0 0 0 -0.0001518560061641095 0.0007950897552909119 0 -0.0003566343974257353 0.0008149034973898747 0 -0.0002597449875123452 0.0005253198440594191 0 -0.0006385447064284329 0.0005088212262660631 0 -0.0003938920500148279 0.0005231341773929467 0 -0.0005163089768458309 0.0006290516909598952 0 0 0 0 0.0001682344050717626 -0.007450321279863531 0 0.0002849516341883875 -0.008062225144665447 0 0.0002408014673897861 -0.00243151748004471 0 0.0003502745281184118 -0.002260759492545711 0 0.0002980555318196265 -0.00240827737639331 0 0.0003301294995621025 -0.003788673542466267 0 0 0 0 -0.000221272620638248 0.001157751541057418 0 -0.0005196728705818812 0.0011865517483739 0 -0.000378485620824571 0.0007652317301121548 0 -0.0009304801997076238 0.0007412096147510095 0 -0.0005739651901736002 0.0007620494569406544 0 -0.0007523540001582184 0.0009162320178603563 0 0 0 0 0.0002118817612158308 -0.009374014002068621 0 0.0003588859788560273 -0.01014311278225464 0 0.0003032787481250157 -0.003061327019591207 0 0.0004411614749906833 -0.002846402414575988 0 0.000375390489027427 -0.003032076412928903 0 0.0004157882582778221 -0.004769174425586158 0 0 0 0 -0.0002786809883057006 0.001457304088829984 0 -0.000654513937470991 0.001493502955215063 0 -0.0004766882282719487 0.0009635361524448828 0 -0.001171934781817296 0.0009333007009586869 0 -0.0007228957427947562 0.0009595308595849578 0 -0.0009475798964140315 0.001153557345708962 0 0 0 0 0.0002598648229269331 -0.0114844320497655 0 0.0004401671718132073 -0.01242560766293882 0 0.0003719635626085566 -0.003753208805560169 0 0.0005410816292482056 -0.003489794496691471 0 0.0004604105169876494 -0.003717359644475921 0 0.0005099600798215922 -0.005845914044394632 0 0 0 0 -0.000341792286451371 0.001786225569556396 0 -0.0008027566673287079 0.001830523555809357 0 -0.0005846490635721856 0.001181429891868147 0 -0.001437396765073849 0.001144372931479571 0 -0.0008866292897446877 0.001176521057284323 0 -0.00116221395007194 0.001414274678388956 0 0 0 0 0.0002919716543921105 -0.01289402884660729 0 0.0004945562441675199 -0.01394991958334646 0 0.0004179233211598738 -0.004215880388402079 0 0.0006079439499328664 -0.00392005773067155 0 0.0005173015976756557 -0.004175621203109586 0 0.00057297555770165 -0.006565714269647738 0 0 0 0 -0.0003840220128595551 0.002006090500766711 0 -0.0009019543304019019 0.002055787779880428 0 -0.000656890649637612 0.001327164954651978 0 -0.001615038114739772 0.001285548800945687 0 -0.000996193325305309 0.001321652254334737 0 -0.001305840718939662 0.001588621356672127 0 0 0 0 0.0003195029100958822 -0.0141011230465579 0 0.0005411952440628823 -0.01525510977695224 0 0.0004573338179128788 -0.004612433599998704 0 0.0006652795107548143 -0.004288845046393561 0 0.0005660862003462018 -0.004568396219021585 0 0.0006270121928802096 -0.007182503467434732 0 0 0 0 -0.0004202336431333958 0.002194478430025389 0 -0.0009870179436150927 0.002248792796166124 0 -0.0007188382435349846 0.001452090438184043 0 -0.001767372045432402 0.001406568188325995 0 -0.001090146644638505 0.001446060388570374 0 -0.001429004857819339 0.00173805366299979 0 0 0 0 0.0003184983876039922 -0.01405710650031668 0 0.0005394935288529121 -0.01520751842558222 0 0.0004558958538087252 -0.004597967675275063 0 0.0006631874997768143 -0.00427539181766503 0 0.0005643061967749625 -0.004554068093537096 0 0.0006250405534239549 -0.007160005912845477 0 0 0 0 -0.0004189124014292077 0.002187607122457319 0 -0.0009839142158847489 0.002241753233039334 0 -0.0007165779652480413 0.001447532990250092 0 -0.001761813758325127 0.001402153206116929 0 -0.001086718550930835 0.001441521809521356 0 -0.001424510921061019 0.001732602486914335 0 0 0 0 0.000350572257069862 -0.01546155161323186 0 0.000593828978568816 -0.01672594155595067 0 0.0005018095921400449 -0.005059746244778552 0 0.000729985424781071 -0.004704850031601569 0 0.0006211414482534769 -0.005011448837768355 0 0.0006879948974459205 -0.007878079330224037 0 0 0 0 -0.0004610990097407784 0.002406917243723991 0 -0.001083016235963553 0.002466427967947822 0 -0.0007887481947069935 0.001593025176918971 0 -0.001939292026431717 0.001543098575516928 0 -0.001196177802302066 0.001586411800853443 0 -0.001568003431674243 0.001906614387671487 0 0 0 0 0.0003609457119483951 -0.01591535022106284 0 0.000611402619293225 -0.01721653121206267 0 0.000516659327235634 -0.005209047546829474 0 0.0007515899655529212 -0.004843704558489587 0 0.0006395236269470766 -0.00515932867522629 0 0.0007083562518542376 -0.008110205904551884 0 0 0 0 -0.0004747431934113741 0.0024778089281775 0 -0.001115068920404632 0.002539051301640263 0 -0.0008120900984368416 0.001640069909186007 0 -0.001996694994102845 0.001588673658471328 0 -0.001231580438409482 0.001633261891610249 0 -0.001614413879933648 0.001962875767886992 0 0 0 0 8.973170789569223e-05 -0.003980867479571631 0 0.0001519813981329845 -0.004308434981483799 0 0.0001284348517897782 -0.001297693108579549 0 0.0001868190748065967 -0.001206512052958548 0 0.0001589699880006643 -0.001285282971305553 0 0.0001760755429995461 -0.002022643110914683 0 0 0 0 -0.0001180204236689584 0.0006181388588392134 0 -0.0002771679500414337 0.0006335563053055914 0 -0.0002018688001630259 0.0004083294458910044 0 -0.0004962570610640114 0.0003955021634978675 0 -0.0003061232073214093 0.0004066301227210946 0 -0.000401260730195346 0.0004889873702127893 0 0 0 0 9.778617595481395e-05 -0.004337405157742269 0 0.0001656239653586015 -0.004694241698304622 0 0.0001399636219578277 -0.001414088160399088 0 0.0002035891547085637 -0.001314734104907088 0 0.000173239938383635 -0.001400565690141154 0 0.0001918811219231288 -0.002203990047635158 0 0 0 0 -0.0001286141835696692 0.0006735540116711421 0 -0.0003020483035146139 0.0006903490516027778 0 -0.0002199894682079002 0.0004449621572200722 0 -0.000540805954794221 0.0004309851027496152 0 -0.0003336029467522466 0.0004431105220178337 0 -0.0004372813208512308 0.0005328468141353147 2.219407981840504e-16 0 0 0 0.0002045180267925702 -0.009049733916915666 0 0.0003464123770184061 -0.009792357036398603 0 0.0002927381392760152 -0.002955101789704246 0 0.0004258276596758475 -0.002747624619583615 0 0.0003623431450089137 -0.002926864666107651 0 0.0004013365380545342 -0.004603824864522358 1.038067409808718e-19 0 0 0 -0.0002689956203199853 0.001406790205177884 0 -0.0006317644952862137 0.001441742946343184 0 -0.0004601202917726652 0.0009300869036371318 0 -0.001131197671107659 0.0009008991535089299 0 -0.00069776916047925 0.0009262203872686724 0 -0.0009146424483200127 0.001113529357379994 0 0 0 0 0.0001356501375327759 -0.006011743669230836 0 0.000229758539118295 -0.006505879666273411 0 0.00019416077487929 -0.001961065790821823 0 0.000282427067294743 -0.001823316042526456 0 0.0002403240002193643 -0.001942317829742327 0 0.0002661846093424998 -0.003056039604547351 0 0 0 0 -0.0001784154360155333 0.0009339058836362672 0 -0.000419013418701457 0.0009571631458041334 0 -0.000305175816681793 0.0006171288317930069 0 -0.0007502386928083405 0.0005977502959923843 0 -0.0004627884381450301 0.0006145616688288083 0 -0.0006066197913154905 0.0007389570759712333 0 0 0 0 0.0001885693822559064 -0.008347026853033143 0 0.0003193968141179056 -0.00903224593858816 0 0.0002699090192211855 -0.002724993881394266 0 0.0003926175428659759 -0.002533652068624436 0 0.0003340849861354256 -0.002698952557892623 0 0.0003700368270623654 -0.004245606683508479 0 0 0 0 -0.0002480187205147762 0.001297352635761305 0 -0.0005824935359765688 0.001329603552885557 0 -0.0004242371282611263 0.0008576320618014534 0 -0.001042969656674589 0.0008307142252695224 0 -0.0006433498526773429 0.000854066216892431 0 -0.0008433066254119252 0.001026819826793101 0 0 0 0 0.0002639611215714391 -0.01166438654975994 0 0.0004471062468847445 -0.01262021688999696 0 0.0003778272292585714 -0.003812250783492767 0 0.0005496120217246597 -0.00354470003553048 0 0.0004676687957384346 -0.003775838742151508 0 0.0005179996999931753 -0.005937778785284406 0 0 0 0 -0.0003471800912136988 0.001814286748050002 0 -0.0008154124531834487 0.001859274487413486 0 -0.000593865804875497 0.001200026113843775 0 -0.001460060263558353 0.001162387240974352 0 -0.0009006076068268781 0.001195040203923809 0 -0.001180537938755456 0.001436523178665141 0 0 0 0 0.0002429600150846784 -0.01074143572364157 0 0.0004115308626575412 -0.01162207462518417 0 0.0003477652028930227 -0.003509511938131363 0 0.0005058783845137848 -0.003263173266658073 0 0.0004304569364697414 -0.003475986424795575 0 0.0004767821136337926 -0.005466708639707634 0 0 0 0 -0.0003195576496012194 0.0016703901394563 0 -0.0007505287291395448 0.00171183884948746 0 -0.0005466132248327834 0.001104677270028723 0 -0.001343869739097419 0.001070022502732296 0 -0.0008289436059489215 0.001100086613119042 0 -0.001086594852409199 0.001322443735525814 0 0 0 0 0.0002084550840556792 -0.009223125276270304 0 0.0003530814423887439 -0.009979905990259517 0 0.000298373724092206 -0.003011897140758697 0 0.0004340259451344417 -0.00280043796547193 0 0.0003693189631942451 -0.00298311812577132 0 0.0004090632094454754 -0.004692233388069962 0 0 0 0 -0.0002741739496755086 0.001433798892650621 0 -0.000643927575573939 0.001469417986750207 0 -0.0004689784114196914 0.0009479710462110412 0 -0.001152977900975644 0.000918223109628867 0 -0.0007112031851892231 0.0009440303285179611 0 -0.0009322525715995083 0.001134931081218088 0 0 0 0 0.000294183295320358 -0.01299105232676349 0 0.0004983028154811608 -0.01405483253865121 0 0.0004210892279916244 -0.004247742528161352 0 0.0006125497671489117 -0.003949688565348205 0 0.0005212205241667424 -0.004207179718579235 0 0.0005773163758493468 -0.006615276894818414 0 0 0 0 -0.000386930962146955 0.002021228982537919 0 -0.0009087875685895647 0.002071297595599984 0 -0.0006618669821307499 0.001337201857972498 0 -0.001627275117301866 0.001295271805119096 0 -0.001003740669038645 0.001331647582304099 0 -0.001315734544484762 0.001600627873511964 2.218773047513167e-16 0 0 0 0.0003295378827514411 -0.01454073028345737 0 0.0005581950935485279 -0.01573041037511373 0 0.0004716988172322864 -0.004756932895775138 0 0.0006861783944115896 -0.004423229329090784 0 0.0005838681450947403 -0.004711519154667191 0 0.0006467085695857273 -0.007407220317069785 1.673001737145795e-19 0 0 0 -0.0004334325824088778 0.002263111691640065 0 -0.001018023726543538 0.002319106039685457 0 -0.000741418040539795 0.001497615657008992 0 -0.001822898756498055 0.001450670430501049 0 -0.001124392821065325 0.001491397142051761 0 -0.00147389874859625 0.001792505201265683 0 0 0 0 0.0003611734218754495 -0.01592530928325652 0 0.0006117883834626298 -0.01722729748754914 0 0.0005169852976947989 -0.00521232462360529 0 0.0007520642141774033 -0.004846752350932745 0 0.0006399271397390565 -0.005162574554043887 0 0.0007088032105870691 -0.008115300731747769 0 0 0 0 -0.0004750426999575611 0.002479364876144436 0 -0.00111577251971736 0.002540645242833305 0 -0.0008126024833628932 0.001641102538353035 0 -0.001997955071316775 0.001589674031982934 0 -0.001232357574192157 0.001634290248832901 0 -0.001615432654085877 0.001964110673627144 0 0 0 0 0.000350572257069862 -0.01546155161323186 0 0.000593828978568816 -0.01672594155595067 0 0.0005018095921400449 -0.005059746244778552 0 0.000729985424781071 -0.004704850031601569 0 0.0006211414482534769 -0.005011448837768355 0 0.0006879948974459205 -0.007878079330224037 0 0 0 0 -0.0004610990097407784 0.002406917243723991 0 -0.001083016235963553 0.002466427967947822 0 -0.0007887481947069935 0.001593025176918971 0 -0.001939292026431717 0.001543098575516928 0 -0.001196177802302066 0.001586411800853443 0 -0.001568003431674243 0.001906614387671487 0 0 0 0 0.0002377121154431371 -0.01051066612904831 0 0.0004026411242557865 -0.01137249282095077 0 0.0003402531414389532 -0.003433846157786179 0 0.0004949500806578378 -0.003192810113456354 0 0.0004211582777867782 -0.003401042231390045 0 0.000466482512545877 -0.005348958151043389 0 0 0 0 -0.0003126551742623516 0.001634420173592813 0 -0.0007343153687975925 0.001674983451406782 0 -0.000534805530899013 0.001080847430877084 0 -0.001314835965149599 0.001046938634727071 0 -0.000811035998781044 0.001076355581049424 0 -0.00106312019671824 0.001293931069315862 2.220416517317946e-16 0 0 0 5.820389407142581e-06 -0.000258708544067912 0 9.857888463463411e-06 -0.000280039411787337 0 8.330693107137851e-06 -8.422866539617862e-05 0 1.211734870725199e-05 -7.830708613516785e-05 0 1.031115194526963e-05 -8.342268307899864e-05 0 1.142056546036541e-05 -0.0001313271289175555 2.953193236643336e-21 0 0 0 -7.655288075875836e-06 4.013868723128471e-05 0 -1.797751762186571e-05 4.11426539723172e-05 0 -1.309372562030602e-05 2.649820085473596e-05 0 -3.218689591378443e-05 2.566515790444781e-05 0 -1.985548727945808e-05 2.6387837497339e-05 0 -2.602580964689553e-05 3.1738258704504e-05 0 0 0 0 2.625643922960062e-05 -0.001166522054582998 0 4.44703723525367e-05 -0.001262656126907784 0 3.758087063541538e-05 -0.0003799050408472401 0 5.466334383971416e-05 -0.0003532000158165493 0 4.651514703153226e-05 -0.0003762702698225075 0 5.151997750962607e-05 -0.0005922890301250205 0 0 0 0 -3.453390968524308e-05 0.0001810223209304278 0 -8.10995104913487e-05 0.0001855470059076585 0 -5.906768676175291e-05 0.0001195230199483262 0 -0.0001452014961747667 0.0001157661783573476 0 -8.95714589938325e-05 0.0001190253098549019 0 -0.0001174072674266654 0.000143152462015627 0 0 0 0 0.0001442872166960856 -0.006393272397961674 0 0.0002443883958830898 -0.006918659782498426 0 0.0002065237126090667 -0.002085791025327405 0 0.0003004110925087327 -0.001939288788927139 0 0.0002556266979283139 -0.002065851912046547 0 0.0002831342218244192 -0.003250292818147683 0 0 0 0 -0.0001897755340311835 0.0009932587131364905 0 -0.0004456947784285409 0.001017986874248227 0 -0.0003246078187319758 0.0006563914633764635 0 -0.0007980140691058033 0.000635781632884021 0 -0.0004922575256417797 0.0006536611956433972 0 -0.0006452486874767048 0.0007859557783005651 0 0 0 0 0.0001263129039589419 -0.005599119100611468 0 0.0002139428293636713 -0.006059442082976926 0 0.0001807957023684638 -0.001826211124708112 0 0.0002629853780175081 -0.001697925832014398 0 0.0002237809226131285 -0.001808751219754424 0 0.0002478611555917974 -0.00284599510388928 0 0 0 0 -0.0001661344558887306 0.0008697268379556651 0 -0.0003901694428632962 0.0008913926345539664 0 -0.0002841687080098722 0.0005746792467283302 0 -0.0006985913227432317 0.0005566321646462672 0 -0.00043093081763652 0.0005722884576112821 0 -0.0005648600781498113 0.0006881414902347463 0 0 0 0 0.000189489966830645 -0.008387602129074634 0 0.0003209561930716252 -0.009076136991526904 0 0.0002712267529952288 -0.002738277667493145 0 0.0003945344751934113 -0.002546004290596437 0 0.0003357160886427223 -0.002712109570099359 0 0.0003718434898408655 -0.004266287334351106 0 0 0 0 -0.0002492295441979476 0.001303670789482652 0 -0.0005853375219817224 0.001336077769553527 0 -0.0004263083589577007 0.0008618146299934213 0 -0.001048062266159654 0.0008347657415198914 0 -0.0006464910051408937 0.0008582314259035003 0 -0.0008474242094910586 0.001031825432708732 0 0 0 0 0.0001236082587080218 -0.005479564731082212 0 0.000209361632472115 -0.005930087864023686 0 0.0001769243537895341 -0.001787145166402576 0 0.0002573538888565548 -0.001661601847434607 0 0.0002189890377527583 -0.001770058429736771 0 0.0002425535712463236 -0.002785144499478101 0 0 0 0 -0.0001625771200655386 0.0008511336999856676 0 -0.0003818144819093631 0.0008723382505575122 0 -0.0002780837633187879 0.0005623823886959392 0 -0.0006836311896632036 0.0005447210457449541 0 -0.0004217029301903132 0.000560042697605726 0 -0.0005527639745417077 0.0006734207701776725 0 0 0 0 8.963239819580055e-05 -0.003976470641851078 0 0.0001518131889587754 -0.004303677126204541 0 0.0001282927050109763 -0.001296257894461357 0 0.0001866123045721446 -0.001205177621885469 0 0.0001587940434171242 -0.001283861473657073 0 0.0001758806646878214 -0.002020406931262451 0 0 0 0 -0.0001178898051479301 0.0006174555311658536 0 -0.0002768611824575506 0.0006328559857746416 0 -0.0002016453771851079 0.0004078777530002891 0 -0.0004957077878107884 0.0003950646486969724 0 -0.0003057843902416658 0.0004061803080300086 0 -0.0004008166076064538 0.0004884465597966188 0 0 0 0 