<?xml version="1.0" encoding="UTF-8"?>
<!-- This file was created by ACADEMIC version of SMILE -->
<smile version="1.0" id="unknown" numsamples="10000" discsamples="10000">
	<nodes>
		<cpt id="Sex">
			<state id="M" />
			<state id="W" />
			<probabilities>0.695118 0.304882</probabilities>
		</cpt>
		<cpt id="Age">
			<state id="age_2_young" />
			<state id="age_3_young_adult" />
			<state id="age_4_adult" />
			<state id="age_5_old_adult" />
			<probabilities>0.19078 0.380053 0.298359 0.130808</probabilities>
		</cpt>
		<cpt id="SD">
			<state id="SD_1_short" />
			<state id="SD_2_normal" />
			<state id="SD_3_excessive" />
			<parents>Age Sex</parents>
			<probabilities>0.060844313 0.937824307 0.00133138 0.078497363 0.919507767 0.00199487 0.091220196 0.90787856 0.000901244 0.11412849 0.885107393 0.000764117 0.121549326 0.877796408 0.000654266 0.159430754 0.839586651 0.000982595 0.149294451 0.8500227970000001 0.000682752 0.225208895 0.774069936 0.000721169</probabilities>
		</cpt>
		<cpt id="SES">
			<state id="ses_0" />
			<state id="ses_1" />
			<state id="ses_2" />
			<parents>Age Sex</parents>
			<probabilities>0.265038 0.608924 0.126038 0.227351 0.606203 0.166446 0.2481707518292481 0.6176143823856175 0.1342148657851343 0.194898 0.6426539999999999 0.162448 0.252783 0.615168 0.132049 0.188273 0.641218 0.170509 0.2429122429122429 0.6313856313856314 0.1257021257021257 0.162707 0.664855 0.172438</probabilities>
		</cpt>
		<cpt id="Depression">
			<state id="False" />
			<state id="True" />
			<parents>Age SES Sex</parents>
			<probabilities>0.997863655 0.002136345 0.994321309 0.005678691 0.99885487 0.00114513 0.997887385 0.002112615 0.998969781 0.001030219 0.998266781 0.001733219 0.996706037 0.003293963 0.988462896 0.011537104 0.997612648 0.002387352 0.994959954 0.005040046 0.997874826 0.002125174 0.99539649 0.00460351 0.9932493100000001 0.00675069 0.9801555749999999 0.019844425 0.996694208 0.003305792 0.992654556 0.007345444 0.997027521 0.002972479 0.993538526 0.006461474 0.993046405 0.006953595 0.965170613 0.034829387 0.994559063 0.005440937 0.98925555 0.01074445 0.9972002679999999 0.002799732 0.993063387 0.006936613</probabilities>
		</cpt>
		<cpt id="PA">
			<state id="PA_1" />
			<state id="PA_2" />
			<parents>Age SD SES Sex</parents>
			<probabilities>0.482960174 0.517039826 0.620871248 0.379128752 0.471864678 0.528135322 0.554851444 0.445148556 0.424304227 0.575695773 0.490459825 0.509540175 0.394941489 0.605058511 0.514621382 0.485378618 0.389521957 0.610478043 0.461170736 0.538829264 0.336538844 0.663461156 0.362231129 0.637768871 0.524754729 0.475245271 0.542883361 0.457116639 0.42757625 0.57242375 0.5888450200000001 0.41115498 0.489527729 0.510472271 0.514850294 0.485149706 0.540085956 0.459914044 0.59533725 0.40466275 0.517562867 0.482437133 0.5801786209999999 0.419821379 0.471672205 0.528327795 0.541112446 0.458887554 0.468980888 0.531019112 0.525066668 0.474933332 0.467361722 0.532638278 0.496116563 0.503883437 0.393204847 0.606795153 0.427089822 0.572910178 0.486764295 0.513235705 0.50487751 0.49512249 0.550936659 0.449063341 0.58643991 0.41356009 0.512318406 0.487681594 0.533888241 0.466111759 0.56087748 0.43912252 0.538736484 0.461263516 0.518199623 0.481800377 0.512441111 0.487558889 0.448944356 0.551055644 0.447486087 0.552513913 0.484326733 0.515673267 0.479155827 0.520844173 0.484082075 0.515917925 0.452198731 0.547801269 0.39545848 0.6045415200000001 0.37222709 0.62777291 0.531613695 0.468386305 0.488367237 0.511632763 0.581409954 0.418590046 0.490921527 0.509078473 0.48954251 0.51045749 0.464206372 0.535793628 0.537268254 0.462731746 0.579118873 0.420881127 0.514437807 0.485562193 0.5156834259999999 0.484316574 0.464639523 0.535360477 0.473053893 0.526946107 0.483202866 0.516797134 0.500088604 0.499911396 0.473048548 0.526951452 0.436542761 0.563457239 0.393267294 0.606732706 0.378980607 0.621019393 0.492440477 0.507559523 0.533342164 0.466657836 0.6309098869999999 0.369090113 0.492169558 0.507830442 0.488970119 0.511029881 0.503256046 0.496743954</probabilities>
		</cpt>
		<cpt id="Smoking">
			<state id="sm_1_not_smoker" />
			<state id="sm_2_smoker" />
			<state id="sm_3_ex_smoker" />
			<parents>Age PA Sex</parents>
			<probabilities>0.446330401 0.440945892 0.112723707 0.529641379 0.337748088 0.132610534 0.557463069 0.325515129 0.117021802 0.5886502850000001 0.271293166 0.140056549 0.471714462 0.360802735 0.167482803 0.554434337 0.28323897 0.162326693 0.551256389 0.255864566 0.192879044 0.579066261 0.225941944 0.194991794 0.398959148 0.359016238 0.242024614 0.496183584 0.327477342 0.176339073 0.483745206 0.24334485 0.272909944 0.542385494 0.242025861 0.215588646 0.37681277 0.303406481 0.319780749 0.543890929 0.26998268 0.18612639 0.4486828 0.20376842 0.347548781 0.5693515179999999 0.188244006 0.242404476</probabilities>
		</cpt>
		<cpt id="Anxiety">
			<state id="False" />
			<state id="True" />
			<parents>Depression SD Sex Smoking</parents>
			<probabilities>0.971336721 0.028663279 0.9615512980000001 0.038448702 0.968828833 0.031171167 0.943572812 0.056427188 0.924390764 0.075609236 0.925219217 0.074780783 0.984691033 0.015308967 0.980021819 0.019978181 0.979219465 0.020780535 0.969387083 0.030612917 0.951017224 0.048982776 0.957426591 0.042573409 0.979844732 0.020155268 0.970985053 0.029014947 0.987399873 0.012600127 0.984583757 0.015416243 0.953909558 0.046090442 0.9500612859999999 0.049938714 0.87238812 0.12761188 0.88629607 0.11370393 0.926218112 0.073781888 0.910199251 0.089800749 0.850381421 0.149618579 0.912162308 0.08783769199999999 0.887635786 0.112364214 0.916113641 0.08388635899999999 0.875464154 0.124535846 0.900114221 0.09988577899999999 0.887995922 0.112004078 0.858307872 0.141692128 0.915760002 0.084239998 0.972142923 0.027857077 0.972142923 0.027857077 0.973071964 0.026928036 0.971281878 0.028718122 0.971245613 0.028754387</probabilities>
		</cpt>
		<cpt id="Alcohol">
			<state id="high" />
			<state id="low" />
			<parents>Age Sex Smoking</parents>
			<probabilities>0.006440306 0.993559694 0.025006952 0.974993048 0.019256092 0.980743908 0.001413651 0.998586349 0.004426413 0.995573587 0.002911964 0.997088036 0.019231995 0.9807680050000001 0.061380648 0.938619352 0.044717488 0.955282512 0.00302048 0.99697952 0.008328991000000001 0.991671009 0.00690617 0.99309383 0.052038441 0.947961559 0.134326352 0.865673648 0.09703972900000001 0.902960271 0.009248324 0.990751676 0.020016907 0.979983093 0.021599909 0.978400091 0.103943403 0.896056597 0.21175689 0.78824311 0.1629616 0.8370384 0.019931973 0.980068027 0.039153935 0.960846065 0.030181896 0.969818104</probabilities>
		</cpt>
		<cpt id="BMI">
			<state id="bmi_1_underweight" />
			<state id="bmi_2_normal" />
			<state id="bmi_3_overweight" />
			<state id="bmi_4_obese" />
			<parents>Age PA Sex Smoking</parents>
			<probabilities>0.006932337 0.405827629 0.419231818 0.168008215 0.013099617 0.446791412 0.391008827 0.149100144 0.005357608 0.335709669 0.45172678 0.207205942 0.049956089 0.654860039 0.204120659 0.091063214 0.067968655 0.6401471 0.192224039 0.099660206 0.040770745 0.633626296 0.215411425 0.110191534 0.002990791 0.535477987 0.377235618 0.084295604 0.008436353000000001 0.531863616 0.369361733 0.090338298 0.001517427 0.464137135 0.43166399 0.102681447 0.058817872 0.7117822069999999 0.164448222 0.064951698 0.054191728 0.70086799 0.170365884 0.074574398 0.036164178 0.702517794 0.185604945 0.075713083 0.001641685 0.304311832 0.481547262 0.212499221 0.005710138 0.344742465 0.449492701 0.200054696 0.001256896 0.22830507 0.494927316 0.275510718 0.030358861 0.60786677 0.239963269 0.1218111 0.039411622 0.59800915 0.249830043 0.112749185 0.022061478 0.571115555 0.274545154 0.132277812 0.001652834 0.426926902 0.44926847 0.122151794 0.004118361 0.402353375 0.461015239 0.132513025 0.000486406 0.328585612 0.499500428 0.171427554 0.034010075 0.676452006 0.203350167 0.08618775200000001 0.036077128 0.67214929 0.206867442 0.08490614 0.020230869 0.647274652 0.239095822 0.093398657 0.001241755 0.220345696 0.510119266 0.268293283 0.004605307 0.285101739 0.465571839 0.244721115 0.000543301 0.147949379 0.495925175 0.355582145 0.012451221 0.493821986 0.319496163 0.17423063 0.023428805 0.532743674 0.312302796 0.131524726 0.007733406 0.456598716 0.350007018 0.18566086 0.000822645 0.321627775 0.512940933 0.164608647 0.002545302 0.316431751 0.493400531 0.187622417 0.000440481 0.205498496 0.548690936 0.245370087 0.017710449 0.596761693 0.282985983 0.102541876 0.020386634 0.6101968639999999 0.274267264 0.095149238 0.010340505 0.57178982 0.310156253 0.107713421 0.0008818539999999999 0.17016489 0.519801186 0.309152069 0.007458112 0.275716949 0.459284453 0.257540485 0.000603617 0.119128558 0.482802397 0.397465428 0.006456409 0.365499465 0.385650355 0.242393771 0.020055464 0.467361196 0.36587761 0.14670573 0.003204784 0.363890078 0.402922768 0.229982369 0.0006687419999999999 0.249137387 0.546656377 0.203537495 0.005186149 0.29683172 0.499814007 0.198168124 0.000319515 0.163586929 0.551184751 0.284908806 0.01123616 0.477033685 0.371178884 0.140551272 0.014591224 0.5470441660000001 0.335189882 0.103174728 0.008640798999999999 0.474752803 0.375526209 0.141080189</probabilities>
		</cpt>
		<cpt id="Hyperchol_">
			<state id="False" />
			<state id="True" />
			<parents>Age Alcohol BMI PA Sex Smoking</parents>
			<probabilities>0.466145186 0.533854814 0.498714283 0.501285717 0.448949082 0.5510509179999999 0.448949082 0.5510509179999999 0.436380985 0.563619015 0.465471033 0.534528967 0.465471033 0.534528967 0.450401296 0.549598704 0.465471033 0.534528967 0.466145186 0.533854814 0.44942442 0.55057558 0.449296467 0.550703533 0.524512014 0.475487986 0.656359165 0.343640835 0.476129293 0.523870707 0.487493212 0.512506788 0.431150689 0.568849311 0.429230214 0.5707697859999999 0.542360475 0.457639525 0.583678742 0.416321258 0.529807363 0.470192637 0.536611961 0.463388039 0.537376217 0.462623783 0.485252543 0.514747457 0.467411585 0.532588415 0.470948698 0.5290513019999999 0.490112596 0.509887404 0.449013666 0.550986334 0.485440808 0.514559192 0.465471033 0.534528967 0.465224428 0.534775572 0.532650249 0.467349751 0.475227164 0.524772836 0.482320107 0.5176798929999999 0.522541941 0.477458059 0.448666281 0.5513337190000001 0.447915944 0.552084056 0.486344067 0.513655933 0.437771357 0.562228643 0.448318278 0.551681722 0.449360971 0.5506390289999999 0.448601257 0.551398743 0.425710251 0.574289749 0.423702477 0.576297523 0.409233794 0.590766206 0.465177412 0.534822588 0.448949082 0.5510509179999999 0.435233002 0.564766998 0.643548714 0.356451286 0.736291679 0.263708321 0.495230901 0.504769099 0.743362269 0.256637731 0.77084625 0.22915375 0.721697283 0.278302717 0.723345616 0.276654384 0.709917181 0.290082819 0.534927434 0.465072566 0.712944994 0.287055006 0.722246668 0.277753332 0.603084536 0.396915464 0.748597117 0.251402883 0.765892152 0.234107848 0.686176261 0.313823739 0.790214305 0.209785695 0.802753242 0.197246758 0.7598304259999999 0.240169574 0.795649456 0.204350544 0.796386595 0.203613405 0.742621984 0.257378016 0.780033381 0.219966619 0.787289477 0.212710523 0.751590946 0.248409054 0.63798352 0.36201648 0.61888669 0.38111331 0.58603984 0.41396016 0.704826305 0.295173695 0.700674756 0.299325244 0.668683292 0.331316708 0.701416087 0.298583913 0.665528514 0.334471486 0.643780393 0.356219607 0.703453486 0.296546514 0.702071306 0.297928694 0.655293546 0.344706454 0.553849142 0.446150858 0.5346477509999999 0.465352249 0.5177457009999999 0.482254299 0.681940374 0.318059626 0.67723163 0.32276837 0.65305908 0.34694092 0.595807106 0.404192894 0.5412975880000001 0.458702412 0.534255878 0.465744122 0.63795317 0.36204683 0.6188731 0.3811269 0.555621093 0.444378907 0.434876521 0.565123479 0.498616693 0.501383307 0.435233002 0.564766998 0.448949082 0.5510509179999999 0.456819886 0.543180114 0.449296686 0.5507033140000001 0.465808216 0.534191784 0.482519389 0.517480611 0.448949082 0.5510509179999999 0.48166638 0.5183336200000001 0.465937725 0.534062275 0.439570813 0.560429187 0.454525291 0.5454747089999999 0.438865516 0.561134484 0.377095308 0.622904692 0.512489047 0.487510953 0.496578212 0.503421788 0.442390213 0.557609787 0.433861485 0.566138515 0.434553637 0.565446363 0.416478109 0.583521891 0.515501774 0.484498226 0.496583148 0.503416852 0.531147626 0.468852374 0.366031715 0.633968285 0.317932366 0.682067634 0.318047629 0.6819523709999999 0.512211409 0.487788591 0.487506342 0.512493658 0.437561297 0.562438703 0.354939693 0.6450603070000001 0.347170226 0.652829774 0.361571798 0.6384282019999999 0.409223529 0.590776471 0.371908287 0.628091713 0.416264881 0.583735119 0.292855081 0.707144919 0.30864661 0.69135339 0.284297876 0.715702124 0.469205784 0.530794216 0.441679768 0.558320232 0.434602199 0.565397801 0.261164078 0.738835922 0.278248543 0.721751457 0.31661404 0.68338596 0.421995183 0.5780048169999999 0.448164938 0.551835062 0.434958629 0.565041371 0.635238544 0.364761456 0.599297108 0.400702892 0.447221307 0.552778693 0.648568457 0.351431543 0.648015347 0.351984653 0.552661538 0.447338462 0.573275644 0.426724356 0.549471852 0.450528148 0.483167524 0.516832476 0.659064249 0.340935751 0.622653419 0.377346581 0.5570795160000001 0.442920484 0.60458073 0.39541927 0.578169169 0.421830831 0.5274716149999999 0.472528385 0.740296881 0.259703119 0.720583835 0.279416165 0.702353351 0.297646649 0.649203534 0.350796466 0.600270156 0.399729844 0.588626279 0.411373721 0.734614816 0.265385184 0.7156833460000001 0.284316654 0.696509537 0.303490463 0.51241969 0.48758031 0.45427519 0.5457248099999999 0.454171836 0.545828164 0.64450909 0.35549091 0.615591668 0.384408332 0.614144347 0.385855653 0.544570483 0.455429517 0.485984242 0.514015758 0.492218948 0.507781052 0.633296651 0.366703349 0.6017463790000001 0.398253621 0.601701038 0.398298962 0.439863791 0.5601362090000001 0.397872006 0.6021279940000001 0.400644497 0.599355503 0.607723983 0.392276017 0.548483658 0.451516342 0.550029756 0.449970244 0.462234098 0.537765902 0.389736595 0.610263405 0.4078816 0.5921184 0.6000506799999999 0.39994932 0.527168353 0.472831647 0.570429178 0.429570822 0.448601257 0.551398743 0.42552229 0.57447771 0.434684256 0.565315744 0.464883977 0.5351160230000001 0.422164328 0.577835672 0.435315059 0.564684941 0.448601257 0.551398743 0.426719674 0.573280326 0.448949082 0.5510509179999999 0.434298455 0.565701545 0.444297582 0.555702418 0.4481002 0.5518998000000001 0.340436412 0.659563588 0.334737936 0.665262064 0.286679206 0.713320794 0.408594063 0.591405937 0.327595453 0.672404547 0.432553918 0.567446082 0.305175287 0.694824713 0.33055336 0.66944664 0.230811999 0.769188001 0.314459932 0.685540068 0.34235908 0.65764092 0.387908383 0.612091617 0.279728149 0.720271851 0.245380007 0.754619993 0.228378163 0.771621837 0.404883012 0.595116988 0.378475974 0.621524026 0.393080074 0.606919926 0.257984365 0.742015635 0.240341631 0.7596583690000001 0.227273047 0.772726953 0.368526926 0.631473074 0.346542279 0.653457721 0.405535715 0.594464285 0.234474859 0.765525141 0.23569893 0.76430107 0.238747347 0.761252653 0.357171852 0.642828148 0.384541844 0.615458156 0.407061796 0.592938204 0.264679813 0.735320187 0.234549805 0.765450195 0.226783972 0.773216028 0.435682188 0.564317812 0.425933353 0.574066647 0.429431096 0.570568904 0.457594463 0.542405537 0.462484951 0.537515049 0.496004017 0.503995983 0.475692628 0.524307372 0.43971282 0.56028718 0.464708944 0.535291056 0.426951225 0.573048775 0.459887756 0.540112244 0.482411396 0.517588604 0.446450263 0.553549737 0.512096232 0.487903768 0.446091978 0.553908022 0.435798393 0.564201607 0.426198592 0.573801408 0.362622319 0.637377681 0.515705797 0.484294203 0.474254583 0.525745417 0.4643778 0.5356222 0.46995358 0.53004642 0.428070309 0.571929691 0.408110611 0.591889389 0.517335828 0.482664172 0.454599203 0.545400797 0.468985241 0.5310147589999999 0.395450402 0.604549598 0.330471156 0.669528844 0.339888416 0.660111584 0.429908664 0.5700913359999999 0.356554069 0.643445931 0.381120215 0.618879785 0.394612897 0.605387103 0.33118533 0.6688146699999999 0.364880291 0.635119709 0.431997414 0.568002586 0.358107097 0.641892903 0.365673311 0.634326689 0.361238046 0.638761954 0.312968887 0.687031113 0.326662397 0.673337603 0.418940332 0.581059668 0.325988323 0.674011677 0.345654775 0.654345225 0.347847236 0.652152764 0.308539041 0.691460959 0.327150657 0.672849343 0.402934789 0.597065211 0.350327757 0.649672243 0.377649883 0.622350117 0.434958456 0.565041544 0.487441969 0.512558031 0.435233002 0.564766998 0.434876521 0.565123479 0.421533525 0.578466475 0.448601257 0.551398743 0.448949082 0.5510509179999999 0.470000918 0.529999082 0.448601257 0.551398743 0.435945067 0.564054933 0.449013268 0.550986732 0.433507159 0.566492841 0.283496463 0.716503537 0.27821845 0.72178155 0.25083882 0.74916118 0.392256199 0.607743801 0.354833525 0.645166475 0.346328023 0.653671977 0.279305155 0.720694845 0.279620896 0.720379104 0.251591606 0.748408394 0.339633051 0.660366949 0.361600811 0.638399189 0.355479797 0.644520203 0.248091712 0.751908288 0.236093858 0.763906142 0.235580731 0.764419269 0.329848312 0.670151688 0.332635607 0.6673643929999999 0.382763037 0.617236963 0.228121218 0.771878782 0.242747145 0.7572528549999999 0.236509737 0.763490263 0.385269182 0.614730818 0.316138615 0.683861385 0.394824524 0.605175476 0.256503852 0.743496148 0.229028962 0.770971038 0.212077577 0.787922423 0.404036887 0.595963113 0.406667571 0.5933324290000001 0.437094121 0.562905879 0.275235434 0.7247645660000001 0.235943026 0.7640569740000001 0.240734211 0.759265789 0.354962678 0.645037322 0.433233874 0.566766126 0.408199389 0.591800611 0.465059414 0.5349405860000001 0.439735966 0.560264034 0.452305158 0.547694842 0.401483513 0.598516487 0.359473079 0.640526921 0.448814818 0.551185182 0.466786457 0.533213543 0.460214046 0.539785954 0.434849198 0.565150802 0.336065695 0.6639343049999999 0.450607774 0.549392226 0.406007378 0.593992622 0.362609927 0.6373900729999999 0.323061571 0.676938429 0.324883662 0.675116338 0.251449613 0.748550387 0.254089943 0.745910057 0.226841122 0.773158878 0.344464953 0.655535047 0.313706712 0.686293288 0.319675185 0.680324815 0.255230491 0.7447695090000001 0.237387281 0.762612719 0.205835343 0.7941646570000001 0.343176756 0.656823244 0.297672398 0.702327602 0.313339234 0.686660766 0.228270185 0.771729815 0.220375847 0.779624153 0.206894107 0.793105893 0.334749585 0.665250415 0.299773046 0.700226954 0.315997666 0.684002334 0.220650231 0.779349769 0.201778177 0.798221823 0.195059364 0.804940636 0.327111754 0.672888246 0.268920801 0.731079199 0.311898597 0.688101403 0.260073695 0.739926305 0.258541168 0.741458832 0.219669797 0.780330203 0.333098153 0.666901847 0.264045849 0.7359541509999999 0.295123546 0.704876454 0.250126832 0.749873168 0.227059653 0.772940347 0.229118598 0.770881402</probabilities>
		</cpt>
		<cpt id="Diabetes">
			<state id="False" />
			<state id="True" />
			<parents>Age BMI PA Sex</parents>
			<probabilities>0.986650693 0.013349307 0.99633026 0.00366974 0.9910621509999999 0.008937848999999999 0.9947869580000001 0.005213042 0.99278223 0.00721777 0.994720888 0.005279112 0.9931408309999999 0.006859169 0.995934647 0.004065353 0.992488923 0.007511077 0.991948298 0.008051702000000001 0.993003147 0.006996853 0.992059187 0.007940813 0.985940308 0.014059692 0.9868037079999999 0.013196292 0.984771657 0.015228343 0.982024107 0.017975893 0.979732617 0.020267383 0.993282865 0.006717135 0.986847565 0.013152435 0.992272736 0.007727264 0.989521163 0.010478837 0.993125589 0.006874411 0.990074837 0.009925163000000001 0.993658418 0.006341582 0.984624401 0.015375599 0.987038172 0.012961828 0.986787639 0.013212361 0.986320211 0.013679789 0.956998539 0.043001461 0.974967085 0.025032915 0.957173339 0.042826661 0.966025735 0.033974265 0.982256834 0.017743166 0.994263159 0.005736841 0.956712992 0.043287008 0.992523802 0.007476198 0.971790656 0.028209344 0.9891762589999999 0.010823741 0.9757134159999999 0.024286584 0.990874035 0.009125965 0.947443145 0.052556855 0.979281983 0.020718017 0.956670061 0.043329939 0.978156594 0.021843406 0.878437324 0.121562676 0.9382233 0.0617767 0.884979471 0.115020529 0.930775022 0.06922497800000001 0.948706405 0.051293595 0.9690942259999999 0.030905774 0.9509874230000001 0.049012577 0.981813997 0.018186003 0.922690072 0.077309928 0.976164736 0.023835264 0.925331645 0.07466835500000001 0.978779266 0.021220734 0.874766205 0.125233795 0.949096195 0.050903805 0.885999053 0.114000947 0.95319783 0.04680217 0.786184334 0.213815666 0.875426033 0.124573967 0.78447323 0.21552677 0.892336478 0.107663522</probabilities>
		</cpt>
		<cpt id="Hypertension">
			<state id="False" />
			<state id="True" />
			<parents>Age Alcohol BMI Diabetes PA Smoking</parents>
			<probabilities>0.851078798 0.148921202 0.8713456429999999 0.128654357 0.850890799 0.149109201 0.855408562 0.144591438 0.847343618 0.152656382 0.850984798 0.149015202 0.846087813 0.153912187 0.846087813 0.153912187 0.846087813 0.153912187 0.846087813 0.153912187 0.846087813 0.153912187 0.846087813 0.153912187 0.928558686 0.07144131400000001 0.9521785699999999 0.04782143 0.901338418 0.098661582 0.924287673 0.075712327 0.9389993599999999 0.06100064 0.936421609 0.063578391 0.846087813 0.153912187 0.8512665 0.1487335 0.846087813 0.153912187 0.851078798 0.148921202 0.863598234 0.136401766 0.850890799 0.149109201 0.880949953 0.119050047 0.888936473 0.111063527 0.915714645 0.08428535500000001 0.87432071 0.12567929 0.9161160350000001 0.083883965 0.903424733 0.09657526700000001 0.8196847819999999 0.180315218 0.825238766 0.174761234 0.846087813 0.153912187 0.846184901 0.153815099 0.820202169 0.179797831 0.82042886 0.17957114 0.883274566 0.116725434 0.823937504 0.176062496 0.843994724 0.156005276 0.796334476 0.203665524 0.839053426 0.160946574 0.807332323 0.192667677 0.8507966810000001 0.149203319 0.851360085 0.148639915 0.846184901 0.153815099 0.846184901 0.153815099 0.846087813 0.153912187 0.846087813 0.153912187 0.987478551 0.012521449 0.98424618 0.01575382 0.964624908 0.035375092 0.986270682 0.013729318 0.980416082 0.019583918 0.942307652 0.057692348 0.859754239 0.140245761 0.851547315 0.148452685 0.8507966810000001 0.149203319 0.85577288 0.14422712 0.851453848 0.148546152 0.846281867 0.153718133 0.982679882 0.017320118 0.984041917 0.015958083 0.981728095 0.018271905 0.978964727 0.021035273 0.979562911 0.020437089 0.982462154 0.017537846 0.916089975 0.083910025 0.911115051 0.088884949 0.860237448 0.139762552 0.939916876 0.060083124 0.908957549 0.091042451 0.907100329 0.092899671 0.950062757 0.049937243 0.946986503 0.053013497 0.949113397 0.050886603 0.947782364 0.052217636 0.957212362 0.042787638 0.948824111 0.051175889 0.872888284 0.127111716 0.905056645 0.09494335499999999 0.883019266 0.116980734 0.889788314 0.110211686 0.9212328950000001 0.078767105 0.896791461 0.103208539 0.855149999 0.144850001 0.877133176 0.122866824 0.872255626 0.127744374 0.8604686070000001 0.139531393 0.873386701 0.126613299 0.864063103 0.135936897 0.799408891 0.200591109 0.757397022 0.242602978 0.768188662 0.231811338 0.804658892 0.195341108 0.79499039 0.20500961 0.783037093 0.216962907 0.850890799 0.149109201 0.886575436 0.113424564 0.851078857 0.148921143 0.858946389 0.141053611 0.86793986 0.13206014 0.860195519 0.139804481 0.846087813 0.153912187 0.846184901 0.153815099 0.846087813 0.153912187 0.846087813 0.153912187 0.846184901 0.153815099 0.846087813 0.153912187 0.913456912 0.086543088 0.921064798 0.078935202 0.919793073 0.080206927 0.920166758 0.079833242 0.915990073 0.084009927 0.9122108 0.0877892 0.825679825 0.174320175 0.848833427 0.151166573 0.796110811 0.203889189 0.851266559 0.148733441 0.811094405 0.188905595 0.81211585 0.18788415 0.857937647 0.142062353 0.829221655 0.170778345 0.841611356 0.158388644 0.871607913 0.128392087 0.8604513580000001 0.139548642 0.876497096 0.123502904 0.789980888 0.210019112 0.766137506 0.233862494 0.810311765 0.189688235 0.782287878 0.217712122 0.830596613 0.169403387 0.85361981 0.14638019 0.658083547 0.341916453 0.709518351 0.290481649 0.682075862 0.317924138 0.724793693 0.275206307 0.682033243 0.317966757 0.730341979 0.269658021 0.726847864 0.273152136 0.736779461 0.263220539 0.797132747 0.202867253 0.710414219 0.289585781 0.755601119 0.244398881 0.768020248 0.231979752 0.983184701 0.016815299 0.977223262 0.022776738 0.931291303 0.068708697 0.9788814850000001 0.021118515 0.965169121 0.034830879 0.949999 0.050001 0.855417615 0.144582385 0.860371342 0.139628658 0.846087813 0.153912187 0.860107329 0.139892671 0.851453966 0.148546034 0.850984858 0.149015142 0.968609934 0.031390066 0.963934118 0.036065882 0.97612723 0.02387277 0.967239292 0.032760708 0.96734912 0.03265088 0.970436894 0.029563106 0.8899994020000001 0.110000598 0.88513209 0.11486791 0.884829534 0.115170466 0.881114545 0.118885455 0.925142696 0.074857304 0.894014971 0.105985029 0.916774614 0.083225386 0.914089887 0.085910113 0.920641254 0.07935874599999999 0.916128061 0.08387193900000001 0.9171606329999999 0.082839367 0.912653384 0.087346616 0.807944183 0.192055817 0.800119351 0.199880649 0.783711241 0.216288759 0.819155399 0.180844601 0.821311108 0.178688892 0.8143948989999999 0.185605101 0.784277331 0.215722669 0.798652516 0.201347484 0.777499537 0.222500463 0.791249425 0.208750575 0.798090473 0.201909527 0.786276848 0.213723152 0.572593284 0.427406716 0.5820724269999999 0.417927573 0.581306286 0.418693714 0.592495562 0.407504438 0.621308853 0.378691147 0.637091379 0.362908621 0.850984858 0.149015142 0.847919472 0.152080528 0.825979273 0.174020727 0.851641019 0.148358981 0.854243487 0.145756513 0.8465725200000001 0.15342748 0.846087813 0.153912187 0.846184901 0.153815099 0.8456511249999999 0.154348875 0.846087813 0.153912187 0.846087813 0.153912187 0.846087813 0.153912187 0.858700126 0.141299874 0.799024272 0.200975728 0.859255058 0.140744942 0.840882066 0.159117934 0.834266384 0.165733616 0.835845309 0.164154691 0.86211977 0.13788023 0.746888216 0.253111784 0.814616821 0.185383179 0.793175843 0.206824157 0.821522212 0.178477788 0.8491378469999999 0.150862153 0.737310974 0.262689026 0.70699622 0.29300378 0.721038064 0.278961936 0.739641425 0.260358575 0.745061341 0.254938659 0.725371954 0.274628046 0.656081303 0.343918697 0.549198047 0.450801953 0.683028685 0.316971315 0.755577676 0.244422324 0.593922934 0.406077066 0.64019053 0.35980947 0.580999047 0.419000953 0.529365149 0.470634851 0.5093942 0.4906058 0.5766160809999999 0.423383919 0.564842998 0.435157002 0.540486163 0.459513837 0.525585236 0.474414764 0.515485662 0.484514338 0.467647491 0.532352509 0.617913594 0.382086406 0.60808854 0.39191146 0.59690499 0.40309501 0.947963922 0.052036078 0.944456673 0.055543327 0.896195728 0.103804272 0.95134948 0.04865052 0.923645749 0.076354251 0.919680524 0.080319476 0.8456511249999999 0.154348875 0.847151268 0.152848732 0.845554098 0.154445902 0.85586363 0.14413637 0.8507966810000001 0.149203319 0.846184901 0.153815099 0.919395194 0.080604806 0.895978228 0.104021772 0.903087646 0.09691235400000001 0.918161581 0.081838419 0.90636812 0.09363188 0.91075499 0.08924501 0.773289643 0.226710357 0.7239886129999999 0.276011387 0.815077243 0.184922757 0.783222883 0.216777117 0.730371155 0.269628845 0.699517147 0.300482853 0.806177473 0.193822527 0.798085588 0.201914412 0.780496853 0.219503147 0.807663497 0.192336503 0.799376607 0.200623393 0.794877351 0.205122649 0.574305806 0.425694194 0.605524676 0.394475324 0.607332384 0.392667616 0.5923912 0.4076088 0.581748225 0.418251775 0.619006173 0.380993827 0.639884835 0.360115165 0.634170197 0.365829803 0.604264607 0.395735393 0.646174977 0.353825023 0.638091259 0.361908741 0.6196060370000001 0.380393963 0.38761984 0.61238016 0.430270451 0.5697295489999999 0.408289033 0.591710967 0.454414994 0.545585006 0.451208556 0.548791444 0.43899591 0.56100409 0.855408562 0.144591438 0.793480078 0.206519922 0.850890799 0.149109201 0.849913457 0.150086543 0.830080091 0.169919909 0.8512665 0.1487335 0.846087813 0.153912187 0.850890799 0.149109201 0.846087813 0.153912187 0.846087813 0.153912187 0.845554098 0.154445902 0.846087813 0.153912187 0.766670488 0.233329512 0.659596692 0.340403308 0.738496367 0.261503633 0.766234674 0.233765326 0.688391873 0.311608127 0.703463553 0.296536447 0.74907475 0.25092525 0.736911882 0.263088118 0.78776579 0.21223421 0.773926822 0.226073178 0.749704433 0.250295567 0.789888849 0.210111151 0.607569532 0.392430468 0.590640176 0.409359824 0.547465656 0.452534344 0.619290696 0.380709304 0.60484724 0.39515276 0.570737572 0.429262428 0.64183147 0.35816853 0.574041756 0.425958244 0.564350284 0.435649716 0.632163565 0.367836435 0.543732493 0.456267507 0.59701262 0.40298738 0.472985273 0.527014727 0.461148151 0.538851849 0.440754235 0.559245765 0.465361867 0.534638133 0.578340027 0.421659973 0.46812915 0.53187085 0.531477529 0.468522471 0.447470677 0.552529323 0.451899703 0.548100297 0.570610717 0.429389283 0.6394991370000001 0.360500863 0.464915118 0.535084882 0.875912592 0.124087408 0.8663921570000001 0.133607843 0.836131513 0.163868487 0.870681247 0.129318753 0.886484952 0.113515048 0.809982209 0.190017791 0.846184901 0.153815099 0.8554997130000001 0.144500287 0.846184901 0.153815099 0.851078857 0.148921143 0.845846066 0.154153934 0.846184901 0.153815099 0.797808009 0.202191991 0.773848392 0.226151608 0.7959148660000001 0.204085134 0.816823439 0.183176561 0.796799386 0.203200614 0.795574925 0.204425075 0.61360481 0.38639519 0.746383283 0.253616717 0.731951824 0.268048176 0.647660355 0.352339645 0.706156053 0.293843947 0.698522278 0.301477722 0.661130039 0.338869961 0.659376747 0.340623253 0.647858628 0.352141372 0.666056074 0.333943926 0.672370188 0.327629812 0.629996304 0.370003696 0.460181725 0.539818275 0.547694062 0.452305938 0.489643911 0.510356089 0.459396231 0.540603769 0.489287626 0.510712374 0.48221406 0.51778594 0.483752883 0.516247117 0.494926416 0.505073584 0.462490043 0.537509957 0.500508435 0.499491565 0.509723192 0.490276808 0.489275328 0.510724672 0.341472716 0.658527284 0.390194906 0.609805094 0.353819907 0.646180093 0.400591237 0.599408763 0.45109129 0.54890871 0.360333847 0.639666153</probabilities>
		</cpt>
		<cpt id="CRC">
			<state id="False" />
			<state id="True" />
			<parents>Age Alcohol Diabetes Hyperchol_ Hypertension Sex Smoking</parents>
			<probabilities>0.999872252 0.000127748 0.999961059 3.89e-05 0.999789424 0.000210576 0.999477181 0.000522819 0.999565497 0.000434503 0.999349301 0.000650699 0.99937935 0.00062065 0.999507521 0.000492479 0.999269505 0.000730495 0.999173126 0.000826874 0.999198929 0.000801071 0.999173648 0.000826352 0.999855688 0.000144312 0.999936548 6.35e-05 0.999773643 0.000226357 0.999292985 0.000707015 0.999473236 0.000526764 0.999309577 0.000690423 0.9994789549999999 0.000521045 0.999625806 0.000374194 0.999289863 0.000710137 0.999173126 0.000826874 0.999173648 0.000826352 0.999198424 0.000801576 0.999200444 0.000799556 0.999247496 0.000752504 0.999174168 0.000825832 0.999173126 0.000826874 0.999173126 0.000826874 0.999173126 0.000826874 0.999173126 0.000826874 0.999198929 0.000801071 0.999173126 0.000826874 0.999173126 0.000826874 0.999173126 0.000826874 0.999173126 0.000826874 0.999198424 0.000801576 0.999269963 0.000730037 0.999199435 0.000800565 0.999173648 0.000826352 0.999173648 0.000826352 0.999173126 0.000826874 0.999198929 0.000801071 0.999198424 0.000801576 0.999198424 0.000801576 0.999173126 0.000826874 0.999173126 0.000826874 0.999173126 0.000826874 0.999828551 0.000171449 0.999999997 3.22e-09 0.9999998 2e-07 0.999813176 0.000186824 0.9998442239999999 0.000155776 0.99981091 0.00018909 0.9999940980000001 5.9e-06 0.999981952 1.8e-05 0.99993096 6.9e-05 0.999867458 0.000132542 0.999832389 0.000167611 0.999580584 0.000419416 0.999845095 0.000154905 0.999999963 3.74e-08 0.9999989889999999 1.01e-06 0.999982981 1.7e-05 0.999429244 0.000570756 0.999994336 5.66e-06 0.999989256 1.07e-05 0.999980083 1.99e-05 0.999927057 7.29e-05 0.999819389 0.000180611 0.999722207 0.000277793 0.999498745 0.000501255 0.999841749 0.000158251 0.999822473 0.000177527 0.999536673 0.000463327 0.999736121 0.000263879 0.999615461 0.000384539 0.999515657 0.000484343 0.999405921 0.000594079 0.999332483 0.000667517 0.999269504 0.000730496 0.999271802 0.000728198 0.999198424 0.000801576 0.99917469 0.00082531 0.999794926 0.000205074 0.999776515 0.000223485 0.999532496 0.000467504 0.999689958 0.000310042 0.999568965 0.000431035 0.999396552 0.000603448 0.999444584 0.000555416 0.999523493 0.000476507 0.999327424 0.000672576 0.999246547 0.000753453 0.999174169 0.000825831 0.999198424 0.000801576 0.999456586 0.000543414 0.999986703 1.33e-05 0.999939952 6e-05 0.9996702119999999 0.000329788 0.999711304 0.000288696 0.9995668599999999 0.00043314 0.999717487 0.000282513 0.999795153 0.000204847 0.999662411 0.000337589 0.999223691 0.000776309 0.999202456 0.000797544 0.999199434 0.000800566 0.999983039 1.7e-05 0.99999486 5.14e-06 0.999975567 2.44e-05 0.999620134 0.000379866 0.999708927 0.000291073 0.999589923 0.000410077 0.999876486 0.000123514 0.9999421550000001 5.78e-05 0.9998549370000001 0.000145063 0.999202959 0.000797041 0.999270884 0.000729116 0.9991746889999999 0.000825311 0.999313476 0.000686524 0.999386705 0.000613295 0.999269964 0.000730036 0.999173648 0.000826352 0.999244643 0.000755357 0.999173648 0.000826352 0.999176249 0.000823751 0.999295206 0.000704794 0.999247971 0.000752029 0.999173126 0.000826874 0.999173126 0.000826874 0.999173126 0.000826874 0.999334572 0.000665428 0.999510284 0.000489716 0.99939844 0.00060156 0.999173126 0.000826874 0.999173648 0.000826352 0.999198929 0.000801071 0.999500374 0.000499626 0.999473232 0.000526768 0.999381298 0.0006187020000000001 0.999173126 0.000826874 0.999173648 0.000826352 0.999173126 0.000826874 0.99976252 0.00023748 0.999757883 0.000242117 0.999577037 0.000422963 0.9997653399999999 0.00023466 0.9998050550000001 0.000194945 0.999830985 0.000169015 0.9994149369999999 0.000585063 0.999993873 6.13e-06 0.9999867690000001 1.32e-05 0.99997486 2.51e-05 0.999933652 6.63e-05 0.999854552 0.000145448 0.999758147 0.000241853 0.999823405 0.000176595 0.999452988 0.000547012 0.999796969 0.000203031 0.999574753 0.000425247 0.9996499250000001 0.000350075 0.999972235 2.78e-05 0.999998671 1.33e-06 0.999352072 0.000647928 0.99996931 3.07e-05 0.999926194 7.38e-05 0.999876751 0.000123249 0.9999158500000001 8.42e-05 0.999899801 0.000100199 0.9998142330000001 0.000185767 0.999846718 0.000153282 0.999725424 0.000274576 0.999626685 0.000373315 0.999747591 0.000252409 0.9997079800000001 0.00029202 0.999640593 0.000359407 0.999490571 0.000509429 0.999329961 0.000670039 0.999247496 0.000752504 0.999950245 4.98e-05 0.997998344 0.002001656 0.99988484 0.00011516 0.999818648 0.000181352 0.999714644 0.000285356 0.999580066 0.000419934 0.999897474 0.000102526 0.99936832 0.00063168 0.999814731 0.000185269 0.999395824 0.000604176 0.999494654 0.0005053460000000001 0.99923099 0.00076901 0.9994726390000001 0.000527361 0.999236849 0.000763151 0.99769086 0.00230914 0.999615186 0.000384814 0.9996732780000001 0.000326722 0.999094475 0.000905525 0.999839134 0.000160866 0.998979841 0.001020159 0.999859689 0.000140311 0.999346433 0.000653567 0.999348074 0.000651926 0.9992059639999999 0.000794036 0.998898412 0.001101588 0.998931324 0.001068676 0.9987796410000001 0.001220359 0.999815174 0.000184826 0.999848705 0.000151295 0.999782137 0.000217863 0.998674348 0.001325652 0.998670934 0.001329066 0.996332508 0.003667492 0.99946788 0.00053212 0.999520775 0.000479225 0.999404436 0.000595564 0.9976654190000001 0.002334581 0.999624842 0.000375158 0.999457501 0.000542499 0.999198424 0.000801576 0.999199939 0.000800061 0.999199435 0.000800565 0.999372413 0.000627587 0.999559555 0.000440445 0.998847721 0.001152279 0.999173648 0.000826352 0.999198929 0.000801071 0.999173648 0.000826352 0.999631575 0.000368425 0.999822839 0.000177161 0.999712029 0.000287971 0.999198929 0.000801071 0.99928852 0.00071148 0.999269505 0.000730495 0.9997499399999999 0.00025006 0.999865515 0.000134485 0.999791681 0.000208319 0.99917469 0.00082531 0.9992232009999999 0.000776799 0.999200948 0.000799052 0.999149184 0.000850816 0.999403307 0.000596693 0.998924457 0.001075543 0.998874109 0.001125891 0.999250017 0.000749983 0.998519147 0.001480853 0.999746693 0.000253307 0.999994508 5.49e-06 0.999692179 0.000307821 0.999257875 0.0007421249999999999 0.999946475 5.35e-05 0.999903772 9.619999999999999e-05 0.999163657 0.000836343 0.999188866 0.000811134 0.9983469190000001 0.001653081 0.999026563 0.000973437 0.999919496 8.050000000000001e-05 0.998950049 0.001049951 0.9992673520000001 0.000732648 0.999434674 0.000565326 0.99882494 0.00117506 0.999994964 5.04e-06 0.999678076 0.000321924 0.996695526 0.003304474 0.997200588 0.002799412 0.999920738 7.93e-05 0.999905131 9.49e-05 0.99971853 0.00028147 0.999597641 0.000402359 0.999605882 0.000394118 0.99269766 0.00730234 0.9998926930000001 0.000107307 0.99837824 0.00162176 0.999538552 0.000461448 0.999380582 0.0006194180000000001 0.999430024 0.000569976 0.998856453 0.001143547 0.999979026 2.1e-05 0.999976442 2.36e-05 0.999866455 0.000133545 0.999809658 0.000190342 0.9996795979999999 0.000320402 0.999107992 0.000892008 0.998196783 0.001803217 0.9973686470000001 0.002631353 0.999797497 0.000202503 0.999723307 0.000276693 0.999527875 0.000472125 0.999865157 0.000134843 0.999906211 9.38e-05 0.999871626 0.000128374 0.999465855 0.000534145 0.999373981 0.000626019 0.9992596969999999 0.000740303 0.991151082 0.008848918000000001 0.9992827439999999 0.000717256 0.9917036 0.008296400000000001 0.999350119 0.000649881 0.999227108 0.000772892 0.999201955 0.000798045 0.999047816 0.000952184 0.999085384 0.000914616 0.997935335 0.002064665 0.989387621 0.010612379 0.9996979499999999 0.00030205 0.998327344 0.001672656 0.99957259 0.00042741 0.99899459 0.00100541 0.9977737759999999 0.002226224 0.982449712 0.017550288 0.99947447 0.00052553 0.998788663 0.001211337 0.999409612 0.000590388 0.999431671 0.000568329 0.999523473 0.000476527 0.999174169 0.000825831 0.999198929 0.000801071 0.999173126 0.000826874 0.999506187 0.000493813 0.999492224 0.000507776 0.999594646 0.000405354 0.999173648 0.000826352 0.999174169 0.000825831 0.9991746889999999 0.000825311 0.999645409 0.000354591 0.999670248 0.000329752 0.9905957480000001 0.009404252 0.9992232 0.0007768 0.999224668 0.000775332 0.999225158 0.000774842 0.999758891 0.000241109 0.999825606 0.000174394 0.999862644 0.000137356 0.999247497 0.000752503 0.999174168 0.000825832 0.99922418 0.00077582 0.997338277 0.002661723 0.998362289 0.001637711 0.997538734 0.002461266 0.996059748 0.003940252 0.997323925 0.002676075 0.998715263 0.001284737 0.995068346 0.004931654 0.999699572 0.000300428 0.997256662 0.002743338 0.994616834 0.005383166 0.999717255 0.000282745 0.99969882 0.00030118 0.997988994 0.002011006 0.999003477 0.000996523 0.997077229 0.002922771 0.996408556 0.003591444 0.99999556 4.44e-06 0.9976959359999999 0.002304064 0.998167702 0.001832298 0.99683038 0.00316962 0.99732304 0.00267696 0.997946891 0.002053109 0.999452971 0.000547029 0.995082716 0.004917284 0.999313286 0.0006867140000000001 0.999813782 0.000186218 0.998282939 0.001717061 0.999538542 0.000461458 0.999389386 0.000610614 0.999374761 0.000625239 0.99223326 0.00776674 0.999827819 0.000172181 0.996915898 0.003084102 0.999599626 0.000400374 0.999274083 0.000725917 0.999324569 0.000675431 0.994059931 0.005940069 0.999490591 0.0005094089999999999 0.991892504 0.008107496 0.999786372 0.000213628 0.999605722 0.000394278 0.999625438 0.000374562 0.998503928 0.001496072 0.991269045 0.008730955 0.99554076 0.00445924 0.992665677 0.007334323 0.999643234 0.000356766 0.9995658120000001 0.000434188</probabilities>
		</cpt>
		<decision id="Screening">
			<state id="No_screening" />
			<state id="gFOBT" />
			<state id="FIT" />
			<state id="Blood_based" />
			<state id="Stool_DNA" />
			<state id="CTC" />
			<state id="Colon_capsule" />
			<parents>PA SD Smoking BMI Alcohol Sex Age</parents>
		</decision>
		<cpt id="Results_of_Screening">
			<state id="No_pred_screening" />
			<state id="Predicted_False" />
			<state id="Predicted_True" />
			<parents>CRC Screening</parents>
			<probabilities>1 0 0 0 0.978 0.02200000000000002 0 0.966 0.03400000000000003 0 0.91 0.08999999999999997 0 0.866 0.134 0 0.89 0.11 0 0.92 0.07999999999999996 1 0 0 0 0.55 0.45 0 0.25 0.75 0 0.34 0.66 0 0.07699999999999996 0.923 0 0.2 0.8 0 0.13 0.87</probabilities>
		</cpt>
		<decision id="Colonoscopy">
			<state id="No_Colonoscopy" />
			<state id="Colonoscopy" />
			<parents>Screening</parents>
		</decision>
		<cpt id="Results_of_Colonoscopy">
			<state id="no_pred" />
			<state id="colon_pred_false" />
			<state id="colon_pred_true" />
			<parents>Colonoscopy CRC</parents>
			<probabilities>1 0 0 1 0 0 0 0.99 0.01000000000000001 0 0.03000000000000003 0.97</probabilities>
		</cpt>
		<utility id="Value_of_CRC_detection_by_screening">
			<parents>Age Alcohol Diabetes Hyperchol_ Hypertension Sex Smoking CRC Screening Results_of_Screening</parents>
			<utilities>0 0 0 0 5.590764051257942e-05 -0.002482196073546481 0 9.469140648503432e-05 -0.002686610416362318 0 8.002117963119466e-05 -0.0008087435454257848 0 0.0001163961178760074 -0.0007519050992442741 0 9.904548911219891e-05 -0.0008010074714784193 0 0.0001097026692916931 -0.001260716462929799 0 0 0 0 -0.5755354841677882 3.015722933332502 0 -1.351608224943786 3.091026071497831 0 -0.9844189607210574 1.991621421144781 0 -2.419963090590876 1.929037529452696 0 -1.492805050689037 1.983330354404033 0 -1.956729516918212 2.385205860511818 0 0 0 0 1.702386748471001e-05 -0.0007564956342186211 0 2.883312906803706e-05 -0.000818852917302458 0 2.436623191897919e-05 -0.0002463363334815676 0 3.544185352657089e-05 -0.0002290193048559099 0 3.015888297727679e-05 -0.000243979335534676 0 3.34038201405126e-05 -0.0003840637538233431 0 0 0 0 -0.575574367940816 3.01744863377183 0 -1.351674083221204 3.092893828996891 0 -0.9844746156687695 1.992183828356725 0 -2.420044044855225 1.929560415247085 0 -1.492873937295171 1.983887382539977 0 -1.956805815767363 2.386082513220925 0 0 0 0 9.215816054324093e-05 -0.004088291897957855 0 0.0001560912872010403 -0.004424679475740141 0 0.0001319079522184646 -0.001332759481398945 0 0.0001918711358811961 -0.001239116038233486 0 0.0001632688781998691 -0.001320014215949864 0 0.0001808370456850373 -0.002077278961342134 0 0 0 0 -0.5754992336477572 3.014116837508091 0 -1.35154682506307 3.089288002438454 0 -0.98436707394847 1.991097405208808 0 -2.419887615572871 1.928550318513707 0 -1.492740827299949 1.982811347659561 0 -1.956658382541818 2.384389298013406 0 0 0 0 0.0002288263137133406 -0.01011982737890961 0 0.0003875889786811449 -0.01094978475626823 0 0.0003275336662625154 -0.00330571709159269 0 0.0004764462665634975 -0.00307366094586861 0 0.0004054137533206958 -0.003274135164902671 0 0.00044904320698576 -0.005149555873565617 0 0 0 0 -0.5753625654945873 3.008085302027139 0 -1.351315327371591 3.082762897157926 0 -0.9841714482344261 1.989124447598614 0 -2.419603040442188 1.926715773606072 0 -1.492498682424828 1.980857226710608 0 -1.956390176380518 2.381317021101183 0 0 0 0 0.0001901686780539308 -0.008417531333428223 0 0.0003221058539580545 -0.009108513257805231 0 0.000272198262366335 -0.002748072919705528 0 0.0003959477383930607 -0.002555112522481514 0 0.0003369186271115169 -0.002721811326798167 0 0.0003731754582572193 -0.004281538244895334 0 0 0 0 -0.5754012231302467 3.009787598072621 0 -1.351380810496314 3.084604168656389 0 -0.9842267836383223 1.989682091770501 0 -2.419683538970359 1.927234322029459 0 -1.492567177551037 1.981409550548713 0 -1.956466044129246 2.382185038729853 0 0 0 0 0.0002848045325111052 -0.0125795973133461 0 0.0004824149810788357 -0.0136099188717951 0 0.000407663775894412 -0.004112625218368365 0 0.0005930181919903803 -0.003824033614287385 0 0.0005046017956928822 -0.004073349997761099 0 0.0005589085624700398 -0.006405096131437073 0 0 0 0 -0.5753065872757895 3.005625532092703 0 -1.351220501369193 3.080102763042399 0 -0.9840913181247943 1.988317539471838 0 -2.419486468516761 1.925965400937653 0 -1.492399494382456 1.98005801187775 0 -1.956280311025034 2.380061480843311 0 0 0 0 0.0002716505951136179 -0.01200214882669275 0 0.0004601321385534961 -0.01298548133179344 0 0.0003888343774981779 -0.003923077989949625 0 0.0005656251204900666 -0.003647763069015663 0 0.0004812938932142908 -0.003885609414588719 0 0.0005330915245623722 -0.00611021331795144 0 0 0 0 -0.575319741213187 3.006202980579356 0 -1.351242784211718 3.0807272005824 0 -0.9841101475231904 1.988507086700257 0 -2.419513861588262 1.926141671482925 0 -1.492422802284935 1.980245752460922 0 -1.956306128062941 2.380356363656797 0 0 0 0 0.0002155457354705444 -0.009535348810434578 0 0.0003650924808000199 -0.01031761819980422 0 0.0003085234456069952 -0.003114179571930437 0 0.0004487911431825276 -0.002895549600906749 0 0.000381882469627149 -0.003084424722135757 0 0.0004229790191010544 -0.00485144282217184 0 0 0 0 -0.5753758460728301 3.008669780595614 0 -1.351337823869472 3.08339506371439 0 -0.9841904584550817 1.989315985118276 0 -2.419630695565569 1.926893884951034 0 -1.492522213708522 1.981046937153375 0 -1.956416240568403 2.381615134152576 0 0 0 0 0.0003197360385451654 -0.01411141220880107 0 0.0005415901324277374 -0.01526624098029793 0 0.0004576675160001267 -0.004615799123233052 0 0.0006657649383530369 -0.004291974458007794 0 0.0005664992506292165 -0.004571729609660321 0 0.0006274696983781688 -0.007187744288773112 0 0 0 0 -0.5752716557697555 3.004093717197247 0 -1.351161326217844 3.078446440933896 0 -0.9840413143846884 1.987814365566974 0 -2.419413721770399 1.925497460093933 0 -1.492337596927519 1.979559632265851 0 -1.956211749889126 2.379278832685975 0 0 0 0 0.0003619285475406546 -0.01595844181354526 0 0.0006130675811133933 -0.01726312474925001 0 0.0005180662390769769 -0.005223203956052351 0 0.0007536367835435765 -0.004856869767502368 0 0.0006412651845527506 -0.005173350208637358 0 0.0007102853015874935 -0.008132224395825933 0 0 0 0 -0.5752294632607601 3.002246687592503 0 -1.351089848769158 3.076449557164944 0 -0.9839809156616117 1.987206960734154 0 -2.419325849925208 1.924932564784438 0 -1.492262830993596 1.978958011666874 0 -1.956128934285916 2.378334352578922 0 0 0 0 0.0003506324132358622 -0.01546428142648027 0 0.0005939308306151521 -0.0167289012006395 0 0.0005018956758189224 -0.005060623085955267 0 0.0007301105986837179 -0.004705664845389479 0 0.0006212479795142715 -0.005012317233064631 0 0.0006881128801562417 -0.007879451552136697 0 0 0 0 -0.5752407593950648 3.002740847979569 0 -1.351108985519657 3.076983780713554 0 -0.9839970862248698 1.987369541604251 0 -2.419349376110068 1.925083769706551 0 -1.492282848198635 1.979119044642446 0 -1.956151106707347 2.378587125422611 0 0 0 0 0.0003617000231544061 -0.01594844726692195 0 0.000612680437083429 -0.01725232012483789 0 0.0005177391026630606 -0.005219915173538055 0 0.0007531608384971277 -0.00485381108738289 0 0.0006408602284044871 -0.00517009273538386 0 0.0007098367440668834 -0.008127111382349606 0 0 0 0 -0.5752296917851464 3.002256682139127 0 -1.351090235913188 3.076460361789356 0 -0.9839812427980257 1.987210249516669 0 -2.419326325870255 1.924935623464558 0 -1.492263235949744 1.978961269140127 0 -1.956129382843437 2.378339465592398 0 0 0 0 6.315693914274921e-05 -0.002803590628095866 0 0.0001069698949881037 -0.003034432390943189 0 9.039731648356304e-05 -0.0009135585782587253 0 0.0001314892078375278 -0.0008493568659551679 0 0.0001118885963742559 -0.0009048203447630227 0 0.000123927765684739 -0.001424066535753154 0 0 0 0 -0.5755282348691579 3.015401538777953 0 -1.351595946455283 3.090678249523251 0 -0.9844085845842051 1.991516606111948 0 -2.419947997500914 1.928940077685986 0 -1.492792207581775 1.983226541530748 0 -1.956715291821819 2.385042510438995 2.220446049250313e-16 0 0 0 2.778975085091079e-05 -0.00123460114333953 0 4.70673579795734e-05 -0.001336341927182088 0 3.977551440088982e-05 -0.0004020858000317987 0 5.78555969229424e-05 -0.0003738218929866083 0 4.923154656843889e-05 -0.0003982388550785812 0 5.45286579560919e-05 -0.0006268659483801393 2.220446049250313e-16 0 0 0 -0.5755636020574497 3.016970528262709 0 -1.351655848992292 3.092376339987012 0 -0.9844592063862877 1.992028078890175 0 -2.420021631111829 1.929415612658954 0 -1.49285486463158 1.983733123020432 0 -1.956784690929547 2.385839711026368 2.220446049250313e-16 0 0 0 9.906502538709321e-05 -0.004394004751651544 0 0.0001677900718261196 -0.004755486844802809 0 0.0001417941072543184 -0.001432567718026566 0 0.0002062518377321366 -0.001331916135620028 0 0.0001755056586441775 -0.00141886865689612 0 0.000194390664380177 -0.002232780863587272 2.220446049250313e-16 0 0 0 -0.5754923267829136 3.013811124654397 0 -1.351535126278445 3.088957195069391 0 -0.9843571877934343 1.99099759697218 0 -2.41987323487102 1.928457518416321 0 -1.492728590519505 1.982712493218615 0 -1.956644828923123 2.384233796111161 0 0 0 0 0.0003094573043758327 -0.01366091874722004 0 0.0005241774605238422 -0.0147791524319327 0 0.0004429536389302366 -0.004467766318644921 0 0.0006443586341192919 -0.004154305441237667 0 0.0005482855057501526 -0.004425107028869156 0 0.0006072950728510942 -0.00695751339883156 0 0 0 0 -0.575281934503925 3.004544210658829 0 -1.351178738889748 3.078933529482261 0 -0.9840560282617585 1.987962398371562 0 -2.419435128074633 1.925635129110703 0 -1.492355810672399 1.979706254846642 0 -1.956231924514652 2.379509063575917 0 0 0 0 0.0002305531520226769 -0.01019579991309204 0 0.0003905141537709754 -0.01103195372546662 0 0.0003300055227562998 -0.003330619324552865 0 0.0004800422179971065 -0.003096817786668637 0 0.0004084734813503614 -0.003298799880858828 0 0.0004524322885762468 -0.005188311902578986 0 0 0 0 -0.575360838656278 3.008009329492957 0 -1.351312402196501 3.082680728188727 0 -0.9841689763779323 1.989099545365654 0 -2.419599444490755 1.926692616765272 0 -1.492495622696798 1.980832561994652 0 -1.956386787298927 2.381278265072169 0 0 0 0 0.0003021939627448225 -0.01334245784828311 0 0.0005118730840558272 -0.01443481113522895 0 0.0004325562972295233 -0.004363146617113073 0 0.0006292322749967305 -0.004057011033437512 0 0.0005354150731175384 -0.004321484104061794 0 0.0005930390411568389 -0.006794790164399462 0 0 0 0 -0.5752891978455558 3.004862671557766 0 -1.351191043266216 3.079277870778965 0 -0.9840664256034592 1.988067018073093 0 -2.419450254433755 1.925732423518503 0 -1.492368681105031 1.979809877771449 0 -1.956246180546347 2.379671786810349 0 0 0 0 0.0002280497846066271 -0.01008566192952828 0 0.0003862735795414085 -0.01091283255508649 0 0.0003264221160565184 -0.003294518775070946 0 0.0004748292320348716 -0.003063247530121483 0 0.0004040378482546671 -0.003263043659611317 0 0.0004475191978670411 -0.005132127451023124 0 0 0 0 -0.5753633420236942 3.00811946747652 0 -1.35131664277073 3.082799849359108 0 -0.9841725597846323 1.989135645915135 0 -2.419604657476717 1.926726187021819 0 -1.492500058329894 1.9808683182159 0 -1.956391700389637 2.381334449523725 0 0 0 0 0.0001637711111877401 -0.007253404525176094 0 0.0002773913721209209 -0.00784919968737762 0 0.0002344127252632709 -0.002367091560280076 0 0.0003409808363654641 -0.002200852957360814 0 0.0002901475494034811 -0.002344466498514454 0 0.0003213703948035515 -0.003688355396806766 0 0 0 0 -0.5754276206971128 3.010951724880873 0 -1.351425524978151 3.085863482226817 0 -0.9842645691754254 1.990063073129926 0 -2.419738505872386 1.92758858159458 0 -1.492613948628745 1.981786895376997 0 -1.9565178491927 2.382778221577941 0 0 0 0 0.0003108240022071101 -0.0137208299606327 0 0.0005264927054692734 -0.01484393146079562 0 0.000444910045710072 -0.004487450648966804 0 0.0006472048803554874 -0.00417261158786018 0 0.0005507072630976601 -0.0044446038259236 0 0.0006099775528351729 -0.00698812892623297 0 0 0 0 -0.5752805678060935 3.004484299445416 0 -1.351176423644802 3.078868750453398 0 -0.9840540718549785 1.98794271404124 0 -2.419432281828396 1.92561682296408 0 -1.492353388915051 1.979686758049588 0 -1.956229242034668 2.379478448048515 0 0 0 0 0.0003619285475406546 -0.01595844181354526 0 0.0006130675811133933 -0.01726312474925001 0 0.0005180662390769769 -0.005223203956052351 0 0.0007536367835435765 -0.004856869767502368 0 0.0006412651845527506 -0.005173350208637358 0 0.0007102853015874935 -0.008132224395825933 0 0 0 0 -0.5752294632607601 3.002246687592503 0 -1.351089848769158 3.076449557164944 0 -0.9839809156616117 1.987206960734154 0 -2.419325849925208 1.924932564784438 0 -1.492262830993596 1.978958011666874 0 -1.956128934285916 2.378334352578922 0 0 0 0 0.0003617000231544061 -0.01594844726692195 0 0.000612680437083429 -0.01725232012483789 0 0.0005177391026630606 -0.005219915173538055 0 0.0007531608384971277 -0.00485381108738289 0 0.0006408602284044871 -0.00517009273538386 0 0.0007098367440668834 -0.008127111382349606 0 0 0 0 -0.5752296917851464 3.002256682139127 0 -1.351090235913188 3.076460361789356 0 -0.9839812427980257 1.987210249516669 0 -2.419326325870255 1.924935623464558 0 -1.492263235949744 1.978961269140127 0 -1.956129382843437 2.378339465592398 0 0 0 0 0.000350853492809214 -0.01547395516431665 0 0.0005943053594816478 -0.0167393594247209 0 0.0005022121533490778 -0.005063805269551297 0 0.000730571032987409 -0.004708624351875047 0 0.0006216397397495063 -0.005015469117441637 0 0.0006885468200517502 -0.00788439927545766 0 0 0 0 -0.5752405383154914 3.002731174241732 0 -1.35110861099079 3.076973322489473 0 -0.9839967697473395 1.987366359420655 0 -2.419348915675764 1.925080810200066 0 -1.492282456438399 1.979115892758069 0 -1.956150672767452 2.378582177699291 0 0 0 0 0.0003499691748087642 -0.01543525965147122 0 0.0005928072448574652 -0.01669752587213294 0 0.0005009462438292771 -0.005051076474408398 0 0.0007287292970449753 -0.004696786273380001 0 0.0006200726997293154 -0.005002861520326727 0 0.0006868110616000857 -0.007864608235291464 0 0 0 0 -0.5752414226334919 3.002769869754577 0 -1.351110109105414 3.077015156042061 0 -0.9839980356568594 1.987379088215798 0 -2.419350757411707 1.925092648278561 0 -1.492284023478419 1.979128500355184 0 -1.956152408525903 2.378601968739457 0 0 0 0 0.0003293709155818801 -0.01453349848540381 0 0.0005579121920595537 -0.01572259856286469 0 0.0004714597790389788 -0.004754537916731777 0 0.0006858305737598312 -0.004421001433245 0 0.0005835722226792948 -0.004709146905778635 0 0.0006463807720914356 -0.007403503310698307 0 0 0 0 -0.5752620208927188 3.003671630920645 0 -1.351145004158212 3.077990083351329 0 -0.9840275221216498 1.987675626773475 0 -2.419393656134992 1.925368433118696 0 -1.49232052395547 1.979422214969732 0 -1.956192838815412 2.37906307366405 0 0 0 0 0.0003614723743921784 -0.0159384909142621 0 0.000612294776512743 -0.0172415567813829 0 0.0005174132197515777 -0.005216638980969074 0 0.0007526867172201538 -0.004850764117042767 0 0.000640456823975163 -0.005166847732320614 0 0.0007093899053573674 -0.008122017932970352 0 0 0 0 -0.5752299194339083 3.002266638491787 0 -1.351090621573759 3.076471125132811 0 -0.9839815686809369 1.987213525709237 0 -2.419326799991532 1.924938670434898 0 -1.492263639354173 1.97896451414319 0 -1.956129829682146 2.378344559041778 0 0 0 0 0.0003619285475406546 -0.01595844181354526 0 0.0006130675811133933 -0.01726312474925001 0 0.0005180662390769769 -0.005223203956052351 0 0.0007536367835435765 -0.004856869767502368 0 0.0006412651845527506 -0.005173350208637358 0 0.0007102853015874935 -0.008132224395825933 0 0 0 0 -0.5752294632607601 3.002246687592503 0 -1.351089848769158 3.076449557164944 0 -0.9839809156616117 1.987206960734154 0 -2.419325849925208 1.924932564784438 0 -1.492262830993596 1.978958011666874 0 -1.956128934285916 2.378334352578922 0 0 0 0 0.0003619285475406546 -0.01595844181354526 0 0.0006130675811133933 -0.01726312474925001 0 0.0005180662390769769 -0.005223203956052351 0 0.0007536367835435765 -0.004856869767502368 0 0.0006412651845527506 -0.005173350208637358 0 0.0007102853015874935 -0.008132224395825933 0 0 0 0 -0.5752294632607601 3.002246687592503 0 -1.351089848769158 3.076449557164944 0 -0.9839809156616117 1.987206960734154 0 -2.419325849925208 1.924932564784438 0 -1.492262830993596 1.978958011666874 0 -1.956128934285916 2.378334352578922 0 0 0 0 0.0003619285475406546 -0.01595844181354526 0 0.0006130675811133933 -0.01726312474925001 0 0.0005180662390769769 -0.005223203956052351 0 0.0007536367835435765 -0.004856869767502368 0 0.0006412651845527506 -0.005173350208637358 0 0.0007102853015874935 -0.008132224395825933 0 0 0 0 -0.5752294632607601 3.002246687592503 0 -1.351089848769158 3.076449557164944 0 -0.9839809156616117 1.987206960734154 0 -2.419325849925208 1.924932564784438 0 -1.492262830993596 1.978958011666874 0 -1.956128934285916 2.378334352578922 0 0 0 0 0.0003619285475406546 -0.01595844181354526 0 0.0006130675811133933 -0.01726312474925001 0 0.0005180662390769769 -0.005223203956052351 0 0.0007536367835435765 -0.004856869767502368 0 0.0006412651845527506 -0.005173350208637358 0 0.0007102853015874935 -0.008132224395825933 0 0 0 0 -0.5752294632607601 3.002246687592503 0 -1.351089848769158 3.076449557164944 0 -0.9839809156616117 1.987206960734154 0 -2.419325849925208 1.924932564784438 0 -1.492262830993596 1.978958011666874 0 -1.956128934285916 2.378334352578922 0 0 0 0 0.0003506324132358622 -0.01546428142648027 0 0.0005939308306151521 -0.0167289012006395 0 0.0005018956758189224 -0.005060623085955267 0 0.0007301105986837179 -0.004705664845389479 0 0.0006212479795142715 -0.005012317233064631 0 0.0006881128801562417 -0.007879451552136697 0 0 0 0 -0.5752407593950648 3.002740847979569 0 -1.351108985519657 3.076983780713554 0 -0.9839970862248698 1.987369541604251 0 -2.419349376110068 1.925083769706551 0 -1.492282848198635 1.979119044642446 0 -1.956151106707347 2.378587125422611 0 0 0 0 0.0003619285475406546 -0.01595844181354526 0 0.0006130675811133933 -0.01726312474925001 0 0.0005180662390769769 -0.005223203956052351 0 0.0007536367835435765 -0.004856869767502368 0 0.0006412651845527506 -0.005173350208637358 0 0.0007102853015874935 -0.008132224395825933 0 0 0 0 -0.5752294632607601 3.002246687592503 0 -1.351089848769158 3.076449557164944 0 -0.9839809156616117 1.987206960734154 0 -2.419325849925208 1.924932564784438 0 -1.492262830993596 1.978958011666874 0 -1.956128934285916 2.378334352578922 0 0 0 0 0.0003619285475406546 -0.01595844181354526 0 0.0006130675811133933 -0.01726312474925001 0 0.0005180662390769769 -0.005223203956052351 0 0.0007536367835435765 -0.004856869767502368 0 0.0006412651845527506 -0.005173350208637358 0 0.0007102853015874935 -0.008132224395825933 0 0 0 0 -0.5752294632607601 3.002246687592503 0 -1.351089848769158 3.076449557164944 0 -0.9839809156616117 1.987206960734154 0 -2.419325849925208 1.924932564784438 0 -1.492262830993596 1.978958011666874 0 -1.956128934285916 2.378334352578922 0 0 0 0 0.0003619285475406546 -0.01595844181354526 0 0.0006130675811133933 -0.01726312474925001 0 0.0005180662390769769 -0.005223203956052351 0 0.0007536367835435765 -0.004856869767502368 0 0.0006412651845527506 -0.005173350208637358 0 0.0007102853015874935 -0.008132224395825933 0 0 0 0 -0.5752294632607601 3.002246687592503 0 -1.351089848769158 3.076449557164944 0 -0.9839809156616117 1.987206960734154 0 -2.419325849925208 1.924932564784438 0 -1.492262830993596 1.978958011666874 0 -1.956128934285916 2.378334352578922 0 0 0 0 0.0003619285475406546 -0.01595844181354526 0 0.0006130675811133933 -0.01726312474925001 0 0.0005180662390769769 -0.005223203956052351 0 0.0007536367835435765 -0.004856869767502368 0 0.0006412651845527506 -0.005173350208637358 0 0.0007102853015874935 -0.008132224395825933 0 0 0 0 -0.5752294632607601 3.002246687592503 0 -1.351089848769158 3.076449557164944 0 -0.9839809156616117 1.987206960734154 0 -2.419325849925208 1.924932564784438 0 -1.492262830993596 1.978958011666874 0 -1.956128934285916 2.378334352578922 0 0 0 0 0.000350853492809214 -0.01547395516431665 0 0.0005943053594816478 -0.0167393594247209 0 0.0005022121533490778 -0.005063805269551297 0 0.000730571032987409 -0.004708624351875047 0 0.0006216397397495063 -0.005015469117441637 0 0.0006885468200517502 -0.00788439927545766 0 0 0 0 -0.5752405383154914 3.002731174241732 0 -1.35110861099079 3.076973322489473 0 -0.9839967697473395 1.987366359420655 0 -2.419348915675764 1.925080810200066 0 -1.492282456438399 1.979115892758069 0 -1.956150672767452 2.378582177699291 0 0 0 0 0.000319535540931271 -0.01410262684064763 0 0.0005412504786026376 -0.01525674211778534 0 0.000457380505595056 -0.004612911810439983 0 0.0006653473834026793 -0.004289289272558734 0 0.0005661439708317922 -0.004568869800666509 0 0.0006270761689963765 -0.007183253920510574 0 0 0 0 -0.5752718562673692 3.004102502565401 0 -1.351161665871669 3.078455939796409 0 -0.9840416013950936 1.987817252879767 0 -2.419414139325349 1.925500145279382 0 -1.492337952207317 1.979562492074845 0 -1.956212143418507 2.379283323054238 0 0 0 0 0.0003504108959299305 -0.01545458843886723 0 0.0005935555602479331 -0.01671842215750314 0 0.0005015785717009772 -0.005057434590849089 0 0.0007296492528416252 -0.004702699469710124 0 0.0006208554436700637 -0.005009159097368436 0 0.0006876780811628153 -0.007874494006790708 0 0 0 0 -0.5752409809123705 3.002750540967182 0 -1.351109360790024 3.076994259756691 0 -0.9839974033289877 1.987372730099358 0 -2.41934983745591 1.925086735082231 0 -1.492283240734479 1.979122202778143 0 -1.956151541506341 2.378592082967958 0 0 0 0 0.0003617000231544061 -0.01594844726692195 0 0.000612680437083429 -0.01725232012483789 0 0.0005177391026630606 -0.005219915173538055 0 0.0007531608384971277 -0.00485381108738289 0 0.0006408602284044871 -0.00517009273538386 0 0.0007098367440668834 -0.008127111382349606 0 0 0 0 -0.5752296917851464 3.002256682139127 0 -1.351090235913188 3.076460361789356 0 -0.9839812427980257 1.987210249516669 0 -2.419326325870255 1.924935623464558 0 -1.492263235949744 1.978961269140127 0 -1.956129382843437 2.378339465592398 0 0 0 0 0.0003617000231544061 -0.01594844726692195 0 0.000612680437083429 -0.01725232012483789 0 0.0005177391026630606 -0.005219915173538055 0 0.0007531608384971277 -0.00485381108738289 0 0.0006408602284044871 -0.00517009273538386 0 0.0007098367440668834 -0.008127111382349606 0 0 0 0 -0.5752296917851464 3.002256682139127 0 -1.351090235913188 3.076460361789356 0 -0.9839812427980257 1.987210249516669 0 -2.419326325870255 1.924935623464558 0 -1.492263235949744 1.978961269140127 0 -1.956129382843437 2.378339465592398 0 0 0 0 0.0003619285475406546 -0.01595844181354526 0 0.0006130675811133933 -0.01726312474925001 0 0.0005180662390769769 -0.005223203956052351 0 0.0007536367835435765 -0.004856869767502368 0 0.0006412651845527506 -0.005173350208637358 0 0.0007102853015874935 -0.008132224395825933 0 0 0 0 -0.5752294632607601 3.002246687592503 0 -1.351089848769158 3.076449557164944 0 -0.9839809156616117 1.987206960734154 0 -2.419325849925208 1.924932564784438 0 -1.492262830993596 1.978958011666874 0 -1.956128934285916 2.378334352578922 0 0 0 0 0.0003506324132358622 -0.01546428142648027 0 0.0005939308306151521 -0.0167289012006395 0 0.0005018956758189224 -0.005060623085955267 0 0.0007301105986837179 -0.004705664845389479 0 0.0006212479795142715 -0.005012317233064631 0 0.0006881128801562417 -0.007879451552136697 0 0 0 0 -0.5752407593950648 3.002740847979569 0 -1.351108985519657 3.076983780713554 0 -0.9839970862248698 1.987369541604251 0 -2.419349376110068 1.925083769706551 0 -1.492282848198635 1.979119044642446 0 -1.956151106707347 2.378587125422611 0 0 0 0 0.000350853492809214 -0.01547395516431665 0 0.0005943053594816478 -0.0167393594247209 0 0.0005022121533490778 -0.005063805269551297 0 0.000730571032987409 -0.004708624351875047 0 0.0006216397397495063 -0.005015469117441637 0 0.0006885468200517502 -0.00788439927545766 0 0 0 0 -0.5752405383154914 3.002731174241732 0 -1.35110861099079 3.076973322489473 0 -0.9839967697473395 1.987366359420655 0 -2.419348915675764 1.925080810200066 0 -1.492282456438399 1.979115892758069 0 -1.956150672767452 2.378582177699291 0 0 0 0 0.000350853492809214 -0.01547395516431665 0 0.0005943053594816478 -0.0167393594247209 0 0.0005022121533490778 -0.005063805269551297 0 0.000730571032987409 -0.004708624351875047 0 0.0006216397397495063 -0.005015469117441637 0 0.0006885468200517502 -0.00788439927545766 0 0 0 0 -0.5752405383154914 3.002731174241732 0 -1.35110861099079 3.076973322489473 0 -0.9839967697473395 1.987366359420655 0 -2.419348915675764 1.925080810200066 0 -1.492282456438399 1.979115892758069 0 -1.956150672767452 2.378582177699291 0 0 0 0 0.0003619285475406546 -0.01595844181354526 0 0.0006130675811133933 -0.01726312474925001 0 0.0005180662390769769 -0.005223203956052351 0 0.0007536367835435765 -0.004856869767502368 0 0.0006412651845527506 -0.005173350208637358 0 0.0007102853015874935 -0.008132224395825933 0 0 0 0 -0.5752294632607601 3.002246687592503 0 -1.351089848769158 3.076449557164944 0 -0.9839809156616117 1.987206960734154 0 -2.419325849925208 1.924932564784438 0 -1.492262830993596 1.978958011666874 0 -1.956128934285916 2.378334352578922 0 0 0 0 0.0003619285475406546 -0.01595844181354526 0 0.0006130675811133933 -0.01726312474925001 0 0.0005180662390769769 -0.005223203956052351 0 0.0007536367835435765 -0.004856869767502368 0 0.0006412651845527506 -0.005173350208637358 0 0.0007102853015874935 -0.008132224395825933 0 0 0 0 -0.5752294632607601 3.002246687592503 0 -1.351089848769158 3.076449557164944 0 -0.9839809156616117 1.987206960734154 0 -2.419325849925208 1.924932564784438 0 -1.492262830993596 1.978958011666874 0 -1.956128934285916 2.378334352578922 0 0 0 0 0.0003619285475406546 -0.01595844181354526 0 0.0006130675811133933 -0.01726312474925001 0 0.0005180662390769769 -0.005223203956052351 0 0.0007536367835435765 -0.004856869767502368 0 0.0006412651845527506 -0.005173350208637358 0 0.0007102853015874935 -0.008132224395825933 0 0 0 0 -0.5752294632607601 3.002246687592503 0 -1.351089848769158 3.076449557164944 0 -0.9839809156616117 1.987206960734154 0 -2.419325849925208 1.924932564784438 0 -1.492262830993596 1.978958011666874 0 -1.956128934285916 2.378334352578922 0 0 0 0 7.503366567077647e-05 -0.00332991204753604 0 0.000127086215897647 -0.00360401197507457 0 0.0001073968987086005 -0.001085254564842161 0 0.0001562168905995717 -0.001008992743336325 0 0.0001329299696283475 -0.001074874933088034 0 0.0001472333491673312 -0.001691627266460163 0 0 0 0 -0.5755163581426298 3.014875217358512 0 -1.351575830134374 3.090108669939119 0 -0.98439158500198 1.991344910125364 0 -2.419923269818152 1.928780441808605 0 -1.49277116620852 1.983056486942423 0 -1.956691986238336 2.384774949708288 0 0 0 0 1.409161675242858e-09 -6.264363435461301e-08 0 2.386666861292263e-09 -6.780940938844993e-08 0 2.016923070966509e-09 -2.039333311920557e-08 0 2.933695282396561e-09 -1.895955177509786e-08 0 2.496404635447359e-09 -2.019818155366759e-08 0 2.765000002909908e-09 -3.179749958376375e-08 0 0 0 0 -0.5755913903991391 3.018205066762414 0 -1.351702913963605 3.093712614104784 0 -0.9844989798837654 1.992430144296873 0 -2.420079483775057 1.929789415592389 0 -1.492904093681744 1.98413134167733 0 -1.956839216822504 2.386466545177249 0 0 0 0 8.752556607251738e-08 -3.890901521355368e-06 0 1.482401766930949e-07 -4.211755836284607e-06 0 1.252747331783145e-07 -1.266665864392635e-06 0 1.822171065664779e-07 -1.177611247010381e-06 0 1.550561918553571e-07 -1.254544667609645e-06 0 1.717391452570683e-07 -1.974998049637193e-06 0 0 0 0 -0.5755913042827344 3.018201238504528 0 -1.351702768110095 3.093708470158357 0 -0.9844988566259555 1.992428898024342 0 -2.420079304491645 1.929788256940694 0 -1.492903941121957 1.984130107330843 0 -1.956839047848358 2.386464601976699 0 0 0 0 8.176272080341361e-05 -0.003627986889571997 0 0.0001384836919435887 -0.003926574553305256 0 0.0001170284739384454 -0.001182519215141765 0 0.0001702271159888782 -0.001099426275057229 0 0.0001448515691336992 -0.001171209865882042 0 0.0001604378259814877 -0.00184318728617726 0 0 0 0 -0.5755096290874973 3.014577142516477 0 -1.351564432658328 3.089786107360889 0 -0.9843819534267502 1.991247645475065 0 -2.419909259592763 1.928690008276884 0 -1.492759244609015 1.982960152009629 0 -1.956678781761522 2.384623389688571 0 0 0 0 6.817423383071273e-05 -0.003025968408953522 0 0.0001154679663760536 -0.003275090326110407 0 9.757873867220583e-05 -0.0009860949818269716 0 0.0001419353194539989 -0.0009167980003126044 0 0.0001207774506060195 -0.0009766632727558602 0 0.0001337731211379592 -0.001537106046981955 0 0 0 0 -0.57552321757447 3.015179160997095 0 -1.351587448383896 3.090437591588084 0 -0.9844014031620164 1.99144406970838 0 -2.419937551389298 1.928872636551628 0 -1.492783318727543 1.983154698602755 0 -1.956705446466366 2.384929470927766 0 0 0 0 8.275446700120453e-05 -0.00367191027852444 0 0.0001401634870388912 -0.003974105711820256 0 0.0001184480036988208 -0.001196853485041696 0 0.0001722919892183881 -0.00111275386866614 0 0.0001466086116859089 -0.001185407127268506 0 0.0001623839444287549 -0.00186552258018917 0 0 0 0 -0.5755086373412993 3.014533219127524 0 -1.351562752863233 3.089738576202373 0 -0.9843805338969898 1.991233311205165 0 -2.419907194719534 1.928676680683275 0 -1.492757487566463 1.982945954748243 0 -1.956676835643075 2.384601054394559 0 0 0 0 2.582007428480546e-06 -0.0001147752314825537 0 4.373094456915056e-06 -0.0001242393410453716 0 3.695611231682325e-06 -3.736596862500145e-05 0 5.375418615304477e-06 -3.473894890411679e-05 0 4.574167773995505e-06 -3.70084061635643e-05 0 5.066317191698322e-06 -5.826080292288617e-05 0 0 0 0 -0.5755888098008722 3.018090354174567 0 -1.351698543255815 3.093588442573148 0 -0.9844952862894569 1.992392798721581 0 -2.420074111290137 1.929754695603037 0 -1.492899522010375 1.984094353469348 0 -1.956834153270312 2.386408316171825 0 0 0 0 7.877332017600891e-06 -0.0003501205356420899 0 1.334170454745779e-05 -0.0003789870170714584 0 1.127478937593917e-05 -0.0001139935079652755 0 1.639967336724801e-05 -0.0001059794636924112 0 1.395515422224755e-05 -0.0001129027225765307 0 1.545664193430474e-05 -0.0001777342128710403 0 0 0 0 -0.575583514476283 3.017855008870407 0 -1.351689574645724 3.093333694897122 0 -0.9844877071113125 1.992316171182241 0 -2.420063087035385 1.929683455088248 0 -1.492890141023927 1.984018459152935 0 -1.956823762945569 2.386288842761877 0 0 0 0 3.019677614430432e-05 -0.001341463525395448 0 5.114416702915292e-05 -0.00145200421313492 0 4.322071595023068e-05 -0.000436904560780935 0 6.286687466902139e-05 -0.0004061936278513402 0 5.34958150378551e-05 -0.000432724560352188 0 5.925175772066656e-05 -0.0006811429966850771 0 0 0 0 -0.5755611950321563 3.016863665880653 0 -1.351651772183242 3.092260677701059 0 -0.9844557611847383 1.991993260129426 0 -2.420016619834083 1.929383240924089 0 -1.492850600363111 1.983698637315159 0 -1.956779967829783 2.385785433978063 0 0 0 0 5.800574774050723e-05 -0.002575225621909666 0 9.824506605426611e-05 -0.002787290482531022 0 8.302425960526418e-05 -0.0008390805401097041 0 0.0001207643794840264 -0.0007801108433501895 0 0.0001027625607899753 -0.0008310543967952753 0 0.0001138197163486323 -0.001307996449556593 0 0 0 0 -0.5755333860605601 3.015629903784139 0 -1.351604671284217 3.090925391431663 0 -0.9844159576410833 1.991591084150097 0 -2.419958722329268 1.929009323708591 0 -1.492801333617359 1.983300307478716 0 -1.956725399871155 2.385158580525192 2.220446049250313e-16 0 0 0 7.335392550731894e-05 -0.003255490952425673 0 0.0001242411296177659 -0.003523475732952473 0 0.0001049926214225717 -0.001060973302056617 0 0.0001527196044633236 -0.000986416905464596 0 0.0001299540504033996 -0.001050825780055067 0 0.0001439371954176486 -0.001653790359552425 2.220446049250313e-16 0 0 0 -0.5755180378827934 3.014949638453623 0 -1.351578675220654 3.090189206181241 0 -0.9843939892792659 1.99136919138815 0 -2.419926767104288 1.928803017646476 0 -1.492774142127745 1.983080536095456 0 -1.956695282392086 2.384812786615196 0 0 0 0 0.0001835649533546084 -0.00812643850928149 0 0.0003109198170996222 -0.008793629983481122 0 0.000262745635490754 -0.002652779600091273 0 0.0003821968431519498 -0.002466502128960017 0 0.0003252180911540287 -0.002627427469258759 0 0.000360215565489813 -0.004133179632920058 0 0 0 0 -0.5754078268549461 3.010078690896767 0 -1.351391996533172 3.084919051930713 0 -0.984236236265198 1.989777385090115 0 -2.4196972898656 1.927322932422981 0 -1.492578878086995 1.981503934406252 0 -1.956479004022014 2.382333397341828 0 0 0 0 6.779303409211526e-05 -0.00300907455442208 0 0.0001148223061143014 -0.003256807897907212 0 9.703311415374897e-05 -0.0009805840702561139 0 0.0001411416517001613 -0.000911674186829926 0 0.0001201020996088717 -0.0009712050458444937 0 0.0001330250974460362 -0.001528518095791324 0 0 0 0 -0.5755235987742087 3.015196054851627 0 -1.351588094044157 3.090455874016286 0 -0.9844019487865349 1.99144958061995 0 -2.419938345057052 1.928877760365111 0 -1.49278399407854 1.983160156829667 0 -1.956706194490058 2.384938058878957 0 0 0 0 1.636728028592719e-08 -7.275997351520464e-07 0 2.772091140404039e-08 -7.87599689538108e-07 0 2.342637389945413e-08 -2.368666387118146e-07 0 3.407459634130127e-08 -2.20213408441394e-07 0 2.899550601994055e-08 -2.345999724334975e-07 0 3.211521796886939e-08 -3.693249316699665e-07 0 0 0 0 -0.5755913754410205 3.018204401806313 0 -1.35170288862936 3.093711894314504 0 -0.9844989584743148 1.992429927823568 0 -2.420079452634155 1.929789214338532 0 -1.492904067182643 1.984131127275539 0 -1.956839187472286 2.386466207649816 0 0 0 0 4.420041879329383e-07 -1.964889788793612e-05 0 7.486131172834547e-07 -2.126918559542952e-05 0 6.326375633938952e-07 -6.396646214575465e-06 0 9.201967290952363e-07 -5.946922621623251e-06 0 7.830340152561438e-07 -6.33543448301627e-06 0 8.672829857039828e-07 -9.973700272416454e-06 0 0 0 0 -0.5755909498041125 3.018185480508161 0 -1.351702167737154 3.093691412728599 0 -0.9844983492631253 1.992423768043992 0 -2.420078566512023 1.929783487629319 0 -1.492903313144134 1.984125026441028 0 -1.956838352304518 2.386456603274476 0 0 0 0 7.439700617450006e-06 -0.0003306726007999355 0 1.2600493703939e-05 -0.0003579359400895927 0 1.064840854462349e-05 -0.0001076608730725323 0 1.548857289750177e-05 -0.0001000920074550923 0 1.317986238544843e-05 -0.0001066306804094077 0 1.459793291356777e-05 -0.0001678609137580013 0 0 0 0 -0.5755839521076831 3.017874456805249 0 -1.351690315856568 3.093354745974104 0 -0.984488333492144 1.992322503817134 0 -2.420063998135854 1.929689342544486 0 -1.492890916315763 1.984024731195102 0 -1.95682462165459 2.38629871606099 0 0 0 0 0.0002498098992814787 -0.01104260395264017 0 0.0004231343285804833 -0.01194778993192321 0 0.000357570426180308 -0.003608270355736848 0 0.0005201427380810276 -0.003355011054059647 0 0.0004425941550637846 -0.003573803078771789 0 0.0004902258367048364 -0.005620391468011878 0 0 0 0 -0.5753415819090192 3.007162525453408 0 -1.351279782021691 3.08176489198227 0 -0.9841414114745082 1.98882189433447 0 -2.419559343970671 1.926434423497881 0 -1.492461502023085 1.980557558796739 0 -1.956348993750799 2.380846185506736 0 0 0 0 2.476976492863995e-06 -0.0001101066657517786 0 4.195205504061175e-06 -0.0001191858387390226 0 3.54528102387679e-06 -3.584602433367711e-05 0 5.156756965599865e-06 -3.332586273100421e-05 0 4.388099532979476e-06 -3.55030062663756e-05 0 4.860229221589516e-06 -5.589093829603682e-05 0 0 0 0 -0.5755889148318079 3.018095022740297 0 -1.351698721144768 3.093593496075455 0 -0.9844954366196647 1.992394318665873 0 -2.420074329951786 1.92975610868921 0 -1.492899708078616 1.984095858869245 0 -1.956834359358282 2.386410686036452 2.220446049250313e-16 0 0 0 4.682628756454141e-06 -0.0002081419824773979 0 7.930880659527126e-06 -0.0002253040388179855 0 6.702220556868075e-06 -6.776437359133643e-05 0 9.748662265734078e-06 -6.300025702015146e-05 0 8.295540390998377e-06 -6.711593244663715e-05 0 9.188086092935472e-06 -0.0001056569227599222 2.220446049250313e-16 0 0 0 -0.5755867091795441 3.017996987423571 0 -1.351694985469612 3.093487377875376 0 -0.9844922796801316 1.992362400316615 0 -2.420069738046486 1.929726434294921 0 -1.492895800637758 1.984064245943064 0 -1.956830031501411 2.386360920051989 0 0 0 0 8.708831525832101e-06 -0.0003870705396593123 0 1.475000551188281e-05 -0.0004189828098022626 0 1.246491306334189e-05 -0.000126025393942316 0 1.813076513133754e-05 -0.0001171655259032848 0 1.542820916403653e-05 -0.0001248194845733656 0 1.708818977112637e-05 -0.0001964931972881366 0 0 0 0 -0.575582682976775 3.01781805886639 0 -1.35168816634476 3.093293699104392 0 -0.9844865169876252 1.992304139296264 0 -2.42006135594362 1.929672269026038 0 -1.492888667968985 1.984006542390938 0 -1.956822131397733 2.38627008377746 2.220446049250313e-16 0 0 0 3.190357777018456e-05 -0.00141723167720977 0 5.403500256065604e-05 -0.001534011104405549 0 4.566368189617067e-05 -0.0004615934691939872 0 6.642033796810246e-05 -0.0004291474737448843 0 5.651957715961604e-05 -0.0004571773163679424 0 6.260087512923635e-05 -0.0007196285362169938 2.220446049250313e-16 0 0 0 -0.5755594882305304 3.016787897728839 0 -1.351648881347711 3.092178670809788 0 -0.9844533182187925 1.991968571221013 0 -2.420013066370784 1.929360287078196 0 -1.492847576600989 1.983674184559143 0 -1.956776618712374 2.385746948438531 2.220446049250313e-16 0 0 0 7.90435205849559e-05 -0.003507546270206891 0 0.0001338779840317165 -0.003796240329275907 0 0.00011313636671048 -0.00114321594622601 0 0.0001645655944473095 -0.001062883290121836 0 0.0001400340627386866 -0.001132282271871435 0 0.0001551019081139763 -0.001781945017513579 2.220446049250313e-16 0 0 0 -0.5755123482877157 3.014697583135842 0 -1.35156903836624 3.089916441584918 0 -0.9843858455339781 1.991286948743981 0 -2.419914921114305 1.928726551261819 0 -1.49276406211541 1.98299907960364 0 -1.95668411767939 2.384684631957235 0 0 0 0 0.0001215773329646317 -0.005389785520919355 0 0.0002059216020542022 -0.005832948993413928 0 0.0001740173489318652 -0.001757809813357476 0 0.0002531251939869729 -0.001634325530836258 0 0.0002153908016750382 -0.001741003301118892 0 0.0002385680964097389 -0.002739450152675568 0 0 0 0 -0.5754698144753361 3.012815343885129 0 -1.351496994748217 3.08787973292078 0 -0.9843249645517569 1.990672354876849 0 -2.419826361514765 1.928155109021105 0 -1.492688705376474 1.982390358574392 0 -1.956600651491094 2.383727126822073 0 0 0 0 0.0002193871924447299 -0.009704447340966298 0 0.0003715996557185591 -0.01050051668925433 0 0.0003140222119020758 -0.003169586549253735 0 0.0004567904502873719 -0.002947072478426899 0 0.0003886889567325453 -0.003139303136527202 0 0.0004305181487708456 -0.004937682681043669 0 0 0 0 -0.5753720046158559 3.008500682065082 0 -1.351331316694553 3.08321216522494 0 -0.9841849596887864 1.989260578140953 0 -2.419622696258465 1.926842362073514 0 -1.492515407221416 1.980992058738984 0 -1.956408701438733 2.381528894293705 2.220446049250313e-16 0 0 0 6.925743709581304e-05 -0.003073971776614566 0 0.0001173026519438331 -0.003327039144571597 0 9.912916588069559e-05 -0.001001754409797086 0 0.0001441905785646982 -0.0009313574877569113 0 0.000122696504436499 -0.000992172997184025 0 0.0001358986794595903 -0.001561508835257195 2.220446049250313e-16 0 0 0 -0.5755221343712048 3.015131157629434 0 -1.351585613698328 3.090385642769622 0 -0.9843998527348079 1.99142841028041 0 -2.419935296130187 1.928858077064184 0 -1.492781399673712 1.983139188878327 0 -1.956703320908044 2.384905068139491 0 0 0 0 7.76937706390928e-05 -0.003447756741148335 0 0.0001315918172437427 -0.00373153890542399 0 0.0001112044137507442 -0.001123706072444797 0 0.0001617553484346951 -0.001044743639886446 0 0.0001376427644655475 -0.001112958885974477 0 0.0001524532834546623 -0.001751544275337693 0 0 0 0 -0.5755136980376616 3.014757372664901 0 -1.351571324533028 3.08998114300877 0 -0.9843877774869378 1.991306458617762 0 -2.419917731360317 1.928744690912054 0 -1.492766453413683 1.983018402989537 0 -1.956686766304049 2.384715032699411 2.220446049250313e-16 0 0 0 0.0002027853407436491 -0.008973434223034664 0 0.0003434773376953295 -0.009709828201468134 0 0.0002902579339457031 -0.002930107372898052 0 0.0004222196106090616 -0.002724382534739419 0 0.000359273103887191 -0.002902108714929953 0 0.0003979360464821196 -0.004564919009774057 2.220446049250313e-16 0 0 0 -0.5753886064675571 3.009231695183014 0 -1.351359439012576 3.084002853712726 0 -0.984208723966743 1.989500057317309 0 -2.419657267098143 1.927065052017201 0 -1.492544823074262 1.981229253160581 0 -1.956441283541021 2.381901657964974 0 0 0 0 0.0001154874577857859 -0.005120513764364429 0 0.000195606463030164 -0.005541598236163789 0 0.0001653005075299452 -0.001669838709665613 0 0.0002404452221878026 -0.001552529508101962 0 0.0002046012777286286 -0.001653872598430789 0 0.0002266174257894383 -0.002602415901319466 0 0 0 0 -0.5754759043505149 3.013084615641684 0 -1.351507309887241 3.08817108367803 0 -0.9843336813931586 1.990760325980541 0 -2.419839041486564 1.928236905043839 0 -1.49269949490042 1.98247748927708 0 -1.956612602161714 2.383864161073429 0 0 0 0 0.0001682991226480865 -0.007453187321062785 0 0.0002850612513569231 -0.008065326577282149 0 0.0002408941005663238 -0.002432452853032362 0 0.0003504092741502843 -0.00226162917716787 0 0.0002981701898862752 -0.002409203809216902 0 0.0003302564960648428 -0.003790130995649203 0 0 0 0 -0.5754230926856525 3.010751942084986 0 -1.351417855098914 3.085647355336912 0 -0.9842580878001222 1.989997711837174 0 -2.419729077434602 1.927527805374773 0 -1.492605925988262 1.981722158066294 0 -1.956508963091439 2.382676445979099 0 0 0 0 0.0002119844343927379 -0.009378556440230551 0 0.000359059886998876 -0.01014802790853595 0 0.0003034257102437923 -0.003062810470402873 0 0.0004413752520043648 -0.002847781717716492 0 0.0003755723948878842 -0.003033545689548816 0 0.0004159897399964612 -0.004771485461168877 0 0 0 0 -0.5753794073739077 3.008826572965818 0 -1.351343856463273 3.083564654005658 0 -0.9841955561904446 1.989367354219804 0 -2.419638111456747 1.926941652834224 0 -1.492528523783261 1.981097816185962 0 -1.956423229847507 2.381695091513579 0 0 0 0 0.0002600192949296456 -0.01149125876528152 0 0.0004404288213269523 -0.01243299384348837 0 0.0003721846697049502 -0.003755439833501015 0 0.0005414032655588055 -0.003491868942701082 0 0.0004606841997963802 -0.003719569362523239 0 0.0005102632164829772 -0.005849389043588258 0 0 0 0 -0.5753313725133712 3.006713870640767 0 -1.351262487528945 3.081279688070706 0 -0.9841267972309838 1.988674724856706 0 -2.419538083443193 1.92629756560924 0 -1.492443411978353 1.980411792512988 0 -1.956328956371021 2.38061718793116 0 0 0 0 0.0002921666806182567 -0.01290264157920632 0 0.0004948865893790025 -0.01395923761175935 0 0.0004182024784236637 -0.004218696439993614 0 0.0006083500339224602 -0.003922676183709672 0 0.0005176471359388962 -0.004178410363059906 0 0.0005733582841033799 -0.006570099923038066 0 0 0 0 -0.5752992251276823 3.005302487826842 0 -1.351208029760893 3.079753444302435 0 -0.9840807794222648 1.988211468250213 0 -2.419471136674829 1.925866758368231 0 -1.49238644904221 1.979952951512451 0 -1.9562658613034 2.37989647705171 0 0 0 0 0.0003197364763128828 -0.01411143139074311 0 0.0005415908740299977 -0.01526626172007371 0 0.0004576681426604197 -0.004615805427400198 0 0.0006657658500452088 -0.004291980320850021 0 0.0005665000263494499 -0.004571735853775825 0 0.0006274705576126634 -0.007187754093048688 0 0 0 0 -0.5752716553319878 3.004093698015306 0 -1.351161325476242 3.07844642019412 0 -0.9840413137580282 1.987814359262806 0 -2.419413720858707 1.925497454231091 0 -1.4923375961518 1.979559626021735 0 -1.956211749029891 2.379278822881699 0 0 0 0 0.0003187304865068054 -0.01406735031668259 0 0.0005398866732485984 -0.01521860058008744 0 0.0004562280781828018 -0.004601318346092051 0 0.0006636707835140276 -0.004278507418209956 0 0.0005647174228728637 -0.004557386773470764 0 0.000625496038388117 -0.007165223614351 0 0 0 0 -0.5752726613217938 3.004137779089366 0 -1.351163029677023 3.078494081334106 0 -0.9840427538225059 1.987828846344114 0 -2.419415815925238 1.925510927133731 0 -1.492339378755276 1.97957397510204 0 -1.956213723549115 2.379301353360397 0 0 0 0 0.000350853492809214 -0.01547395516431665 0 0.0005943053594816478 -0.0167393594247209 0 0.0005022121533490778 -0.005063805269551297 0 0.000730571032987409 -0.004708624351875047 0 0.0006216397397495063 -0.005015469117441637 0 0.0006885468200517502 -0.00788439927545766 0 0 0 0 -0.5752405383154914 3.002731174241732 0 -1.35110861099079 3.076973322489473 0 -0.9839967697473395 1.987366359420655 0 -2.419348915675764 1.925080810200066 0 -1.492282456438399 1.979115892758069 0 -1.956150672767452 2.378582177699291 0 0 0 0 0.0003612438501103297 -0.01592849616823544 0 0.000611907632781636 -0.01723075192393301 0 0.0005170860835512497 -0.005213350176863941 0 0.0007522107726256769 -0.004847705418248321 0 0.0006400518681543831 -0.005163590237885519 0 0.0007089413482383522 -0.008116904867307921 0 0 0 0 -0.5752301479581903 3.002276633237813 0 -1.35109100871749 3.076481929990261 0 -0.9839818958171372 1.987216814513343 0 -2.419327275936126 1.924941729133693 0 -1.492264044309994 1.978967771637626 0 -1.956130278239265 2.37834967210744 0 0 0 0 8.975011331042926e-05 -0.003981684019440233 0 0.0001520125719591665 -0.004309318710709079 0 0.0001284611958410542 -0.001297959286282224 0 0.0001868573943998959 -0.001206759527961986 0 0.0001590025952988927 -0.001285546603489717 0 0.0001761116589218878 -0.002023057987508414 0 0 0 0 -0.5755016416949902 3.014223445386608 0 -1.351550903778312 3.089403363203485 0 -0.9843705207048475 1.991132205403924 0 -2.419892629314352 1.928582675023979 0 -1.49274509358285 1.982845815272021 0 -1.956663107928582 2.38444351898724 0 0 0 0 9.780803458342282e-05 -0.004338374719416437 0 0.000165660988104528 -0.004695291025419438 0 0.0001399949087200029 -0.001414404258534807 0 0.000203634664001448 -0.001315027993938313 0 0.0001732786635657619 -0.001400878765532069 0 0.0001919240140614113 -0.002204482716455045 0 0 0 0 -0.5754935837737172 3.013866754686632 0 -1.351537255362167 3.089017390888774 0 -0.9843589869919688 1.991015760431672 0 -2.41987585204475 1.928474406558002 0 -1.492730817514583 1.982730483109979 0 -1.956647295573442 2.384262094258293 2.220446049250313e-16 0 0 0 0.0002046136845085327 -0.009053966682555628 0 0.0003465744019376096 -0.009796937143701032 0 0.0002928750595378494 -0.002956483957780444 0 0.000426026828922476 -0.002748909745885455 0 0.0003625126211093328 -0.002928233627041228 0 0.0004015242522485574 -0.004605978177744367 2.220446049250313e-16 0 0 0 -0.5753867781237922 3.009151162723493 0 -1.351356341948334 3.083915744770493 0 -0.9842061068411507 1.989473680732426 0 -2.419653459879829 1.927040524806055 0 -1.492541583557039 1.98120312824847 0 -1.956437695335255 2.381860598797004 0 0 0 0 0.0001356922078162717 -0.00601360814032588 0 0.0002298297960079089 -0.006507897387795318 0 0.0001942209915439502 -0.001961673992149697 0 0.000282514658704557 -0.001823881522401424 0 0.0002403985338615998 -0.001942920216612126 0 0.000266267163346358 -0.003056987399034523 0 0 0 0 -0.5754556996004844 3.012191521265723 0 -1.351473086554264 3.087204784526398 0 -0.9843047609091448 1.990468490698057 0 -2.419796972050047 1.927965553029539 0 -1.492663697644287 1.982188441658899 0 -1.956572952424157 2.383409589575713 0 0 0 0 0.0001886506973092211 -0.008350626265225375 0 0.0003195345446903763 -0.009036140831551487 0 0.0002700254096236226 -0.002726168955630056 0 0.0003927868477448936 -0.002534744632277009 0 0.0003342290505542312 -0.002700116402566203 0 0.00037019639466534 -0.004247437477721688 0 0 0 0 -0.5754027411109913 3.009854503140823 0 -1.351383381805581 3.084676541082642 0 -0.984228956491065 1.989703995734577 0 -2.419686699861007 1.927254689919664 0 -1.492569867127595 1.981431245472945 0 -1.956469023192838 2.382219139497026 0 0 0 0 0.0002641205045616758 -0.01167142965063976 0 0.0004473762151670347 -0.01262783713305923 0 0.0003780553660130813 -0.003814552667670968 0 0.0005499438842617297 -0.003546840369257628 0 0.0004679511799420683 -0.003778118640288753 0 0.0005183124746193594 -0.005941364089561523 0 0 0 0 -0.575327271303739 3.006533699755409 0 -1.351255540135105 3.081084844781135 0 -0.9841209265346755 1.988615612022536 0 -2.41952954282449 1.926242594182683 0 -1.492436144998207 1.980353243235222 0 -1.956320907112884 2.380525212885187 0 0 0 0 0.0002430950339560581 -0.01074740500433946 0 0.000411759560505599 -0.01162853329863477 0 0.0003479584645915923 -0.003511462260454215 0 0.0005061595136061939 -0.003264986692506878 0 0.0004306961520037026 -0.003477918116163982 0 0.0004770470732110072 -0.005469746624498826 0 0 0 0 -0.5753482967743445 3.007457724401709 0 -1.351291156789766 3.082084148615559 0 -0.9841510234360971 1.988918702429752 0 -2.419573327195146 1.926524447859434 0 -1.492473400026145 1.980653443759347 0 -1.956362172514293 2.38099683035025 0 0 0 0 0.0002085544617165683 -0.009227522255217571 0 0.0003532497683761235 -0.009984663752430198 0 0.0002985159690410658 -0.003013333015033692 0 0.0004342328601319246 -0.002801773029933105 0 0.0003694950301625828 -0.002984540280106573 0 0.0004092582238539493 -0.004694470336046381 0 0 0 0 -0.5753828373465841 3.008977607150831 0 -1.351349666581895 3.083728018161763 0 -0.9842004659316476 1.989416831675173 0 -2.41964525384862 1.926987661522008 0 -1.492534601147986 1.981146821595405 0 -1.95642996136365 2.381772106638702 0 0 0 0 0.0002943812891102626 -0.01299979567734097 0 0.0004986381875587963 -0.01406429184380235 0 0.0004213726331117121 -0.004250601380635534 0 0.0006129620306996715 -0.003952346818962314 0 0.0005215713205192119 -0.00421001127111992 0 0.0005777049263178699 -0.006619729165781818 0 0 0 0 -0.5752970105191904 3.005205333728707 0 -1.351204278162713 3.079648390070392 0 -0.9840776092675769 1.988179563309571 0 -2.419466524678052 1.925837087732978 0 -1.49238252485763 1.979921350604391 0 -1.956261514661185 2.379846847808967 2.220446049250313e-16 0 0 0 0.0003297863612747027 -0.01455169430118368 0 0.0005586159844378506 -0.01574227143675456 0 0.0004720544881025107 -0.004760519723642476 0 0.0006866957874127032 -0.004426564537421198 0 0.0005843083940071303 -0.00471507173961462 0 0.0006471962015053401 -0.007412805517625457 2.220446049250313e-16 0 0 0 -0.5752616054470259 3.003653435104865 0 -1.351144300365834 3.077970410477439 0 -0.9840269274125861 1.987669644966564 0 -2.419392790921339 1.92536287001452 0 -1.492319787784142 1.979416290135896 0 -1.956192023385998 2.379053771457123 0 0 0 0 0.000361471936606329 -0.01593847176733461 0 0.0006122940348577303 -0.01724153608253371 0 0.0005174125930539332 -0.005216632680588533 0 0.0007526858054488029 -0.004850758257475274 0 0.0006404560481977957 -0.005166841491920001 0 0.0007093890460523596 -0.008122008137850257 0 0 0 0 -0.5752299198716943 3.002266657638714 0 -1.351090622315414 3.07647114583166 0 -0.9839815693076347 1.987213532009618 0 -2.419326800903303 1.924938676294465 0 -1.492263640129951 1.978964520383591 0 -1.956129830541451 2.378344568836898 0 0 0 0 0.000350853492809214 -0.01547395516431665 0 0.0005943053594816478 -0.0167393594247209 0 0.0005022121533490778 -0.005063805269551297 0 0.000730571032987409 -0.004708624351875047 0 0.0006216397397495063 -0.005015469117441637 0 0.0006885468200517502 -0.00788439927545766 0 0 0 0 -0.5752405383154914 3.002731174241732 0 -1.35110861099079 3.076973322489473 0 -0.9839967697473395 1.987366359420655 0 -2.419348915675764 1.925080810200066 0 -1.492282456438399 1.979115892758069 0 -1.956150672767452 2.378582177699291 0 0 0 0 0.0002378413617689014 -0.01051638087764656 0 0.0004028600440437605 -0.01137867615287371 0 0.000340438140290521 -0.003435713172424058 0 0.0004952191896985886 -0.003194546074516892 0 0.0004213872655262869 -0.00340289141022284 0 0.0004667361435005612 -0.005351866430187683 0 0 0 0 -0.5753535504465317 3.007688748528402 0 -1.351300056306228 3.08233400576132 0 -0.984158543760398 1.988994451517782 0 -2.419584267519053 1.926594888477424 0 -1.492482708912622 1.980728470465288 0 -1.956372483444003 2.381114710544561 2.220446049250313e-16 0 0 0 5.820466819351047e-06 -0.0002587119849373014 0 9.858019575123369e-06 -0.0002800431363610395 0 8.33080390682948e-06 -8.422978565232444e-05 0 1.211750987013278e-05 -7.830812763326226e-05 0 1.031128908541406e-05 -8.342379261543711e-05 0 1.142071735590579e-05 -0.0001313288755915957 2.220446049250313e-16 0 0 0 -0.5755855713414814 3.017946417421111 0 -1.351693058330696 3.093432638777833 0 -0.9844906510967817 1.992345934904554 0 -2.420067369198882 1.929711126424307 0 -1.492893784889063 1.984047938082896 0 -1.956827798870148 2.386335248099157 0 0 0 0 2.625801471055887e-05 -0.001166592050109364 0 4.447304073510888e-05 -0.00126273189082487 0 3.7583125623061e-05 -0.0003799278365185254 0 5.466662383730183e-05 -0.000353221209090112 0 4.651793810795271e-05 -0.0003762928473944349 0 5.152306889390808e-05 -0.0005923245696009024 0 0 0 0 -0.5755651337935901 3.017038537355939 0 -1.351658443309536 3.092449950023369 0 -0.9844613987750656 1.992050236853688 0 -2.420024820084914 1.929436213342851 0 -1.492857578240041 1.983755069028117 0 -1.95678769651861 2.385874252405147 0 0 0 0 0.0001443348165865781 -0.006395381518041746 0 0.0002444690188318723 -0.006920942226193319 0 0.0002065918441201554 -0.002086479121103795 0 0.0003005101971656355 -0.001939928554085134 0 0.0002557110283569337 -0.002066533429973351 0 0.0002832276268970383 -0.003251365079334466 0 0 0 0 -0.5754470569917141 3.011809747888007 0 -1.351458447331439 3.086791739688 0 -0.9842923900565687 1.990343685569103 0 -2.419778976511586 1.927849505997856 0 -1.492648385149792 1.982064828445538 0 -1.956555991960606 2.383215211895414 0 0 0 0 0.0001263493805197005 -0.005600736010694812 0 0.000214004611639033 -0.00606119192484086 0 0.0001808479124373928 -0.001826738496805186 0 0.0002630613227691462 -0.001698416157965538 0 0.0002238455459268554 -0.001809273549791154 0 0.0002479327327800201 -0.002846816968560835 0 0 0 0 -0.575465042427781 3.012604393395354 0 -1.351488911738632 3.087651489989353 0 -0.9843181339882512 1.990603426193401 0 -2.419816425385983 1.928091018393975 0 -1.492680250632222 1.98232208832572 0 -1.956591286854724 2.383619760006187 0 0 0 0 0.0001895720780805448 -0.008391236709342919 0 0.0003210952722778596 -0.009080069933017692 0 0.0002713442830579925 -0.00273946423903364 0 0.0003947054379067863 -0.002547107544758374 0 0.0003358615637204322 -0.002713284802278618 0 0.0003720046199219385 -0.004268136034793216 0 0 0 0 -0.57540181973022 3.009813892696706 0 -1.351381821077994 3.084632611981176 0 -0.9842276376176307 1.989690700451173 0 -2.419684781270845 1.927242327007183 0 -1.492568234614428 1.981418077073233 0 -1.956467214967581 2.382198440939955 0 0 0 0 0.0001236431895164216 -0.005481113216820436 0 0.0002094207965696163 -0.005931763664371799 0 0.0001769743513444555 -0.001787650200823762 0 0.000257426615221901 -0.001662071404213225 0 0.0002190509224860226 -0.001770558635568581 0 0.0002426221151479403 -0.002785931561361296 0 0 0 0 -0.5754677486187841 3.012724016189228 0 -1.351493495553702 3.087780918249822 0 -0.9843220075493442 1.990642514489383 0 -2.41982206009353 1.928127363147728 0 -1.492685045255663 1.982360803239942 0 -1.956596597472356 2.383680645413387 0 0 0 0 8.965076288562537e-05 -0.003977285376828664 0 0.0001518442938068288 -0.004304558902181976 0 0.0001283189907712788 -0.001296523483407362 0 0.000186650539375184 -0.001205424549488158 0 0.0001588265785652635 -0.001284124522713177 0 0.0001759167006962088 -0.002020820890359379 0 0 0 0 -0.575501741045415 3.01422784402922 0 -1.351551072056465 3.089408123012012 0 -0.9843706629099174 1.991133641206799 0 -2.419892836169377 1.928584010002453 0 -1.492745269599583 1.982847237352798 0 -1.956663302886807 2.384445756084389 0 0 0 0 0.0001477492497611335 -0.006546167560906448 0 0.0002502525569360576 -0.00708407575537016 0 0.0002114792063049166 -0.002135781261251688 0 0.0003076197361967344 -0.001985771237138184 0 0.0002617605596771284 -0.002115364764766209 0 0.0002899282316498755 -0.003328146944770445 0 0 0 0 -0.5754436425585395 3.011658961845142 0 -1.351452663793336 3.086628606158824 0 -0.9842875026943837 1.990294383428955 0 -2.419771866972555 1.927803663314803 0 -1.492642335618472 1.982015997110745 0 -1.956549291355854 2.383138430029978 0 0 0 0 0.0003397921318062325 -0.01498982779226792 0 0.0005755664803186098 -0.01621596194925507 0 0.0004863777459981745 -0.004904576543836546 0 0.0007075340780867532 -0.004560538655613786 0 0.0006020387282782559 -0.004857756608112856 0 0.0006668354483890598 -0.007636816518703987 0 0 0 0 -0.5752515996764943 3.003215301613781 0 -1.351127349869953 3.077496719964939 0 -0.9840126041546906 1.98752558814637 0 -2.419371952630665 1.925228895896327 0 -1.492302057449871 1.979273605267398 0 -1.956172384139115 2.378829760456044 0 0 0 0 0.0003490883598347697 -0.01539671589966474 0 0.0005913150655911847 -0.01665585625724495 0 0.0004996853494052808 -0.005038397929272165 0 0.0007268948584779396 -0.004684994939054183 0 0.0006185118682489624 -0.004990303696279009 0 0.0006850821804342894 -0.007844895186113022 0 0 0 0 -0.5752423034484659 3.002808413506384 0 -1.35111160128468 3.077056825656949 0 -0.9839992965512833 1.987391766760934 0 -2.419352591850274 1.925104439612887 0 -1.4922855843099 1.979141058179232 0 -1.956154137407069 2.378621681788635 0 0 0 0 0.0003504113337110777 -0.01545460759506187 0 0.0005935563018888823 -0.01671844286718286 0 0.0005015791983887929 -0.005057440892232892 0 0.0007296501645920446 -0.00470270533014499 0 0.0006208562194324576 -0.005009165338753061 0 0.0006876789404492019 -0.007874503804335298 0 0 0 0 -0.5752409804745896 3.002750521810987 0 -1.351109360048383 3.076994239047011 0 -0.9839974027022999 1.987372723797974 0 -2.41934983654416 1.925086729221796 0 -1.492283239958716 1.979122196536758 0 -1.956151540647054 2.378592073170413 0 0 0 0 7.439700186020548e-06 -0.0003306725816241518 0 1.260049297297737e-05 -0.0003579359193332064 0 1.064840792712402e-05 -0.000107660866828632 0 1.548857199890117e-05 -0.0001000920016501543 0 1.317986162073689e-05 -0.0001066306742251392 0 1.459793206670201e-05 -0.000167860904023042 0 0 0 0 -0.5755839521081146 3.017874456824424 0 -1.351690315857299 3.093354745994861 0 -0.9844883334927614 1.992322503823378 0 -2.420063998136753 1.929689342550291 0 -1.492890916316528 1.984024731201286 0 -1.956824621655437 2.386298716070725 0 0 0 0 2.249409482732531e-06 -9.999136433330936e-05 0 3.80977951395031e-06 -0.0001082364951603006 0 3.219565622261668e-06 -3.255280348504785e-05 0 4.68299017987372e-06 -3.026416890095027e-05 0 3.984951760067758e-06 -3.224129842554647e-05 0 4.413705392521783e-06 -5.075621188174667e-05 0 0 0 0 -0.5755891423988179 3.018105138041716 0 -1.351699106570758 3.093604445419034 0 -0.9844957623350664 1.992397611886721 0 -2.420074803718572 1.92975917038304 0 -1.492900111226389 1.984099120577085 0 -1.956834805882111 2.386415820762867 2.220446049250313e-16 0 0 0 1.067817597324891e-05 -0.0004745782946600406 0 1.808546434496866e-05 -0.0005137033429152184 0 1.528363378225132e-05 -0.0001545213993864619 0 2.223073282302346e-05 -0.0001436583421036344 0 1.891703348277872e-05 -0.0001530428388525633 0 2.095239410429671e-05 -0.0002409209841602282 2.220446049250313e-16 0 0 0 -0.5755807136323274 3.017730551111389 0 -1.351684830885927 3.093198978571279 0 -0.9844836982669064 1.99227564329082 0 -2.420057255975929 1.929645776209837 0 -1.492885179144666 1.983978319036659 0 -1.956818267193399 2.386225655990588 0 0 0 0 0.0001662537457685647 -0.007362947217234207 0 0.0002815966384008239 -0.007967704429647542 0 0.0002379663557035709 -0.002402928653109461 0 0.0003461502887803678 -0.002234176055540964 0 0.0002945462284142663 -0.002379961461795054 0 0.0003262424939043385 -0.003744158631820901 0 0 0 0 -0.5754251380625323 3.010842182188814 0 -1.351421319711871 3.085744977484546 0 -0.9842610155449851 1.990027236037097 0 -2.419733336419971 1.9275552584964 0 -1.492609549949735 1.981751400413716 0 -1.956512977093599 