<?xml version="1.0" encoding="UTF-8"?>
<!-- This file was created by ACADEMIC version of SMILE -->
<smile version="1.0" id="unknown" numsamples="10000" discsamples="10000">
	<nodes>
		<cpt id="Sex">
			<state id="M" />
			<state id="W" />
			<probabilities>0.695118 0.304882</probabilities>
		</cpt>
		<cpt id="Age">
			<state id="age_2_young" />
			<state id="age_3_young_adult" />
			<state id="age_4_adult" />
			<state id="age_5_old_adult" />
			<probabilities>0.19078 0.380053 0.298359 0.130808</probabilities>
		</cpt>
		<cpt id="SD">
			<state id="SD_1_short" />
			<state id="SD_2_normal" />
			<state id="SD_3_excessive" />
			<parents>Age Sex</parents>
			<probabilities>0.060844313 0.937824307 0.00133138 0.078497363 0.919507767 0.00199487 0.091220196 0.90787856 0.000901244 0.11412849 0.885107393 0.000764117 0.121549326 0.877796408 0.000654266 0.159430754 0.839586651 0.000982595 0.149294451 0.8500227970000001 0.000682752 0.225208895 0.774069936 0.000721169</probabilities>
		</cpt>
		<cpt id="SES">
			<state id="ses_0" />
			<state id="ses_1" />
			<state id="ses_2" />
			<parents>Age Sex</parents>
			<probabilities>0.265038 0.608924 0.126038 0.227351 0.606203 0.166446 0.2481707518292481 0.6176143823856175 0.1342148657851343 0.194898 0.6426539999999999 0.162448 0.252783 0.615168 0.132049 0.188273 0.641218 0.170509 0.2429122429122429 0.6313856313856314 0.1257021257021257 0.162707 0.664855 0.172438</probabilities>
		</cpt>
		<cpt id="Depression">
			<state id="False" />
			<state id="True" />
			<parents>Age SES Sex</parents>
			<probabilities>0.997863655 0.002136345 0.994321309 0.005678691 0.99885487 0.00114513 0.997887385 0.002112615 0.998969781 0.001030219 0.998266781 0.001733219 0.996706037 0.003293963 0.988462896 0.011537104 0.997612648 0.002387352 0.994959954 0.005040046 0.997874826 0.002125174 0.99539649 0.00460351 0.9932493100000001 0.00675069 0.9801555749999999 0.019844425 0.996694208 0.003305792 0.992654556 0.007345444 0.997027521 0.002972479 0.993538526 0.006461474 0.993046405 0.006953595 0.965170613 0.034829387 0.994559063 0.005440937 0.98925555 0.01074445 0.9972002679999999 0.002799732 0.993063387 0.006936613</probabilities>
		</cpt>
		<cpt id="PA">
			<state id="PA_1" />
			<state id="PA_2" />
			<parents>Age SD SES Sex</parents>
			<probabilities>0.482960174 0.517039826 0.620871248 0.379128752 0.471864678 0.528135322 0.554851444 0.445148556 0.424304227 0.575695773 0.490459825 0.509540175 0.394941489 0.605058511 0.514621382 0.485378618 0.389521957 0.610478043 0.461170736 0.538829264 0.336538844 0.663461156 0.362231129 0.637768871 0.524754729 0.475245271 0.542883361 0.457116639 0.42757625 0.57242375 0.5888450200000001 0.41115498 0.489527729 0.510472271 0.514850294 0.485149706 0.540085956 0.459914044 0.59533725 0.40466275 0.517562867 0.482437133 0.5801786209999999 0.419821379 0.471672205 0.528327795 0.541112446 0.458887554 0.468980888 0.531019112 0.525066668 0.474933332 0.467361722 0.532638278 0.496116563 0.503883437 0.393204847 0.606795153 0.427089822 0.572910178 0.486764295 0.513235705 0.50487751 0.49512249 0.550936659 0.449063341 0.58643991 0.41356009 0.512318406 0.487681594 0.533888241 0.466111759 0.56087748 0.43912252 0.538736484 0.461263516 0.518199623 0.481800377 0.512441111 0.487558889 0.448944356 0.551055644 0.447486087 0.552513913 0.484326733 0.515673267 0.479155827 0.520844173 0.484082075 0.515917925 0.452198731 0.547801269 0.39545848 0.6045415200000001 0.37222709 0.62777291 0.531613695 0.468386305 0.488367237 0.511632763 0.581409954 0.418590046 0.490921527 0.509078473 0.48954251 0.51045749 0.464206372 0.535793628 0.537268254 0.462731746 0.579118873 0.420881127 0.514437807 0.485562193 0.5156834259999999 0.484316574 0.464639523 0.535360477 0.473053893 0.526946107 0.483202866 0.516797134 0.500088604 0.499911396 0.473048548 0.526951452 0.436542761 0.563457239 0.393267294 0.606732706 0.378980607 0.621019393 0.492440477 0.507559523 0.533342164 0.466657836 0.6309098869999999 0.369090113 0.492169558 0.507830442 0.488970119 0.511029881 0.503256046 0.496743954</probabilities>
		</cpt>
		<cpt id="Smoking">
			<state id="sm_1_not_smoker" />
			<state id="sm_2_smoker" />
			<state id="sm_3_ex_smoker" />
			<parents>Age PA Sex</parents>
			<probabilities>0.446330401 0.440945892 0.112723707 0.529641379 0.337748088 0.132610534 0.557463069 0.325515129 0.117021802 0.5886502850000001 0.271293166 0.140056549 0.471714462 0.360802735 0.167482803 0.554434337 0.28323897 0.162326693 0.551256389 0.255864566 0.192879044 0.579066261 0.225941944 0.194991794 0.398959148 0.359016238 0.242024614 0.496183584 0.327477342 0.176339073 0.483745206 0.24334485 0.272909944 0.542385494 0.242025861 0.215588646 0.37681277 0.303406481 0.319780749 0.543890929 0.26998268 0.18612639 0.4486828 0.20376842 0.347548781 0.5693515179999999 0.188244006 0.242404476</probabilities>
		</cpt>
		<cpt id="Anxiety">
			<state id="False" />
			<state id="True" />
			<parents>Depression SD Sex Smoking</parents>
			<probabilities>0.971336721 0.028663279 0.9615512980000001 0.038448702 0.968828833 0.031171167 0.943572812 0.056427188 0.924390764 0.075609236 0.925219217 0.074780783 0.984691033 0.015308967 0.980021819 0.019978181 0.979219465 0.020780535 0.969387083 0.030612917 0.951017224 0.048982776 0.957426591 0.042573409 0.979844732 0.020155268 0.970985053 0.029014947 0.987399873 0.012600127 0.984583757 0.015416243 0.953909558 0.046090442 0.9500612859999999 0.049938714 0.87238812 0.12761188 0.88629607 0.11370393 0.926218112 0.073781888 0.910199251 0.089800749 0.850381421 0.149618579 0.912162308 0.08783769199999999 0.887635786 0.112364214 0.916113641 0.08388635899999999 0.875464154 0.124535846 0.900114221 0.09988577899999999 0.887995922 0.112004078 0.858307872 0.141692128 0.915760002 0.084239998 0.972142923 0.027857077 0.972142923 0.027857077 0.973071964 0.026928036 0.971281878 0.028718122 0.971245613 0.028754387</probabilities>
		</cpt>
		<cpt id="Alcohol">
			<state id="high" />
			<state id="low" />
			<parents>Age Sex Smoking</parents>
			<probabilities>0.006440306 0.993559694 0.025006952 0.974993048 0.019256092 0.980743908 0.001413651 0.998586349 0.004426413 0.995573587 0.002911964 0.997088036 0.019231995 0.9807680050000001 0.061380648 0.938619352 0.044717488 0.955282512 0.00302048 0.99697952 0.008328991000000001 0.991671009 0.00690617 0.99309383 0.052038441 0.947961559 0.134326352 0.865673648 0.09703972900000001 0.902960271 0.009248324 0.990751676 0.020016907 0.979983093 0.021599909 0.978400091 0.103943403 0.896056597 0.21175689 0.78824311 0.1629616 0.8370384 0.019931973 0.980068027 0.039153935 0.960846065 0.030181896 0.969818104</probabilities>
		</cpt>
		<cpt id="BMI">
			<state id="bmi_1_underweight" />
			<state id="bmi_2_normal" />
			<state id="bmi_3_overweight" />
			<state id="bmi_4_obese" />
			<parents>Age PA Sex Smoking</parents>
			<probabilities>0.006932337 0.405827629 0.419231818 0.168008215 0.013099617 0.446791412 0.391008827 0.149100144 0.005357608 0.335709669 0.45172678 0.207205942 0.049956089 0.654860039 0.204120659 0.091063214 0.067968655 0.6401471 0.192224039 0.099660206 0.040770745 0.633626296 0.215411425 0.110191534 0.002990791 0.535477987 0.377235618 0.084295604 0.008436353000000001 0.531863616 0.369361733 0.090338298 0.001517427 0.464137135 0.43166399 0.102681447 0.058817872 0.7117822069999999 0.164448222 0.064951698 0.054191728 0.70086799 0.170365884 0.074574398 0.036164178 0.702517794 0.185604945 0.075713083 0.001641685 0.304311832 0.481547262 0.212499221 0.005710138 0.344742465 0.449492701 0.200054696 0.001256896 0.22830507 0.494927316 0.275510718 0.030358861 0.60786677 0.239963269 0.1218111 0.039411622 0.59800915 0.249830043 0.112749185 0.022061478 0.571115555 0.274545154 0.132277812 0.001652834 0.426926902 0.44926847 0.122151794 0.004118361 0.402353375 0.461015239 0.132513025 0.000486406 0.328585612 0.499500428 0.171427554 0.034010075 0.676452006 0.203350167 0.08618775200000001 0.036077128 0.67214929 0.206867442 0.08490614 0.020230869 0.647274652 0.239095822 0.093398657 0.001241755 0.220345696 0.510119266 0.268293283 0.004605307 0.285101739 0.465571839 0.244721115 0.000543301 0.147949379 0.495925175 0.355582145 0.012451221 0.493821986 0.319496163 0.17423063 0.023428805 0.532743674 0.312302796 0.131524726 0.007733406 0.456598716 0.350007018 0.18566086 0.000822645 0.321627775 0.512940933 0.164608647 0.002545302 0.316431751 0.493400531 0.187622417 0.000440481 0.205498496 0.548690936 0.245370087 0.017710449 0.596761693 0.282985983 0.102541876 0.020386634 0.6101968639999999 0.274267264 0.095149238 0.010340505 0.57178982 0.310156253 0.107713421 0.0008818539999999999 0.17016489 0.519801186 0.309152069 0.007458112 0.275716949 0.459284453 0.257540485 0.000603617 0.119128558 0.482802397 0.397465428 0.006456409 0.365499465 0.385650355 0.242393771 0.020055464 0.467361196 0.36587761 0.14670573 0.003204784 0.363890078 0.402922768 0.229982369 0.0006687419999999999 0.249137387 0.546656377 0.203537495 0.005186149 0.29683172 0.499814007 0.198168124 0.000319515 0.163586929 0.551184751 0.284908806 0.01123616 0.477033685 0.371178884 0.140551272 0.014591224 0.5470441660000001 0.335189882 0.103174728 0.008640798999999999 0.474752803 0.375526209 0.141080189</probabilities>
		</cpt>
		<cpt id="Hyperchol_">
			<state id="False" />
			<state id="True" />
			<parents>Age Alcohol BMI PA Sex Smoking</parents>
			<probabilities>0.466145186 0.533854814 0.498714283 0.501285717 0.448949082 0.5510509179999999 0.448949082 0.5510509179999999 0.436380985 0.563619015 0.465471033 0.534528967 0.465471033 0.534528967 0.450401296 0.549598704 0.465471033 0.534528967 0.466145186 0.533854814 0.44942442 0.55057558 0.449296467 0.550703533 0.524512014 0.475487986 0.656359165 0.343640835 0.476129293 0.523870707 0.487493212 0.512506788 0.431150689 0.568849311 0.429230214 0.5707697859999999 0.542360475 0.457639525 0.583678742 0.416321258 0.529807363 0.470192637 0.536611961 0.463388039 0.537376217 0.462623783 0.485252543 0.514747457 0.467411585 0.532588415 0.470948698 0.5290513019999999 0.490112596 0.509887404 0.449013666 0.550986334 0.485440808 0.514559192 0.465471033 0.534528967 0.465224428 0.534775572 0.532650249 0.467349751 0.475227164 0.524772836 0.482320107 0.5176798929999999 0.522541941 0.477458059 0.448666281 0.5513337190000001 0.447915944 0.552084056 0.486344067 0.513655933 0.437771357 0.562228643 0.448318278 0.551681722 0.449360971 0.5506390289999999 0.448601257 0.551398743 0.425710251 0.574289749 0.423702477 0.576297523 0.409233794 0.590766206 0.465177412 0.534822588 0.448949082 0.5510509179999999 0.435233002 0.564766998 0.643548714 0.356451286 0.736291679 0.263708321 0.495230901 0.504769099 0.743362269 0.256637731 0.77084625 0.22915375 0.721697283 0.278302717 0.723345616 0.276654384 0.709917181 0.290082819 0.534927434 0.465072566 0.712944994 0.287055006 0.722246668 0.277753332 0.603084536 0.396915464 0.748597117 0.251402883 0.765892152 0.234107848 0.686176261 0.313823739 0.790214305 0.209785695 0.802753242 0.197246758 0.7598304259999999 0.240169574 0.795649456 0.204350544 0.796386595 0.203613405 0.742621984 0.257378016 0.780033381 0.219966619 0.787289477 0.212710523 0.751590946 0.248409054 0.63798352 0.36201648 0.61888669 0.38111331 0.58603984 0.41396016 0.704826305 0.295173695 0.700674756 0.299325244 0.668683292 0.331316708 0.701416087 0.298583913 0.665528514 0.334471486 0.643780393 0.356219607 0.703453486 0.296546514 0.702071306 0.297928694 0.655293546 0.344706454 0.553849142 0.446150858 0.5346477509999999 0.465352249 0.5177457009999999 0.482254299 0.681940374 0.318059626 0.67723163 0.32276837 0.65305908 0.34694092 0.595807106 0.404192894 0.5412975880000001 0.458702412 0.534255878 0.465744122 0.63795317 0.36204683 0.6188731 0.3811269 0.555621093 0.444378907 0.434876521 0.565123479 0.498616693 0.501383307 0.435233002 0.564766998 0.448949082 0.5510509179999999 0.456819886 0.543180114 0.449296686 0.5507033140000001 0.465808216 0.534191784 0.482519389 0.517480611 0.448949082 0.5510509179999999 0.48166638 0.5183336200000001 0.465937725 0.534062275 0.439570813 0.560429187 0.454525291 0.5454747089999999 0.438865516 0.561134484 0.377095308 0.622904692 0.512489047 0.487510953 0.496578212 0.503421788 0.442390213 0.557609787 0.433861485 0.566138515 0.434553637 0.565446363 0.416478109 0.583521891 0.515501774 0.484498226 0.496583148 0.503416852 0.531147626 0.468852374 0.366031715 0.633968285 0.317932366 0.682067634 0.318047629 0.6819523709999999 0.512211409 0.487788591 0.487506342 0.512493658 0.437561297 0.562438703 0.354939693 0.6450603070000001 0.347170226 0.652829774 0.361571798 0.6384282019999999 0.409223529 0.590776471 0.371908287 0.628091713 0.416264881 0.583735119 0.292855081 0.707144919 0.30864661 0.69135339 0.284297876 0.715702124 0.469205784 0.530794216 0.441679768 0.558320232 0.434602199 0.565397801 0.261164078 0.738835922 0.278248543 0.721751457 0.31661404 0.68338596 0.421995183 0.5780048169999999 0.448164938 0.551835062 0.434958629 0.565041371 0.635238544 0.364761456 0.599297108 0.400702892 0.447221307 0.552778693 0.648568457 0.351431543 0.648015347 0.351984653 0.552661538 0.447338462 0.573275644 0.426724356 0.549471852 0.450528148 0.483167524 0.516832476 0.659064249 0.340935751 0.622653419 0.377346581 0.5570795160000001 0.442920484 0.60458073 0.39541927 0.578169169 0.421830831 0.5274716149999999 0.472528385 0.740296881 0.259703119 0.720583835 0.279416165 0.702353351 0.297646649 0.649203534 0.350796466 0.600270156 0.399729844 0.588626279 0.411373721 0.734614816 0.265385184 0.7156833460000001 0.284316654 0.696509537 0.303490463 0.51241969 0.48758031 0.45427519 0.5457248099999999 0.454171836 0.545828164 0.64450909 0.35549091 0.615591668 0.384408332 0.614144347 0.385855653 0.544570483 0.455429517 0.485984242 0.514015758 0.492218948 0.507781052 0.633296651 0.366703349 0.6017463790000001 0.398253621 0.601701038 0.398298962 0.439863791 0.5601362090000001 0.397872006 0.6021279940000001 0.400644497 0.599355503 0.607723983 0.392276017 0.548483658 0.451516342 0.550029756 0.449970244 0.462234098 0.537765902 0.389736595 0.610263405 0.4078816 0.5921184 0.6000506799999999 0.39994932 0.527168353 0.472831647 0.570429178 0.429570822 0.448601257 0.551398743 0.42552229 0.57447771 0.434684256 0.565315744 0.464883977 0.5351160230000001 0.422164328 0.577835672 0.435315059 0.564684941 0.448601257 0.551398743 0.426719674 0.573280326 0.448949082 0.5510509179999999 0.434298455 0.565701545 0.444297582 0.555702418 0.4481002 0.5518998000000001 0.340436412 0.659563588 0.334737936 0.665262064 0.286679206 0.713320794 0.408594063 0.591405937 0.327595453 0.672404547 0.432553918 0.567446082 0.305175287 0.694824713 0.33055336 0.66944664 0.230811999 0.769188001 0.314459932 0.685540068 0.34235908 0.65764092 0.387908383 0.612091617 0.279728149 0.720271851 0.245380007 0.754619993 0.228378163 0.771621837 0.404883012 0.595116988 0.378475974 0.621524026 0.393080074 0.606919926 0.257984365 0.742015635 0.240341631 0.7596583690000001 0.227273047 0.772726953 0.368526926 0.631473074 0.346542279 0.653457721 0.405535715 0.594464285 0.234474859 0.765525141 0.23569893 0.76430107 0.238747347 0.761252653 0.357171852 0.642828148 0.384541844 0.615458156 0.407061796 0.592938204 0.264679813 0.735320187 0.234549805 0.765450195 0.226783972 0.773216028 0.435682188 0.564317812 0.425933353 0.574066647 0.429431096 0.570568904 0.457594463 0.542405537 0.462484951 0.537515049 0.496004017 0.503995983 0.475692628 0.524307372 0.43971282 0.56028718 0.464708944 0.535291056 0.426951225 0.573048775 0.459887756 0.540112244 0.482411396 0.517588604 0.446450263 0.553549737 0.512096232 0.487903768 0.446091978 0.553908022 0.435798393 0.564201607 0.426198592 0.573801408 0.362622319 0.637377681 0.515705797 0.484294203 0.474254583 0.525745417 0.4643778 0.5356222 0.46995358 0.53004642 0.428070309 0.571929691 0.408110611 0.591889389 0.517335828 0.482664172 0.454599203 0.545400797 0.468985241 0.5310147589999999 0.395450402 0.604549598 0.330471156 0.669528844 0.339888416 0.660111584 0.429908664 0.5700913359999999 0.356554069 0.643445931 0.381120215 0.618879785 0.394612897 0.605387103 0.33118533 0.6688146699999999 0.364880291 0.635119709 0.431997414 0.568002586 0.358107097 0.641892903 0.365673311 0.634326689 0.361238046 0.638761954 0.312968887 0.687031113 0.326662397 0.673337603 0.418940332 0.581059668 0.325988323 0.674011677 0.345654775 0.654345225 0.347847236 0.652152764 0.308539041 0.691460959 0.327150657 0.672849343 0.402934789 0.597065211 0.350327757 0.649672243 0.377649883 0.622350117 0.434958456 0.565041544 0.487441969 0.512558031 0.435233002 0.564766998 0.434876521 0.565123479 0.421533525 0.578466475 0.448601257 0.551398743 0.448949082 0.5510509179999999 0.470000918 0.529999082 0.448601257 0.551398743 0.435945067 0.564054933 0.449013268 0.550986732 0.433507159 0.566492841 0.283496463 0.716503537 0.27821845 0.72178155 0.25083882 0.74916118 0.392256199 0.607743801 0.354833525 0.645166475 0.346328023 0.653671977 0.279305155 0.720694845 0.279620896 0.720379104 0.251591606 0.748408394 0.339633051 0.660366949 0.361600811 0.638399189 0.355479797 0.644520203 0.248091712 0.751908288 0.236093858 0.763906142 0.235580731 0.764419269 0.329848312 0.670151688 0.332635607 0.6673643929999999 0.382763037 0.617236963 0.228121218 0.771878782 0.242747145 0.7572528549999999 0.236509737 0.763490263 0.385269182 0.614730818 0.316138615 0.683861385 0.394824524 0.605175476 0.256503852 0.743496148 0.229028962 0.770971038 0.212077577 0.787922423 0.404036887 0.595963113 0.406667571 0.5933324290000001 0.437094121 0.562905879 0.275235434 0.7247645660000001 0.235943026 0.7640569740000001 0.240734211 0.759265789 0.354962678 0.645037322 0.433233874 0.566766126 0.408199389 0.591800611 0.465059414 0.5349405860000001 0.439735966 0.560264034 0.452305158 0.547694842 0.401483513 0.598516487 0.359473079 0.640526921 0.448814818 0.551185182 0.466786457 0.533213543 0.460214046 0.539785954 0.434849198 0.565150802 0.336065695 0.6639343049999999 0.450607774 0.549392226 0.406007378 0.593992622 0.362609927 0.6373900729999999 0.323061571 0.676938429 0.324883662 0.675116338 0.251449613 0.748550387 0.254089943 0.745910057 0.226841122 0.773158878 0.344464953 0.655535047 0.313706712 0.686293288 0.319675185 0.680324815 0.255230491 0.7447695090000001 0.237387281 0.762612719 0.205835343 0.7941646570000001 0.343176756 0.656823244 0.297672398 0.702327602 0.313339234 0.686660766 0.228270185 0.771729815 0.220375847 0.779624153 0.206894107 0.793105893 0.334749585 0.665250415 0.299773046 0.700226954 0.315997666 0.684002334 0.220650231 0.779349769 0.201778177 0.798221823 0.195059364 0.804940636 0.327111754 0.672888246 0.268920801 0.731079199 0.311898597 0.688101403 0.260073695 0.739926305 0.258541168 0.741458832 0.219669797 0.780330203 0.333098153 0.666901847 0.264045849 0.7359541509999999 0.295123546 0.704876454 0.250126832 0.749873168 0.227059653 0.772940347 0.229118598 0.770881402</probabilities>
		</cpt>
		<cpt id="Diabetes">
			<state id="False" />
			<state id="True" />
			<parents>Age BMI PA Sex</parents>
			<probabilities>0.986650693 0.013349307 0.99633026 0.00366974 0.9910621509999999 0.008937848999999999 0.9947869580000001 0.005213042 0.99278223 0.00721777 0.994720888 0.005279112 0.9931408309999999 0.006859169 0.995934647 0.004065353 0.992488923 0.007511077 0.991948298 0.008051702000000001 0.993003147 0.006996853 0.992059187 0.007940813 0.985940308 0.014059692 0.9868037079999999 0.013196292 0.984771657 0.015228343 0.982024107 0.017975893 0.979732617 0.020267383 0.993282865 0.006717135 0.986847565 0.013152435 0.992272736 0.007727264 0.989521163 0.010478837 0.993125589 0.006874411 0.990074837 0.009925163000000001 0.993658418 0.006341582 0.984624401 0.015375599 0.987038172 0.012961828 0.986787639 0.013212361 0.986320211 0.013679789 0.956998539 0.043001461 0.974967085 0.025032915 0.957173339 0.042826661 0.966025735 0.033974265 0.982256834 0.017743166 0.994263159 0.005736841 0.956712992 0.043287008 0.992523802 0.007476198 0.971790656 0.028209344 0.9891762589999999 0.010823741 0.9757134159999999 0.024286584 0.990874035 0.009125965 0.947443145 0.052556855 0.979281983 0.020718017 0.956670061 0.043329939 0.978156594 0.021843406 0.878437324 0.121562676 0.9382233 0.0617767 0.884979471 0.115020529 0.930775022 0.06922497800000001 0.948706405 0.051293595 0.9690942259999999 0.030905774 0.9509874230000001 0.049012577 0.981813997 0.018186003 0.922690072 0.077309928 0.976164736 0.023835264 0.925331645 0.07466835500000001 0.978779266 0.021220734 0.874766205 0.125233795 0.949096195 0.050903805 0.885999053 0.114000947 0.95319783 0.04680217 0.786184334 0.213815666 0.875426033 0.124573967 0.78447323 0.21552677 0.892336478 0.107663522</probabilities>
		</cpt>
		<cpt id="Hypertension">
			<state id="False" />
			<state id="True" />
			<parents>Age Alcohol BMI Diabetes PA Smoking</parents>
			<probabilities>0.851078798 0.148921202 0.8713456429999999 0.128654357 0.850890799 0.149109201 0.855408562 0.144591438 0.847343618 0.152656382 0.850984798 0.149015202 0.846087813 0.153912187 0.846087813 0.153912187 0.846087813 0.153912187 0.846087813 0.153912187 0.846087813 0.153912187 0.846087813 0.153912187 0.928558686 0.07144131400000001 0.9521785699999999 0.04782143 0.901338418 0.098661582 0.924287673 0.075712327 0.9389993599999999 0.06100064 0.936421609 0.063578391 0.846087813 0.153912187 0.8512665 0.1487335 0.846087813 0.153912187 0.851078798 0.148921202 0.863598234 0.136401766 0.850890799 0.149109201 0.880949953 0.119050047 0.888936473 0.111063527 0.915714645 0.08428535500000001 0.87432071 0.12567929 0.9161160350000001 0.083883965 0.903424733 0.09657526700000001 0.8196847819999999 0.180315218 0.825238766 0.174761234 0.846087813 0.153912187 0.846184901 0.153815099 0.820202169 0.179797831 0.82042886 0.17957114 0.883274566 0.116725434 0.823937504 0.176062496 0.843994724 0.156005276 0.796334476 0.203665524 0.839053426 0.160946574 0.807332323 0.192667677 0.8507966810000001 0.149203319 0.851360085 0.148639915 0.846184901 0.153815099 0.846184901 0.153815099 0.846087813 0.153912187 0.846087813 0.153912187 0.987478551 0.012521449 0.98424618 0.01575382 0.964624908 0.035375092 0.986270682 0.013729318 0.980416082 0.019583918 0.942307652 0.057692348 0.859754239 0.140245761 0.851547315 0.148452685 0.8507966810000001 0.149203319 0.85577288 0.14422712 0.851453848 0.148546152 0.846281867 0.153718133 0.982679882 0.017320118 0.984041917 0.015958083 0.981728095 0.018271905 0.978964727 0.021035273 0.979562911 0.020437089 0.982462154 0.017537846 0.916089975 0.083910025 0.911115051 0.088884949 0.860237448 0.139762552 0.939916876 0.060083124 0.908957549 0.091042451 0.907100329 0.092899671 0.950062757 0.049937243 0.946986503 0.053013497 0.949113397 0.050886603 0.947782364 0.052217636 0.957212362 0.042787638 0.948824111 0.051175889 0.872888284 0.127111716 0.905056645 0.09494335499999999 0.883019266 0.116980734 0.889788314 0.110211686 0.9212328950000001 0.078767105 0.896791461 0.103208539 0.855149999 0.144850001 0.877133176 0.122866824 0.872255626 0.127744374 0.8604686070000001 0.139531393 0.873386701 0.126613299 0.864063103 0.135936897 0.799408891 0.200591109 0.757397022 0.242602978 0.768188662 0.231811338 0.804658892 0.195341108 0.79499039 0.20500961 0.783037093 0.216962907 0.850890799 0.149109201 0.886575436 0.113424564 0.851078857 0.148921143 0.858946389 0.141053611 0.86793986 0.13206014 0.860195519 0.139804481 0.846087813 0.153912187 0.846184901 0.153815099 0.846087813 0.153912187 0.846087813 0.153912187 0.846184901 0.153815099 0.846087813 0.153912187 0.913456912 0.086543088 0.921064798 0.078935202 0.919793073 0.080206927 0.920166758 0.079833242 0.915990073 0.084009927 0.9122108 0.0877892 0.825679825 0.174320175 0.848833427 0.151166573 0.796110811 0.203889189 0.851266559 0.148733441 0.811094405 0.188905595 0.81211585 0.18788415 0.857937647 0.142062353 0.829221655 0.170778345 0.841611356 0.158388644 0.871607913 0.128392087 0.8604513580000001 0.139548642 0.876497096 0.123502904 0.789980888 0.210019112 0.766137506 0.233862494 0.810311765 0.189688235 0.782287878 0.217712122 0.830596613 0.169403387 0.85361981 0.14638019 0.658083547 0.341916453 0.709518351 0.290481649 0.682075862 0.317924138 0.724793693 0.275206307 0.682033243 0.317966757 0.730341979 0.269658021 0.726847864 0.273152136 0.736779461 0.263220539 0.797132747 0.202867253 0.710414219 0.289585781 0.755601119 0.244398881 0.768020248 0.231979752 0.983184701 0.016815299 0.977223262 0.022776738 0.931291303 0.068708697 0.9788814850000001 0.021118515 0.965169121 0.034830879 0.949999 0.050001 0.855417615 0.144582385 0.860371342 0.139628658 0.846087813 0.153912187 0.860107329 0.139892671 0.851453966 0.148546034 0.850984858 0.149015142 0.968609934 0.031390066 0.963934118 0.036065882 0.97612723 0.02387277 0.967239292 0.032760708 0.96734912 0.03265088 0.970436894 0.029563106 0.8899994020000001 0.110000598 0.88513209 0.11486791 0.884829534 0.115170466 0.881114545 0.118885455 0.925142696 0.074857304 0.894014971 0.105985029 0.916774614 0.083225386 0.914089887 0.085910113 0.920641254 0.07935874599999999 0.916128061 0.08387193900000001 0.9171606329999999 0.082839367 0.912653384 0.087346616 0.807944183 0.192055817 0.800119351 0.199880649 0.783711241 0.216288759 0.819155399 0.180844601 0.821311108 0.178688892 0.8143948989999999 0.185605101 0.784277331 0.215722669 0.798652516 0.201347484 0.777499537 0.222500463 0.791249425 0.208750575 0.798090473 0.201909527 0.786276848 0.213723152 0.572593284 0.427406716 0.5820724269999999 0.417927573 0.581306286 0.418693714 0.592495562 0.407504438 0.621308853 0.378691147 0.637091379 0.362908621 0.850984858 0.149015142 0.847919472 0.152080528 0.825979273 0.174020727 0.851641019 0.148358981 0.854243487 0.145756513 0.8465725200000001 0.15342748 0.846087813 0.153912187 0.846184901 0.153815099 0.8456511249999999 0.154348875 0.846087813 0.153912187 0.846087813 0.153912187 0.846087813 0.153912187 0.858700126 0.141299874 0.799024272 0.200975728 0.859255058 0.140744942 0.840882066 0.159117934 0.834266384 0.165733616 0.835845309 0.164154691 0.86211977 0.13788023 0.746888216 0.253111784 0.814616821 0.185383179 0.793175843 0.206824157 0.821522212 0.178477788 0.8491378469999999 0.150862153 0.737310974 0.262689026 0.70699622 0.29300378 0.721038064 0.278961936 0.739641425 0.260358575 0.745061341 0.254938659 0.725371954 0.274628046 0.656081303 0.343918697 0.549198047 0.450801953 0.683028685 0.316971315 0.755577676 0.244422324 0.593922934 0.406077066 0.64019053 0.35980947 0.580999047 0.419000953 0.529365149 0.470634851 0.5093942 0.4906058 0.5766160809999999 0.423383919 0.564842998 0.435157002 0.540486163 0.459513837 0.525585236 0.474414764 0.515485662 0.484514338 0.467647491 0.532352509 0.617913594 0.382086406 0.60808854 0.39191146 0.59690499 0.40309501 0.947963922 0.052036078 0.944456673 0.055543327 0.896195728 0.103804272 0.95134948 0.04865052 0.923645749 0.076354251 0.919680524 0.080319476 0.8456511249999999 0.154348875 0.847151268 0.152848732 0.845554098 0.154445902 0.85586363 0.14413637 0.8507966810000001 0.149203319 0.846184901 0.153815099 0.919395194 0.080604806 0.895978228 0.104021772 0.903087646 0.09691235400000001 0.918161581 0.081838419 0.90636812 0.09363188 0.91075499 0.08924501 0.773289643 0.226710357 0.7239886129999999 0.276011387 0.815077243 0.184922757 0.783222883 0.216777117 0.730371155 0.269628845 0.699517147 0.300482853 0.806177473 0.193822527 0.798085588 0.201914412 0.780496853 0.219503147 0.807663497 0.192336503 0.799376607 0.200623393 0.794877351 0.205122649 0.574305806 0.425694194 0.605524676 0.394475324 0.607332384 0.392667616 0.5923912 0.4076088 0.581748225 0.418251775 0.619006173 0.380993827 0.639884835 0.360115165 0.634170197 0.365829803 0.604264607 0.395735393 0.646174977 0.353825023 0.638091259 0.361908741 0.6196060370000001 0.380393963 0.38761984 0.61238016 0.430270451 0.5697295489999999 0.408289033 0.591710967 0.454414994 0.545585006 0.451208556 0.548791444 0.43899591 0.56100409 0.855408562 0.144591438 0.793480078 0.206519922 0.850890799 0.149109201 0.849913457 0.150086543 0.830080091 0.169919909 0.8512665 0.1487335 0.846087813 0.153912187 0.850890799 0.149109201 0.846087813 0.153912187 0.846087813 0.153912187 0.845554098 0.154445902 0.846087813 0.153912187 0.766670488 0.233329512 0.659596692 0.340403308 0.738496367 0.261503633 0.766234674 0.233765326 0.688391873 0.311608127 0.703463553 0.296536447 0.74907475 0.25092525 0.736911882 0.263088118 0.78776579 0.21223421 0.773926822 0.226073178 0.749704433 0.250295567 0.789888849 0.210111151 0.607569532 0.392430468 0.590640176 0.409359824 0.547465656 0.452534344 0.619290696 0.380709304 0.60484724 0.39515276 0.570737572 0.429262428 0.64183147 0.35816853 0.574041756 0.425958244 0.564350284 0.435649716 0.632163565 0.367836435 0.543732493 0.456267507 0.59701262 0.40298738 0.472985273 0.527014727 0.461148151 0.538851849 0.440754235 0.559245765 0.465361867 0.534638133 0.578340027 0.421659973 0.46812915 0.53187085 0.531477529 0.468522471 0.447470677 0.552529323 0.451899703 0.548100297 0.570610717 0.429389283 0.6394991370000001 0.360500863 0.464915118 0.535084882 0.875912592 0.124087408 0.8663921570000001 0.133607843 0.836131513 0.163868487 0.870681247 0.129318753 0.886484952 0.113515048 0.809982209 0.190017791 0.846184901 0.153815099 0.8554997130000001 0.144500287 0.846184901 0.153815099 0.851078857 0.148921143 0.845846066 0.154153934 0.846184901 0.153815099 0.797808009 0.202191991 0.773848392 0.226151608 0.7959148660000001 0.204085134 0.816823439 0.183176561 0.796799386 0.203200614 0.795574925 0.204425075 0.61360481 0.38639519 0.746383283 0.253616717 0.731951824 0.268048176 0.647660355 0.352339645 0.706156053 0.293843947 0.698522278 0.301477722 0.661130039 0.338869961 0.659376747 0.340623253 0.647858628 0.352141372 0.666056074 0.333943926 0.672370188 0.327629812 0.629996304 0.370003696 0.460181725 0.539818275 0.547694062 0.452305938 0.489643911 0.510356089 0.459396231 0.540603769 0.489287626 0.510712374 0.48221406 0.51778594 0.483752883 0.516247117 0.494926416 0.505073584 0.462490043 0.537509957 0.500508435 0.499491565 0.509723192 0.490276808 0.489275328 0.510724672 0.341472716 0.658527284 0.390194906 0.609805094 0.353819907 0.646180093 0.400591237 0.599408763 0.45109129 0.54890871 0.360333847 0.639666153</probabilities>
		</cpt>
		<cpt id="CRC">
			<state id="False" />
			<state id="True" />
			<parents>Age Alcohol Diabetes Hyperchol_ Hypertension Sex Smoking</parents>
			<probabilities>0.999872252 0.000127748 0.999961059 3.89e-05 0.999789424 0.000210576 0.999477181 0.000522819 0.999565497 0.000434503 0.999349301 0.000650699 0.99937935 0.00062065 0.999507521 0.000492479 0.999269505 0.000730495 0.999173126 0.000826874 0.999198929 0.000801071 0.999173648 0.000826352 0.999855688 0.000144312 0.999936548 6.35e-05 0.999773643 0.000226357 0.999292985 0.000707015 0.999473236 0.000526764 0.999309577 0.000690423 0.9994789549999999 0.000521045 0.999625806 0.000374194 0.999289863 0.000710137 0.999173126 0.000826874 0.999173648 0.000826352 0.999198424 0.000801576 0.999200444 0.000799556 0.999247496 0.000752504 0.999174168 0.000825832 0.999173126 0.000826874 0.999173126 0.000826874 0.999173126 0.000826874 0.999173126 0.000826874 0.999198929 0.000801071 0.999173126 0.000826874 0.999173126 0.000826874 0.999173126 0.000826874 0.999173126 0.000826874 0.999198424 0.000801576 0.999269963 0.000730037 0.999199435 0.000800565 0.999173648 0.000826352 0.999173648 0.000826352 0.999173126 0.000826874 0.999198929 0.000801071 0.999198424 0.000801576 0.999198424 0.000801576 0.999173126 0.000826874 0.999173126 0.000826874 0.999173126 0.000826874 0.999828551 0.000171449 0.999999997 3.22e-09 0.9999998 2e-07 0.999813176 0.000186824 0.9998442239999999 0.000155776 0.99981091 0.00018909 0.9999940980000001 5.9e-06 0.999981952 1.8e-05 0.99993096 6.9e-05 0.999867458 0.000132542 0.999832389 0.000167611 0.999580584 0.000419416 0.999845095 0.000154905 0.999999963 3.74e-08 0.9999989889999999 1.01e-06 0.999982981 1.7e-05 0.999429244 0.000570756 0.999994336 5.66e-06 0.999989256 1.07e-05 0.999980083 1.99e-05 0.999927057 7.29e-05 0.999819389 0.000180611 0.999722207 0.000277793 0.999498745 0.000501255 0.999841749 0.000158251 0.999822473 0.000177527 0.999536673 0.000463327 0.999736121 0.000263879 0.999615461 0.000384539 0.999515657 0.000484343 0.999405921 0.000594079 0.999332483 0.000667517 0.999269504 0.000730496 0.999271802 0.000728198 0.999198424 0.000801576 0.99917469 0.00082531 0.999794926 0.000205074 0.999776515 0.000223485 0.999532496 0.000467504 0.999689958 0.000310042 0.999568965 0.000431035 0.999396552 0.000603448 0.999444584 0.000555416 0.999523493 0.000476507 0.999327424 0.000672576 0.999246547 0.000753453 0.999174169 0.000825831 0.999198424 0.000801576 0.999456586 0.000543414 0.999986703 1.33e-05 0.999939952 6e-05 0.9996702119999999 0.000329788 0.999711304 0.000288696 0.9995668599999999 0.00043314 0.999717487 0.000282513 0.999795153 0.000204847 0.999662411 0.000337589 0.999223691 0.000776309 0.999202456 0.000797544 0.999199434 0.000800566 0.999983039 1.7e-05 0.99999486 5.14e-06 0.999975567 2.44e-05 0.999620134 0.000379866 0.999708927 0.000291073 0.999589923 0.000410077 0.999876486 0.000123514 0.9999421550000001 5.78e-05 0.9998549370000001 0.000145063 0.999202959 0.000797041 0.999270884 0.000729116 0.9991746889999999 0.000825311 0.999313476 0.000686524 0.999386705 0.000613295 0.999269964 0.000730036 0.999173648 0.000826352 0.999244643 0.000755357 0.999173648 0.000826352 0.999176249 0.000823751 0.999295206 0.000704794 0.999247971 0.000752029 0.999173126 0.000826874 0.999173126 0.000826874 0.999173126 0.000826874 0.999334572 0.000665428 0.999510284 0.000489716 0.99939844 0.00060156 0.999173126 0.000826874 0.999173648 0.000826352 0.999198929 0.000801071 0.999500374 0.000499626 0.999473232 0.000526768 0.999381298 0.0006187020000000001 0.999173126 0.000826874 0.999173648 0.000826352 0.999173126 0.000826874 0.99976252 0.00023748 0.999757883 0.000242117 0.999577037 0.000422963 0.9997653399999999 0.00023466 0.9998050550000001 0.000194945 0.999830985 0.000169015 0.9994149369999999 0.000585063 0.999993873 6.13e-06 0.9999867690000001 1.32e-05 0.99997486 2.51e-05 0.999933652 6.63e-05 0.999854552 0.000145448 0.999758147 0.000241853 0.999823405 0.000176595 0.999452988 0.000547012 0.999796969 0.000203031 0.999574753 0.000425247 0.9996499250000001 0.000350075 0.999972235 2.78e-05 0.999998671 1.33e-06 0.999352072 0.000647928 0.99996931 3.07e-05 0.999926194 7.38e-05 0.999876751 0.000123249 0.9999158500000001 8.42e-05 0.999899801 0.000100199 0.9998142330000001 0.000185767 0.999846718 0.000153282 0.999725424 0.000274576 0.999626685 0.000373315 0.999747591 0.000252409 0.9997079800000001 0.00029202 0.999640593 0.000359407 0.999490571 0.000509429 0.999329961 0.000670039 0.999247496 0.000752504 0.999950245 4.98e-05 0.997998344 0.002001656 0.99988484 0.00011516 0.999818648 0.000181352 0.999714644 0.000285356 0.999580066 0.000419934 0.999897474 0.000102526 0.99936832 0.00063168 0.999814731 0.000185269 0.999395824 0.000604176 0.999494654 0.0005053460000000001 0.99923099 0.00076901 0.9994726390000001 0.000527361 0.999236849 0.000763151 0.99769086 0.00230914 0.999615186 0.000384814 0.9996732780000001 0.000326722 0.999094475 0.000905525 0.999839134 0.000160866 0.998979841 0.001020159 0.999859689 0.000140311 0.999346433 0.000653567 0.999348074 0.000651926 0.9992059639999999 0.000794036 0.998898412 0.001101588 0.998931324 0.001068676 0.9987796410000001 0.001220359 0.999815174 0.000184826 0.999848705 0.000151295 0.999782137 0.000217863 0.998674348 0.001325652 0.998670934 0.001329066 0.996332508 0.003667492 0.99946788 0.00053212 0.999520775 0.000479225 0.999404436 0.000595564 0.9976654190000001 0.002334581 0.999624842 0.000375158 0.999457501 0.000542499 0.999198424 0.000801576 0.999199939 0.000800061 0.999199435 0.000800565 0.999372413 0.000627587 0.999559555 0.000440445 0.998847721 0.001152279 0.999173648 0.000826352 0.999198929 0.000801071 0.999173648 0.000826352 0.999631575 0.000368425 0.999822839 0.000177161 0.999712029 0.000287971 0.999198929 0.000801071 0.99928852 0.00071148 0.999269505 0.000730495 0.9997499399999999 0.00025006 0.999865515 0.000134485 0.999791681 0.000208319 0.99917469 0.00082531 0.9992232009999999 0.000776799 0.999200948 0.000799052 0.999149184 0.000850816 0.999403307 0.000596693 0.998924457 0.001075543 0.998874109 0.001125891 0.999250017 0.000749983 0.998519147 0.001480853 0.999746693 0.000253307 0.999994508 5.49e-06 0.999692179 0.000307821 0.999257875 0.0007421249999999999 0.999946475 5.35e-05 0.999903772 9.619999999999999e-05 0.999163657 0.000836343 0.999188866 0.000811134 0.9983469190000001 0.001653081 0.999026563 0.000973437 0.999919496 8.050000000000001e-05 0.998950049 0.001049951 0.9992673520000001 0.000732648 0.999434674 0.000565326 0.99882494 0.00117506 0.999994964 5.04e-06 0.999678076 0.000321924 0.996695526 0.003304474 0.997200588 0.002799412 0.999920738 7.93e-05 0.999905131 9.49e-05 0.99971853 0.00028147 0.999597641 0.000402359 0.999605882 0.000394118 0.99269766 0.00730234 0.9998926930000001 0.000107307 0.99837824 0.00162176 0.999538552 0.000461448 0.999380582 0.0006194180000000001 0.999430024 0.000569976 0.998856453 0.001143547 0.999979026 2.1e-05 0.999976442 2.36e-05 0.999866455 0.000133545 0.999809658 0.000190342 0.9996795979999999 0.000320402 0.999107992 0.000892008 0.998196783 0.001803217 0.9973686470000001 0.002631353 0.999797497 0.000202503 0.999723307 0.000276693 0.999527875 0.000472125 0.999865157 0.000134843 0.999906211 9.38e-05 0.999871626 0.000128374 0.999465855 0.000534145 0.999373981 0.000626019 0.9992596969999999 0.000740303 0.991151082 0.008848918000000001 0.9992827439999999 0.000717256 0.9917036 0.008296400000000001 0.999350119 0.000649881 0.999227108 0.000772892 0.999201955 0.000798045 0.999047816 0.000952184 0.999085384 0.000914616 0.997935335 0.002064665 0.989387621 0.010612379 0.9996979499999999 0.00030205 0.998327344 0.001672656 0.99957259 0.00042741 0.99899459 0.00100541 0.9977737759999999 0.002226224 0.982449712 0.017550288 0.99947447 0.00052553 0.998788663 0.001211337 0.999409612 0.000590388 0.999431671 0.000568329 0.999523473 0.000476527 0.999174169 0.000825831 0.999198929 0.000801071 0.999173126 0.000826874 0.999506187 0.000493813 0.999492224 0.000507776 0.999594646 0.000405354 0.999173648 0.000826352 0.999174169 0.000825831 0.9991746889999999 0.000825311 0.999645409 0.000354591 0.999670248 0.000329752 0.9905957480000001 0.009404252 0.9992232 0.0007768 0.999224668 0.000775332 0.999225158 0.000774842 0.999758891 0.000241109 0.999825606 0.000174394 0.999862644 0.000137356 0.999247497 0.000752503 0.999174168 0.000825832 0.99922418 0.00077582 0.997338277 0.002661723 0.998362289 0.001637711 0.997538734 0.002461266 0.996059748 0.003940252 0.997323925 0.002676075 0.998715263 0.001284737 0.995068346 0.004931654 0.999699572 0.000300428 0.997256662 0.002743338 0.994616834 0.005383166 0.999717255 0.000282745 0.99969882 0.00030118 0.997988994 0.002011006 0.999003477 0.000996523 0.997077229 0.002922771 0.996408556 0.003591444 0.99999556 4.44e-06 0.9976959359999999 0.002304064 0.998167702 0.001832298 0.99683038 0.00316962 0.99732304 0.00267696 0.997946891 0.002053109 0.999452971 0.000547029 0.995082716 0.004917284 0.999313286 0.0006867140000000001 0.999813782 0.000186218 0.998282939 0.001717061 0.999538542 0.000461458 0.999389386 0.000610614 0.999374761 0.000625239 0.99223326 0.00776674 0.999827819 0.000172181 0.996915898 0.003084102 0.999599626 0.000400374 0.999274083 0.000725917 0.999324569 0.000675431 0.994059931 0.005940069 0.999490591 0.0005094089999999999 0.991892504 0.008107496 0.999786372 0.000213628 0.999605722 0.000394278 0.999625438 0.000374562 0.998503928 0.001496072 0.991269045 0.008730955 0.99554076 0.00445924 0.992665677 0.007334323 0.999643234 0.000356766 0.9995658120000001 0.000434188</probabilities>
		</cpt>
		<decision id="Screening">
			<state id="No_screening" />
			<state id="gFOBT" />
			<state id="FIT" />
			<state id="Blood_based" />
			<state id="Stool_DNA" />
			<state id="CTC" />
			<state id="Colon_capsule" />
			<parents>PA SD Smoking BMI Alcohol Sex Age</parents>
		</decision>
		<cpt id="Results_of_Screening">
			<state id="No_pred_screening" />
			<state id="Predicted_False" />
			<state id="Predicted_True" />
			<parents>CRC Screening</parents>
			<probabilities>1 0 0 0 0.978 0.022 0 0.966 0.034 0 0.91 0.09 0 0.866 0.134 0 0.89 0.11 0 0.92 0.08 1 0 0 0 0.55 0.45 0 0.25 0.75 0 0.34 0.66 0 0.077 0.923 0 0.2 0.8 0 0.13 0.87</probabilities>
		</cpt>
		<decision id="Colonoscopy">
			<state id="No_Colonoscopy" />
			<state id="Colonoscopy" />
			<parents>Screening Results_of_Screening</parents>
		</decision>
		<cpt id="Results_of_Colonoscopy">
			<state id="no_pred" />
			<state id="colon_pred_false" />
			<state id="colon_pred_true" />
			<parents>CRC Colonoscopy</parents>
			<probabilities>1 0 0 0 0.99 0.01000000000000001 1 0 0 0 0.03000000000000003 0.97</probabilities>
		</cpt>
		<utility id="Value_of_CRC_detection_by_screening">
			<parents>Age Alcohol Diabetes Hyperchol_ Hypertension Sex Smoking CRC Screening Results_of_Screening</parents>
			<utilities>0 0 0 0 0.1438662159642585 -3.295624816618703 0 0.2481380178952107 -3.451827123627293 0 0.2082441591504326 -1.530590924591986 0 0.3082106103864059 -1.446216057124645 0 0.2600872620744826 -1.519253423832697 0 0.2895488829112333 -2.124848359417086 0 0 0 0 -1.486094228580663 5.251332355549867 0 -3.579616041291159 5.308952432969265 0 -2.57966132559196 4.11157538154478 0 -6.54497359655113 4.018564148740505 0 -3.967520479981359 4.099412321806568 0 -5.25183093905119 4.63315076645042 1.391083399715588e-15 0 0 0 0.1034120574105685 -3.425840571725014 0 0.1761628796348027 -3.63975719429784 0 0.1485452771681882 -1.332079491103178 0 0.2172472005971938 -1.247139519791466 0 0.1843831135534983 -1.320585820953259 0 0.2045486733669869 -1.969562865946383 1.391083399715588e-15 0 0 0 -3.502600484231937 15.48286046999025 0 -8.292097310325074 15.74198980538023 0 -6.019225343610169 11.15026173997031 0 -14.94426686136079 10.84276488593864 0 -9.16848590239039 11.10976438409673 0 -12.05481946214638 12.98137025997445 0 0 0 0 0.171295690542304 -3.198592777621571 0 0.2986189636577098 -3.332168753996095 0 0.2495740163896225 -1.607202123011888 0 0.3732809455439519 -1.525935667709086 0 0.3133916517949254 -1.596318692737153 0 0.3499805483854554 -2.163574842051184 0 0 0 0 -1.074808021145478 3.335550484271706 0 -2.627696553104303 3.365441583291173 0 -1.88177793389783 2.706230389762814 0 -4.865973973632464 2.651885285478355 0 -2.918611748389799 2.699147656649543 0 -3.886400762049992 3.002911143857171 0 0 0 0 0.2530610255367603 -3.169178214503869 0 0.4564361378616717 -3.276877389902003 0 0.3763496752132169 -1.795702329423992 0 0.5830446411673095 -1.71896765926202 0 0.4810214923737632 -1.785477987836419 0 0.5428898543601443 -2.299883185359393 0 0 0 0 -0.6419022174464601 1.523704078463866 0 -1.645270807001068 1.533408472723218 0 -1.154407063151912 1.302244907081265 0 -3.179836834348874 1.281582097389941 0 -1.840233325529269 1.299565783492639 0 -2.499718493997596 1.410734967373005 0 0 0 0 0.2318062281758493 -3.147636220225527 0 0.4144512438449988 -3.258727992642605 0 0.3429391643882836 -1.746179997559092 0 0.5263593187502975 -1.669026145605854 0 0.4362934836605793 -1.73589076042196 0 0.4910225708437445 -2.256642433456312 0 0 0 0 -0.7068662958220892 1.77444264871395 0 -1.789901368517308 1.78648834135009 0 -1.262578495128585 1.503068476612431 0 -3.420298244921383 1.478068034563401 0 -1.998329542309065 1.499824053769419 0 -2.700184308636674 1.635199309013094 0 0 0 0 0.2823277597701747 -3.220562318201745 0 0.5152109400762943 -3.32556618962172 0 0.422795456660004 -1.866570122410965 0 0.6633866514140448 -1.789768119883969 0 0.5437789192595038 -1.856346273682989 0 0.6161019435858199 -2.367560565784675 0 0 0 0 -0.5760564327497242 1.280511898223439 0 -1.500594773648745 1.288113062965026 0 -1.045395999366733 1.104757424196079 0 -2.945697858182517 1.088142788941773 0 -1.682601279168351 1.102605199802818 0 -2.302148532884674 1.191396734143893 0 0 0 0 0.2755859664914034 -3.20684334935296 0 0.5015781015199248 -3.312306863846798 0 0.4120540500389163 -1.849960822133731 0 0.6446518390652268 -1.773231477637855 0 0.5292082027560711 -1.839744710015112 0 0.5990600928418296 -2.351215418237248 0 0 0 0 -0.589375088135334 1.328717690935059 0 -1.529672533405757 1.336721982213203 0 -1.067386556236475 1.14413276760246 0 -2.992085149873787 1.126729724480857 0 -1.714230319543605 1.141877982246071 0 -2.341549755043252 1.23501029088353 3.501835997938155e-16 0 0 0 0.2458702805725271 -3.160191560637485 0 0.4421632129653874 -3.268876665507971 0 0.3650146013586667 -1.778776028735648 0 0.5637064737446216 -1.70194895118155 0 0.4658061226483177 -1.76853656531149 0 0.5252157880707141 -2.284653917959588 3.501835997938155e-16 0 0 0 -0.6618872650873487 1.599779695986462 0 -1.689589518694774 1.610176550156818 0 -1.187625678245195 1.363459143537826 0 -3.252968769182227 1.341496356862 0 -1.888633115914159 1.360610675171837 0 -2.560889376989405 1.479010851084448 0 0 0 0 0.299887211358406 -3.26075038936875 0 0.5509666416830632 -3.364919528778811 0 0.4508826352179696 -1.91061071141412 0 0.7127996067947711 -1.833482039258811 0 0.5820329071087605 -1.900347890435812 0 0.6609647556456443 -2.412020297849525 0 0 0 0 -0.5453901436921973 1.171596037441932 0 -1.434059337175343 1.178312545695773 0 -0.9948907160071641 1.015347049075252 0 -2.84117707988002 1.000485480508986 0 -1.610352253129973 1.0134227696328 0 -2.212726378955439 1.092594581404463 0 0 0 0 0.3205151396721535 -3.315008244065004 0 0.5934033250294404 -3.418746724301056 0 0.4840681749792338 -1.963717724445463 0 0.7719479308473709 -1.885985832875873 0 0.627503527736381 -1.953379130571556 0 0.7145105560602421 -2.467358323866767 0 0 0 0 -0.5153203662190365 1.067828343005909 0 -1.369449676216457 1.073736904486337 0 -0.9455557149839807 0.9295567378858713 0 -2.742330411146642 0.9163259307256854 0 -1.540392428031625 0.9278443627084166 0 -2.127081104845579 0.9981095879994913 0 0 0 0 0.3150491961135262 -3.299968974767486 0 0.5821148751223818 -3.403771417318159 0 0.4752557371234858 -1.94950762515624 0 0.7561620162525753 -1.871956316450639 0 0.6154009863642601 -1.93919193964041 0 0.7002360503888172 -2.452394622456684 0 0 0 0 -0.5227545137270121 1.093188203160385 0 -1.385360201881021 1.09929099635961 0 -0.9577345944020649 0.9505798454562364 0 -2.766391657984529 0.9369542588088965 0 -1.557599875036307 0.948816184608766 0 -2.148046917466769 1.021233684107336 0 0 0 0 0.3204049507637486 -3.314700661814624 0 0.5931754562298669 -3.418440103643815 0 0.483890392445283 -1.963430308468425 0 0.7716289082752966 -1.885702195623993 0 0.627259176280121 -1.953092195265026 0 0.7142221926147465 -2.467054639693752 0 0 0 0 -0.5154667778249388 1.068325864739305 0 -1.369762609397712 1.074238216412795 0 -0.9457954532895355 0.9299695400242876 0 -2.742801732395199 0.9167310120782189 0 -1.540730729839191 0.9282561619221208 0 -2.127492614669064 0.9985634555458796 0 0 0 0 0.149778435985141 -3.270907739645025 0 0.258904412117374 -3.421194750600541 0 0.2170951490525496 -1.549159149363165 0 0.3220007034155304 -1.465452495485821 0 0.2714416541505046 -1.537920687884481 0 0.3023814921346321 -2.134543549817193 0 0 0 0 -1.3699483496146 4.698021686458249 0 -3.309979969035684 4.747096326310611 0 -2.382265255712585 3.711429408439768 0 -6.067705035020298 3.629746522418724 0 -3.670254444128057 3.700756644168044 0 -4.864236736425778 4.166414441533279 0 0 0 0 0.1170425737679466 -3.408446580312353 0 0.2000904931068966 -3.600212298138381 0 0.168493843755967 -1.418031743559024 0 0.247254939821166 -1.331900269550537 0 0.2095117906486226 -1.406406529568899 0 0.2326564616922895 -2.049242449267889 0 0 0 0 -2.429599675394234 9.945277621566174 0 -5.780373780826834 10.08758695434847 0 -4.187316088857571 7.397261376034968 0 -10.46012664179191 7.20624567209955 0 -6.395681927294895 7.372169428917151 0 -8.425168346568196 8.509422425903548 0 0 0 0 0.1760545743110782 -3.186792106313903 0 0.3075125600039256 -3.317515058418457 0 0.2568119331300338 -1.618774496032127 0 0.3848520144138634 -1.53800081492385 0 0.3227998072693747 -1.607962089582268 0 0.3606953312400821 -2.169643807675496 0 0 0 0 -1.027885206377301 3.126257868519398 0 -2.519786346524161 3.153470819384792 0 -1.802422282714878 2.54870606335911 0 -4.677124255458769 2.498456820952331 0 -2.799843539593101 2.542160220566721 0 -3.732341177647162 2.822025783276315 0 0 0 0 0.2947690913952073 -3.248415808823151 0 0.5405086648966156 -3.352778730886204 0 0.4426799632997931 -1.897659677766245 0 0.6983063086718008 -1.820645463002985 0 0.5708385788546915 -1.887410848679492 0 0.6478186187723571 -2.398793317375683 0 0 0 0 -0.5537854125436482 1.201114870089141 0 -1.45221327983725 1.208067500471884 0 -1.008698665888038 1.03964205066994 0 -2.86944918170336 1.024309377614303 0 -1.630046480911183 1.037656529823857 0 -2.237013845536268 1.119408989350098 0 0 0 0 0.2539882506252316 -3.170452914837206 0 0.458281580680313 -3.278035627093267 0 0.3778135935746034 -1.797898529683033 0 0.5855500175382203 -1.721172351317847 0 0.4829895173677427 -1.787675665565946 0 0.5451781198339093 -2.301889725359545 0 0 0 0 -0.6394535141449582 1.514451264815766 0 -1.639852366797501 1.524072530809649 0 -1.150340788721566 1.294782055635802 0 -3.17093438834622 1.274276334292757 0 -1.834319061781886 1.292123391054297 0 -2.492257655963888 1.402420207766604 0 0 0 0 0.2911285521724087 -3.239943425248411 0 0.5330877533334683 -3.344468004899749 0 0.436853269517355 -1.888504275839912 0 0.6880422898305794 -1.811562118128745 0 0.5628979598439869 -1.878264119705774 0 0.6385023880906944 -2.389516146789528 0 0 0 0 -0.5600168659739799 1.223173124930059 0 -1.465718622717783 1.230303980483979 0 -1.01895689293489 1.057765994681302 0 -2.890606723996652 1.042079299346164 0 -1.644707121257024 1.055734445414084 0 -2.255138412492661 1.139428381324696 0 0 0 0 0.2526435019586337 -3.168612645841125 0 0.4556055158656748 -3.276365031576037 0 0.3756906514057631 -1.794714420960681 0 0.5819173601367097 -1.717975677197685 0 0.48013575085101 -1.784489379630535 0 0.5418601484706626 -2.298982797717472 0 0 0 0 -0.643014024390675 1.527910232525576 0 -1.64773186486541 1.537652494317742 0 -1.156253598233495 1.305636102218288 0 -3.183883236402035 1.284901808331966 0 -1.842919821017235 1.302947668283769 0 -2.503108556451828 1.414513931852069 0 0 0 0 0.2166421477583564 -3.142689140871836 0 0.3848877979677448 -3.257246835790847 0 0.3192850068313708 -1.711654318753621 0 0.4868150651822366 -1.633906292531834 0 0.40485327658482 -1.701277817015968 0 0.454728789962865 -2.229225691999238 0 0 0 0 -0.7665826840387568 2.01300684924087 0 -1.924090222695207 2.02743110518286 0 -1.362435497783331 1.691813560414152 0 -3.647163100786129 1.66255873317013 0 -2.145324505335257 1.688014052715733 0 -2.887942660505432 1.847334923967902 0 0 0 0 0.2954518684658491 -3.250033108257216 0 0.541902109881322 -3.354367959848156 0 0.4437734863831673 -1.899382036230325 0 0.7002354996082987 -1.822353428546307 0 0.5723298714339013 -1.889131460354277 0 0.6495690849999207 -2.400545522610724 0 0 0 0 -0.5526413000494862 1.197078484891352 0 -1.449736447494319 1.20399866658416 0 -1.006816068712809 1.036322763156982 0 -2.865580301586582 1.0210546894501 0 -1.627358628492324 1.034345640575123 0 -2.233694976335732 1.115744035619034 0 0 0 0 0.3205151396721535 -3.315008244065004 0 0.5934033250294404 -3.418746724301056 0 0.4840681749792338 -1.963717724445463 0 0.7719479308473709 -1.885985832875873 0 0.627503527736381 -1.953379130571556 0 0.7145105560602421 -2.467358323866767 0 0 0 0 -0.5153203662190365 1.067828343005909 0 -1.369449676216457 1.073736904486337 0 -0.9455557149839807 0.9295567378858713 0 -2.742330411146642 0.9163259307256854 0 -1.540392428031625 0.9278443627084166 0 -2.127081104845579 0.9981095879994913 0 0 0 0 0.3204049507637486 -3.314700661814624 0 0.5931754562298669 -3.418440103643815 0 0.483890392445283 -1.963430308468425 0 0.7716289082752966 -1.885702195623993 0 0.627259176280121 -1.953092195265026 0 0.7142221926147465 -2.467054639693752 0 0 0 0 -0.5154667778249388 1.068325864739305 0 -1.369762609397712 1.074238216412795 0 -0.9457954532895355 0.9299695400242876 0 -2.742801732395199 0.9167310120782189 0 -1.540730729839191 0.9282561619221208 0 -2.127492614669064 0.9985634555458796 0 0 0 0 0.3151565532265026 -3.300259996330683 0 0.5823362953252039 -3.404060856152988 0 0.4754286942373512 -1.949785791332772 0 0.7564712941581848 -1.872231072861424 0 0.6156383264802057 -1.939469674562842 0 0.7005158283805085 -2.452686522035758 0 0 0 0 -0.5226050509971829 1.092676394089643 0 -1.385039902011296 1.098775246494611 0 -0.9574896192950301 0.9501559291828237 0 -2.765905346612 0.9365383345910629 0 -1.557253326115703 0.9483933066628318 0 -2.147623992924252 1.020767209910309 0 0 0 0 0.3147270320600286 -3.299096728960079 0 0.5814504953306484 -3.402904001444367 0 0.4747367476772759 -1.948673113481681 0 0.7552341026159685 -1.871132003441814 0 0.6146888499334704 -1.938358717521332 0 0.6993966172140035 -2.451519160800466 0 0 0 0 -0.5232038821862959 1.094727465527614 0 -1.386323304983633 1.100842115792866 0 -0.9584711559137575 0.9518546797255684 0 -2.767854403756298 0.9382050509517196 0 -1.558641939921818 0.9500878953058193 0 -2.149318807717365 1.022636549521103 0 0 0 0 0.3046501922283718 -3.27265347116633 0 0.5607249108878223 -3.376675416233696 0 0.4585275517123667 -1.922745437468196 0 0.7263531520865598 -1.845497032629346 0 0.592482368103307 -1.912467789231669 0 0.6732492345267689 -2.42451656006952 0 0 0 0 -0.5379363480968193 1.145583240102904 0 -1.417982033038058 1.152093954734261 0 -0.9826433951068756 0.9938979717247449 0 -2.816309978457647 0.9794489730898754 0 -1.592923660093504 0.9920273153618803 0 -2.191293931806776 1.068941899025274 3.224663440569993e-16 0 0 0 0.3202951683124819 -3.314394391269107 0 0.5929484402924611 -3.418134804277465 0 0.4837132710226978 -1.963143991332619 0 0.7713110947531947 -1.88541963770696 0 0.6270157413896092 -1.952806356267807 0 0.7139349173458198 -2.466752157622561 3.224663440569993e-16 0 0 0 -0.5156127874325791 1.068822098148662 0 -1.3700747001879 1.074738231014112 0 -0.9460345381102434 0.9303812587560284 0 -2.743271863341168 0.9171350290452097 0 -1.541068126645937 0.9286668801967836 0 -2.127903051474827 0.9990161394774418 0 0 0 0 0.3205151396721535 -3.315008244065004 0 0.5934033250294404 -3.418746724301056 0 0.4840681749792338 -1.963717724445463 0 0.7719479308473709 -1.885985832875873 0 0.627503527736381 -1.953379130571556 0 0.7145105560602421 -2.467358323866767 0 0 0 0 -0.5153203662190365 1.067828343005909 0 -1.369449676216457 1.073736904486337 0 -0.9455557149839807 0.9295567378858713 0 -2.742330411146642 0.9163259307256854 0 -1.540392428031625 0.9278443627084166 0 -2.127081104845579 0.9981095879994913 0 0 0 0 0.3205151396721535 -3.315008244065004 0 0.5934033250294404 -3.418746724301056 0 0.4840681749792338 -1.963717724445463 0 0.7719479308473709 -1.885985832875873 0 0.627503527736381 -1.953379130571556 0 0.7145105560602421 -2.467358323866767 0 0 0 0 -0.5153203662190365 1.067828343005909 0 -1.369449676216457 1.073736904486337 0 -0.9455557149839807 0.9295567378858713 0 -2.742330411146642 0.9163259307256854 0 -1.540392428031625 0.9278443627084166 0 -2.127081104845579 0.9981095879994913 0 0 0 0 0.3205151396721535 -3.315008244065004 0 0.5934033250294404 -3.418746724301056 0 0.4840681749792338 -1.963717724445463 0 0.7719479308473709 -1.885985832875873 0 0.627503527736381 -1.953379130571556 0 0.7145105560602421 -2.467358323866767 0 0 0 0 -0.5153203662190365 1.067828343005909 0 -1.369449676216457 1.073736904486337 0 -0.9455557149839807 0.9295567378858713 0 -2.742330411146642 0.9163259307256854 0 -1.540392428031625 0.9278443627084166 0 -2.127081104845579 0.9981095879994913 0 0 0 0 0.3205151396721535 -3.315008244065004 0 0.5934033250294404 -3.418746724301056 0 0.4840681749792338 -1.963717724445463 0 0.7719479308473709 -1.885985832875873 0 0.627503527736381 -1.953379130571556 0 0.7145105560602421 -2.467358323866767 0 0 0 0 -0.5153203662190365 1.067828343005909 0 -1.369449676216457 1.073736904486337 0 -0.9455557149839807 0.9295567378858713 0 -2.742330411146642 0.9163259307256854 0 -1.540392428031625 0.9278443627084166 0 -2.127081104845579 0.9981095879994913 0 0 0 0 0.3150491961135262 -3.299968974767486 0 0.5821148751223818 -3.403771417318159 0 0.4752557371234858 -1.94950762515624 0 0.7561620162525753 -1.871956316450639 0 0.6154009863642601 -1.93919193964041 0 0.7002360503888172 -2.452394622456684 0 0 0 0 -0.5227545137270121 1.093188203160385 0 -1.385360201881021 1.09929099635961 0 -0.9577345944020649 0.9505798454562364 0 -2.766391657984529 0.9369542588088965 0 -1.557599875036307 0.948816184608766 0 -2.148046917466769 1.021233684107336 0 0 0 0 0.3205151396721535 -3.315008244065004 0 0.5934033250294404 -3.418746724301056 0 0.4840681749792338 -1.963717724445463 0 0.7719479308473709 -1.885985832875873 0 0.627503527736381 -1.953379130571556 0 0.7145105560602421 -2.467358323866767 0 0 0 0 -0.5153203662190365 1.067828343005909 0 -1.369449676216457 1.073736904486337 0 -0.9455557149839807 0.9295567378858713 0 -2.742330411146642 0.9163259307256854 0 -1.540392428031625 0.9278443627084166 0 -2.127081104845579 0.9981095879994913 0 0 0 0 0.3205151396721535 -3.315008244065004 0 0.5934033250294404 -3.418746724301056 0 0.4840681749792338 -1.963717724445463 0 0.7719479308473709 -1.885985832875873 0 0.627503527736381 -1.953379130571556 0 0.7145105560602421 -2.467358323866767 0 0 0 0 -0.5153203662190365 1.067828343005909 0 -1.369449676216457 1.073736904486337 0 -0.9455557149839807 0.9295567378858713 0 -2.742330411146642 0.9163259307256854 0 -1.540392428031625 0.9278443627084166 0 -2.127081104845579 0.9981095879994913 0 0 0 0 0.3205151396721535 -3.315008244065004 0 0.5934033250294404 -3.418746724301056 0 0.4840681749792338 -1.963717724445463 0 0.7719479308473709 -1.885985832875873 0 0.627503527736381 -1.953379130571556 0 0.7145105560602421 -2.467358323866767 0 0 0 0 -0.5153203662190365 1.067828343005909 0 -1.369449676216457 1.073736904486337 0 -0.9455557149839807 0.9295567378858713 0 -2.742330411146642 0.9163259307256854 0 -1.540392428031625 0.9278443627084166 0 -2.127081104845579 0.9981095879994913 0 0 0 0 0.3205151396721535 -3.315008244065004 0 0.5934033250294404 -3.418746724301056 0 0.4840681749792338 -1.963717724445463 0 0.7719479308473709 -1.885985832875873 0 0.627503527736381 -1.953379130571556 0 0.7145105560602421 -2.467358323866767 0 0 0 0 -0.5153203662190365 1.067828343005909 0 -1.369449676216457 1.073736904486337 0 -0.9455557149839807 0.9295567378858713 0 -2.742330411146642 0.9163259307256854 0 -1.540392428031625 0.9278443627084166 0 -2.127081104845579 0.9981095879994913 0 0 0 0 0.3151565532265026 -3.300259996330683 0 0.5823362953252039 -3.404060856152988 0 0.4754286942373512 -1.949785791332772 0 0.7564712941581848 -1.872231072861424 0 0.6156383264802057 -1.939469674562842 0 0.7005158283805085 -2.452686522035758 0 0 0 0 -0.5226050509971829 1.092676394089643 0 -1.385039902011296 1.098775246494611 0 -0.9574896192950301 0.9501559291828237 0 -2.765905346612 0.9365383345910629 0 -1.557253326115703 0.9483933066628318 0 -2.147623992924252 1.020767209910309 0 0 0 0 0.2997877460039008 -3.260506103264516 0 0.5507631247445082 -3.364678649711913 0 0.450723102787897 -1.910358142694765 0 0.7125172428325569 -1.833231837299173 0 0.5818150167632757 -1.900095613098642 0 0.6607087356999172 -2.411761236063416 0 0 0 0 -0.545549399938034 1.172153846606929 0 -1.434403265390603 1.178874791345645 0 -0.995152515553251 1.015806586100871 0 -2.841710835214069 1.000936143823703 0 -1.610725222352338 1.013881153218837 0 -2.213185670115427 1.093101542943419 0 0 0 0 0.3149416109227958 -3.299677513656695 0 0.5818929965525146 -3.403481555719314 0 0.4750824177888434 -1.949228905958141 0 0.755852112567564 -1.871681008655002 0 0.6151631568749927 -1.938913651847867 0 0.6999557018105932 -2.452102184445507 0 0 0 0 -0.5229044360944797 1.093701665999852 0 -1.385681503906625 1.099808413586375 0 -0.9579803277929069 0.9510051163040294 0 -2.766879568732197 0.9373715107640862 0 -1.557947513924171 0.9492404136390221 0 -2.148471199830427 1.021701656809761 0 0 0 0 0.3204049507637486 -3.314700661814624 0 0.5931754562298669 -3.418440103643815 0 0.483890392445283 -1.963430308468425 0 0.7716289082752966 -1.885702195623993 0 0.627259176280121 -1.953092195265026 0 0.7142221926147465 -2.467054639693752 0 0 0 0 -0.5154667778249388 1.068325864739305 0 -1.369762609397712 1.074238216412795 0 -0.9457954532895355 0.9299695400242876 0 -2.742801732395199 0.9167310120782189 0 -1.540730729839191 0.9282561619221208 0 -2.127492614669064 0.9985634555458796 0 0 0 0 0.3204049507637486 -3.314700661814624 0 0.5931754562298669 -3.418440103643815 0 0.483890392445283 -1.963430308468425 0 0.7716289082752966 -1.885702195623993 0 0.627259176280121 -1.953092195265026 0 0.7142221926147465 -2.467054639693752 0 0 0 0 -0.5154667778249388 1.068325864739305 0 -1.369762609397712 1.074238216412795 0 -0.9457954532895355 0.9299695400242876 0 -2.742801732395199 0.9167310120782189 0 -1.540730729839191 0.9282561619221208 0 -2.127492614669064 0.9985634555458796 0 0 0 0 0.3205151396721535 -3.315008244065004 0 0.5934033250294404 -3.418746724301056 0 0.4840681749792338 -1.963717724445463 0 0.7719479308473709 -1.885985832875873 0 0.627503527736381 -1.953379130571556 0 0.7145105560602421 -2.467358323866767 0 0 0 0 -0.5153203662190365 1.067828343005909 0 -1.369449676216457 1.073736904486337 0 -0.9455557149839807 0.9295567378858713 0 -2.742330411146642 0.9163259307256854 0 -1.540392428031625 0.9278443627084166 0 -2.127081104845579 0.9981095879994913 0 0 0 0 0.3150491961135262 -3.299968974767486 0 0.5821148751223818 -3.403771417318159 0 0.4752557371234858 -1.94950762515624 0 0.7561620162525753 -1.871956316450639 0 0.6154009863642601 -1.93919193964041 0 0.7002360503888172 -2.452394622456684 0 0 0 0 -0.5227545137270121 1.093188203160385 0 -1.385360201881021 1.09929099635961 0 -0.9577345944020649 0.9505798454562364 0 -2.766391657984529 0.9369542588088965 0 -1.557599875036307 0.948816184608766 0 -2.148046917466769 1.021233684107336 0 0 0 0 0.3151565532265026 -3.300259996330683 0 0.5823362953252039 -3.404060856152988 0 0.4754286942373512 -1.949785791332772 0 0.7564712941581848 -1.872231072861424 0 0.6156383264802057 -1.939469674562842 0 0.7005158283805085 -2.452686522035758 0 0 0 0 -0.5226050509971829 1.092676394089643 0 -1.385039902011296 1.098775246494611 0 -0.9574896192950301 0.9501559291828237 0 -2.765905346612 0.9365383345910629 0 -1.557253326115703 0.9483933066628318 0 -2.147623992924252 1.020767209910309 0 0 0 0 0.3151565532265026 -3.300259996330683 0 0.5823362953252039 -3.404060856152988 0 0.4754286942373512 -1.949785791332772 0 0.7564712941581848 -1.872231072861424 0 0.6156383264802057 -1.939469674562842 0 0.7005158283805085 -2.452686522035758 0 0 0 0 -0.5226050509971829 1.092676394089643 0 -1.385039902011296 1.098775246494611 0 -0.9574896192950301 0.9501559291828237 0 -2.765905346612 0.9365383345910629 0 -1.557253326115703 0.9483933066628318 0 -2.147623992924252 1.020767209910309 0 0 0 0 0.3205151396721535 -3.315008244065004 0 0.5934033250294404 -3.418746724301056 0 0.4840681749792338 -1.963717724445463 0 0.7719479308473709 -1.885985832875873 0 0.627503527736381 -1.953379130571556 0 0.7145105560602421 -2.467358323866767 0 0 0 0 -0.5153203662190365 1.067828343005909 0 -1.369449676216457 1.073736904486337 0 -0.9455557149839807 0.9295567378858713 0 -2.742330411146642 0.9163259307256854 0 -1.540392428031625 0.9278443627084166 0 -2.127081104845579 0.9981095879994913 0 0 0 0 0.3205151396721535 -3.315008244065004 0 0.5934033250294404 -3.418746724301056 0 0.4840681749792338 -1.963717724445463 0 0.7719479308473709 -1.885985832875873 0 0.627503527736381 -1.953379130571556 0 0.7145105560602421 -2.467358323866767 0 0 0 0 -0.5153203662190365 1.067828343005909 0 -1.369449676216457 1.073736904486337 0 -0.9455557149839807 0.9295567378858713 0 -2.742330411146642 0.9163259307256854 0 -1.540392428031625 0.9278443627084166 0 -2.127081104845579 0.9981095879994913 0 0 0 0 0.3205151396721535 -3.315008244065004 0 0.5934033250294404 -3.418746724301056 0 0.4840681749792338 -1.963717724445463 0 0.7719479308473709 -1.885985832875873 0 0.627503527736381 -1.953379130571556 0 0.7145105560602421 -2.467358323866767 0 0 0 0 -0.5153203662190365 1.067828343005909 0 -1.369449676216457 1.073736904486337 0 -0.9455557149839807 0.9295567378858713 0 -2.742330411146642 0.9163259307256854 0 -1.540392428031625 0.9278443627084166 0 -2.127081104845579 0.9981095879994913 0 0 0 0 0.1589421954003047 -3.236416576570829 0 0.2757170995777393 -3.378740226858664 0 0.2308768459191249 -1.575341628132288 0 0.3436309579613981 -1.492698356489748 0 0.2891880701704403 -1.56425879173558 0 0.3224819453683569 -2.147612197817232 0 0 0 0 -1.224179767512416 4.016203706617247 0 -2.972368291455858 4.055321536737415 0 -2.134832898373855 3.212384455983018 0 -5.47171850295656 3.144504681485251 0 -3.29819783124009 3.203525617430719 0 -4.37972059104809 3.586966851395217 0 0 0 0 0.03206740743943907 -1.425496414299865 0 0.0543119059395672 -1.543042989431782 0 0.04589786992421844 -0.4640732677802734 0 0.06676031505312001 -0.4314462731750504 0 0.05680914533128756 -0.4596324200678737 0 0.06292141689192791 -0.7235838023841537 0 0 0 0 -13111.48534347871 68750.90413712732 0 -30790.67080021445 70470.78901493463 0 -22426.06353652836 45385.52182940338 0 -55127.43302042892 43958.64808578979 0 -34007.11968515186 45196.48609497579 0 -44575.18935489142 54361.10065439507 0 0 0 0 0.04597956000179561 -2.039949787601088 0 0.07787695499177182 -2.207817335972253 0 0.06581146342457955 -0.6649648369448823 0 0.09572812390362256 -0.6182410448661521 0 0.08145797861679686 -0.6586055196406567 0 0.09022303402898911 -1.036453965415874 0 0 0 0 -302.677701616692 1585.339883065212 0 -710.8300492551128 1624.88408310023 0 -517.7166991112684 1047.223871803936 0 -1272.708871429025 1014.325640739276 0 -785.089116270226 1042.865599938116 0 -1029.080088501396 1254.089938591105 5.10239174206639e-16 0 0 0 0.1639016507711709 -3.21998891309614 0 0.2848789419582717 -3.358549580956148 0 0.2383669432107424 -1.588512518153129 0 0.3554668460923937 -1.506435625970431 0 0.2988665843941896 -1.577511924735071 0 0.3334664871606469 -2.154130588595786 5.10239174206639e-16 0 0 0 -1.15875726515194 3.715583754090866 0 -2.82121670060025 3.750532869326593 0 -2.023926021312693 2.989918568876289 0 -5.205665158126358 2.928052515774453 0 -3.131697078527647 2.981849235796905 0 -4.163179706042739 3.329761874895773 0 0 0 0 0.1537205822473484 -3.255445553344299 0 0.2661184853560026 -3.402136489629576 0 0.2230145706325591 -1.560759952710764 0 0.3312676658709799 -1.47751043226546 0 0.2790540743395686 -1.549588627682578 0 0.3109972014790253 -2.140386782343354 0 0 0 0 -1.302768559541511 4.381887216454005 0 -3.154260360831103 4.426262254949312 0 -2.268183347973737 3.480929241992071 0 -5.792554797115379 3.405671278519866 0 -3.498623348848447 3.471101093502285 0 -4.640631881439937 3.89838083314485 0 0 0 0 0.1646203434401156 -3.217745600243538 0 0.2862102392691844 -3.355790077890784 0 0.2394541646217769 -1.590374522245855 0 0.3571895492245289 -1.508378429198939 0 0.3002734139293057 -1.579385634301198 0 0.3350644467234873 -2.155057780649631 0 0 0 0 -1.149930063651864 3.675308809557672 0 -2.800843605252959 3.709710420056858 0 -2.0089699012305 2.959988671803012 0 -5.16985015241762 2.898924256170151 0 -3.109259312428553 2.952024540689894 0 -4.134015232597056 3.295215894253368 6.174969234020761e-15 0 0 0 0.07140435584077467 -3.002139064154203 0 0.1210439444189562 -3.235824943823657 0 0.1022572336634022 -1.013346808888993 0 0.1488618181454264 -0.9432963391553477 0 0.1266221782119467 -1.003822628081432 0 0.1402802469789567 -1.564326440006518 6.174969234020761e-15 0 0 0 -15.93555576365173 80.93290552897385 0 -37.46925880046044 82.79905366162559 0 -27.27625496308214 54.39531746399825 0 -67.1525543966588 52.7233549650719 0 -41.39042736395603 54.17405534816397 0 -54.27861446544941 64.80232856524944 0 0 0 0 0.08738842074226853 -3.326317587833272 0 0.148408757729261 -3.561343434318145 0 0.1252887731774936 -1.194168202696892 0 0.1827016313737236 -1.11422600514663 0 0.155279784784694 -1.183320603211493 0 0.1721150963504637 -1.810585676193023 0 0 0 0 -6.394082433283026 30.66030704923246 0 -15.07249826122615 31.27553714438495 0 -10.96070303945209 21.24167469715893 0 -27.06870428046338 20.61624834256577 0 -16.6556290038865 21.15907328171419 0 -21.86295448299813 25.06232066483659 0 0 0 0 0.1197109587534429 -3.399508609703344 0 0.2048121093601934 -3.587117530158482 0 0.1724184086220022 -1.432090268628794 0 0.253203006784444 -1.345954793783776 0 0.2144748708896519 -1.420470189948919 0 0.2382201919336076 -2.060516718536806 0 0 0 0 -2.287136371426781 9.221178671295092 0 -5.447361640482807 9.349306146048587 0 -3.944284481441355 6.899297744992317 0 -9.866409507067761 6.72349970894835 0 -6.028134537866418 6.876216207764611 0 -7.944343547353044 7.91854271685689 0 0 0 0 0.1456061904381021 -3.288181752689269 0 0.2512999730499527 -3.442575535252619 0 0.2108456809193195 -1.536217303032243 0 0.3122556006208159 -1.452035625368533 0 0.2634210934126947 -1.524908570784587 0 0.2933144684743267 -2.127841374881364 0 0 0 0 -1.44977877632239 5.077473395359762 0 -3.495257989703165 5.132366297522394 0 -2.517921458180759 3.986264751608255 0 -6.395555680800284 3.896823125324478 0 -3.874508670225984 3.97457142815963 0 -5.130519031692026 4.486803935606373 0 0 0 0 0.1576800208521839 -3.240857192523531 0 0.2733924258024312 -3.384196980935432 0 0.2289741220016345 -1.571890181514634 0 0.3406332408439087 -1.489100902912468 0 0.2867331742861241 -1.560786082103992 0 0.3196982611896071 -2.145907617394334 0 0 0 0 -1.242194406774103 4.099607307322878 0 -3.014033990360542 4.139906630532724 0 -2.165389255214901 3.273825157657728 0 -5.545152117452127 3.204268245027065 0 -3.344103382481483 3.264746047233164 0 -4.439457663416461 3.658129032626346 0 0 0 0 0.2280684046605722 -3.145531003542116 0 0.4071329770729384 -3.257384518921044 0 0.3370939623610879 -1.737618629863062 0 0.5165413124422974 -1.660342823591243 0 0.4285062980846603 -1.727311295087468 0 0.4820202779512046 -2.249610122657134 0 0 0 0 -0.7203674724546876 1.827743562341898 0 -1.820147623910915 1.840308293675978 0 -1.285123062957174 1.545426039901935 0 -3.471166362362025 1.519485021396061 0 -2.031439813095642 1.542058947925185 0 -2.742379092880821 1.682711578729811 0 0 0 0 0.1534249307855078 -3.256573735852264 0 0.2655764725812024 -3.403525173415151 0 0.222570138556531 -1.559908940523937 0 0.330570667806137 -1.476625021383515 0 0.2784820119775732 -1.548732577367915 0 0.3103494036379523 -2.139961998612518 0 0 0 0 -1.307556252687591 4.404313769902538 0 -3.165351360146299 4.449017584649691 0 -2.276311026407734 3.497329616938835 0 -5.812138627207566 3.421617190141022 0 -3.510846362781375 3.487441740896398 0 -4.656551282485717 3.91743012637041 0 0 0 0 0.03909217522553856 -1.737179419593512 0 0.06620995326580069 -1.88037593984212 0 0.05595255427758778 -0.5656689515197511 0 0.08138565721984273 -0.5259031985225981 0 0.06925430033606153 -0.5602564856795712 0 0.07670569383001993 -0.881938646935819 0 0 0 0 -1376.13945012983 7214.474172029874 0 -3231.713444027277 7394.861600224544 0 -2353.777675076014 4763.125516689399 0 -5786.074397211783 4613.397878138835 0 -3569.30758510163 4743.289363553423 0 -4678.520269630945 5704.908908646765 0 0 0 0 0.05541299574421796 -2.438979781495773 0 0.09386616830078882 -2.638006988643435 0 0.07931978159645678 -0.799209610516886 0 0.1153903565249692 -0.7431859996752821 0 0.09818377869224328 -0.7915857227321592 0 0.1087522353453304 -1.243928728562487 0 0 0 0 -72.23419636450723 376.6230994626225 0 -169.6690545159217 385.9072082999771 0 -123.5657656557978 249.4338556035751 0 -303.8269604234516 241.6227116782415 0 -187.3984596057533 248.3992171813775 0 -245.6543790032687 298.4769132715508 0 0 0 0 0.08639603370496914 -3.31358356420678 0 0.146701563459628 -3.549383797884513 0 0.1238545340047912 -1.184173091993872 0 0.1805847949188829 -1.104698972602598 0 0.1534909711004179 -1.173387368658065 0 0.1701253303341346 -1.797904337642838 0 0 0 0 -6.693193159783215 32.23627206300652 0 -15.77429832450744 32.88983569803212 0 -11.47204275300147 22.28361708964312 0 -28.32426251339084 21.62527889432376 0 -17.43064357539831 22.19665556609144 0 -22.87845777100539 26.31103413179697 0 0 0 0 0.2642156490270464 -3.186150728750006 0 0.4787109681918963 -3.292595902603301 0 0.3939945776206084 -1.822334162787218 0 0.6133606737307979 -1.745652768712262 0 0.5047868104437739 -1.812120861224461 0 0.5705557856694511 -2.324644858056994 0 0 0 0 -0.6141832109341265 1.419873583862038 0 -1.584096637387636 1.428659021490338 0 -1.108430225185536 1.218274870155047 0 -3.079875695669909 1.199361460826631 0 -1.773505177201167 1.215823529690116 0 -2.415738596205956 1.31729550169081 6.392139991777636e-15 0 0 0 0.07092207937509727 -2.988317287911151 0 0.1202220445104711 -3.22143728023745 0 0.1015642884819709 -1.007288389515802 0 0.1478480319141364 -0.9376100089578435 0 0.1257618899311326 -0.997814395538726 0 0.1393257757922344 -1.555579128791585 6.392139991777636e-15 0 0 0 -16.49899528359354 83.89868326577762 0 -38.79211393195804 85.83924745835429 0 -28.23983727899353 56.35007249227809 0 -69.52052727265432 54.61647212906227 0 -42.85142271804858 56.1206435443278 0 -56.19345581657033 67.14515985503276 0 0 0 0 0.07912291011481712 -3.191155399463751 0 0.1342252033487808 -3.429481604026603 0 0.1133616929308918 -1.105777459390031 0 0.1651392512112474 -1.030334320226543 0 0.140422291184173 -1.095528515463136 0 0.1555998584579962 -1.694250028318127 0 0 0 0 -9.737642248034469 48.2846160873493 0 -22.91919477867807 49.33407827084829 0 -16.6773607558421 32.87530582145691 0 -41.10954331559583 31.88240543454634 0 -25.32119705266622 32.74401790523426 0 -33.21847651644449 39.00716121122998 -2.311538816874483e-15 0 0 0 0.08918726291735352 -3.34713382772743 0 0.1515064873841084 -3.580536176058398 0 0.1278902059430559 -1.211847926263251 0 0.1865448794886165 -1.131107116894518 0 0.1585259899629079 -1.200895066211536 0 0.1757269978352466 -1.832683174789347 -2.311538816874483e-15 0 0 0 -5.902860349646403 28.0731220990819 0 -13.92005251798339 28.62577189846555 0 -10.12098574672958 19.52983893952665 0 -25.00707635412652 18.95847437898177 0 -15.38297194173344 19.4543992261302 0 -20.19544939704308 23.01101942142192 0 0 0 0 0.1215434461818757 -3.392752299404925 0 0.2080619409778362 -3.577573690805155 0 0.1751173262578969 -1.441294215412481 0 0.2573022320417835 -1.355189038314091 0 0.2178917722479553 -1.429682068228535 0 0.2420530251010425 -2.067610510281183 0 0 0 0 -2.198068970317468 8.770504819012801 0 -5.239251748572111 8.889976123490314 0 -3.792377836019245 6.58812702819512 0 -9.495530256729333 6.421792336533802 0 -5.798457546768433 6.566295301261056 0 -7.643938001602495 7.549763172324128 0 0 0 0 0.1619154385122951 -3.226370411060403 0 0.2812044648616089 -3.366395273381018 0 0.2353646161666418 -1.583307948871045 0 0.3507157983305131 -1.501005912434856 0 0.2949842307059426 -1.572274704640055 0 0.329058378594829 -2.151548619803814 0 0 0 0 -1.183982768938044 3.831061182249329 0 -2.879465687632828 3.867594692788329 0 -2.066677133995809 3.075566775960902 0 -5.30812602836144 3.011396770587003 0 -3.195854888046256 3.067195032571781 0 -4.246594481044345 3.428696557247394 0 0 0 0 0.1908835075055646 -3.159564565450709 0 0.3354723166629128 -3.282897103686655 0 0.2794868389993564 -1.653400339320582 0 0.421432564601793 -1.573984572982146 0 0.3524092134087956 -1.642783222188011 0 0.3945089305847557 -2.189378799999008 0 0 0 0 -0.9087468893898372 2.606522543555025 0 -2.24686931586441 2.627442336251758 0 -1.601335253925768 2.153009561810026 0 -4.201973908047939 2.112754235209846 0 -2.499688207036808 2.14777234900863 0 -3.343906755124712 2.369812366797225 0 0 0 0 0.2479613750970665 -3.162636870119741 0 0.4463067057416387 -3.271019660858829 0 0.368307600564539 -1.78367920393463 0 0.5693133222012771 -1.706883944686737 0 0.4702221783843963 -1.773444820845256 0 0.5303422975682219 -2.289021280528849 0 0 0 0 -0.6558868197584298 1.576835082973349 0 -1.676265414536002 1.587021412627175 0 -1.177646074719697 1.345023610875103 0 -3.230925018050039 1.323454454557243 0 -1.874077426555486 1.342226426692494 0 -2.542472239650674 1.458434880872512 0 0 0 0 0.1545574035640201 -3.252281021693449 0 0.2676534703128159 -3.398242501025567 0 0.2242729342441993 -1.563153028397953 0 0.3332422272033987 -1.480000893095377 0 0.2806742660500378 -1.551995955703546 0 0.3128321896350718 -2.141578768147692 0 0 0 0 -1.289424479300498 4.319467944077377 0 -3.123353674691498 4.362931705276854 0 -2.245532406480244 3.435241842739408 0 -5.737993346561663 3.361247639968905 0 -3.464563238220064 3.425579769969811 0 -4.596275939807158 3.845332346674756 0 0 0 0 0.1609206863354885 -3.229666133956447 0 0.2793668141280285 -3.370445557532181 0 0.2338622765390552 -1.580667123255651 0 0.3483418039207554 -1.498251418754349 0 0.2930429486449722 -1.569617374412354 0 0.3268551413304718 -2.150242442640982 0 0 0 0 -1.197094810235683 3.891304394610975 0 -2.909759245240608 3.92867292090655 0 -2.088905042095463 3.120152030735964 0 -5.361447280240974 3.054776987399555 0 -3.229224629289413 3.111622086439761 0 -4.289992890655237 3.480242376458307 0 0 0 0 0.2388549667323965 -3.153051670627742 0 0.4283058509720776 -3.262851881508199 0 0.353987168311224 -1.762436646133017 0 0.544997793685711 -1.685471815518784 0 0.4510434474175031 -1.752175851818539 0 0.508097036864218 -2.270380179080761 0 0 0 0 -0.6832562117245392 1.68218514547164 0 -1.737154555243558 1.69334983993305 0 -1.223203750993636 1.42948413882466 0 -3.332027434988464 1.406097021322136 0 -1.94062462657013 1.426450052513493 0 -2.626806202664323 1.552796364141719 0 0 0 0 0.1869631742671083 -3.165404545303579 0 0.3280447913388052 -3.290491858734028 0 0.2734747750328337 -1.644398257051819 0 0.4116851438976571 -1.564651272520494 0 0.344538802020761 -1.633733529421767 0 0.385507570054426 -2.183986377547468 0 0 0 0 -0.9368429381094351 2.72745177795848 0 -2.311070423256953 2.749788227716462 0 -1.648697775207384 2.245696746849812 0 -4.313368354654616 2.203141632331405 0 -2.570262865193449 2.240158582182844 0 -3.43509834450204 2.475440021726686 0 0 0 0 0.2192874094836667 -3.142841445282205 0 0.3900205396485361 -3.2567189585576 0 0.3233997940826076 -1.717641977021071 0 0.4936581322546166 -1.640017050122602 0 0.410308483517115 -1.707283410215883 0 0.461016087034417 -2.233794260207824 0 0 0 0 -0.7551581000792558 1.966818770534613 0 -1.898340363322206 1.980771514151165 0 -1.343304443915971 1.655435964607881 0 -3.60340728979758 1.627013478241168 0 -2.117098481619349 1.651745101118216 0 -2.851808283867091 1.806366299437131 0 0 0 0 0.243923266252767 -3.158043075275368 0 0.4383105275866408 -3.267021739600389 0 0.3619509493222997 -1.77422444342245 0 0.558498388431126 -1.69736398510675 0 0.4617007698562801 -1.763979730844432 0 0.5204522967787725 -2.280633559398742 0 0 0 0 -0.6676216671061526 1.621787951913231 0 -1.702336400670282 1.632388085844553 0 -1.197167327323973 1.381120906668736 0 -3.274100962133735 1.358779325148412 0 -1.902561768168605 1.378223081386841 0 -2.578528857906536 1.498734144550934 0 0 0 0 0.2695593259448468 -3.195475037312714 0 0.4894378739413058 -3.301424561572035 0 0.4024729480745527 -1.835257254049217 0 0.6280182001796142 -1.75856548911972 0 0.5162398245460124 -1.82504430255668 0 0.5839143008978246 -2.336971420401529 0 0 0 0 -0.6021309807731188 1.375371907990325 0 -1.557615550612611 1.383772950021733 0 -1.088477458255274 1.182129882190937 0 -3.037011993242029 1.163956925298036 0 -1.744652273596153 1.17977491471546 0 -2.379572998940173 1.277154523907446 0 0 0 0 0.2860687603605656 -3.228604611433361 0 0.5227989560608797 -3.333388840132034 0 0.428766201720804 -1.87585918362813 0 0.6738398304929102 -1.79900365871652 0 0.5518925159542695 -1.86562923205563 0 0.625602734980292 -2.376810019867377 0 0 0 0 -0.5690621712849968 1.255410613495493 0 -1.485366889740364 1.262804649867315 0 -1.033860834712062 1.084207084245626 0 -2.921566312785213 1.068000018777265 0 -1.666049740985311 1.082107867794647 0 -2.281587623911912 1.168658894978864 0 0 0 0 0.2998874285158697 -3.26075092290069 0 0.550967086022799 -3.364920054887565 0 0.4508829835219608 -1.910611262871954 0 0.7128002232954329 -1.83348258554335 0 0.5820333828319265 -1.900348441256657 0 0.6609653146237294 -2.412020863531445 0 0 0 0 -0.5453897961612268 1.171594820275748 0 -1.434058586670067 1.178311318850043 0 -0.9948901447106364 1.015346046324867 0 -2.841175915222708 1.000484497120245 0 -1.610351439258696 1.013421769399113 0 -2.212725376746279 1.092593475179337 0 0 0 0 0.2993882187587844 -3.259526666275275 0 0.5499457585097232 -3.363713038407727 0 0.4500823496242698 -1.909343986805546 0 0.7113833372769663 -1.832227132066497 0 0.5809399413216195 -1.899082619962564 0 0.6596805822495394 -2.410721443087732 0 0 0 0 -0.546190613511107 1.174400604346839 0 -1.435788201118243 1.181139428431809 0 -0.9962066521468574 1.017657347848111 0 -2.843860913236499 1.002751152561268 0 -1.612227156558964 1.015727267610478 0 -2.215035485064073 1.095143394587784 0 0 0 0 0.3151565532265026 -3.300259996330683 0 0.5823362953252039 -3.404060856152988 0 0.4754286942373512 -1.949785791332772 0 0.7564712941581848 -1.872231072861424 0 0.6156383264802057 -1.939469674562842 0 0.7005158283805085 -2.452686522035758 0 0 0 0 -0.5226050509971829 1.092676394089643 0 -1.385039902011296 1.098775246494611 0 -0.9574896192950301 0.9501559291828237 0 -2.765905346612 0.9365383345910629 0 -1.557253326115703 0.9483933066628318 0 -2.147623992924252 1.020767209910309 0 0 0 0 0.3201849478243536 -3.314087076729711 0 0.5927205309231268 -3.41782847799713 0 0.4835354482220838 -1.962856570599989 0 0.7709920455443785 -1.885135985596083 0 0.6267713504710795 -1.952519414818768 0 0.7136465204262108 -2.466448550935071 0 0 0 0 -0.51575951847386 1.069320861588045 0 -1.370388349931182 1.075240795742278 0 -0.9462748090345077 0.9307950620726696 0 -2.74374442151831 0.917541090352484 0 -1.541407214523336 0.9290796778253638 0 -2.128315573395879 0.9994711230201921 0 0 0 0 0.1696090873636505 -3.203144512563288 0 0.2954763930405245 -3.337795931706194 0 0.2470134698222423 -1.603023087220449 0 0.369199852958823 -1.521576189057387 0 0.310068459927941 -1.592113613709807 0 0.346199250700389 -2.161431099804933 0 0 0 0 -1.092690586847977 3.415924858130131 0 -2.668873274489107 3.446865142212857 0 -1.912040264825699 2.766472328401569 0 -4.938151144840872 2.710545085166343 0 -2.963942202939141 2.759182127215156 0 -3.945243506304058 3.072205166311164 0 0 0 0 0.1751967808819768 -3.188806107124174 0 0.3059065945252642 -3.320024235702819 0 0.2555058682632185 -1.616710250786548 0 0.3827602293871245 -1.535849623570039 0 0.32110055597969 -1.605885321922027 0 0.3587590274291333 -2.168545339273532 0 0 0 0 -1.035979874707342 3.162191573768922 0 -2.538387189007726 3.189858699938854 0 -1.816106392273667 2.575821009598364 0 -4.709643549904337 2.524871135281513 0 -2.820312981571707 2.569183348887109 0 -3.758880699704512 2.853129148065948 3.548741759981144e-16 0 0 0 0.2398669051082447 -3.153977196050487 0 0.4303005616585406 -3.263606532992787 0 0.355575908234681 -1.764783363948848 0 0.5476867586912462 -1.6878414284408 0 0.4531678771553322 -1.754526065100894 0 0.5105587097473353 -2.272402618793703 3.548741759981144e-16 0 0 0 -0.6800497078107833 1.669752066152856 0 -1.730006187501189 1.680799745826245 0 -1.217861397710888 1.419540854002537 0 -3.32011139828569 1.396369672602193 0 -1.932808180017072 1.416534913189116 0 -2.616883660880715 1.541675009153579 0 0 0 0 0.1997511734276914 -3.14972372323497 0 0.3523657257798614 -3.26953918249898 0 0.293130847828515 -1.673541838285803 0 0.4436813101446697 -1.594799122163807 0 0.3703221646881558 -1.663021538072376 0 0.4150314509345546 -2.202181559417143 0 0 0 0 -0.8524030776472247 2.367414654293655 0 -2.118484238046492 2.385623483596779 0 -1.506487429525296 1.968527688089043 0 -3.980111255411718 1.932766067552433 0 -2.358636978196549 1.963878163345771 0 -3.161979485748848 2.160168172957667 0 0 0 0 0.2309500830481707 -3.147105661215346 0 0.4127732349649184 -3.258366995111775 0 0.3415994985191766 -1.744215597549921 0 0.5241064727559306 -1.667035172144376 0 0.4345077080760347 -1.733922404150644 0 0.488957399522525 -2.255016065851865 0 0 0 0 -0.7098953647087768 1.78636727950593 0 -1.796682211497863 1.798528460364928 0 -1.267634757977664 1.512554529837124 0 -3.43168716954757 1.487344185273706 0 -2.005751202701261 1.509282734320377 0 -2.709636773258865 1.645834862646015 0 0 0 0 0.2716915773345694 -3.199396762242377 0 0.4937280562821826 -3.305165809120136 0 0.4058604921152927 -1.84044384834154 0 0.6338908704439994 -1.76374184661298 0 0.5208218965434206 -1.83023019858612 0 0.5892633250228191 -2.341970318159521 0 0 0 0 -0.5975207190857555 1.358456341426646 0 -1.547506077375906 1.366712789104132 0 -1.080851493261951 1.168365566730963 0 -3.020720505089605 1.150472524704835 0 -1.733643017703417 1.166047025152807 0 -2.3657994781914 1.261881517055953 0 0 0 0 0.260672092707105 -3.180381538205634 0 0.4716174539392168 -3.287191483496742 0 0.3883813081097279 -1.813823621429197 0 0.6036885812404499 -1.737136606944643 0 0.4972160840353727 -1.80360836916296 0 0.5617345952093807 -2.316633658235658 0 0 0 0 -0.6225939115129598 1.451164420450482 0 -1.602620018699955 1.460223571086573 0 -1.122368321363106 1.243633205235015 0 -3.110011742533847 1.224195732456423 0 -1.793699753973212 1.241113641612297 0 -2.441106626852895 1.345486428423399 0 0 0 0 0.2420401909841494 -3.156085610918403 0 0.4345892725797215 -3.265359630804809 0 0.3589901776626035 -1.769834733494808 0 0.5534727970721036 -1.692938480796235 0 0.4577361723546534 -1.759584458834745 0 0.5158542673380535 -2.276787990537602 0 0 0 0 -0.6733082221423157 1.643689568158802 0 -1.71498964244288 1.654493296742986 0 -1.206633620108759 1.398676497684069 0 -3.295118320385988 1.375956783665333 0 -1.916391402926713 1.395729396401076 0 -2.596057585210296 1.518349367841635 0 0 0 0 0.2871897223882809 -3.231071686219201 0 0.5250758232331322 -3.335794762940331 0 0.4305567048998755 -1.878652580020453 0 0.6769799368647953 -1.801779251804632 0 0.5543275796102523 -1.868420557932152 0 0.6284556676377482 -2.379605779398851 0 0 0 0 -0.5670181685440546 1.248103427729954 0 -1.480922379268133 1.255437529235225 0 -1.030491550725359 1.078218549450533 0 -2.914545272946864 1.062129740394346 0 -1.661220598332791 1.076134711797893 0 -2.275596627873689 1.162036104948579 0 0 0 0 0.3048548370900249 -3.273173750356933 0 0.5611447354274588 -3.377190056377224 0 0.4588562637332808 -1.923268570184903 0 0.7269369027193396 -1.846014744641424 0 0.592932017401098 -1.912990247143593 0 0.6737781272890956 -2.425057408120772 0 0 0 0 -0.5376234725522877 1.144495436090229 0 -1.417308042554025 1.150997591790569 0 -0.9821295639222273 0.9930001946329118 0 -2.815271170888307 0.9785683952822253 0 -1.592193294245568 0.9911317735309252 0 -2.190397086972835 1.067952314403309 0 0 0 0 0.3202949571772565 -3.314393802415539 0 0.5929480037039175 -3.418134217304325 0 0.4837129303852897 -1.963143440720464 0 0.7713104835605845 -1.885419094319233 0 0.6270152732266863 -1.952805806574486 0 0.7139343648773451 -2.466751575963391 0 0 0 0 -0.5156130683733174 1.068823053038554 0 -1.370075300705782 1.074739193180844 0 -0.9460349981439062 0.9303820510024597 0 -2.743272768031723 0.9171358064703865 0 -1.541068775862534 0.9286676705179345 0 -2.127903841261246 0.9990170105581114 0 0 0 0 0.3151565532265026 -3.300259996330683 0 0.5823362953252039 -3.404060856152988 0 0.4754286942373512 -1.949785791332772 0 0.7564712941581848 -1.872231072861424 0 0.6156383264802057 -1.939469674562842 0 0.7005158283805085 -2.452686522035758 0 0 0 0 -0.5226050509971829 1.092676394089643 0 -1.385039902011296 1.098775246494611 0 -0.9574896192950301 0.9501559291828237 0 -2.765905346612 0.9365383345910629 0 -1.557253326115703 0.9483933066628318 0 -2.147623992924252 1.020767209910309 0 0 0 0 0.2578828998080666 -3.176083152219452 0 0.4660453135821201 -3.283201673577389 0 0.383968148702673 -1.807157861257313 0 0.5961025400595448 -1.730459137621848 0 0.4912707498302731 -1.79694007087018 0 0.5548124052916407 -2.310421828163504 0 0 0 0 -0.6294653064695614 1.476868483041211 0 -1.617778689545293 1.486154571328358 0 -1.133763732115092 1.264429653658329 0 -3.134761441129907 1.244559630229169 0 -1.810233043905059 1.261853771491158 0 -2.461907087367117 1.368623526853418 0 0 0 0 0.08238022680052787 -3.252497550912975 0 0.1398054038987795 -3.490431114850315 0 0.1180570989204187 -1.14199068440377 0 0.1720423274288143 -1.064611877416851 0 0.1462665429234614 -1.131483237339331 0 0.1620932129697369 -1.742998977946714 0 0 0 0 -8.156966757098045 39.95183052569795 0 -19.20924933433941 40.79475559493967 0 -13.97462884568838 27.37880323590595 0 -34.47037050811527 26.55950652223842 0 -21.22402327925638 27.2705168356086 0 -27.8492314026223 32.41825929139226 1.021470903336006e-15 0 0 0 0.1152872490039686 -3.413622250919579 0 0.1969913288726699 -3.608177921904788 0 0.1659156911281307 -1.40833529593607 0 0.2433556295153939 -1.322240796108697 0 0.2062549468607559 -1.396711299046469 0 0.2290076979353108 -2.041162168711986 1.021470903336006e-15 0 0 0 -2.532603516643604 10.4710146715973 0 -6.021242162872824 10.62381609084731 0 -4.363071017263216 7.75743318038948 0 -10.88972630358521 7.555361781200459 0 -6.661545764766475 7.730880228054862 0 -8.773031896722905 8.937290430875484 0 0 0 0 0.205047299699669 -3.145947539527093 0 0.3625151988188408 -3.263928865217679 0 0.3013085692940733 -1.685494319596411 0 0.4571002541297017 -1.60710335986824 0 0.3810921808839959 -1.67502472014624 0 0.4273938432756309 -2.210271225214317 0 0 0 0 -0.8228147536818834 2.243810830714914 0 -2.051287639331225 2.260667080900873 0 -1.456760018058098 1.872486896668691 0 -3.864555534953901 1.839017202430235 0 -2.284860596794903 1.868136912950804 0 -3.067030859748151 2.051360326344156 0 0 0 0 0.1939141239954906 -3.155687183289734 0 0.3412314780765209 -3.277750330171442 0 0.2841428803348288 -1.660311394257294 0 0.4290051721826775 -1.581137554800534 0 0.3585140548025119 -1.649729060502489 0 0.4014976150931993 -2.193655137040342 0 0 0 0 -0.8884364418469206 2.519790379670572 0 -2.200530676785253 2.539712751241137 0 -1.567123565439911 2.086283754393146 0 -4.121748086294139 2.047667038475316 0 -2.448764886896857 2.081260896600383 0 -3.278171794015246 2.293891908855857 0 0 0 0 0.2314699584088105 -3.147424450136514 0 0.4137920444236687 -3.2585824799961 0 0.3424129229133104 -1.745408186947914 0 0.5254741785012847 -1.668243993116371 0 0.4355919309614043 -1.735117409155814 0 0.4902112031693031 -2.256002539626396 0 0 0 0 -0.7080516456085667 1.779106705106091 0 -1.792554523989448 1.791197524790637 0 -1.264557014081274 1.506779408042721 0 -3.424753350195693 1.48169690379313 0 -2.001233343090896 1.503524283927929 0 -2.703882295371533 1.639359583996039 4.212512764688207e-16 0 0 0 0.1921997848292467 -3.157813331910262 0 0.337971829915503 -3.280585519658718 0 0.2815081870113108 -1.65640641797605 0 0.4247175600781004 -1.577097245032306 0 0.355058511367 -1.645804625022978 0 0.3975410821015032 -2.191224074130349 4.212512764688207e-16 0 0 0 -0.8997817501671841 2.568165751600051 0 -2.226407426727223 2.5886424974964 0 -1.586231193316986 2.123526674449721 0 -4.16652919989731 2.08399716838754 0 -2.477200152935639 2.118384417778017 0 -3.314870752330599 2.336254051898468 0 0 0 0 0.1695391796989544 -3.203337369535213 0 0.2953462443148859 -3.338034121816225 0 0.2469073912313416 -1.602848894310771 0 0.3690309211670402 -1.521394455905214 0 0.3099308444121343 -1.591938332042064 0 0.3460427035026752 -2.161342218209146 0 0 0 0 -1.093446959295937 3.41933158857298 0 -2.670615498139278 3.450316591725477 0 -1.913320481685262 2.769022743681211 0 -4.941206324349298 2.713028333776858 0 -2.965860293461008 2.761723733891719 0 -3.947733829214673 3.075140208021306 3.931345257524899e-16 0 0 0 0.2071144491881423 -3.144876496799538 0 0.3664886399237798 -3.262190655433318 0 0.3045061879727758 -1.690154272190446 0 0.4623641758761886 -1.611890571068505 0 0.3853101677586255 -1.67970304571204 0 0.4322401891193967 -2.213523857276203 3.931345257524899e-16 0 0 0 -0.8119819117532653 2.198917569142289 0 -2.026729088365714 2.215291080407281 0 -1.438569445339785 1.837484186554824 0 -3.822436175890072 1.804841190601142 0 -2.257907144560693 1.83324221249377 0 -3.032383771575997 2.011764148617478 0 0 0 0 0.3097658714842276 -3.285870963910561 0 0.5712331273879152 -3.389768183684615 0 0.4667505491491669 -1.935865428080252 0 0.7409803116235579 -1.858474902386088 0 0.6037392592062398 -1.925570008031509 0 0.6864968911435687 -2.438131452975608 0 0 0 0 -0.5302892023932165 1.119091599888356 0 -1.401528990696647 1.125394955562901 0 -0.970090544625031 0.9720152195718219 0 -2.791039244140566 0.9579838374109705 0 -1.575100936556375 0.9701988333795233 0 -2.169440043584499 1.044831261821654 0 0 0 0 0.3142989656983628 -3.297940247842321 0 0.5805678868668989 -3.401754125172618 0 0.4740472278019544 -1.947564807435241 0 0.7540015983394804 -1.87003717044753 0 0.6137428253175923 -1.937252114278355 0 0.6982815749518808 -2.450357053692446 0 0 0 0 -0.5238029509959309 1.096780625214487 0 -1.387607490870034 1.102911103172685 0 -0.9594531605939668 0.9535549168544026 0 -2.769805889453282 0.9398732050937305 0 -1.560031491419201 0.9517839641398422 0 -2.151015207347916 1.024507651990185 0 0 0 0 0.3149418235570491 -3.299678089531666 0 0.5818934350673794 -3.403482128419705 0 0.4750827603366617 -1.949229456788765 0 0.7558527250386274 -1.871681552748779 0 0.6151636269129018 -1.938914201826605 0 0.6999562558755364 -2.452102762347119 0 0 0 0 -0.5229041396434554 1.093700650618294 0 -1.385680868558772 1.099807390384098 0 -0.9579798418837964 0.9510042753386586 0 -2.766878603852723 0.9373706856572139 0 -1.557946826491766 0.9492395747339968 0 -2.148470360813437 1.021700731394401 0 0 0 0 0.08639603270947502 -3.313583550976613 0 0.1467015617477004 -3.54938378538546 0 0.1238545325663773 -1.184173081881529 0 0.1805847927966054 -1.104698962969653 0 0.1534909693067156 -1.173387358609154 0 0.1701253283391313 -1.797904324745969 0 0 0 0 -6.693193470738699 32.23627370156126 0 -15.77429905412084 32.88983737651708 0 -11.47204328459946 22.28361817269304 0 -28.32426381874284 21.62527994316181 0 -17.4306443811313 22.19665664460896 0 -22.87845882677199 26.31103542982277 0 0 0 0 0.06982778826548465 -2.956111938106746 0 0.1183577983829051 -3.187826269250881 0 0.09999233091125774 -0.9934292695864858 0 0.1455489969600995 -0.9246093195947133 0 0.12381064748479 -0.984071127187658 0 0.1371611229978237 -1.535477466200134 0 0 0 0 -17.88764608161637 91.20676213646504 0 -42.05247752968822 93.33075520546795 0 -30.61470388243117 61.16700802879638 0 -75.35682085099495 59.28154358423824 0 -46.45226168246296 60.91745761763258 0 -60.91289913399412 72.91822668447483 0 0 0 0 0.09308088342576062 -3.382795192650019 0 0.158226308119557 -3.61184545639935 0 0.1335287410279871 -1.248180669812787 0 0.1948921696328963 -1.165927412187878 0 0.165569628910162 -1.237029838114708 0 0.1835688507605051 -1.876655308448444 0 0 0 0 -5.024824015568556 23.45375420296975 0 -11.86052010822356 23.89608380763446 0 -8.620202176828645 16.46762996581286 0 -21.32338770260574 15.99290946703041 0 -13.10867542808245 16.40499150151803 0 -17.21578279174381 19.34275338912466 0 0 0 0 0.2180949336302022 -3.142733610740255 0 0.3877054188648604 -3.256913467172912 0 0.3215442462299272 -1.714941335677302 0 0.4905703863452692 -1.637261969484873 0 0.4078477366769444 -1.704574831102888 0 0.4581794698373612 -2.231723486166272 0 0 0 0 -0.7602500570599551 1.987374155383502 0 -1.909812917811373 2.001536099761204 0 -1.351829714864479 1.671634799175377 0 -3.62289044123094 1.64284237754031 0 -2.129673263225622 1.667895651236512 0 -2.867901974944007 1.824604760331075 0 0 0 0 0.1945702653664634 -3.154919202492133 0 0.3424803324530519 -3.276717043928167 0 0.2851518889321161 -1.661803248927649 0 0.4306489445018564 -1.582680159157459 0 0.3598381286610435 -1.651228213557197 0 0.4030141407689516 -2.194594121260296 0 0 0 0 -0.8841900082470995 2.50173209139015 0 -2.19085047936685 2.521448784679308 0 -1.559973674448738 2.072363974916033 0 -4.105008896117807 2.034087235319397 0 -2.438128717598389 2.067385583111489 0 -3.2644493445832 2.278067169692971 0 0 0 0 0.2257369011500378 -3.1445009608594 0 0.4025783336729502 -3.25685867259656 0 0.3334527458130217 -1.732297160021923 0 0.5104404980048413 -1.65493736560586 0 0.4236612412557936 -1.721977435638166 0 0.4764234734527183 -2.245313805016456 0 0 0 0 -0.729166130378798 1.862685159126203 0 -1.839889553996785 1.875594071976376 0 -1.299825784292443 1.573133795772886 0 -3.504458389101152 1.546572954895413 0 -2.053058646343076 1.569685850801971 0 -2.769962295327088 1.713821445140994 0 0 0 0 0.1423081406858803 -3.30239150039478 0 0.2453113055511205 -3.4602627272411 0 0.2059169751275327 -1.525426971292137 0 0.3045980023064589 -1.440882536269694 0 0.2571074700067358 -1.514064107856548 0 0.2861847914424193 -2.122052040293387 0 0 0 0 -1.520285516722131 5.415683120460694 0 -3.659077688807473 5.475915186459057 0 -2.637804780144773 4.229700366931838 0 -6.685792858794643 4.133307279076988 0 -4.055140622561831 4.217092168395069 0 -5.36613823033233 4.771248052380457 0 0 0 0 0.1141586644801254 -3.416605468995982 0 0.1950015600622956 -3.612974730019794 0 0.1642595332645065 -1.401903953066851 0 0.240854158773046 -1.315848866608791 0 0.2041642796049162 -1.390282838060914 0 0.2266663725528579 -2.035668264987266 0 0 0 0 -2.603160508841825 10.83209036606123 0 -6.186275685406096 10.99218599155422 0 -4.483478424091273 8.004193436625965 0 -11.18414017537954 7.794526836731415 0 -6.843712012865481 7.976636592536396 0 -9.011409120182135 9.230642312960423 0 0 0 0 0.1500401776523051 -3.269853882667309 0 0.2593825234564716 -3.419893763233409 0 0.2174877346578326 -1.549947181046219 0 0.3226142042922113 -1.466270716032139 0 0.2719460581154918 -1.538713166428204 0 0.3029520717255473 -2.134944650526341 0 0 0 0 -1.365253951862903 4.675832205329047 0 -3.299092330657244 4.724572488396388 0 -2.374290997649294 3.695297579371601 0 -6.04845438943561 3.614066903664102 0 -3.658253116269265 3.684684277705739 0 -4.848596446973658 4.14763505069764 0 0 0 0 0.3141919106047525 -3.297651469111386 0 0.5803471852511304 -3.401467031759558 0 0.4738747987902728 -1.947287725491236 0 0.7536934390022585 -1.86976344400248 0 0.6135062709443756 -1.936975456282154 0 0.69800277314699 -2.450066625792888 0 0 0 0 -0.5239531272341936 1.097295516534714 0 -1.387929456990124 1.103429965917199 0 -0.9596993445707384 0.953981264181046 0 -2.770295352053725 0.9402915041132501 0 -1.560379888558658 0.9522092658035521 0 -2.151440608195549 1.024976865000046 0 0 0 0 0.299587685673376 -3.260015296986498 0 0.5503538125887708 -3.364194738389076 0 0.4504022406645052 -1.909850241712669 0 0.7119493920488278 -1.832728679888145 0 0.5813768021123699 -1.899588295890539 0 0.6601938525501369 -2.411240408544033 0 0 0 0 -0.5458701779439273 1.173277655240772 0 -1.435096067598785 1.180007541078044 0 -0.9956798547542869 1.016732355628672 0 -2.842786244613164 1.001844032260603 0 -1.611476540907512 1.014804598480695 0 -2.214110957390461 1.094122879507268 0 0 0 0 0.3201851589898538 -3.314087665326412 0 0.5927209675505637 -3.417829064687818 0 0.4835357888980937 -1.962857121216695 0 0.7709926567625357 -1.885136528998055 0 0.626771818671835 -1.952519964517972 0 0.7136470729267823 -2.466449132519892 0 0 0 0 -0.5157592372266107 1.069319905506529 0 -1.370387748725701 1.075239832373273 0 -0.9462743484897647 0.9307942688654842 0 -2.743743515640771 0.9175403119869225 0 -1.541406564552436 0.9290788865461105 0 -2.128314782638242 0.999470250868564 0 0 0 0 0.2902701004834553 -3.237983336604764 0 0.5313400700974973 -3.34254904571964 0 0.4354802863263357 -1.886352346009626 0 0.6856275043376042 -1.809426010209049 0 