<?xml version="1.0" encoding="UTF-8"?>
<!-- This network was created in GeNIe Academic, which can be used for academic teaching and research purposes only -->
<smile version="1.0" id="unknown" numsamples="1000" discsamples="10000">
	<nodes>
		<cpt id="Sex">
			<state id="M" />
			<state id="W" />
			<probabilities>0.695118 0.304882</probabilities>
		</cpt>
		<cpt id="Age">
			<state id="age_2_young" />
			<state id="age_3_young_adult" />
			<state id="age_4_adult" />
			<state id="age_5_old_adult" />
			<probabilities>0.19078 0.380053 0.298359 0.130808</probabilities>
		</cpt>
		<cpt id="SD">
			<state id="long" />
			<state id="normal" />
			<state id="short" />
			<parents>Age Sex</parents>
			<probabilities>0.00133138 0.937824 0.0608443 0.000901244 0.907879 0.0912202 0.000654266 0.877796 0.121549 0.000682752 0.850023 0.149294 0.00199487 0.919508 0.07849739999999999 0.000764117 0.885107 0.114128 0.000982595 0.839587 0.159431 0.000721169 0.77407 0.225209</probabilities>
		</cpt>
		<cpt id="SES">
			<state id="ses_0" />
			<state id="ses_1" />
			<state id="ses_2" />
			<parents>Age Sex</parents>
			<probabilities>0.265038 0.608924 0.126038 0.248171 0.617615 0.134215 0.252783 0.615168 0.132049 0.242912 0.631385 0.125702 0.227351 0.606203 0.166446 0.194898 0.6426539999999999 0.162448 0.188273 0.641218 0.170509 0.162707 0.664855 0.172438</probabilities>
		</cpt>
		<cpt id="Depression">
			<state id="False" />
			<state id="True" />
			<parents>Age SES Sex</parents>
			<probabilities>0.997864 0.00213634 0.996706 0.00329396 0.993249 0.00675069 0.993046 0.00695359 0.998855 0.00114513 0.997613 0.00238735 0.996694 0.00330579 0.994559 0.00544094 0.99897 0.00103022 0.997875 0.00212517 0.997028 0.00297248 0.9972 0.00279973 0.994321 0.00567869 0.988463 0.0115371 0.980156 0.0198444 0.965171 0.0348294 0.997887 0.00211262 0.99496 0.00504005 0.992655 0.00734544 0.989256 0.0107445 0.998267 0.00173322 0.9953959999999999 0.00460351 0.993538 0.00646147 0.993063 0.00693661</probabilities>
		</cpt>
		<cpt id="PA">
			<state id="state_1" />
			<state id="state_2" />
			<parents>Age SD SES Sex</parents>
			<probabilities>0.524755 0.475245 0.486764 0.513236 0.531614 0.468386 0.49244 0.50756 0.394941 0.605058 0.468981 0.531019 0.484327 0.515673 0.483203 0.516797 0.48296 0.5170400000000001 0.540086 0.459914 0.560878 0.439123 0.537268 0.462732 0.427576 0.572424 0.550937 0.449063 0.58141 0.41859 0.63091 0.36909 0.389522 0.610478 0.467362 0.5326379999999999 0.484082 0.515918 0.473049 0.5269509999999999 0.471865 0.528135 0.517563 0.482437 0.5182 0.4818 0.514438 0.485562 0.489528 0.510472 0.5123180000000001 0.487682 0.489543 0.510458 0.48897 0.51103 0.336539 0.663461 0.393205 0.606795 0.395458 0.604542 0.393267 0.606733 0.424304 0.575696 0.471672 0.528328 0.448944 0.551056 0.46464 0.5353599999999999 0.542883 0.457117 0.504878 0.495122 0.488367 0.511633 0.533342 0.466658 0.514621 0.485379 0.525067 0.474933 0.479156 0.520844 0.500089 0.499911 0.620871 0.379129 0.595337 0.404663 0.538736 0.461264 0.5791190000000001 0.420881 0.588845 0.411155 0.58644 0.41356 0.490922 0.5090789999999999 0.49217 0.50783 0.461171 0.538829 0.496117 0.503883 0.452199 0.547801 0.436543 0.563457 0.554851 0.445149 0.580179 0.419821 0.512441 0.487559 0.515683 0.484317 0.51485 0.48515 0.533888 0.466112 0.464206 0.535794 0.503256 0.496744 0.362231 0.637769 0.42709 0.57291 0.372227 0.627773 0.378981 0.621019 0.49046 0.50954 0.541112 0.458888 0.447486 0.5525139999999999 0.473054 0.526946</probabilities>
		</cpt>
		<cpt id="Smoking">
			<state id="smok_1_not_smoker" />
			<state id="smok_2_smoker" />
			<state id="smok_3_ex_smoker" />
			<parents>Age PA Sex</parents>
			<probabilities>0.44633 0.440946 0.112724 0.471714 0.360803 0.167483 0.398959 0.359016 0.242025 0.376813 0.303406 0.319781 0.557463 0.325515 0.117022 0.551256 0.255865 0.192879 0.483745 0.243345 0.27291 0.448683 0.203768 0.347549 0.529641 0.337748 0.132611 0.554434 0.283239 0.162327 0.496184 0.327477 0.176339 0.543891 0.269983 0.186126 0.58865 0.271293 0.140057 0.579066 0.225942 0.194992 0.542386 0.242026 0.215589 0.5693510000000001 0.188244 0.242404</probabilities>
		</cpt>
		<cpt id="Anxiety">
			<state id="False" />
			<state id="True" />
			<parents>Depression SD Sex Smoking</parents>
			<probabilities>0.979845 0.0201553 0.91576 0.08424 0.984691 0.015309 0.887636 0.112364 0.971337 0.0286633 0.8723880000000001 0.127612 0.984584 0.0154162 0.973072 0.026928 0.969387 0.0306129 0.900114 0.0998858 0.943573 0.0564272 0.910199 0.0898008 0.970985 0.0290149 0.972143 0.0278571 0.9800219999999999 0.0199782 0.916114 0.0838864 0.961551 0.0384487 0.886296 0.113704 0.95391 0.0460904 0.971282 0.0287181 0.951017 0.0489828 0.887996 0.112004 0.924391 0.0756092 0.8503810000000001 0.149619 0.9874000000000001 0.0126001 0.972143 0.0278571 0.979219 0.0207805 0.875464 0.124536 0.9688290000000001 0.0311712 0.926218 0.0737819 0.950061 0.0499387 0.9712460000000001 0.0287544 0.957427 0.0425734 0.858308 0.141692 0.925219 0.07478079999999999 0.912162 0.0878377</probabilities>
		</cpt>
		<cpt id="Alcohol">
			<state id="high" />
			<state id="low" />
			<parents>Age Sex Smoking</parents>
			<probabilities>0.00644031 0.99356 0.019232 0.980768 0.0520384 0.947962 0.103943 0.896057 0.00141365 0.998586 0.00302048 0.99698 0.009248320000000001 0.990752 0.019932 0.9800680000000001 0.025007 0.974993 0.0613806 0.938619 0.134326 0.8656740000000001 0.211757 0.788243 0.00442641 0.995574 0.00832899 0.991671 0.0200169 0.979983 0.0391539 0.960846 0.0192561 0.9807439999999999 0.0447175 0.955283 0.09703970000000001 0.90296 0.162962 0.8370379999999999 0.00291196 0.997088 0.00690617 0.993094 0.0215999 0.9784 0.0301819 0.969818</probabilities>
		</cpt>
		<cpt id="BMI">
			<state id="bmi_1_underweight" />
			<state id="bmi_2_normal" />
			<state id="bmi_3_overweight" />
			<state id="bmi_4_obese" />
			<parents>Age PA Sex Smoking</parents>
			<probabilities>0.00693234 0.405828 0.419232 0.168008 0.00164169 0.304312 0.481547 0.212499 0.00124176 0.220346 0.510119 0.268293 0.0008818539999999999 0.170165 0.519801 0.309152 0.00299079 0.535478 0.377236 0.0842956 0.00165283 0.426927 0.449268 0.122152 0.000822645 0.321628 0.512941 0.164609 0.0006687419999999999 0.249137 0.546656 0.203537 0.0499561 0.65486 0.204121 0.0910632 0.0303589 0.607867 0.239963 0.121811 0.0124512 0.493822 0.319496 0.174231 0.00645641 0.365499 0.38565 0.242394 0.0588179 0.711782 0.164448 0.0649517 0.0340101 0.6764520000000001 0.20335 0.08618779999999999 0.0177104 0.596762 0.282986 0.102542 0.0112362 0.477034 0.371179 0.140551 0.0130996 0.446791 0.391009 0.1491 0.00571014 0.344742 0.449493 0.200055 0.00460531 0.285102 0.465572 0.244721 0.00745811 0.275717 0.459284 0.25754 0.00843635 0.531864 0.369362 0.0903383 0.00411836 0.402353 0.461015 0.132513 0.0025453 0.316432 0.493401 0.187622 0.00518615 0.296832 0.499814 0.198168 0.06796870000000001 0.640147 0.192224 0.0996602 0.0394116 0.598009 0.24983 0.112749 0.0234288 0.532744 0.312303 0.131525 0.0200555 0.467361 0.365878 0.146706 0.0541917 0.700868 0.170366 0.0745744 0.0360771 0.672149 0.206867 0.0849061 0.0203866 0.610197 0.274267 0.0951492 0.0145912 0.547044 0.33519 0.103175 0.00535761 0.33571 0.451727 0.207206 0.0012569 0.228305 0.494927 0.275511 0.000543301 0.147949 0.495925 0.355582 0.000603617 0.119129 0.482802 0.397465 0.00151743 0.464137 0.431664 0.102681 0.000486406 0.328586 0.4995 0.171428 0.000440481 0.205499 0.548691 0.24537 0.000319515 0.163587 0.551185 0.284909 0.0407707 0.633626 0.215411 0.110192 0.0220615 0.571116 0.274545 0.132278 0.00773341 0.456599 0.350007 0.185661 0.00320478 0.36389 0.402923 0.229982 0.0361642 0.702518 0.185605 0.07571310000000001 0.0202309 0.647275 0.239096 0.0933987 0.0103405 0.57179 0.310156 0.107713 0.008640800000000001 0.474753 0.375526 0.14108</probabilities>
		</cpt>
		<cpt id="Hyperchol_">
			<state id="False" />
			<state id="True" />
			<parents>Age Alcohol BMI PA Sex Smoking</parents>
			<probabilities>0.466145 0.533855 0.434877 0.565123 0.448601 0.551399 0.434958 0.565042 0.643549 0.356451 0.635239 0.364761 0.457594 0.5424060000000001 0.465059 0.534941 0.524512 0.475488 0.454525 0.545475 0.340436 0.659564 0.283496 0.716504 0.748597 0.251403 0.604581 0.395419 0.435798 0.564202 0.36261 0.63739 0.467412 0.532588 0.366032 0.633968 0.279728 0.720272 0.248092 0.751908 0.637984 0.362016 0.51242 0.48758 0.39545 0.60455 0.343177 0.656823 0.447916 0.552084 0.292855 0.707145 0.234475 0.765525 0.256504 0.743496 0.553849 0.446151 0.439864 0.560136 0.361238 0.6387620000000001 0.327112 0.672888 0.465471 0.534529 0.465808 0.534192 0.448601 0.551399 0.448949 0.551051 0.723346 0.276654 0.573276 0.426724 0.426951 0.573049 0.466786 0.533214 0.54236 0.45764 0.433861 0.5661389999999999 0.305175 0.694825 0.279305 0.720695 0.7956490000000001 0.204351 0.649204 0.350796 0.469954 0.530046 0.344465 0.655535 0.465224 0.534776 0.35494 0.64506 0.257984 0.742016 0.228121 0.771879 0.701416 0.298584 0.544571 0.45543 0.394613 0.605387 0.33475 0.66525 0.42571 0.57429 0.261164 0.738836 0.26468 0.73532 0.275235 0.724765 0.595807 0.404193 0.462234 0.537766 0.347847 0.652153 0.333098 0.666902 0.448949 0.551051 0.448949 0.551051 0.464884 0.535116 0.434877 0.565123 0.743362 0.256638 0.648568 0.351432 0.475693 0.524307 0.401484 0.598516 0.487493 0.512507 0.512489 0.487511 0.408594 0.591406 0.392256 0.607744 0.790214 0.209786 0.740297 0.259703 0.515706 0.484294 0.25145 0.74855 0.449014 0.550986 0.512211 0.487789 0.404883 0.595117 0.329848 0.670152 0.704826 0.295174 0.644509 0.355491 0.429909 0.570091 0.22827 0.77173 0.448318 0.551682 0.469206 0.530794 0.357172 0.642828 0.404037 0.595963 0.68194 0.31806 0.607724 0.392276 0.41894 0.58106 0.260074 0.739926 0.466145 0.533855 0.481666 0.518334 0.434298 0.565702 0.435945 0.564055 0.7129450000000001 0.287055 0.659064 0.340936 0.44645 0.55355 0.336066 0.663934 0.536612 0.463388 0.515502 0.484498 0.31446 0.68554 0.339633 0.660367 0.780033 0.219967 0.734615 0.265385 0.517336 0.482664 0.25523 0.74477 0.48232 0.51768 0.409224 0.590776 0.368527 0.631473 0.385269 0.614731 0.703453 0.296547 0.633297 0.366703 0.431997 0.568003 0.22065 0.77935 0.465177 0.534823 0.421995 0.578005 0.435682 0.564318 0.354963 0.645037 0.637953 0.362047 0.600051 0.399949 0.402935 0.597065 0.250127 0.749873 0.498714 0.501286 0.498617 0.501383 0.425522 0.574478 0.487442 0.512558 0.7362919999999999 0.263708 0.599297 0.400703 0.462485 0.537515 0.439736 0.560264 0.656359 0.343641 0.438866 0.561134 0.334738 0.665262 0.278218 0.721782 0.765892 0.234108 0.578169 0.421831 0.426199 0.573801 0.323062 0.676938 0.470949 0.529051 0.317932 0.682068 0.24538 0.75462 0.236094 0.763906 0.618887 0.381113 0.454275 0.545725 0.330471 0.669529 0.297672 0.702328 0.486344 0.513656 0.308647 0.691353 0.235699 0.764301 0.229029 0.770971 0.534648 0.465352 0.397872 0.602128 0.312969 0.6870309999999999 0.268921 0.731079 0.450401 0.5495989999999999 0.482519 0.517481 0.42672 0.57328 0.470001 0.529999 0.709917 0.290083 0.549472 0.450528 0.459888 0.540112 0.460214 0.539786 0.5836789999999999 0.416321 0.434554 0.565446 0.330553 0.669447 0.279621 0.720379 0.796387 0.203613 0.60027 0.39973 0.42807 0.57193 0.313707 0.686293 0.53265 0.46735 0.34717 0.65283 0.240342 0.7596580000000001 0.242747 0.757253 0.665529 0.334471 0.485984 0.514016 0.331185 0.668815 0.299773 0.700227 0.423702 0.576298 0.278249 0.721751 0.23455 0.76545 0.235943 0.764057 0.5412979999999999 0.458702 0.389737 0.610263 0.308539 0.691461 0.264046 0.735954 0.436381 0.563619 0.45682 0.54318 0.422164 0.577836 0.421534 0.578466 0.770846 0.229154 0.648015 0.351985 0.439713 0.560287 0.359473 0.640527 0.431151 0.568849 0.496578 0.503422 0.327595 0.672405 0.354834 0.645166 0.802753 0.197247 0.720584 0.279416 0.474255 0.525745 0.25409 0.74591 0.485441 0.514559 0.487506 0.512494 0.378476 0.621524 0.332636 0.667364 0.700675 0.299325 0.615592 0.384408 0.356554 0.643446 0.220376 0.779624 0.449361 0.550639 0.44168 0.55832 0.384542 0.6154579999999999 0.406668 0.593332 0.6772319999999999 0.322768 0.548484 0.451516 0.325988 0.6740119999999999 0.258541 0.741459 0.449424 0.550576 0.465938 0.534062 0.444298 0.555702 0.449013 0.550987 0.722247 0.277753 0.622653 0.377347 0.512096 0.487904 0.450608 0.549392 0.537376 0.462624 0.496583 0.503417 0.342359 0.657641 0.361601 0.638399 0.78729 0.212711 0.715683 0.284317 0.454599 0.545401 0.237387 0.762613 0.522542 0.477458 0.371908 0.628092 0.346542 0.653458 0.316139 0.6838610000000001 0.702071 0.297929 0.601746 0.398254 0.358107 0.641893 0.201778 0.798222 0.448949 0.551051 0.448165 0.551835 0.425933 0.574067 0.433234 0.566766 0.618873 0.381127 0.527168 0.472832 0.350328 0.649672 0.22706 0.77294 0.448949 0.551051 0.435233 0.564767 0.434684 0.565316 0.435233 0.564767 0.495231 0.504769 0.447221 0.552779 0.496004 0.503996 0.452305 0.547695 0.476129 0.523871 0.377095 0.622905 0.286679 0.713321 0.250839 0.749161 0.686176 0.313824 0.5274720000000001 0.472528 0.362622 0.637378 0.324884 0.675116 0.490113 0.509887 0.318048 0.681952 0.228378 0.771622 0.235581 0.764419 0.58604 0.41396 0.454172 0.545828 0.339888 0.660112 0.313339 0.686661 0.437771 0.562229 0.284298 0.7157019999999999 0.238747 0.761253 0.212078 0.787922 0.517746 0.482254 0.400645 0.599356 0.326662 0.673338 0.311899 0.688101 0.465471 0.534529 0.448949 0.551051 0.448949 0.551051 0.448601 0.551399 0.534927 0.465073 0.483168 0.516832 0.482411 0.517589 0.434849 0.565151 0.529807 0.470193 0.416478 0.583522 0.230812 0.769188 0.251592 0.748408 0.742622 0.257378 0.588626 0.411374 0.408111 0.591889 0.319675 0.680325 0.475227 0.524773 0.361572 0.638428 0.227273 0.7727270000000001 0.23651 0.76349 0.64378 0.35622 0.492219 0.507781 0.36488 0.63512 0.315998 0.684002 0.409234 0.590766 0.316614 0.683386 0.226784 0.773216 0.240734 0.759266 0.534256 0.465744 0.407882 0.592118 0.327151 0.672849 0.295124 0.7048759999999999 0.465471 0.534529 0.449297 0.5507030000000001 0.435315 0.564685 0.448601 0.551399 0.721697 0.278303 0.552662 0.447338 0.464709 0.535291 0.448815 0.551185 0.42923 0.57077 0.44239 0.5576100000000001 0.432554 0.567446 0.346328 0.653672 0.75983 0.24017 0.702353 0.297647 0.464378 0.535622 0.226841 0.773159 0.465471 0.534529 0.437561 0.562439 0.39308 0.60692 0.382763 0.617237 0.668683 0.331317 0.614144 0.385856 0.38112 0.61888 0.206894 0.793106 0.448601 0.551399 0.434602 0.565398 0.407062 0.592938 0.437094 0.562906 0.6530589999999999 0.346941 0.55003 0.44997 0.345655 0.654345 0.21967 0.78033 0.449296 0.550704 0.439571 0.560429 0.4481 0.5518999999999999 0.433507 0.566493 0.603085 0.396915 0.557079 0.44292 0.446092 0.553908 0.406007 0.593993 0.485253 0.514747 0.531148 0.468852 0.387908 0.612092 0.35548 0.64452 0.751591 0.248409 0.69651 0.30349 0.468985 0.531015 0.205835 0.794165 0.448666 0.551334 0.416265 0.583735 0.405536 0.594464 0.394825 0.605175 0.655294 0.344706 0.601701 0.398299 0.365673 0.634327 0.195059 0.804941 0.435233 0.564767 0.434959 0.565041 0.429431 0.570569 0.408199 0.591801 0.555621 0.444379 0.570429 0.429571 0.37765 0.62235 0.229119 0.770881</probabilities>
		</cpt>
		<cpt id="Diabetes">
			<state id="False" />
			<state id="True" />
			<parents>Age BMI PA Sex</parents>
			<probabilities>0.9866509999999999 0.0133493 0.979733 0.0202674 0.982257 0.0177432 0.948706 0.0512936 0.9927820000000001 0.00721777 0.989521 0.0104788 0.971791 0.0282093 0.92269 0.0773099 0.992489 0.00751108 0.9846240000000001 0.0153756 0.947443 0.0525569 0.874766 0.125234 0.98594 0.0140597 0.956999 0.0430015 0.878437 0.121563 0.786184 0.213816 0.991062 0.008937850000000001 0.9868479999999999 0.0131524 0.956713 0.043287 0.950987 0.0490126 0.9931410000000001 0.00685917 0.990075 0.009925160000000001 0.9757130000000001 0.0242866 0.925332 0.0746684 0.993003 0.00699685 0.986788 0.0132124 0.95667 0.0433299 0.885999 0.114001 0.984772 0.0152283 0.9571730000000001 0.0428267 0.884979 0.115021 0.784473 0.215527 0.99633 0.00366974 0.993283 0.00671714 0.994263 0.00573684 0.969094 0.0309058 0.994721 0.00527911 0.993126 0.00687441 0.9891760000000001 0.0108237 0.9761649999999999 0.0238353 0.9919480000000001 0.0080517 0.987038 0.0129618 0.979282 0.020718 0.9490960000000001 0.0509038 0.986804 0.0131963 0.974967 0.0250329 0.938223 0.0617767 0.875426 0.124574 0.994787 0.00521304 0.992273 0.00772726 0.992524 0.0074762 0.981814 0.018186 0.995935 0.00406535 0.993658 0.00634158 0.990874 0.009125960000000001 0.978779 0.0212207 0.992059 0.00794081 0.98632 0.0136798 0.9781570000000001 0.0218434 0.953198 0.0468022 0.982024 0.0179759 0.9660260000000001 0.0339743 0.930775 0.06922499999999999 0.892336 0.107664</probabilities>
		</cpt>
		<cpt id="Hypertension">
			<state id="False" />
			<state id="True" />
			<parents>Age Alcohol BMI Diabetes PA Smoking</parents>
			<probabilities>0.851079 0.148921 0.850891 0.149109 0.850985 0.149015 0.855409 0.144591 0.987479 0.0125214 0.983185 0.0168153 0.947964 0.0520361 0.8759130000000001 0.124087 0.928559 0.0714413 0.913457 0.0865431 0.8587 0.1413 0.76667 0.23333 0.98268 0.0173201 0.96861 0.0313901 0.919395 0.0806048 0.797808 0.202192 0.88095 0.11905 0.857938 0.142062 0.737311 0.262689 0.6075700000000001 0.39243 0.950063 0.0499372 0.916775 0.0832254 0.806177 0.193823 0.66113 0.33887 0.883275 0.116725 0.658084 0.341916 0.580999 0.419001 0.472985 0.527015 0.85515 0.14485 0.784277 0.215723 0.639885 0.360115 0.483753 0.516247 0.846088 0.153912 0.846088 0.153912 0.846088 0.153912 0.846088 0.153912 0.859754 0.140246 0.855418 0.144582 0.845651 0.154349 0.846185 0.153815 0.846088 0.153912 0.82568 0.17432 0.86212 0.13788 0.749075 0.250925 0.91609 0.08391 0.889999 0.110001 0.77329 0.22671 0.613605 0.386395 0.819685 0.180315 0.789981 0.210019 0.656081 0.343919 0.641831 0.358169 0.872888 0.127112 0.807944 0.192056 0.574306 0.425694 0.460182 0.539818 0.850797 0.149203 0.726848 0.273152 0.525585 0.474415 0.531478 0.468522 0.799409 0.200591 0.572593 0.427407 0.38762 0.61238 0.341473 0.658527 0.855409 0.144591 0.858946 0.141054 0.851641 0.148359 0.849913 0.150087 0.986271 0.0137293 0.978881 0.0211185 0.951349 0.0486505 0.870681 0.129319 0.924288 0.0757123 0.920167 0.07983320000000001 0.840882 0.159118 0.766235 0.233765 0.978965 0.0210353 0.967239 0.0327607 0.918162 0.08183840000000001 0.816823 0.183177 0.874321 0.125679 0.871608 0.128392 0.739641 0.260359 0.619291 0.380709 0.947782 0.0522176 0.9161280000000001 0.0838719 0.807664 0.192336 0.666056 0.333944 0.796335 0.203666 0.724794 0.275206 0.576616 0.423384 0.465362 0.5346379999999999 0.860469 0.139531 0.791249 0.208751 0.6461750000000001 0.353825 0.500508 0.499492 0.846088 0.153912 0.846088 0.153912 0.846088 0.153912 0.846088 0.153912 0.855773 0.144227 0.860107 0.139893 0.855864 0.144136 0.851079 0.148921 0.851079 0.148921 0.851267 0.148733 0.793176 0.206824 0.773927 0.226073 0.939917 0.0600831 0.881115 0.118885 0.783223 0.216777 0.64766 0.35234 0.846185 0.153815 0.782288 0.217712 0.755578 0.244422 0.6321639999999999 0.367836 0.889788 0.110212 0.819155 0.180845 0.592391 0.407609 0.459396 0.540604 0.846185 0.153815 0.710414 0.289586 0.617914 0.382086 0.570611 0.429389 0.804659 0.195341 0.592496 0.407504 0.454415 0.545585 0.400591 0.599409 0.871346 0.128654 0.886575 0.113425 0.847919 0.152081 0.79348 0.20652 0.984246 0.0157538 0.977223 0.0227767 0.944457 0.0555433 0.8663920000000001 0.133608 0.952179 0.0478214 0.921065 0.0789352 0.799024 0.200976 0.659597 0.340403 0.984042 0.0159581 0.963934 0.0360659 0.8959780000000001 0.104022 0.773848 0.226152 0.8889359999999999 0.111064 0.829222 0.170778 0.706996 0.293004 0.5906400000000001 0.40936 0.946986 0.0530135 0.91409 0.0859101 0.798086 0.201914 0.659377 0.340623 0.823937 0.176062 0.709518 0.290482 0.529365 0.470635 0.461148 0.538852 0.8771330000000001 0.122867 0.7986529999999999 0.201347 0.63417 0.36583 0.494926 0.505074 0.846088 0.153912 0.846185 0.153815 0.846185 0.153815 0.850891 0.149109 0.8515470000000001 0.148453 0.860371 0.139629 0.847151 0.152849 0.8555 0.1445 0.851267 0.148733 0.8488329999999999 0.151167 0.746888 0.253112 0.736912 0.263088 0.911115 0.0888849 0.885132 0.114868 0.723989 0.276011 0.746383 0.253617 0.8252389999999999 0.174761 0.766137 0.233862 0.549198 0.450802 0.5740420000000001 0.425958 0.905057 0.0949434 0.800119 0.199881 0.605525 0.394475 0.547694 0.452306 0.85136 0.14864 0.736779 0.263221 0.515486 0.484514 0.447471 0.552529 0.757397 0.242603 0.582072 0.417928 0.43027 0.56973 0.390195 0.609805 0.847344 0.152656 0.86794 0.13206 0.854244 0.145757 0.83008 0.16992 0.980416 0.0195839 0.9651690000000001 0.0348309 0.923646 0.0763543 0.886485 0.113515 0.938999 0.0610006 0.91599 0.0840099 0.834266 0.165734 0.688392 0.311608 0.979563 0.0204371 0.967349 0.0326509 0.906368 0.0936319 0.796799 0.203201 0.916116 0.083884 0.860451 0.139549 0.745061 0.254939 0.604847 0.395153 0.957212 0.0427876 0.917161 0.08283939999999999 0.799377 0.200623 0.67237 0.32763 0.839053 0.160947 0.682033 0.317967 0.564843 0.435157 0.57834 0.42166 0.873387 0.126613 0.79809 0.20191 0.638091 0.361909 0.509723 0.490277 0.846088 0.153912 0.846185 0.153815 0.846088 0.153912 0.845554 0.154446 0.851454 0.148546 0.851454 0.148546 0.850797 0.149203 0.845846 0.154154 0.863598 0.136402 0.811094 0.188906 0.821522 0.178478 0.749704 0.250296 0.908958 0.0910425 0.925143 0.0748573 0.730371 0.269629 0.706156 0.293844 0.820202 0.179798 0.830597 0.169403 0.593923 0.406077 0.543732 0.456268 0.921233 0.07876710000000001 0.821311 0.178689 0.581748 0.418252 0.489288 0.5107120000000001 0.846088 0.153912 0.755601 0.244399 0.608089 0.391911 0.639499 0.360501 0.79499 0.20501 0.621309 0.378691 0.451209 0.548791 0.451091 0.548909 0.850891 0.149109 0.851079 0.148921 0.825979 0.174021 0.850891 0.149109 0.964625 0.0353751 0.931291 0.0687087 0.896196 0.103804 0.836132 0.163868 0.901338 0.0986616 0.919793 0.0802069 0.859255 0.140745 0.738496 0.261504 0.981728 0.0182719 0.976127 0.0238728 0.903088 0.0969124 0.795915 0.204085 0.9157149999999999 0.0842854 0.841611 0.158389 0.721038 0.278962 0.547466 0.452534 0.949113 0.0508866 0.920641 0.0793587 0.780497 0.219503 0.647859 0.352141 0.8439950000000001 0.156005 0.682076 0.317924 0.509394 0.490606 0.440754 0.559246 0.872256 0.127744 0.7775 0.2225 0.6042650000000001 0.395735 0.46249 0.53751 0.846088 0.153912 0.846088 0.153912 0.845651 0.154349 0.846088 0.153912 0.850797 0.149203 0.846088 0.153912 0.845554 0.154446 0.846185 0.153815 0.846088 0.153912 0.796111 0.203889 0.814617 0.185383 0.787766 0.212234 0.860237 0.139763 0.88483 0.11517 0.8150770000000001 0.184923 0.731952 0.268048 0.846088 0.153912 0.810312 0.189688 0.683029 0.316971 0.56435 0.43565 0.883019 0.116981 0.783711 0.216289 0.607332 0.392668 0.489644 0.510356 0.846185 0.153815 0.797133 0.202867 0.467647 0.532353 0.4519 0.5481 0.768189 0.231811 0.581306 0.418694 0.408289 0.591711 0.35382 0.64618 0.850985 0.149015 0.860196 0.139804 0.846573 0.153427 0.851267 0.148733 0.942308 0.0576923 0.949999 0.050001 0.919681 0.0803195 0.809982 0.190018 0.936422 0.06357839999999999 0.912211 0.0877892 0.8358449999999999 0.164155 0.703464 0.296536 0.9824619999999999 0.0175378 0.970437 0.0295631 0.910755 0.089245 0.795575 0.204425 0.903425 0.0965753 0.876497 0.123503 0.725372 0.274628 0.570738 0.429262 0.948824 0.0511759 0.912653 0.0873466 0.7948769999999999 0.205123 0.629996 0.370004 0.807332 0.192668 0.730342 0.269658 0.540486 0.459514 0.468129 0.531871 0.864063 0.135937 0.786277 0.213723 0.619606 0.380394 0.489275 0.510725 0.846088 0.153912 0.846088 0.153912 0.846088 0.153912 0.846088 0.153912 0.846282 0.153718 0.850985 0.149015 0.846185 0.153815 0.846185 0.153815 0.850891 0.149109 0.8121159999999999 0.187884 0.8491379999999999 0.150862 0.789889 0.210111 0.9071 0.0928997 0.894015 0.105985 0.6995170000000001 0.300483 0.698522 0.301478 0.820429 0.179571 0.85362 0.14638 0.640191 0.359809 0.597013 0.402987 0.896791 0.103209 0.814395 0.185605 0.6190059999999999 0.380994 0.482214 0.517786 0.846088 0.153912 0.76802 0.23198 0.596905 0.403095 0.464915 0.535085 0.783037 0.216963 0.637091 0.362909 0.438996 0.5610039999999999 0.360334 0.639666</probabilities>
		</cpt>
		<cpt id="CRC">
			<state id="False" />
			<state id="True" />
			<parents>Age Alcohol Diabetes Hyperchol_ Hypertension Sex Smoking</parents>
			<probabilities>0.999872 0.000127748 0.999457 0.000543414 0.9994729999999999 0.000527361 0.999865 0.000134843 0.999829 0.000171449 0.999763 0.00023748 0.999149 0.000850816 0.9973379999999999 0.00266172 0.9992 0.000799556 0.999313 0.000686524 0.997665 0.00233458 0.99941 0.000590388 0.999842 0.000158251 0.999916 8.415010000000001e-05 0.997201 0.00279941 0.999313 0.0006867140000000001 0.999856 0.000144312 0.999983 1.69606e-05 0.998898 0.00110159 0.999048 0.000952184 0.999845 0.000154905 0.999758 0.000241853 0.9991640000000001 0.000836343 0.997989 0.00201101 0.999198 0.000801576 0.999335 0.000665428 0.999632 0.000368425 0.999645 0.000354591 0.999795 0.000205074 0.99995 4.97554e-05 0.998856 0.00114355 0.9940600000000001 0.00594007 0.999379 0.00062065 0.999717 0.000282513 0.999839 0.000160866 0.991151 0.00884892 0.999994 5.90152e-06 0.9994150000000001 0.000585063 0.9997470000000001 0.000253307 0.995068 0.00493165 0.999173 0.000826874 0.999176 0.000823751 0.999372 0.000627587 0.999506 0.000493813 0.999406 0.000594079 0.999748 0.000252409 0.992698 0.00730234 0.992233 0.00776674 0.999479 0.000521045 0.999876 0.000123514 0.998674 0.00132565 0.999573 0.00042741 0.999989 1.07437e-05 0.999972 2.77651e-05 0.999267 0.000732648 0.9981680000000001 0.0018323 0.9991989999999999 0.000801071 0.9995000000000001 0.000499626 0.99975 0.00025006 0.999759 0.000241109 0.999445 0.000555416 0.999897 0.000102526 0.999108 0.000892008 0.9985039999999999 0.00149607 0.9994769999999999 0.000522819 0.9996699999999999 0.000329788 0.999615 0.000384814 0.999466 0.000534145 0.999813 0.000186824 0.999765 0.00023466 0.998874 0.00112589 0.9960599999999999 0.00394025 0.999173 0.000826874 0.999174 0.000826352 0.999198 0.000801576 0.999174 0.000825831 0.999736 0.000263879 0.999847 0.000153282 0.999719 0.00028147 0.999539 0.000461458 0.999293 0.000707015 0.99962 0.000379866 0.999815 0.000184826 0.989388 0.0106124 0.999983 1.70187e-05 0.999797 0.000203031 0.999027 0.000973437 0.996409 0.00359144 0.999174 0.000826352 0.999173 0.000826874 0.9991989999999999 0.000801071 0.999223 0.0007768 0.99969 0.000310042 0.999819 0.000181352 0.999866 0.000133545 0.999786 0.000213628 0.999173 0.000826874 0.999224 0.000776309 0.999346 0.000653567 0.99935 0.000649881 0.999867 0.000132542 0.9999749999999999 2.51397e-05 0.999258 0.0007421249999999999 0.994617 0.00538317 0.999173 0.000826874 0.999173 0.000826874 0.999174 0.000826352 0.999174 0.000826352 0.999272 0.000728198 0.999491 0.000509429 0.999539 0.000461448 0.9996 0.000400374 0.999173 0.000826874 0.999203 0.000797041 0.999468 0.00053212 0.98245 0.0175503 0.999819 0.000180611 0.999969 3.06896e-05 0.999995 5.0363e-06 0.997947 0.00205311 0.999173 0.000826874 0.999173 0.000826874 0.999175 0.00082531 0.999247 0.000752503 0.999247 0.000753453 0.999396 0.000604176 0.999798 0.000202503 0.992666 0.00733432 0.999961 3.89411e-05 0.999987 1.32967e-05 0.999237 0.000763151 0.999906 9.378880000000001e-05 1 3.22247e-09 0.999758 0.000242117 0.999403 0.000596693 0.998362 0.00163771 0.999247 0.000752504 0.999387 0.000613295 0.999625 0.000375158 0.999432 0.000568329 0.999822 0.000177527 0.9999 0.000100199 0.9999209999999999 7.92624e-05 0.999814 0.000186218 0.999937 6.34521e-05 0.999995 5.14005e-06 0.998931 0.00106868 0.999085 0.000914616 1 3.74118e-08 0.999823 0.000176595 0.999189 0.000811134 0.999003 0.000996523 0.99927 0.000730037 0.99951 0.000489716 0.999823 0.000177161 0.9996699999999999 0.000329752 0.999777 0.000223485 0.9979980000000001 0.00200166 0.999979 2.09743e-05 0.999491 0.0005094089999999999 0.999508 0.000492479 0.999795 0.000204847 0.99898 0.00102016 0.999283 0.000717256 0.999982 1.80484e-05 0.999994 6.12677e-06 0.999995 5.49198e-06 0.9997 0.000300428 0.9991989999999999 0.000801071 0.999295 0.000704794 0.99956 0.000440445 0.999492 0.000507776 0.999332 0.000667517 0.999708 0.00029202 0.999893 0.000107307 0.9998280000000001 0.000172181 0.999626 0.000374194 0.999942 5.78449e-05 0.998671 0.00132907 0.998995 0.00100541 0.99998 1.99175e-05 0.999999 1.32871e-06 0.999435 0.000565326 0.99683 0.00316962 0.999198 0.000801576 0.9994729999999999 0.000526768 0.999866 0.000134485 0.999826 0.000174394 0.999524 0.000476507 0.999368 0.00063168 0.998197 0.00180322 0.991269 0.008730949999999999 0.999565 0.000434503 0.999711 0.000288696 0.999673 0.000326722 0.999374 0.000626019 0.999844 0.000155776 0.9998050000000001 0.000194945 0.99925 0.000749983 0.997324 0.00267608 0.999173 0.000826874 0.999245 0.000755357 0.9992 0.000800061 0.9991989999999999 0.000801071 0.999615 0.000384539 0.999725 0.000274576 0.999598 0.000402359 0.999389 0.000610614 0.9994729999999999 0.000526764 0.999709 0.000291073 0.999849 0.000151295 0.999698 0.00030205 0.999429 0.000570756 0.999575 0.000425247 0.999919 8.050389999999999e-05 0.999996 4.43998e-06 0.999174 0.000826352 0.999174 0.000826352 0.999288 0.00071148 0.999225 0.000775332 0.999569 0.000431035 0.999715 0.000285356 0.99981 0.000190342 0.999606 0.000394278 0.9991989999999999 0.000801071 0.999202 0.000797544 0.999348 0.000651926 0.999227 0.000772892 0.9998320000000001 0.000167611 0.999934 6.63482e-05 0.999946 5.35254e-05 0.999717 0.000282745 0.999173 0.000826874 0.999173 0.000826874 0.9991989999999999 0.000801071 0.999174 0.000825831 0.999198 0.000801576 0.9993300000000001 0.000670039 0.999381 0.0006194180000000001 0.999274 0.000725917 0.999174 0.000826352 0.999271 0.000729116 0.999521 0.000479225 0.999474 0.00052553 0.999722 0.000277793 0.999926 7.38056e-05 0.999678 0.000321924 0.999453 0.000547029 0.999173 0.000826874 0.999174 0.000826352 0.999223 0.000776799 0.999174 0.000825831 0.999174 0.000825831 0.999495 0.0005053460000000001 0.999723 0.000276693 0.9996429999999999 0.000356766 0.999789 0.000210576 0.9999400000000001 6.00484e-05 0.997691 0.00230914 0.999872 0.000128374 1 2.0033e-07 0.999577 0.000422963 0.998924 0.00107554 0.997539 0.00246127 0.999174 0.000825831 0.99927 0.000730036 0.999457 0.000542499 0.9995230000000001 0.000476527 0.999537 0.000463327 0.999814 0.000185767 0.999905 9.48688e-05 0.998283 0.00171706 0.9997740000000001 0.000226357 0.999976 2.4433e-05 0.99878 0.00122036 0.997935 0.00206466 0.999999 1.01117e-06 0.999453 0.000547012 0.998347 0.00165308 0.997077 0.00292277 0.9991989999999999 0.000800565 0.999398 0.00060156 0.999712 0.000287971 0.990596 0.009404249999999999 0.999533 0.000467504 0.999885 0.00011516 0.999976 2.35582e-05 0.991893 0.0081075 0.999269 0.000730495 0.9996620000000001 0.000337589 0.99986 0.000140311 0.991704 0.008296400000000001 0.999931 6.90404e-05 0.999987 1.32312e-05 0.999692 0.000307821 0.9972569999999999 0.00274334 0.999173 0.000826874 0.999248 0.000752029 0.998848 0.00115228 0.999595 0.000405354 0.999269 0.000730496 0.999641 0.000359407 0.998378 0.00162176 0.996916 0.0030841 0.99929 0.000710137 0.999855 0.000145063 0.996333 0.00366749 0.997774 0.00222622 0.999927 7.29433e-05 0.999352 0.000647928 0.998825 0.00117506 0.997323 0.00267696 0.999198 0.000801576 0.999381 0.0006187020000000001 0.999792 0.000208319 0.9998629999999999 0.000137356 0.999327 0.000672576 0.999815 0.000185269 0.997369 0.00263135 0.995541 0.00445924 0.999349 0.000650699 0.999567 0.00043314 0.999094 0.000905525 0.99926 0.000740303 0.999811 0.00018909 0.999831 0.000169015 0.998519 0.00148085 0.998715 0.00128474 0.999173 0.000826874 0.999174 0.000826352 0.9991989999999999 0.000800565 0.999173 0.000826874 0.999516 0.000484343 0.999627 0.000373315 0.999606 0.000394118 0.999375 0.000625239 0.99931 0.000690423 0.99959 0.000410077 0.9997819999999999 0.000217863 0.998327 0.00167266 0.999994 5.66361e-06 0.99965 0.000350075 0.99895 0.00104995 0.997696 0.00230406 0.999173 0.000826874 0.9991989999999999 0.000801071 0.999269 0.000730495 0.999225 0.000774842 0.999397 0.000603448 0.99958 0.000419933 0.99968 0.000320402 0.999625 0.000374562 0.999174 0.000826352 0.9991989999999999 0.000800566 0.999206 0.000794036 0.999202 0.000798045 0.9995810000000001 0.000419416 0.999855 0.000145448 0.999904 9.62282e-05 0.999699 0.00030118 0.999173 0.000826874 0.999173 0.000826874 0.999174 0.000826352 0.999175 0.000825311 0.999175 0.00082531 0.999247 0.000752504 0.99943 0.000569976 0.999325 0.000675431 0.999198 0.000801576 0.999175 0.000825311 0.999404 0.000595564 0.998789 0.00121134 0.999499 0.000501255 0.999877 0.000123249 0.996696 0.00330447 0.9950830000000001 0.00491728 0.999173 0.000826874 0.999173 0.000826874 0.999201 0.000799052 0.999224 0.00077582 0.999198 0.000801576 0.999231 0.00076901 0.999528 0.000472125 0.999566 0.000434188</probabilities>
		</cpt>
		<decision id="Screening">
			<state id="gFOBT" />
			<state id="FIT" />
			<state id="ImageCT" />
			<state id="Colonoscopy" />
			<state id="mt_sDNA" />
			<state id="mSEPT9" />
			<state id="GT" />
			<state id="M3" />
			<state id="None" />
			<parents>Age Alcohol Sex Smoking Diabetes</parents>
		</decision>
		<cpt id="Diagnose">
			<state id="Pred_True" />
			<state id="Pred_False" />
			<parents>Screening CRC</parents>
			<probabilities>0.05 0.95 0.3 0.7 0.06000000000000005 0.9399999999999999 0.79 0.21 0.06999999999999995 0.93 0.84 0.16 0.02000000000000002 0.98 0.98 0.02000000000000002 0.09999999999999998 0.9 0.92 0.07999999999999996 0.08999999999999997 0.91 0.7 0.3 0.05000000000000004 0.95 0.71 0.29 0.17 0.83 0.66 0.34 0.28 0.72 0.68 0.32</probabilities>
		</cpt>
		<utility id="Utility">
			<parents>Diagnose CRC Screening</parents>
			<utilities>30 25 30 30 30 30 30 30 30 25 25 25 25 25 25 25 25 25 35 35 35 35 35 35 35 35 35 15 15 15 15 15 15 15 15 15</utilities>
		</utility>
	</nodes>
	<extensions>
		<genie version="1.0" app="GeNIe 4.0.2423.0 ACADEMIC" name="unknown">
			<node id="Sex">
				<name>Sex</name>
				<interior color="ccffcc" />
				<outline color="000080" />
				<font color="000000" name="Arial" size="8" />
				<position>1092 45 1164 93</position>
				<barchart width="128" height="64" />
			</node>
			<node id="Age">
				<name>Age</name>
				<interior color="ccffcc" />
				<outline color="000080" />
				<font color="000000" name="Arial" size="8" />
				<position>602 45 674 93</position>
				<barchart active="true" width="128" height="64" />
			</node>
			<node id="SD">
				<name>SD</name>
				<interior color="eea89b" />
				<outline color="000080" />
				<font color="000000" name="Arial" size="8" />
				<position>889 206 961 254</position>
				<barchart width="128" height="64" />
			</node>
			<node id="SES">
				<name>SES</name>
				<interior color="ccffcc" />
				<outline color="000080" />
				<font color="000000" name="Arial" size="8" />
				<position>836 98 908 146</position>
				<barchart width="128" height="64" />
			</node>
			<node id="Depression">
				<name>Depression</name>
				<interior color="eea89b" />
				<outline color="000080" />
				<font color="000000" name="Arial" size="8" />
				<position>1158 267 1230 315</position>
				<barchart width="128" height="64" />
			</node>
			<node id="PA">
				<name>PA</name>
				<interior color="eea89b" />
				<outline color="000080" />
				<font color="000000" name="Arial" size="8" />
				<position>550 242 622 290</position>
				<barchart active="true" width="128" height="64" />
			</node>
			<node id="Smoking">
				<name>Smoking</name>
				<interior color="eea89b" />
				<outline color="000080" />
				<font color="000000" name="Arial" size="8" />
				<position>873 301 945 349</position>
				<barchart width="128" height="64" />
			</node>
			<node id="Anxiety">
				<name>Anxiety</name>
				<interior color="eea89b" />
				<outline color="000080" />
				<font color="000000" name="Arial" size="8" />
				<position>1081 326 1153 374</position>
				<barchart width="128" height="64" />
			</node>
			<node id="Alcohol">
				<name>Alcohol</name>
				<interior color="eea89b" />
				<outline color="000080" />
				<font color="000000" name="Arial" size="8" />
				<position>1164 427 1236 475</position>
				<barchart width="128" height="64" />
			</node>
			<node id="BMI">
				<name>BMI</name>
				<interior color="eea89b" />
				<outline color="000080" />
				<font color="000000" name="Arial" size="8" />
				<position>706 401 778 449</position>
				<barchart width="128" height="64" />
			</node>
			<node id="Hyperchol_">
				<name>Hyperchol.</name>
				<interior color="99ccff" />
				<outline color="000080" />
				<font color="000000" name="Arial" size="8" />
				<position>960 512 1032 560</position>
				<barchart width="128" height="64" />
			</node>
			<node id="Diabetes">
				<name>Diabetes</name>
				<interior color="99ccff" />
				<outline color="000080" />
				<font color="000000" name="Arial" size="8" />
				<position>401 443 473 491</position>
				<barchart width="128" height="64" />
			</node>
			<node id="Hypertension">
				<name>Hypertension</name>
				<interior color="99ccff" />
				<outline color="000080" />
				<font color="000000" name="Arial" size="8" />
				<position>607 567 694 620</position>
				<barchart width="128" height="64" />
			</node>
			<node id="CRC">
				<name>CRC</name>
				<interior color="ebccfd" />
				<outline color="000080" />
				<font color="000000" name="Arial" size="8" />
				<position>855 636 927 684</position>
				<barchart width="128" height="64" />
			</node>
			<node id="Screening">
				<name>Screening</name>
				<interior color="e5f6f7" />
				<outline color="000080" />
				<font color="000000" name="Arial" size="8" />
				<position>227 388 301 429</position>
			</node>
			<node id="Utility">
				<name>Utility</name>
				<interior color="e5f6f7" />
				<outline color="000080" />
				<font color="000000" name="Arial" size="8" />
				<position>681 730 742 762</position>
				<barchart width="199" height="62" />
			</node>
			<node id="Diagnose">
				<name>Diagnose</name>
				<interior color="e5f6f7" />
				<outline color="000080" />
				<font color="000000" name="Arial" size="8" />
				<position>452 669 511 705</position>
			</node>
		</genie>
	</extensions>
</smile>
