<?xml version='1.0' encoding='utf-8'?>
<BIF VERSION="0.3">
  <NETWORK>
    <NAME>UNTITLED</NAME>
    <VARIABLE TYPE="nature">
      <NAME>Age</NAME>
      <OUTCOME>age_2_young</OUTCOME>
      <OUTCOME>age_3_young_adult</OUTCOME>
      <OUTCOME>age_4_adult</OUTCOME>
      <OUTCOME>age_5_old_adult</OUTCOME>
      <PROPERTY>weight = None</PROPERTY>
    </VARIABLE>
    <VARIABLE TYPE="nature">
      <NAME>Alcohol</NAME>
      <OUTCOME>high</OUTCOME>
      <OUTCOME>low</OUTCOME>
      <PROPERTY>weight = None</PROPERTY>
    </VARIABLE>
    <VARIABLE TYPE="nature">
      <NAME>Anxiety</NAME>
      <OUTCOME>False</OUTCOME>
      <OUTCOME>True</OUTCOME>
      <PROPERTY>weight = None</PROPERTY>
    </VARIABLE>
    <VARIABLE TYPE="nature">
      <NAME>BMI</NAME>
      <OUTCOME>bmi_1_underweight</OUTCOME>
      <OUTCOME>bmi_2_normal</OUTCOME>
      <OUTCOME>bmi_3_overweight</OUTCOME>
      <OUTCOME>bmi_4_obese</OUTCOME>
      <PROPERTY>weight = None</PROPERTY>
    </VARIABLE>
    <VARIABLE TYPE="nature">
      <NAME>CRC</NAME>
      <OUTCOME>False</OUTCOME>
      <OUTCOME>True</OUTCOME>
      <PROPERTY>weight = None</PROPERTY>
    </VARIABLE>
    <VARIABLE TYPE="nature">
      <NAME>Depression</NAME>
      <OUTCOME>False</OUTCOME>
      <OUTCOME>True</OUTCOME>
      <PROPERTY>weight = None</PROPERTY>
    </VARIABLE>
    <VARIABLE TYPE="nature">
      <NAME>Diabetes</NAME>
      <OUTCOME>False</OUTCOME>
      <OUTCOME>True</OUTCOME>
      <PROPERTY>weight = None</PROPERTY>
    </VARIABLE>
    <VARIABLE TYPE="nature">
      <NAME>Hyperchol.</NAME>
      <OUTCOME>False</OUTCOME>
      <OUTCOME>True</OUTCOME>
      <PROPERTY>weight = None</PROPERTY>
    </VARIABLE>
    <VARIABLE TYPE="nature">
      <NAME>Hypertension</NAME>
      <OUTCOME>False</OUTCOME>
      <OUTCOME>True</OUTCOME>
      <PROPERTY>weight = None</PROPERTY>
    </VARIABLE>
    <VARIABLE TYPE="nature">
      <NAME>PA</NAME>
      <OUTCOME>state_1</OUTCOME>
      <OUTCOME>state_2</OUTCOME>
      <PROPERTY>weight = None</PROPERTY>
    </VARIABLE>
    <VARIABLE TYPE="nature">
      <NAME>SD</NAME>
      <OUTCOME>long</OUTCOME>
      <OUTCOME>normal</OUTCOME>
      <OUTCOME>short</OUTCOME>
      <PROPERTY>weight = None</PROPERTY>
    </VARIABLE>
    <VARIABLE TYPE="nature">
      <NAME>SES</NAME>
      <OUTCOME>ses_0</OUTCOME>
      <OUTCOME>ses_1</OUTCOME>
      <OUTCOME>ses_2</OUTCOME>
      <PROPERTY>weight = None</PROPERTY>
    </VARIABLE>
    <VARIABLE TYPE="nature">
      <NAME>Sex</NAME>
      <OUTCOME>M</OUTCOME>
      <OUTCOME>W</OUTCOME>
      <PROPERTY>weight = None</PROPERTY>
    </VARIABLE>
    <VARIABLE TYPE="nature">
      <NAME>Smoking</NAME>
      <OUTCOME>smok_1_not_smoker</OUTCOME>
      <OUTCOME>smok_2_smoker</OUTCOME>
      <OUTCOME>smok_3_ex_smoker</OUTCOME>
      <PROPERTY>weight = None</PROPERTY>
    </VARIABLE>
    <DEFINITION>
      <FOR>Age</FOR>
      <TABLE>0.19077957002165832 0.380052967954087 0.2983590968445218 0.1308083651797329 </TABLE>
    </DEFINITION>
    <DEFINITION>
      <FOR>Alcohol</FOR>
      <GIVEN>Age</GIVEN>
      <GIVEN>Sex</GIVEN>
      <GIVEN>Smoking</GIVEN>
      <TABLE>0.006440305583865264 0.9935596944161348 0.02500695181806019 0.9749930481819398 0.01925609242266547 0.9807439075773344 0.001413650521561668 0.9985863494784384 0.004426412564030092 0.9955735874359698 0.0029119637188060057 0.997088036281194 0.019231995335633367 0.9807680046643666 0.06138064777871372 0.9386193522212862 0.04471748808685117 0.9552825119131487 0.003020479932994712 0.9969795200670053 0.008328991327321716 0.9916710086726783 0.0069061695813000075 0.9930938304187 0.0520384413088511 0.9479615586911488 0.13432635249809807 0.8656736475019019 0.09703972874599984 0.9029602712540002 0.009248324142651204 0.9907516758573489 0.020016907062857123 0.9799830929371429 0.02159990872710505 0.978400091272895 0.10394340260441191 0.8960565973955881 0.21175689024509822 0.7882431097549019 0.16296160032806467 0.8370383996719354 0.019931973463702405 0.9800680265362977 0.03915393542784309 0.9608460645721568 0.03018189586972329 0.9698181041302768 </TABLE>
    </DEFINITION>
    <DEFINITION>
      <FOR>Anxiety</FOR>
      <GIVEN>Depression</GIVEN>
      <GIVEN>SD</GIVEN>
      <GIVEN>Sex</GIVEN>
      <GIVEN>Smoking</GIVEN>
      <TABLE>0.9798447317246096 0.020155268275390353 0.9709850533164363 0.029014946683563712 0.9873998727627022 0.01260012723729773 0.9845837570325079 0.015416242967492121 0.95390955834284 0.04609044165716002 0.9500612859537412 0.049938714046258874 0.9846910334419946 0.015308966558005427 0.9800218189399996 0.019978181060000374 0.9792194647038236 0.02078053529617648 0.9693870830337599 0.030612916966240106 0.9510172235882222 0.0489827764117778 0.9574265913694654 0.0425734086305346 0.9713367205132779 0.028663279486722017 0.9615512979389815 0.03844870206101855 0.9688288334320247 0.031171166567975254 0.9435728116153121 0.05642718838468797 0.924390763994637 0.07560923600536298 0.9252192170906567 0.07478078290934331 0.9157600015159332 0.08423999848406678 0.9721429230293989 0.02785707697060107 0.972142923029399 0.027857076970601077 0.9730719638275644 0.026928036172435506 0.9712818784369235 0.028718121563076515 0.9712456131491908 0.0287543868508092 0.8876357860084164 0.11236421399158356 0.9161136408741032 0.08388635912589675 0.87546415377684 0.12453584622316005 0.9001142209221751 0.09988577907782495 0.8879959223289625 0.11200407767103741 0.8583078719053834 0.14169212809461657 0.8723881201753155 0.1276118798246845 0.8862960700073934 0.11370392999260664 0.9262181115737711 0.07378188842622897 0.9101992508821257 0.08980074911787424 0.8503814207939188 0.14961857920608135 0.9121623083001792 0.08783769169982092 </TABLE>
    </DEFINITION>
    <DEFINITION>
      <FOR>BMI</FOR>
      <GIVEN>Age</GIVEN>
      <GIVEN>PA</GIVEN>
      <GIVEN>Sex</GIVEN>
      <GIVEN>Smoking</GIVEN>
      <TABLE>0.006932337466736637 0.40582762940004125 0.41923181787940667 0.16800821525381537 0.013099617041342708 0.4467914121862016 0.39100882650930435 0.1491001442631512 0.0053576084626682135 0.3357096691593726 0.45172678044877895 0.20720594192918024 0.04995608881816353 0.6548600388078837 0.20412065864118345 0.09106321373276931 0.06796865469111962 0.6401470999024407 0.1922240392288523 0.09966020617758743 0.040770745308526264 0.633626296072913 0.21541142488978707 0.11019153372877379 0.0029907909704495117 0.5354779870008917 0.37723561775651726 0.08429560427214153 0.008436353268890799 0.5318636156997094 0.3693617333382481 0.09033829769315163 0.001517427411461598 0.46413713511489063 0.4316639904766505 0.10268144699699733 0.05881787230526669 0.711782207417942 0.1644482218617812 0.06495169841501006 0.054191727659409786 0.7008679902323012 0.170365883691769 0.07457439841651985 0.036164178251928004 0.7025177935619817 0.18560494486691614 0.07571308331917408 0.0016416853401905825 0.30431183187191163 0.48154726180205715 0.21249922098584068 0.005710137983196865 0.34474246470457676 0.44949270111248835 0.20005469619973798 0.0012568957696225506 0.22830507034549102 0.4949273156915744 0.275510718193312 0.030358861015191328 0.6078667696946913 0.23996326931648665 0.1218110999736307 0.03941162249281421 0.5980091501936806 0.24983004256574032 0.11274918474776487 0.02206147780923371 0.5711155554686698 0.27454515438021254 0.13227781234188402 0.0016528336851368932 0.42692690231541025 0.4492684703813291 0.12215179361812376 0.004118361411031332 0.4023533748170968 0.4610152388283337 0.13251302494353823 0.0004864058878373469 0.32858561176472945 0.4995004284882047 0.17142755385922864 0.034010074759655895 0.6764520060697067 0.20335016724796512 0.0861877519226722 0.03607712750234684 0.672149290386597 0.20686744204152627 0.08490614006952986 0.02023086904329535 0.6472746522823389 0.23909582187748188 0.09339865679688383 0.001241755198881795 0.22034569583197072 0.5101192662566877 0.2682932827124598 0.00460530701258743 0.28510173917833026 0.46557183852777634 0.2447211152813058 0.0005433006181288496 0.14794937879882258 0.4959251753407117 0.35558214524233694 0.012451221106524246 0.49382198556648144 0.3194961630052555 0.17423063032173877 0.02342880458717709 0.5327436740543017 0.31230279584666965 0.13152472551185154 0.007733405936854497 0.4565987163400471 0.3500070177164292 0.1856608600066691 0.0008226450443940234 0.32162777515569335 0.5129409330099125 0.16460864679000026 0.0025453015189953435 0.31643175066536805 0.49340053099674325 0.18762241681889344 0.0004404807783827175 0.2054984957702211 0.548690936245838 0.24537008720555828 0.017710448696036822 0.5967616926894365 0.2829859830954345 0.10254187551909215 0.020386633520972912 0.6101968637843412 0.2742672643723716 0.09514923832231433 0.010340505434708502 0.5717898200833962 0.31015625341379804 0.10771342106809735 0.0008818544032110649 0.17016489038238797 0.5198011859577358 0.30915206925666505 0.007458112187011283 0.2757169493541711 0.4592844532040513 0.2575404852547663 0.0006036165339876574 0.11912855802074347 0.48280239734324365 0.39746542810202534 0.006456409364909241 0.36549946469566197 0.38565035501584005 0.2423937709235888 0.020055464304469573 0.46736119566648865 0.36587761008883013 0.1467057299402116 0.003204784408749747 0.3638900777522715 0.4029227683953148 0.2299823694436639 0.0006687416381990106 0.24913738704189445 0.5466563765532293 0.20353749476667715 0.005186148685584439 0.2968317203902961 0.499814006562494 0.1981681243616255 0.0003195145364412018 0.1635869286115046 0.5511847507371567 0.28490880611489755 0.011236159563712976 0.47703368454071177 0.37117888351816447 0.1405512723774108 0.014591224095835085 0.5470441656568041 0.3351898819821292 0.10317472826523161 0.008640798743563282 0.4747528031706314 0.37552620940524367 0.14108018868056174 </TABLE>
    </DEFINITION>
    <DEFINITION>
      <FOR>CRC</FOR>
      <GIVEN>Age</GIVEN>
      <GIVEN>Alcohol</GIVEN>
      <GIVEN>Diabetes</GIVEN>
      <GIVEN>Hyperchol.</GIVEN>
      <GIVEN>Hypertension</GIVEN>
      <GIVEN>Sex</GIVEN>
      <GIVEN>Smoking</GIVEN>
      <TABLE>0.9998722516397498 0.00012774836025020872 0.9999610589428349 3.894105716511067e-05 0.9997894241199544 0.0002105758800455028 0.9994771807208735 0.0005228192791264141 0.9995654965852699 0.0004345034147300594 0.9993493011413491 0.0006506988586509116 0.9993793496683101 0.0006206503316898567 0.9995075206840468 0.0004924793159531732 0.9992695048400305 0.0007304951599694359 0.9991731259625825 0.0008268740374176278 0.9991989294077162 0.0008010705922837756 0.9991736475575292 0.0008263524424707304 0.9998556880274123 0.00014431197258767042 0.9999365479402692 6.345205973083794e-05 0.9997736426093408 0.00022635739065925926 0.999292985048492 0.0007070149515081319 0.9994732360317278 0.0005267639682722681 0.9993095773484583 0.000690422651541796 0.9994789550652378 0.0005210449347622486 0.9996258059196016 0.00037419408039849326 0.9992898631364886 0.0007101368635114102 0.9991731259625825 0.0008268740374176278 0.9991736475575292 0.0008263524424707304 0.9991984237707126 0.0008015762292875148 0.9992004437694796 0.0007995562305204868 0.9992474964975132 0.00075250350248684 0.9991741684948433 0.0008258315051567188 0.9991731259625825 0.0008268740374176278 0.9991731259625825 0.0008268740374176278 0.9991731259625825 0.0008268740374176278 0.9991731259625825 0.0008268740374176278 0.9991989294077162 0.0008010705922837756 0.9991731259625825 0.0008268740374176278 0.9991731259625825 0.0008268740374176278 0.9991731259625825 0.0008268740374176278 0.9991731259625825 0.0008268740374176278 0.9991984237707126 0.0008015762292875148 0.999269962740162 0.0007300372598379667 0.9991994347257623 0.0008005652742375732 0.9991736475575292 0.0008263524424707304 0.9991736475575294 0.0008263524424707303 0.9991731259625825 0.0008268740374176278 0.9991989294077162 0.0008010705922837756 0.9991984237707126 0.0008015762292875148 0.9991984237707126 0.0008015762292875148 0.9991731259625825 0.0008268740374176278 0.9991731259625825 0.0008268740374176278 0.9991731259625825 0.0008268740374176278 0.9998285508587955 0.00017144914120445482 0.9999999967775283 3.2224716805001907e-09 0.9999997996701059 2.0032989414442323e-07 0.9998131756638761 0.00018682433612391528 0.999844224031605 0.0001557759683950154 0.9998109102403078 0.0001890897596922451 0.9999940984762334 5.901523766460365e-06 0.9999819516030146 1.8048396985384006e-05 0.9999309595726183 6.904042738164264e-05 0.9998674575001256 0.00013254249987444444 0.9998323890034247 0.0001676109965753222 0.9995805842053404 0.0004194157946596528 0.9998450946529783 0.0001549053470216649 0.9999999625881903 3.741180953696559e-08 0.9999989888319881 1.0111680119629033e-06 0.9999829813126899 1.7018687310173733e-05 0.999429244448559 0.0005707555514409627 0.9999943363906786 5.663609321373606e-06 0.9999892562805592 1.0743719440788563e-05 0.9999800825466062 1.9917453393823888e-05 0.999927056729995 7.294327000496872e-05 0.9998193889981678 0.00018061100183216282 0.9997222072409252 0.00027779275907480547 0.9994987453942138 0.0005012546057861658 0.9998417485003758 0.0001582514996241941 0.9998224732626748 0.00017752673732517133 0.9995366732770982 0.0004633267229018617 0.9997361211365922 0.0002638788634078214 0.9996154609993839 0.00038453900061611825 0.9995156571592871 0.00048434284071282446 0.9994059211310712 0.0005940788689287554 0.999332483064292 0.0006675169357079895 0.9992695039702049 0.0007304960297950631 0.999271801589071 0.0007281984109289981 0.9991984237707126 0.0008015762292875148 0.999174689760559 0.0008253102394409703 0.9997949263258264 0.00020507367417355976 0.9997765145721343 0.00022348542786559313 0.9995324957557734 0.0004675042442266658 0.9996899581242203 0.00031004187577964146 0.9995689650750519 0.0004310349249481282 0.9993965523819838 0.0006034476180162147 0.9994445836636555 0.0005554163363445396 0.9995234927852142 0.00047650721478579027 0.9993274243678024 0.0006725756321976009 0.9992465471339906 0.000753452866009356 0.9991741688234522 0.0008258311765476944 0.9991984237707126 0.0008015762292875148 0.9994565856204639 0.000543414379536021 0.9999867033055408 1.329669445914068e-05 0.9999399516308405 6.00483691594624e-05 0.999670211903939 0.0003297880960610566 0.999711304481085 0.00028869551891495587 0.9995668595126996 0.00043314048730041724 0.9997174872975214 0.00028251270247856296 0.9997951529900926 0.00020484700990737513 0.9996624112133402 0.0003375887866598059 0.9992236905347439 0.0007763094652560978 0.9992024564603111 0.0007975435396888754 0.9991994344072069 0.0008005655927929645 0.9999830394378303 1.6960562169665305e-05 0.9999948599548453 5.14004515470871e-06 0.9999755669955012 2.4433004498861412e-05 0.9996201344154625 0.00037986558453762713 0.9997089267604473 0.0002910732395527258 0.9995899234553215 0.0004100765446784295 0.9998764863978871 0.00012351360211293116 0.999942155076204 5.784492379608295e-05 0.9998549371345818 0.0001450628654180573 0.9992029592363277 0.000797040763672227 0.9992708837572005 0.0007291162427994545 0.9991746887757674 0.0008253112242326493 0.9993134762652617 0.0006865237347383073 0.9993867054795733 0.0006132945204266911 0.9992699641889627 0.000730035811037317 0.9991736475575294 0.0008263524424707303 0.9992446433101921 0.0007553566898078737 0.9991736475575292 0.0008263524424707303 0.9991762492903445 0.0008237507096554128 0.9992952057425407 0.0007047942574591899 0.9992479708800323 0.0007520291199676839 0.9991731259625825 0.0008268740374176278 0.9991731259625825 0.0008268740374176278 0.9991731259625825 0.0008268740374176278 0.9993345715538097 0.0006654284461903125 0.9995102842675303 0.000489715732469776 0.999398439946132 0.0006015600538680698 0.9991731259625825 0.0008268740374176278 0.9991736475575292 0.0008263524424707304 0.9991989294077163 0.0008010705922837757 0.9995003740592412 0.0004996259407587413 0.9994732323035881 0.0005267676964119026 0.9993812976299288 0.0006187023700712381 0.9991731259625825 0.0008268740374176278 0.9991736475575292 0.0008263524424707303 0.9991731259625825 0.0008268740374176278 0.9997625201411136 0.000237479858886408 0.9997578834865758 0.00024211651342422117 0.9995770371429193 0.00042296285708067204 0.9997653403291 0.0002346596708999761 0.9998050549495152 0.0001949450504847121 0.9998309846647149 0.0001690153352850644 0.9994149367525228 0.0005850632474772258 0.9999938732280953 6.126771904686934e-06 0.9999867687878432 1.3231212156762308e-05 0.9999748602872984 2.513971270162505e-05 0.9999336518095356 6.634819046440321e-05 0.9998545520643628 0.0001454479356371878 0.9997581470345018 0.00024185296549808456 0.9998234053077847 0.00017659469221535562 0.9994529882721515 0.0005470117278484997 0.9997969689171231 0.00020303108287684655 0.9995747530356079 0.00042524696439202685 0.9996499245078728 0.00035007549212718545 0.9999722348876449 2.7765112355156723e-05 0.9999986712910047 1.3287089953378205e-06 0.9993520715216393 0.0006479284783607715 0.9999693104207503 3.06895792497042e-05 0.9999261943996525 7.380560034752964e-05 0.9998767509126391 0.0001232490873609193 0.9999158498837799 8.415011622016049e-05 0.9998998014248169 0.00010019857518310422 0.9998142328167403 0.00018576718325968533 0.9998467182444157 0.00015328175558430003 0.9997254240997343 0.0002745759002656765 0.9996266852894092 0.00037331471059074247 0.9997475906806536 0.00025240931934652686 0.9997079804641334 0.00029201953586648934 0.9996405926847434 0.0003594073152566885 0.9994905708942668 0.0005094291057331731 0.9993299608777331 0.000670039122266976 0.9992474964975131 0.00075250350248684 0.9999502445957538 4.97554042463278e-05 0.9979983435046065 0.0020016564953935314 0.9998848402130774 0.00011515978692249239 0.9998186481479029 0.00018135185209709295 0.9997146435721753 0.0002853564278246758 0.9995800664975434 0.0004199335024566505 0.9998974738594048 0.00010252614059532001 0.9993683199903428 0.0006316800096571664 0.9998147313006649 0.00018526869933516905 0.999395824106822 0.0006041758931779975 0.9994946543442557 0.0005053456557443843 0.9992309896172051 0.0007690103827947881 0.9994726386372396 0.0005273613627604675 0.9992368492448225 0.0007631507551774982 0.9976908597688596 0.002309140231140394 0.9996151863819519 0.0003848136180480258 0.9996732784095516 0.0003267215904484488 0.9990944749699766 0.0009055250300234349 0.9998391343206574 0.00016086567934250675 0.9989798408154312 0.0010201591845686864 0.9998596894583857 0.00014031054161442601 0.9993464330686732 0.0006535669313268301 0.9993480741345321 0.0006519258654678696 0.9992059642024177 0.0007940357975823353 0.9988984122208573 0.0011015877791426543 0.9989313239957587 0.0010686760042413462 0.9987796407629316 0.0012203592370683535 0.9998151738233986 0.00018482617660140857 0.9998487048572362 0.000151295142763751 0.9997821367077148 0.00021786329228525025 0.9986743477540565 0.0013256522459434846 0.998670934279891 0.0013290657201089622 0.9963325082568494 0.003667491743150585 0.9994678804597661 0.0005321195402338059 0.9995207745664092 0.0004792254335908415 0.9994044359620717 0.0005955640379283428 0.9976654193047318 0.0023345806952682633 0.9996248419211332 0.00037515807886672126 0.9994575008031416 0.0005424991968584623 0.9991984237707126 0.0008015762292875148 0.9991999394066978 0.0008000605933021535 0.9991994347257624 0.0008005652742375733 0.9993724131256134 0.0006275868743866723 0.9995595553995553 0.00044044460044470894 0.9988477209760577 0.001152279023942346 0.9991736475575292 0.0008263524424707304 0.9991989294077162 0.0008010705922837756 0.9991736475575294 0.0008263524424707303 0.999631575034583 0.0003684249654170844 0.9998228387379134 0.00017716126208655402 0.9997120289519221 0.0002879710480778866 0.9991989294077162 0.0008010705922837756 0.999288520393706 0.0007114796062939613 0.9992695045497234 0.0007304954502766436 0.9997499401214939 0.00025005987850618003 0.9998655148138758 0.00013448518612422652 0.9997916811321498 0.00020831886785021786 0.999174689760559 0.0008253102394409703 0.9992232005270021 0.0007767994729979466 0.9992009481322611 0.0007990518677388201 0.9991491843882804 0.0008508156117196334 0.9994033074006509 0.0005966925993492092 0.9989244565377874 0.0010755434622125928 0.9988741090394868 0.0011258909605130732 0.9992500167011309 0.0007499832988690953 0.9985191474938777 0.0014808525061223053 0.9997466934140298 0.00025330658597028983 0.9999945080192071 5.491980792924228e-06 0.9996921791493364 0.00030782085066355266 0.9992578753955046 0.0007421246044954502 0.9999464745954766 5.352540452344369e-05 0.9999037717782103 9.622822178965163e-05 0.9991636565853165 0.0008363434146835201 0.9991888659360164 0.0008111340639836643 0.9983469187569316 0.0016530812430684662 0.9990265634394463 0.0009734365605537922 0.9999194960910346 8.050390896537772e-05 0.9989500490975141 0.0010499509024858645 0.999267352059063 0.0007326479409369901 0.999434674042674 0.000565325957326017 0.9988249398925408 0.0011750601074591621 0.9999949637029469 5.03629705309503e-06 0.9996780764495292 0.0003219235504707828 0.9966955263678534 0.003304473632146571 0.9972005884867594 0.00279941151324054 0.9999207376166788 7.926238332122566e-05 0.9999051312016876 9.486879831247839e-05 0.999718530410824 0.0002814695891759863 0.9995976405575268 0.0004023594424732015 0.9996058824635029 0.00039411753649712004 0.992697659522935 0.007302340477065002 0.9998926927576468 0.000107307242353109 0.9983782396863337 0.001621760313666384 0.9995385515961174 0.0004614484038826031 0.9993805821483017 0.0006194178516983148 0.9994300240809988 0.0005699759190011678 0.9988564533339777 0.0011435466660223265 0.9999790257385528 2.0974261447103617e-05 0.9999764418281967 2.355817180332261e-05 0.9998664552417352 0.00013354475826469494 0.9998096575632262 0.00019034243677380452 0.9996795976691429 0.00032040233085704 0.9991079924555749 0.0008920075444250512 0.9981967831471881 0.0018032168528119448 0.9973686467319028 0.0026313532680972227 0.9997974970392403 0.00020250296075972885 0.9997233066035089 0.0002766933964910964 0.9995278751019866 0.00047212489801340147 0.9998651569770057 0.0001348430229942326 0.9999062112081103 9.378879188967083e-05 0.9998716264322367 0.00012837356776333384 0.9994658550564001 0.0005341449436000053 0.9993739810824722 0.0006260189175278315 0.9992596967931244 0.0007403032068755954 0.9911510822590607 0.008848917740939361 0.9992827442945807 0.0007172557054192059 0.9917036004217729 0.00829639957822723 0.9993501194831451 0.0006498805168548839 0.9992271079501286 0.0007728920498715058 0.999201954634155 0.0007980453658450431 0.999047816311848 0.0009521836881519396 0.99908538419334 0.0009146158066599035 0.9979353350874514 0.0020646649125486815 0.989387620558583 0.010612379441417085 0.9996979496025644 0.00030205039743558303 0.9983273435760518 0.0016726564239482663 0.9995725899284956 0.0004274100715044659 0.9989945897977797 0.0010054102022204097 0.9977737758936097 0.0022262241063902145 0.9824497119662391 0.017550288033760863 0.9994744702026466 0.000525529797353433 0.9987886628078735 0.0012113371921264144 0.9994096122554846 0.0005903877445154365 0.9994316705336429 0.000568329466357128 0.9995234731521179 0.0004765268478820562 0.9991741688234522 0.0008258311765476944 0.9991989294077162 0.0008010705922837756 0.9991731259625825 0.0008268740374176278 0.9995061865007476 0.000493813499252411 0.9994922244104782 0.0005077755895216775 0.9995946464875107 0.0004053535124893168 0.9991736475575292 0.0008263524424707303 0.9991741688234522 0.0008258311765476943 0.9991746894321574 0.0008253105678427068 0.99964540941578 0.00035459058422005125 0.9996702479689683 0.00032975203103174987 0.9905957484166146 0.009404251583385464 0.9992232002179033 0.0007767997820966145 0.9992246683894586 0.0007753316105413185 0.9992251577791992 0.0007748422208008443 0.9997588907278272 0.00024110927217277475 0.9998256056835223 0.00017439431647769203 0.999862643940107 0.00013735605989298924 0.9992474967965667 0.0007525032034333823 0.9991741684948433 0.0008258315051567187 0.9992241796159694 0.0007758203840305775 0.9973382768624939 0.0026617231375060725 0.9983622887174813 0.001637711282518735 0.9975387336314303 0.0024612663685696775 0.9960597476471897 0.0039402523528102714 0.9973239245658929 0.002676075434107025 0.998715263108514 0.001284736891486139 0.9950683461771178 0.004931653822882147 0.9996995719255583 0.00030042807444171635 0.9972566620491645 0.002743337950835443 0.9946168337387841 0.005383166261215964 0.9997172545211487 0.00028274547885134946 0.9996988198436045 0.0003011801563955425 0.9979889938547502 0.0020110061452499307 0.9990034770203463 0.000996522979653712 0.9970772289009359 0.00292277109906415 0.9964085555042782 0.0035914444957218044 0.9999955600214983 4.439978501791366e-06 0.9976959360471205 0.002304063952879493 0.998167702234232 0.0018322977657679249 0.9968303798113096 0.0031696201886904883 0.9973230397614378 0.0026769602385621977 0.9979468910674295 0.0020531089325705096 0.999452971150947 0.0005470288490529224 0.9950827162418877 0.004917283758112331 0.9993132856290676 0.0006867143709323973 0.9998137816600516 0.00018621833994833642 0.9982829394789678 0.0017170605210321262 0.9995385416069384 0.0004614583930616464 0.9993893855439369 0.0006106144560631481 0.999374761043889 0.0006252389561109601 0.9922332595982174 0.007766740401782526 0.9998278192758298 0.00017218072417020036 0.9969158980233082 0.0030841019766917797 0.9995996261075035 0.00040037389249646094 0.9992740830787614 0.0007259169212386026 0.9993245690902066 0.0006754309097934023 0.9940599306387 0.0059400693612999865 0.9994905909582155 0.0005094090417844973 0.9918925040840189 0.008107495915981195 0.9997863720648975 0.00021362793510255887 0.9996057224785113 0.00039427752148876873 0.9996254377719825 0.0003745622280174706 0.9985039283595388 0.0014960716404613084 0.9912690450752126 0.00873095492478731 0.9955407602368532 0.004459239763146809 0.9926656765687292 0.00733432343127078 0.9996432335841297 0.00035676641587038317 0.9995658124470451 0.0004341875529548178 </TABLE>
    </DEFINITION>
    <DEFINITION>
      <FOR>Depression</FOR>
      <GIVEN>Age</GIVEN>
      <GIVEN>SES</GIVEN>
      <GIVEN>Sex</GIVEN>
      <TABLE>0.9978636554938927 0.0021363445061073445 0.994321308601853 0.005678691398146928 0.9988548699500529 0.0011451300499470914 0.9978873849060403 0.002112615093959705 0.9989697808463899 0.0010302191536101042 0.9982667807877581 0.001733219212241852 0.9967060370388008 0.003293962961199284 0.9884628961039902 0.011537103896009886 0.9976126484299576 0.0023873515700424024 0.9949599543560503 0.005040045643949728 0.9978748261967962 0.0021251738032037476 0.9953964901031697 0.004603509896830275 0.9932493095613598 0.00675069043864023 0.9801555747937101 0.019844425206289904 0.9966942076629978 0.0033057923370022864 0.9926545557161899 0.007345444283810199 0.9970275211526869 0.0029724788473130884 0.993538526281124 0.0064614737188759645 0.9930464054349152 0.0069535945650848465 0.9651706130153465 0.034829386984653564 0.9945590626070319 0.00544093739296821 0.9892555498402266 0.010744450159773334 0.9972002679726472 0.002799732027352877 0.993063386973031 0.006936613026968977 </TABLE>
    </DEFINITION>
    <DEFINITION>
      <FOR>Diabetes</FOR>
      <GIVEN>Age</GIVEN>
      <GIVEN>BMI</GIVEN>
      <GIVEN>PA</GIVEN>
      <GIVEN>Sex</GIVEN>
      <TABLE>0.9866506932220422 0.013349306777957707 0.9963302603363187 0.003669739663681396 0.9910621513481687 0.008937848651831377 0.9947869580802903 0.005213041919709835 0.9927822302343733 0.0072177697656266625 0.9947208875700431 0.00527911242995678 0.9931408310324584 0.006859168967541724 0.9959346470234784 0.0040653529765214925 0.9924889226995621 0.007511077300437976 0.9919482981537088 0.008051701846291219 0.993003147065696 0.00699685293430394 0.9920591874670364 0.007940812532963614 0.985940308023398 0.014059691976602019 0.9868037083971452 0.013196291602854923 0.9847716574888881 0.015228342511111924 0.9820241067546966 0.017975893245303243 0.9797326169616853 0.020267383038314612 0.9932828646266271 0.006717135373372817 0.986847564981638 0.013152435018361974 0.992272735541873 0.007727264458126959 0.9895211634920567 0.010478836507943347 0.9931255889095987 0.006874411090401284 0.9900748368955786 0.009925163104421405 0.9936584183635069 0.00634158163649304 0.9846244008827734 0.015375599117226664 0.9870381715284857 0.012961828471514284 0.9867876386561198 0.013212361343880189 0.9863202114192989 0.013679788580701 0.9569985386905221 0.04300146130947796 0.9749670846750884 0.025032915324911687 0.9571733385808571 0.042826661419143035 0.9660257352992573 0.03397426470074279 0.9822568338481135 0.017743166151886536 0.9942631588788257 0.005736841121174403 0.956712991574512 0.04328700842548805 0.992523801624199 0.00747619837580102 0.9717906558206306 0.028209344179369468 0.9891762587745594 0.010823741225440654 0.9757134164700247 0.024286583529975318 0.9908740354027425 0.009125964597257395 0.947443145138804 0.05255685486119591 0.9792819828572421 0.02071801714275781 0.9566700613316368 0.043329938668363197 0.9781565939519485 0.021843406048051486 0.8784373237830541 0.1215626762169459 0.938223299984326 0.06177670001567406 0.8849794713233464 0.11502052867665366 0.9307750220530855 0.06922497794691458 0.9487064049247202 0.05129359507527977 0.9690942256946095 0.03090577430539057 0.9509874228657359 0.04901257713426416 0.98181399695432 0.018186003045680008 0.9226900716793821 0.07730992832061799 0.9761647361930913 0.02383526380690863 0.9253316452251017 0.07466835477489824 0.9787792658690357 0.021220734130964227 0.8747662051741867 0.12523379482581343 0.9490961950174731 0.050903804982526946 0.8859990530624144 0.11400094693758549 0.9531978298971482 0.04680217010285189 0.7861843341286349 0.2138156658713652 0.8754260331725762 0.12457396682742386 0.7844732296680371 0.2155267703319628 0.892336478216218 0.10766352178378213 </TABLE>
    </DEFINITION>
    <DEFINITION>
      <FOR>Hyperchol.</FOR>
      <GIVEN>Age</GIVEN>
      <GIVEN>Alcohol</GIVEN>
      <GIVEN>BMI</GIVEN>
      <GIVEN>PA</GIVEN>
      <GIVEN>Sex</GIVEN>
      <GIVEN>Smoking</GIVEN>
      <TABLE>0.4661451857895288 0.5338548142104711 0.49871428344195434 0.5012857165580455 0.44894908155026236 0.5510509184497376 0.44894908155026236 0.5510509184497376 0.43638098495776256 0.5636190150422374 0.46547103311550037 0.5345289668844997 0.46547103311550037 0.5345289668844997 0.45040129605255685 0.5495987039474431 0.46547103311550037 0.5345289668844997 0.4661451857895289 0.5338548142104711 0.4494244201517402 0.5505755798482598 0.44929646720629396 0.5507035327937061 0.5245120136113655 0.4754879863886345 0.6563591654104738 0.3436408345895262 0.47612929303168255 0.5238707069683174 0.4874932116002621 0.5125067883997378 0.43115068877955975 0.5688493112204402 0.4292302137745321 0.5707697862254678 0.5423604754110619 0.4576395245889381 0.5836787421604398 0.41632125783956014 0.5298073627335768 0.4701926372664232 0.5366119611304451 0.463388038869555 0.5373762166506454 0.46262378334935456 0.48525254304283766 0.5147474569571623 0.4674115847940393 0.5325884152059607 0.47094869839580666 0.5290513016041932 0.49011259575375166 0.5098874042462483 0.44901366637786544 0.5509863336221346 0.48544080793477246 0.5145591920652276 0.46547103311550037 0.5345289668844997 0.46522442763760996 0.53477557236239 0.5326502493956324 0.4673497506043675 0.47522716438553153 0.5247728356144684 0.48232010720322926 0.5176798927967707 0.5225419405848123 0.47745805941518776 0.4486662808600631 0.5513337191399369 0.44791594393723716 0.5520840560627628 0.4863440668576463 0.5136559331423537 0.4377713571644729 0.5622286428355271 0.4483182781590632 0.5516817218409367 0.4493609707939625 0.5506390292060375 0.4486012573534981 0.5513987426465019 0.4257102505638658 0.5742897494361342 0.42370247703947933 0.5762975229605207 0.4092337935472107 0.5907662064527893 0.46517741240930616 0.5348225875906939 0.44894908155026236 0.5510509184497376 0.4352330023545596 0.5647669976454404 0.6435487136469292 0.35645128635307083 0.7362916792759391 0.2637083207240609 0.4952309011020363 0.5047690988979636 0.7433622687097703 0.2566377312902297 0.7708462498225404 0.2291537501774596 0.7216972828304753 0.2783027171695247 0.7233456159635939 0.276654384036406 0.7099171811242704 0.29008281887572973 0.5349274338416783 0.46507256615832165 0.7129449944864535 0.2870550055135465 0.7222466682495986 0.2777533317504014 0.6030845357047747 0.39691546429522534 0.7485971170431591 0.2514028829568408 0.7658921517411241 0.2341078482588759 0.6861762610397675 0.3138237389602326 0.7902143048938671 0.20978569510613285 0.8027532421814557 0.1972467578185443 0.7598304259248052 0.24016957407519487 0.7956494560591132 0.2043505439408869 0.796386595075658 0.20361340492434205 0.7426219837727019 0.257378016227298 0.780033381144607 0.21996661885539298 0.7872894774519057 0.21271052254809433 0.7515909462646919 0.24840905373530806 0.6379835197376545 0.3620164802623454 0.6188866899799647 0.3811133100200352 0.5860398396117698 0.41396016038823025 0.7048263046907924 0.2951736953092077 0.7006747560756457 0.29932524392435444 0.6686832920614703 0.3313167079385298 0.7014160866698085 0.2985839133301914 0.6655285140824073 0.33447148591759257 0.6437803931400112 0.3562196068599889 0.7034534864718125 0.2965465135281875 0.702071305938247 0.29792869406175315 0.6552935460465062 0.34470645395349375 0.5538491415912635 0.44615085840873653 0.5346477509391797 0.4653522490608203 0.5177457005767168 0.4822542994232832 0.6819403742807941 0.3180596257192057 0.6772316298186559 0.322768370181344 0.6530590797762572 0.34694092022374284 0.5958071055050421 0.4041928944949578 0.5412975876092333 0.4587024123907667 0.5342558783992731 0.46574412160072676 0.6379531696657661 0.36204683033423385 0.6188730997127074 0.3811269002872926 0.5556210932134685 0.44437890678653147 0.4348765205472746 0.5651234794527255 0.49861669309408463 0.5013833069059154 0.4352330023545596 0.5647669976454405 0.44894908155026236 0.5510509184497376 0.45681988568386556 0.5431801143161343 0.4492966863383438 0.5507033136616563 0.46580821580050524 0.5341917841994948 0.4825193894014522 0.5174806105985479 0.44894908155026236 0.5510509184497376 0.4816663802446444 0.5183336197553556 0.46593772450496895 0.534062275495031 0.4395708133083724 0.5604291866916276 0.4545252911613523 0.5454747088386477 0.4388655160407886 0.5611344839592114 0.3770953081872114 0.6229046918127886 0.5124890473097395 0.48751095269026046 0.4965782115989052 0.5034217884010947 0.44239021251111005 0.5576097874888899 0.4338614850014166 0.5661385149985834 0.43455363682189957 0.5654463631781004 0.4164781085382134 0.5835218914617867 0.515501774427019 0.48449822557298083 0.49658314754957866 0.5034168524504213 0.531147626124893 0.4688523738751071 0.3660317147976732 0.6339682852023268 0.3179323659341288 0.6820676340658711 0.31804762869083075 0.6819523713091693 0.51221140905487 0.48778859094513016 0.4875063418516031 0.5124936581483969 0.4375612970885664 0.5624387029114337 0.35493969286443955 0.6450603071355604 0.34717022587758306 0.6528297741224169 0.3615717976768224 0.6384282023231775 0.40922352900428355 0.5907764709957164 0.3719082874315826 0.6280917125684174 0.4162648811871797 0.5837351188128204 0.29285508123694226 0.7071449187630577 0.3086466101793174 0.6913533898206826 0.2842978755223653 0.7157021244776347 0.4692057844780519 0.530794215521948 0.4416797682538975 0.5583202317461026 0.43460219896336055 0.5653978010366395 0.26116407774032047 0.7388359222596795 0.2782485431450442 0.7217514568549558 0.3166140403408785 0.6833859596591215 0.4219951828666729 0.578004817133327 0.44816493758379333 0.5518350624162067 0.43495862897637 0.5650413710236301 0.6352385437085903 0.36476145629140966 0.599297107767776 0.40070289223222405 0.4472213070131702 0.5527786929868298 0.6485684569132238 0.3514315430867761 0.6480153469925223 0.3519846530074777 0.5526615379718562 0.44733846202814376 0.5732756435620991 0.4267243564379009 0.5494718515334971 0.4505281484665029 0.4831675240259476 0.5168324759740525 0.6590642490125707 0.34093575098742934 0.6226534194241197 0.3773465805758803 0.5570795155068925 0.44292048449310756 0.6045807295766624 0.3954192704233376 0.5781691688968587 0.42183083110314135 0.5274716154802657 0.4725283845197344 0.7402968808478256 0.2597031191521743 0.7205838347741721 0.27941616522582796 0.7023533507567938 0.29764664924320616 0.6492035340614629 0.35079646593853714 0.600270155652757 0.399729844347243 0.588626278919536 0.411373721080464 0.7346148160796548 0.2653851839203452 0.7156833461565668 0.28431665384343313 0.6965095370010163 0.3034904629989838 0.5124196900674052 0.4875803099325949 0.45427519010085016 0.54572480989915 0.45417183623871943 0.5458281637612805 0.6445090904608054 0.3554909095391947 0.615591667568262 0.38440833243173805 0.6141443474365749 0.38585565256342513 0.5445704834006059 0.4554295165993941 0.48598424184684236 0.5140157581531576 0.4922189477877348 0.5077810522122652 0.6332966508199174 0.36670334918008257 0.6017463789305941 0.39825362106940587 0.6017010378590634 0.39829896214093674 0.43986379113872115 0.5601362088612788 0.39787200612549184 0.6021279938745082 0.40064449694339754 0.5993555030566025 0.6077239833761326 0.3922760166238673 0.5484836577156355 0.4515163422843645 0.5500297556117001 0.4499702443882999 0.46223409822121914 0.5377659017787808 0.38973659480112277 0.6102634051988773 0.4078816002164953 0.5921183997835047 0.600050679941755 0.399949320058245 0.5271683528446774 0.47283164715532255 0.5704291784457415 0.42957082155425846 0.4486012573534981 0.5513987426465019 0.4255222898268091 0.5744777101731909 0.4346842555981804 0.5653157444018196 0.4648839769200492 0.5351160230799509 0.42216432774874063 0.5778356722512593 0.43531505898937944 0.5646849410106205 0.4486012573534981 0.5513987426465019 0.426719674032717 0.573280325967283 0.44894908155026236 0.5510509184497376 0.43429845503836134 0.5657015449616387 0.4442975820267308 0.5557024179732692 0.44810019986099714 0.5518998001390029 0.3404364122468196 0.6595635877531805 0.33473793621813674 0.6652620637818631 0.28667920613118797 0.7133207938688121 0.40859406272418947 0.5914059372758106 0.32759545342461305 0.672404546575387 0.43255391812139865 0.5674460818786013 0.3051752869815081 0.6948247130184919 0.330553360186375 0.6694466398136251 0.2308119992339085 0.7691880007660915 0.31445993167160097 0.685540068328399 0.34235908036896634 0.6576409196310335 0.38790838252781457 0.6120916174721854 0.2797281491643364 0.7202718508356635 0.24538000700954862 0.7546199929904515 0.22837816308016778 0.7716218369198322 0.40488301245647684 0.595116987543523 0.3784759743121306 0.6215240256878694 0.39308007379678134 0.6069199262032186 0.2579843647000729 0.7420156352999272 0.24034163061733343 0.7596583693826666 0.22727304719919614 0.7727269528008038 0.36852692595806436 0.6314730740419358 0.346542279235597 0.653457720764403 0.405535715293713 0.594464284706287 0.23447485899513318 0.7655251410048668 0.2356989302554844 0.7643010697445155 0.2387473471736265 0.7612526528263734 0.3571718523144604 0.6428281476855396 0.3845418435765378 0.6154581564234622 0.40706179633874745 0.5929382036612526 0.2646798130879737 0.7353201869120262 0.23454980451606303 0.7654501954839369 0.22678397240107773 0.7732160275989223 0.4356821876878242 0.5643178123121757 0.42593335305215835 0.5740666469478417 0.4294310962642776 0.5705689037357224 0.45759446257301023 0.5424055374269897 0.4624849510181431 0.5375150489818569 0.49600401711014214 0.5039959828898578 0.47569262818920105 0.5243073718107989 0.4397128197751523 0.5602871802248477 0.4647089436338239 0.535291056366176 0.42695122507072614 0.5730487749292738 0.4598877557277343 0.5401122442722657 0.48241139609100264 0.5175886039089974 0.4464502631858305 0.5535497368141695 0.512096231522942 0.487903768477058 0.4460919783170155 0.5539080216829845 0.4357983925467369 0.5642016074532631 0.4261985920153425 0.5738014079846574 0.36262231922087457 0.6373776807791254 0.515705797313638 0.4842942026863621 0.47425458324208974 0.5257454167579103 0.4643778004510587 0.5356221995489414 0.4699535796470649 0.530046420352935 0.4280703086736919 0.5719296913263081 0.40811061070334625 0.5918893892966538 0.517335828226494 0.482664171773506 0.4545992030053552 0.5454007969946447 0.46898524109698586 0.5310147589030142 0.39545040196090203 0.604549598039098 0.3304711556504582 0.6695288443495417 0.3398884164480115 0.6601115835519885 0.4299086643157056 0.5700913356842944 0.3565540694110325 0.6434459305889676 0.38112021533035817 0.6188797846696419 0.39461289718100784 0.6053871028189921 0.3311853295569843 0.6688146704430157 0.3648802907189265 0.6351197092810734 0.43199741351001936 0.5680025864899807 0.358107096860696 0.641892903139304 0.36567331126226116 0.6343266887377389 0.3612380460616671 0.6387619539383328 0.3129688865121489 0.6870311134878511 0.3266623972264085 0.6733376027735913 0.4189403318260419 0.5810596681739582 0.32598832279372675 0.6740116772062733 0.345654774509898 0.6543452254901019 0.3478472357914582 0.6521527642085417 0.3085390405940478 0.6914609594059522 0.3271506567091254 0.6728493432908745 0.4029347890410186 0.5970652109589814 0.35032775722906356 0.6496722427709364 0.377649883307146 0.622350116692854 0.4349584559007125 0.5650415440992874 0.4874419693911466 0.5125580306088534 0.43523300235455953 0.5647669976454404 0.4348765205472746 0.5651234794527255 0.42153352460838817 0.5784664753916119 0.4486012573534981 0.5513987426465019 0.44894908155026236 0.5510509184497376 0.47000091773387687 0.529999082266123 0.4486012573534981 0.5513987426465019 0.435945067056435 0.564054932943565 0.4490132684649471 0.550986731535053 0.4335071592430135 0.5664928407569866 0.2834964631537964 0.7165035368462037 0.2782184495049543 0.7217815504950457 0.2508388196503905 0.7491611803496094 0.3922561987000046 0.6077438012999953 0.35483352466014106 0.6451664753398589 0.3463280226411715 0.6536719773588284 0.2793051546505508 0.7206948453494492 0.27962089620437347 0.7203791037956264 0.25159160558960114 0.7484083944103989 0.3396330514098369 0.6603669485901631 0.36160081119755694 0.6383991888024432 0.355479797420733 0.6445202025792671 0.2480917116150945 0.7519082883849055 0.23609385846355382 0.7639061415364462 0.23558073095267024 0.7644192690473298 0.3298483122549996 0.6701516877450003 0.3326356073242832 0.6673643926757168 0.38276303719127336 0.6172369628087266 0.2281212181382817 0.7718787818617183 0.24274714477467482 0.7572528552253251 0.23650973696000255 0.7634902630399975 0.38526918234009366 0.6147308176599062 0.3161386152334384 0.6838613847665616 0.3948245237754257 0.6051754762245743 0.2565038521326095 0.7434961478673904 0.22902896226966393 0.770971037730336 0.21207757736306926 0.7879224226369308 0.4040368866765321 0.5959631133234679 0.406667570890136 0.593332429109864 0.43709412143097526 0.5629058785690249 0.27523543418747887 0.7247645658125212 0.23594302631525826 0.7640569736847418 0.24073421137525663 0.7592657886247434 0.35496267836182793 0.6450373216381721 0.433233873846209 0.5667661261537911 0.40819938937165434 0.5918006106283457 0.46505941368660864 0.5349405863133913 0.43973596600632386 0.5602640339936761 0.45230515826354467 0.5476948417364553 0.4014835130348549 0.598516486965145 0.3594730794352847 0.6405269205647154 0.44881481782141713 0.5511851821785829 0.4667864569865163 0.5332135430134837 0.4602140456299 0.5397859543701 0.43484919829113605 0.565150801708864 0.33606569529997776 0.6639343047000223 0.4506077744699657 0.5493922255300342 0.40600737820287675 0.5939926217971232 0.36260992657056124 0.6373900734294388 0.32306157112866163 0.6769384288713385 0.3248836621442351 0.675116337855765 0.2514496133887936 0.7485503866112063 0.2540899430338667 0.7459100569661332 0.22684112237724924 0.7731588776227507 0.3444649531434502 0.6555350468565497 0.31370671184690896 0.6862932881530911 0.3196751854700634 0.6803248145299368 0.2552304911736128 0.7447695088263873 0.23738728070434667 0.7626127192956534 0.20583534318584418 0.7941646568141559 0.3431767559960353 0.6568232440039646 0.29767239831978204 0.702327601680218 0.31333923374292305 0.6866607662570771 0.22827018477963099 0.771729815220369 0.22037584698231363 0.7796241530176865 0.2068941073577599 0.7931058926422401 0.33474958459429893 0.6652504154057012 0.29977304649077213 0.7002269535092279 0.315997666491491 0.6840023335085089 0.2206502307241508 0.7793497692758492 0.20177817654910607 0.7982218234508939 0.19505936400845653 0.8049406359915434 0.3271117543085564 0.6728882456914437 0.26892080061177326 0.7310791993882269 0.31189859673740605 0.688101403262594 0.2600736946239616 0.7399263053760383 0.2585411681391723 0.7414588318608277 0.2196697970026342 0.7803302029973658 0.3330981533049989 0.6669018466950012 0.26404584879713666 0.7359541512028634 0.2951235461431511 0.7048764538568489 0.2501268317155329 0.7498731682844672 0.2270596526361421 0.7729403473638579 0.22911859819077515 0.7708814018092248 </TABLE>
    </DEFINITION>
    <DEFINITION>
      <FOR>Hypertension</FOR>
      <GIVEN>Age</GIVEN>
      <GIVEN>Alcohol</GIVEN>
      <GIVEN>BMI</GIVEN>
      <GIVEN>Diabetes</GIVEN>
      <GIVEN>PA</GIVEN>
      <GIVEN>Smoking</GIVEN>
      <TABLE>0.85107879765588 0.14892120234411999 0.8713456430496265 0.12865435695037347 0.8508907990668122 0.14910920093318775 0.8554085622169318 0.1445914377830682 0.8473436180321652 0.1526563819678349 0.8509847983613461 0.14901520163865387 0.8460878127603706 0.1539121872396294 0.8460878127603706 0.1539121872396294 0.8460878127603706 0.1539121872396294 0.8460878127603706 0.1539121872396294 0.8460878127603706 0.1539121872396294 0.8460878127603706 0.1539121872396294 0.9285586862859345 0.07144131371406542 0.9521785695575451 0.047821430442454974 0.9013384179542302 0.0986615820457698 0.924287673103681 0.07571232689631899 0.9389993600055527 0.061000639994447235 0.9364216090856471 0.0635783909143529 0.8460878127603706 0.1539121872396294 0.8512665001057865 0.14873349989421342 0.8460878127603706 0.1539121872396294 0.85107879765588 0.14892120234411999 0.86359823426427 0.13640176573573004 0.8508907990668122 0.14910920093318772 0.8809499531723852 0.11905004682761482 0.8889364728388275 0.11106352716117243 0.9157146446582688 0.08428535534173123 0.874320709988241 0.1256792900117591 0.9161160352959153 0.08388396470408464 0.9034247331576785 0.09657526684232152 0.8196847822296676 0.1803152177703324 0.8252387660445937 0.17476123395540624 0.8460878127603706 0.1539121872396294 0.8461849010900282 0.1538150989099718 0.8202021685390508 0.1797978314609491 0.820428859705126 0.17957114029487392 0.8832745662767403 0.11672543372325976 0.8239375038103521 0.17606249618964792 0.8439947239377245 0.15600527606227563 0.7963344758155211 0.20366552418447886 0.8390534258561188 0.16094657414388128 0.8073323232705049 0.19266767672949517 0.8507966811072765 0.14920331889272345 0.8513600853425803 0.14863991465741969 0.8461849010900282 0.1538150989099718 0.8461849010900282 0.15381509890997178 0.8460878127603706 0.1539121872396294 0.8460878127603706 0.1539121872396294 0.9874785508688214 0.012521449131178648 0.9842461799763857 0.015753820023614282 0.9646249081579509 0.03537509184204911 0.9862706819442314 0.013729318055768564 0.9804160819398396 0.019583918060160296 0.9423076522676723 0.05769234773232773 0.8597542390475409 0.14024576095245914 0.8515473154826446 0.14845268451735527 0.8507966811072765 0.14920331889272345 0.8557728800610093 0.14422711993899082 0.8514538479048137 0.14854615209518623 0.8462818670096073 0.15371813299039266 0.982679881739839 0.017320118260160985 0.9840419168034563 0.015958083196543713 0.9817280953778873 0.018271904622112634 0.9789647269464925 0.021035273053507577 0.9795629112433105 0.020437088756689363 0.9824621535361932 0.017537846463806798 0.9160899752389368 0.08391002476106325 0.9111150514562014 0.08888494854379857 0.86023744843486 0.13976255156513992 0.9399168760805342 0.060083123919465756 0.9089575494729214 0.09104245052707863 0.9071003286437327 0.09289967135626731 0.9500627568878866 0.04993724311211348 0.9469865028270137 0.05301349717298641 0.9491133966215257 0.0508866033784742 0.9477823635204732 0.052217636479526784 0.9572123618009117 0.042787638199088304 0.9488241108052541 0.051175889194746006 0.8728882835240235 0.12711171647597644 0.9050566447321826 0.09494335526781732 0.8830192662468559 0.11698073375314408 0.889788314188581 0.11021168581141898 0.9212328951528183 0.07876710484718176 0.8967914612895256 0.10320853871047439 0.8551499988047198 0.14485000119528024 0.8771331756314977 0.12286682436850237 0.8722556259919574 0.12774437400804264 0.8604686069684497 0.13953139303155024 0.8733867013488552 0.12661329865114476 0.8640631031768937 0.13593689682310622 0.799408890645213 0.20059110935478694 0.7573970223738102 0.2426029776261897 0.7681886617833212 0.2318113382166787 0.8046588922724152 0.1953411077275848 0.7949903900414229 0.20500960995857714 0.7830370925529935 0.21696290744700644 0.8508907990668122 0.14910920093318772 0.8865754355238991 0.11342456447610094 0.8510788569135502 0.14892114308644977 0.8589463889714724 0.14105361102852754 0.8679398598206273 0.13206014017937281 0.8601955185326683 0.13980448146733168 0.8460878127603706 0.1539121872396294 0.8461849010900282 0.15381509890997178 0.8460878127603706 0.1539121872396294 0.8460878127603706 0.1539121872396294 0.8461849010900282 0.1538150989099718 0.8460878127603706 0.1539121872396294 0.9134569124888756 0.08654308751112437 0.9210647981928844 0.07893520180711562 0.9197930733227513 0.0802069266772488 0.9201667583771561 0.07983324162284387 0.9159900730597199 0.08400992694028005 0.9122108003435101 0.08778919965648983 0.8256798248474944 0.17432017515250564 0.8488334265376258 0.1511665734623741 0.7961108113922901 0.20388918860771 0.8512665592141725 0.14873344078582748 0.811094404697705 0.18890559530229492 0.8121158503338418 0.18788414966615816 0.8579376467095564 0.1420623532904437 0.8292216553640369 0.17077834463596306 0.8416113558200022 0.15838864417999782 0.8716079126926848 0.12839208730731516 0.8604513578473484 0.13954864215265153 0.8764970959514456 0.12350290404855437 0.789980887505361 0.21001911249463895 0.7661375056779378 0.2338624943220622 0.8103117645776095 0.18968823542239055 0.7822878779894273 0.21771212201057263 0.8305966128467511 0.1694033871532489 0.8536198096547251 0.14638019034527486 0.6580835467246792 0.34191645327532083 0.7095183511612341 0.290481648838766 0.6820758621011679 0.31792413789883206 0.724793693256722 0.27520630674327795 0.6820332428633011 0.3179667571366989 0.7303419787005497 0.26965802129945027 0.7268478635659469 0.27315213643405306 0.7367794612714365 0.2632205387285635 0.7971327469342279 0.20286725306577202 0.7104142192458558 0.2895857807541442 0.7556011188217551 0.2443988811782449 0.7680202482742597 0.23197975172574026 0.9831847009129472 0.016815299087052753 0.9772232616068293 0.022776738393170712 0.9312913031884739 0.0687086968115262 0.978881484601178 0.02111851539882211 0.9651691210476703 0.034830878952329725 0.9499989997449045 0.05000100025509546 0.8554176145849546 0.1445823854150453 0.8603713422636683 0.1396286577363317 0.8460878127603706 0.1539121872396294 0.8601073293916538 0.13989267060834615 0.8514539658982936 0.14854603410170644 0.8509848576564198 0.1490151423435801 0.9686099336860583 0.03139006631394166 0.9639341182322677 0.036065881767732275 0.976127230174393 0.023872769825606932 0.9672392916583709 0.03276070834162921 0.9673491204735976 0.0326508795264025 0.9704368944757472 0.029563105524252814 0.889999402101892 0.110000597898108 0.8851320895216643 0.11486791047833564 0.8848295338291453 0.11517046617085475 0.8811145449350152 0.11888545506498477 0.9251426958498533 0.07485730415014673 0.8940149712882006 0.10598502871179936 0.9167746139215127 0.08322538607848724 0.9140898866484988 0.08591011335150119 0.9206412541733014 0.07935874582669843 0.9161280605640885 0.08387193943591159 0.9171606330217095 0.08283936697829053 0.9126533835167067 0.08734661648329332 0.8079441825574831 0.1920558174425169 0.8001193513671434 0.19988064863285665 0.7837112414966363 0.2162887585033637 0.8191553992557143 0.18084460074428557 0.821311107576096 0.178688892423904 0.8143948988179317 0.18560510118206835 0.7842773314202516 0.2157226685797485 0.7986525161808017 0.2013474838191984 0.7774995371970717 0.22250046280292843 0.7912494252018736 0.20875057479812636 0.7980904732565071 0.20190952674349297 0.7862768479068001 0.21372315209319995 0.5725932836346689 0.4274067163653311 0.5820724271274057 0.4179275728725944 0.581306286144755 0.41869371385524506 0.5924955623823326 0.4075044376176674 0.6213088534520942 0.37869114654790575 0.6370913787515292 0.36290862124847084 0.8509848576564198 0.14901514234358013 0.8479194715084235 0.1520805284915765 0.825979273099018 0.174020726900982 0.8516410186019752 0.14835898139802484 0.854243487292465 0.14575651270753492 0.8465725202568598 0.15342747974314022 0.8460878127603706 0.1539121872396294 0.8461849010900282 0.1538150989099718 0.8456511247848392 0.15434887521516077 0.8460878127603706 0.1539121872396294 0.8460878127603706 0.1539121872396294 0.8460878127603706 0.1539121872396294 0.8587001263832474 0.14129987361675247 0.7990242723532628 0.20097572764673718 0.8592550578676611 0.1407449421323389 0.8408820658619768 0.1591179341380231 0.8342663839043338 0.16573361609566614 0.8358453091167299 0.16415469088327006 0.8621197698328685 0.13788023016713136 0.7468882159832406 0.2531117840167593 0.8146168212147373 0.18538317878526261 0.7931758425978236 0.20682415740217636 0.8215222122176644 0.17847778778233558 0.8491378468769335 0.15086215312306658 0.7373109737618131 0.26268902623818685 0.7069962199124444 0.2930037800875557 0.7210380642719979 0.27896193572800204 0.7396414253325024 0.2603585746674975 0.7450613411043374 0.2549386588956627 0.7253719535761608 0.2746280464238392 0.6560813030754457 0.3439186969245543 0.5491980471686518 0.45080195283134816 0.6830286851566787 0.31697131484332136 0.7555776757734325 0.24442232422656754 0.5939229335954711 0.4060770664045289 0.640190529808931 0.3598094701910689 0.5809990473609926 0.41900095263900733 0.5293651492512091 0.47063485074879097 0.5093942001170633 0.49060579988293673 0.576616081440945 0.4233839185590551 0.5648429981806811 0.4351570018193189 0.5404861626759129 0.45951383732408707 0.5255852363687656 0.4744147636312344 0.5154856617501208 0.48451433824987916 0.4676474906822879 0.5323525093177122 0.6179135938194478 0.3820864061805521 0.6080885395638815 0.39191146043611835 0.5969049897340084 0.40309501026599154 0.9479639219937039 0.052036078006295984 0.9444566725159462 0.05554332748405379 0.896195727693943 0.1038042723060571 0.951349480475659 0.048650519524340956 0.9236457493209632 0.07635425067903683 0.919680523975633 0.08031947602436701 0.8456511247848392 0.15434887521516077 0.8471512683749303 0.1528487316250697 0.8455540976988293 0.15444590230117078 0.8558636298916327 0.14413637010836738 0.8507966811072765 0.14920331889272345 0.8461849010900282 0.15381509890997178 0.9193951938819545 0.08060480611804559 0.8959782281219107 0.10402177187808914 0.9030876456181953 0.09691235438180461 0.918161581215294 0.08183841878470594 0.9063681204415355 0.09363187955846448 0.9107549898526442 0.08924501014735571 0.7732896425775374 0.22671035742246254 0.7239886131039324 0.2760113868960677 0.815077242914959 0.184922757085041 0.783222882795172 0.21677711720482795 0.7303711551615979 0.26962884483840216 0.6995171467033032 0.30048285329669666 0.8061774732486896 0.19382252675131048 0.7980855882805636 0.20191441171943636 0.7804968529508589 0.219503147049141 0.8076634969041278 0.19233650309587233 0.7993766069421072 0.2006233930578928 0.7948773507285677 0.20512264927143228 0.5743058063981814 0.42569419360181854 0.6055246757152893 0.39447532428471066 0.607332384225951 0.3926676157740489 0.592391200043699 0.4076087999563009 0.5817482247909344 0.41825177520906565 0.6190061733438741 0.3809938266561258 0.6398848346797623 0.36011516532023763 0.634170197217384 0.36582980278261606 0.6042646072501028 0.3957353927498972 0.6461749773348853 0.3538250226651146 0.6380912593764053 0.36190874062359474 0.619606037400724 0.380393962599276 0.3876198399590098 0.6123801600409903 0.4302704506517445 0.5697295493482555 0.40828903332944416 0.5917109666705558 0.45441499404899566 0.5455850059510043 0.4512085564306408 0.5487914435693592 0.43899590957134627 0.5610040904286537 0.8554085622169318 0.14459143778306816 0.7934800778731186 0.20651992212688147 0.8508907990668122 0.14910920093318775 0.849913456622305 0.15008654337769503 0.8300800905132807 0.16991990948671926 0.8512665001057865 0.14873349989421342 0.8460878127603706 0.1539121872396294 0.8508907990668122 0.14910920093318777 0.8460878127603706 0.1539121872396294 0.8460878127603706 0.1539121872396294 0.8455540976988292 0.1544459023011708 0.8460878127603706 0.1539121872396294 0.7666704880358638 0.23332951196413615 0.659596691766438 0.3404033082335621 0.7384963671610094 0.2615036328389906 0.7662346740424842 0.2337653259575158 0.6883918730894785 0.3116081269105216 0.7034635530514135 0.29653644694858655 0.749074749952572 0.2509252500474281 0.7369118821574762 0.2630881178425239 0.7877657903042838 0.21223420969571613 0.7739268219050143 0.2260731780949858 0.74970443329084 0.25029556670915987 0.7898888486495986 0.21011115135040137 0.6075695320711554 0.3924304679288447 0.5906401763856893 0.40935982361431067 0.5474656555803324 0.45253434441966756 0.6192906955537398 0.38070930444626017 0.6048472402894386 0.3951527597105614 0.5707375718275028 0.429262428172497 0.6418314703565582 0.35816852964344187 0.5740417557808699 0.4259582442191301 0.5643502837880884 0.4356497162119116 0.6321635653159501 0.3678364346840498 0.5437324925952548 0.4562675074047452 0.5970126198251282 0.4029873801748718 0.4729852733725102 0.5270147266274898 0.461148151369613 0.538851848630387 0.440754234568955 0.559245765431045 0.46536186728948287 0.5346381327105172 0.5783400270277804 0.4216599729722195 0.468129150420309 0.531870849579691 0.5314775294489085 0.4685224705510914 0.4474706772063833 0.5525293227936167 0.4518997029702502 0.5481002970297498 0.5706107169385799 0.42938928306142005 0.6394991370858615 0.3605008629141386 0.46491511823438497 0.535084881765615 0.8759125918799164 0.12408740812008351 0.8663921571768769 0.13360784282312316 0.8361315131113843 0.16386848688861572 0.8706812468212304 0.12931875317876956 0.8864849522848299 0.11351504771517013 0.8099822090421877 0.19001779095781246 0.8461849010900282 0.15381509890997178 0.855499713487693 0.14450028651230695 0.8461849010900282 0.1538150989099718 0.8510788569135502 0.14892114308644977 0.8458460656866624 0.15415393431333754 0.8461849010900282 0.1538150989099718 0.7978080092289331 0.20219199077106692 0.7738483924027031 0.22615160759729694 0.7959148657239786 0.20408513427602135 0.8168234386473878 0.18317656135261218 0.7967993864276064 0.2032006135723936 0.7955749249654511 0.20442507503454893 0.6136048097880114 0.3863951902119886 0.7463832827876397 0.2536167172123604 0.731951824338857 0.26804817566114303 0.6476603546490323 0.3523396453509678 0.706156053057262 0.29384394694273797 0.6985222783824924 0.3014777216175075 0.6611300391127374 0.33886996088726257 0.6593767470263711 0.340623252973629 0.6478586284119123 0.35214137158808767 0.6660560737325334 0.3339439262674666 0.6723701875967478 0.3276298124032521 0.6299963038148163 0.37000369618518375 0.46018172504722604 0.539818274952774 0.5476940618568966 0.45230593814310327 0.4896439111033946 0.5103560888966053 0.45939623123282636 0.5406037687671736 0.4892876258088127 0.5107123741911873 0.48221406028630326 0.5177859397136967 0.4837528830283856 0.5162471169716145 0.4949264162880977 0.5050735837119024 0.462490042707481 0.537509957292519 0.5005084351616619 0.4994915648383382 0.5097231919658604 0.49027680803413964 0.48927532832756676 0.5107246716724333 0.3414727163234708 0.6585272836765292 0.39019490605228724 0.6098050939477127 0.35381990671948244 0.6461800932805175 0.4005912371715624 0.5994087628284376 0.45109128973063684 0.5489087102693632 0.36033384671651864 0.6396661532834813 </TABLE>
    </DEFINITION>
    <DEFINITION>
      <FOR>PA</FOR>
      <GIVEN>Age</GIVEN>
      <GIVEN>SD</GIVEN>
      <GIVEN>SES</GIVEN>
      <GIVEN>Sex</GIVEN>
      <TABLE>0.52475472900392 0.47524527099608 0.5428833611247182 0.45711663887528187 0.4275762499237799 0.5724237500762202 0.5888450198974459 0.4111549801025542 0.48952772930512267 0.5104722706948773 0.5148502943709241 0.48514970562907594 0.39494148883301716 0.6050585111669828 0.514621382352926 0.48537861764707396 0.3895219569261551 0.610478043073845 0.4611707359712718 0.5388292640287282 0.3365388442511984 0.6634611557488015 0.36223112883914843 0.6377688711608515 0.4829601735409794 0.5170398264590207 0.6208712483003067 0.3791287516996934 0.47186467846567254 0.5281353215343274 0.5548514443051717 0.44514855569482825 0.4243042267357392 0.5756957732642608 0.4904598253167623 0.5095401746832378 0.4867642953085396 0.5132357046914603 0.504877509671262 0.4951224903287381 0.5509366591502531 0.4490633408497469 0.5864399104276257 0.4135600895723743 0.5123184060741633 0.4876815939258366 0.5338882413831025 0.46611175861689746 0.4689808880654588 0.5310191119345413 0.5250666683930449 0.47493333160695517 0.46736172199290577 0.5326382780070942 0.4961165629440463 0.5038834370559537 0.3932048467341102 0.6067951532658898 0.42708982151425007 0.5729101784857499 0.5400859557922263 0.45991404420777376 0.5953372497315169 0.40466275026848314 0.517562867033224 0.482437132966776 0.580178621302485 0.41982137869751496 0.47167220469988713 0.5283277953001129 0.5411124462191382 0.4588875537808618 0.5316136949679329 0.4683863050320671 0.4883672365338986 0.5116327634661013 0.5814099536352235 0.4185900463647765 0.4909215268979634 0.5090784731020367 0.4895425095530092 0.5104574904469907 0.4642063716427872 0.5357936283572128 0.48432673299432966 0.5156732670056704 0.47915582679558893 0.520844173204411 0.484082074861898 0.515917925138102 0.45219873101039576 0.5478012689896042 0.39545847976387577 0.6045415202361243 0.3722270904401023 0.6277729095598976 0.5608774801333857 0.4391225198666143 0.5387364839157618 0.46126351608423816 0.518199623189682 0.4818003768103179 0.5124411105706901 0.4875588894293098 0.4489443558691412 0.5510556441308588 0.4474860874702923 0.5525139125297077 0.4924404765354908 0.5075595234645092 0.5333421639217106 0.4666578360782894 0.630909886737456 0.36909011326254404 0.49216955764420695 0.5078304423557931 0.4889701192653949 0.5110298807346051 0.5032560455909423 0.4967439544090577 0.4832028659868594 0.5167971340131408 0.5000886038005871 0.499911396199413 0.47304854760152454 0.5269514523984755 0.4365427612355735 0.5634572387644265 0.39326729363186946 0.6067327063681305 0.37898060718368537 0.6210193928163146 0.5372682543918167 0.46273174560818336 0.5791188731755542 0.42088112682444595 0.5144378069200715 0.48556219307992843 0.5156834264022535 0.4843165735977465 0.4646395234760034 0.5353604765239967 0.47305389266983194 0.5269461073301681 </TABLE>
    </DEFINITION>
    <DEFINITION>
      <FOR>SD</FOR>
      <GIVEN>Age</GIVEN>
      <GIVEN>Sex</GIVEN>
      <TABLE>0.001331380012290855 0.9378243072241871 0.060844312763522014 0.001994870089202092 0.9195077671933298 0.07849736271746814 0.0009012438799963757 0.9078785601984685 0.09122019592153499 0.0007641174650867939 0.8851073925386062 0.11412848999630712 0.0006542656715107195 0.8777964078660341 0.12154932646245506 0.0009825950501734944 0.8395866514460952 0.1594307535037313 0.0006827516015450657 0.8500227972771967 0.14929445112125836 0.0007211694676894005 0.7740699358322394 0.22520889470007122 </TABLE>
    </DEFINITION>
    <DEFINITION>
      <FOR>SES</FOR>
      <GIVEN>Age</GIVEN>
      <GIVEN>Sex</GIVEN>
      <TABLE>0.26503796782058126 0.6089244686976629 0.12603756348175568 0.22735128579977915 0.6062029422931826 0.16644577190703833 0.2481705331946618 0.617614883339708 0.13421458346563017 0.19489782166975733 0.6426536893986279 0.16244848893161482 0.25278338483352747 0.6151676910975457 0.13204892406892688 0.18827309073965026 0.6412176859778614 0.1705092232824883 0.24291245931773472 0.6313853008764554 0.12570223980580994 0.16270726223884868 0.6648549007315172 0.17243783702963408 </TABLE>
    </DEFINITION>
    <DEFINITION>
      <FOR>Sex</FOR>
      <TABLE>0.6951177915891886 0.3048822084108114 </TABLE>
    </DEFINITION>
    <DEFINITION>
      <FOR>Smoking</FOR>
      <GIVEN>Age</GIVEN>
      <GIVEN>PA</GIVEN>
      <GIVEN>Sex</GIVEN>
      <TABLE>0.44633040079006864 0.44094589219637603 0.11272370701355532 0.5296413787970639 0.3377480875556189 0.1326105336473172 0.557463069155995 0.3255151289969835 0.11702180184702154 0.5886502848867223 0.2712931658512864 0.14005654926199132 0.47171446200754624 0.3608027345556038 0.16748280343685 0.5544343368006083 0.2832389702912045 0.16232669290818738 0.5512563893703415 0.2558645662392625 0.19287904439039602 0.5790662614087398 0.2259419441096262 0.19499179448163406 0.3989591475824605 0.35901623812976924 0.24202461428777025 0.49618358420944797 0.327477342333487 0.17633907345706512 0.48374520576657587 0.24334484982520888 0.2729099444082153 0.5423854935034446 0.24202586080335906 0.21558864569319655 0.37681277029955884 0.3034064809428689 0.3197807487575724 0.5438909290145881 0.2699826804960523 0.18612639048935942 0.448682799694379 0.20376841964607367 0.3475487806595474 0.5693515181172701 0.18824400564253288 0.24240447624019706 </TABLE>
    </DEFINITION>
  </NETWORK>
</BIF>
